FANN_FLO_2.1
num_layers=3
learning_rate=0.700000
connection_rate=1.000000
network_type=0
learning_momentum=0.400000
training_algorithm=0
train_error_function=1
train_stop_function=0
cascade_output_change_fraction=0.010000
quickprop_decay=-0.000100
quickprop_mu=1.750000
rprop_increase_factor=1.200000
rprop_decrease_factor=0.500000
rprop_delta_min=0.000000
rprop_delta_max=50.000000
rprop_delta_zero=0.100000
cascade_output_stagnation_epochs=12
cascade_candidate_change_fraction=0.010000
cascade_candidate_stagnation_epochs=12
cascade_max_out_epochs=150
cascade_min_out_epochs=50
cascade_max_cand_epochs=150
cascade_min_cand_epochs=50
cascade_num_candidate_groups=2
bit_fail_limit=3.49999994039535520000e-001
cascade_candidate_limit=1.00000000000000000000e+003
cascade_weight_multiplier=4.00000005960464480000e-001
cascade_activation_functions_count=10
cascade_activation_functions=3 5 7 8 10 11 14 15 16 17 
cascade_activation_steepnesses_count=4
cascade_activation_steepnesses=2.50000000000000000000e-001 5.00000000000000000000e-001 7.50000000000000000000e-001 1.00000000000000000000e+000 
layer_sizes=97 97 37 
scale_included=0
neurons (num_inputs, activation_function, activation_steepness)=(0, 0, 0.00000000000000000000e+000) (0, 0, 0.00000000000000000000e+000) (0, 0, 0.00000000000000000000e+000) (0, 0, 0.00000000000000000000e+000) (0, 0, 0.00000000000000000000e+000) (0, 0, 0.00000000000000000000e+000) (0, 0, 0.00000000000000000000e+000) (0, 0, 0.00000000000000000000e+000) (0, 0, 0.00000000000000000000e+000) (0, 0, 0.00000000000000000000e+000) (0, 0, 0.00000000000000000000e+000) (0, 0, 0.00000000000000000000e+000) (0, 0, 0.00000000000000000000e+000) (0, 0, 0.00000000000000000000e+000) (0, 0, 0.00000000000000000000e+000) (0, 0, 0.00000000000000000000e+000) (0, 0, 0.00000000000000000000e+000) (0, 0, 0.00000000000000000000e+000) (0, 0, 0.00000000000000000000e+000) (0, 0, 0.00000000000000000000e+000) (0, 0, 0.00000000000000000000e+000) (0, 0, 0.00000000000000000000e+000) (0, 0, 0.00000000000000000000e+000) (0, 0, 0.00000000000000000000e+000) (0, 0, 0.00000000000000000000e+000) (0, 0, 0.00000000000000000000e+000) (0, 0, 0.00000000000000000000e+000) (0, 0, 0.00000000000000000000e+000) (0, 0, 0.00000000000000000000e+000) (0, 0, 0.00000000000000000000e+000) (0, 0, 0.00000000000000000000e+000) (0, 0, 0.00000000000000000000e+000) (0, 0, 0.00000000000000000000e+000) (0, 0, 0.00000000000000000000e+000) (0, 0, 0.00000000000000000000e+000) (0, 0, 0.00000000000000000000e+000) (0, 0, 0.00000000000000000000e+000) (0, 0, 0.00000000000000000000e+000) (0, 0, 0.00000000000000000000e+000) (0, 0, 0.00000000000000000000e+000) (0, 0, 0.00000000000000000000e+000) (0, 0, 0.00000000000000000000e+000) (0, 0, 0.00000000000000000000e+000) (0, 0, 0.00000000000000000000e+000) (0, 0, 0.00000000000000000000e+000) (0, 0, 0.00000000000000000000e+000) (0, 0, 0.00000000000000000000e+000) (0, 0, 0.00000000000000000000e+000) (0, 0, 0.00000000000000000000e+000) (0, 0, 0.00000000000000000000e+000) (0, 0, 0.00000000000000000000e+000) (0, 0, 0.00000000000000000000e+000) (0, 0, 0.00000000000000000000e+000) (0, 0, 0.00000000000000000000e+000) (0, 0, 0.00000000000000000000e+000) (0, 0, 0.00000000000000000000e+000) (0, 0, 0.00000000000000000000e+000) (0, 0, 0.00000000000000000000e+000) (0, 0, 0.00000000000000000000e+000) (0, 0, 0.00000000000000000000e+000) (0, 0, 0.00000000000000000000e+000) (0, 0, 0.00000000000000000000e+000) (0, 0, 0.00000000000000000000e+000) (0, 0, 0.00000000000000000000e+000) (0, 0, 0.00000000000000000000e+000) (0, 0, 0.00000000000000000000e+000) (0, 0, 0.00000000000000000000e+000) (0, 0, 0.00000000000000000000e+000) (0, 0, 0.00000000000000000000e+000) (0, 0, 0.00000000000000000000e+000) (0, 0, 0.00000000000000000000e+000) (0, 0, 0.00000000000000000000e+000) (0, 0, 0.00000000000000000000e+000) (0, 0, 0.00000000000000000000e+000) (0, 0, 0.00000000000000000000e+000) (0, 0, 0.00000000000000000000e+000) (0, 0, 0.00000000000000000000e+000) (0, 0, 0.00000000000000000000e+000) (0, 0, 0.00000000000000000000e+000) (0, 0, 0.00000000000000000000e+000) (0, 0, 0.00000000000000000000e+000) (0, 0, 0.00000000000000000000e+000) (0, 0, 0.00000000000000000000e+000) (0, 0, 0.00000000000000000000e+000) (0, 0, 0.00000000000000000000e+000) (0, 0, 0.00000000000000000000e+000) (0, 0, 0.00000000000000000000e+000) (0, 0, 0.00000000000000000000e+000) (0, 0, 0.00000000000000000000e+000) (0, 0, 0.00000000000000000000e+000) (0, 0, 0.00000000000000000000e+000) (0, 0, 0.00000000000000000000e+000) (0, 0, 0.00000000000000000000e+000) (0, 0, 0.00000000000000000000e+000) (0, 0, 0.00000000000000000000e+000) (0, 0, 0.00000000000000000000e+000) (0, 0, 0.00000000000000000000e+000) (97, 4, 5.00000000000000000000e-001) (97, 4, 5.00000000000000000000e-001) (97, 4, 5.00000000000000000000e-001) (97, 4, 5.00000000000000000000e-001) (97, 4, 5.00000000000000000000e-001) (97, 4, 5.00000000000000000000e-001) (97, 4, 5.00000000000000000000e-001) (97, 4, 5.00000000000000000000e-001) (97, 4, 5.00000000000000000000e-001) (97, 4, 5.00000000000000000000e-001) (97, 4, 5.00000000000000000000e-001) (97, 4, 5.00000000000000000000e-001) (97, 4, 5.00000000000000000000e-001) (97, 4, 5.00000000000000000000e-001) (97, 4, 5.00000000000000000000e-001) (97, 4, 5.00000000000000000000e-001) (97, 4, 5.00000000000000000000e-001) (97, 4, 5.00000000000000000000e-001) (97, 4, 5.00000000000000000000e-001) (97, 4, 5.00000000000000000000e-001) (97, 4, 5.00000000000000000000e-001) (97, 4, 5.00000000000000000000e-001) (97, 4, 5.00000000000000000000e-001) (97, 4, 5.00000000000000000000e-001) (97, 4, 5.00000000000000000000e-001) (97, 4, 5.00000000000000000000e-001) (97, 4, 5.00000000000000000000e-001) (97, 4, 5.00000000000000000000e-001) (97, 4, 5.00000000000000000000e-001) (97, 4, 5.00000000000000000000e-001) (97, 4, 5.00000000000000000000e-001) (97, 4, 5.00000000000000000000e-001) (97, 4, 5.00000000000000000000e-001) (97, 4, 5.00000000000000000000e-001) (97, 4, 5.00000000000000000000e-001) (97, 4, 5.00000000000000000000e-001) (97, 4, 5.00000000000000000000e-001) (97, 4, 5.00000000000000000000e-001) (97, 4, 5.00000000000000000000e-001) (97, 4, 5.00000000000000000000e-001) (97, 4, 5.00000000000000000000e-001) (97, 4, 5.00000000000000000000e-001) (97, 4, 5.00000000000000000000e-001) (97, 4, 5.00000000000000000000e-001) (97, 4, 5.00000000000000000000e-001) (97, 4, 5.00000000000000000000e-001) (97, 4, 5.00000000000000000000e-001) (97, 4, 5.00000000000000000000e-001) (97, 4, 5.00000000000000000000e-001) (97, 4, 5.00000000000000000000e-001) (97, 4, 5.00000000000000000000e-001) (97, 4, 5.00000000000000000000e-001) (97, 4, 5.00000000000000000000e-001) (97, 4, 5.00000000000000000000e-001) (97, 4, 5.00000000000000000000e-001) (97, 4, 5.00000000000000000000e-001) (97, 4, 5.00000000000000000000e-001) (97, 4, 5.00000000000000000000e-001) (97, 4, 5.00000000000000000000e-001) (97, 4, 5.00000000000000000000e-001) (97, 4, 5.00000000000000000000e-001) (97, 4, 5.00000000000000000000e-001) (97, 4, 5.00000000000000000000e-001) (97, 4, 5.00000000000000000000e-001) (97, 4, 5.00000000000000000000e-001) (97, 4, 5.00000000000000000000e-001) (97, 4, 5.00000000000000000000e-001) (97, 4, 5.00000000000000000000e-001) (97, 4, 5.00000000000000000000e-001) (97, 4, 5.00000000000000000000e-001) (97, 4, 5.00000000000000000000e-001) (97, 4, 5.00000000000000000000e-001) (97, 4, 5.00000000000000000000e-001) (97, 4, 5.00000000000000000000e-001) (97, 4, 5.00000000000000000000e-001) (97, 4, 5.00000000000000000000e-001) (97, 4, 5.00000000000000000000e-001) (97, 4, 5.00000000000000000000e-001) (97, 4, 5.00000000000000000000e-001) (97, 4, 5.00000000000000000000e-001) (97, 4, 5.00000000000000000000e-001) (97, 4, 5.00000000000000000000e-001) (97, 4, 5.00000000000000000000e-001) (97, 4, 5.00000000000000000000e-001) (97, 4, 5.00000000000000000000e-001) (97, 4, 5.00000000000000000000e-001) (97, 4, 5.00000000000000000000e-001) (97, 4, 5.00000000000000000000e-001) (97, 4, 5.00000000000000000000e-001) (97, 4, 5.00000000000000000000e-001) (97, 4, 5.00000000000000000000e-001) (97, 4, 5.00000000000000000000e-001) (97, 4, 5.00000000000000000000e-001) (97, 4, 5.00000000000000000000e-001) (97, 4, 5.00000000000000000000e-001) (97, 4, 5.00000000000000000000e-001) (0, 0, 0.00000000000000000000e+000) (97, 4, 5.00000000000000000000e-001) (97, 4, 5.00000000000000000000e-001) (97, 4, 5.00000000000000000000e-001) (97, 4, 5.00000000000000000000e-001) (97, 4, 5.00000000000000000000e-001) (97, 4, 5.00000000000000000000e-001) (97, 4, 5.00000000000000000000e-001) (97, 4, 5.00000000000000000000e-001) (97, 4, 5.00000000000000000000e-001) (97, 4, 5.00000000000000000000e-001) (97, 4, 5.00000000000000000000e-001) (97, 4, 5.00000000000000000000e-001) (97, 4, 5.00000000000000000000e-001) (97, 4, 5.00000000000000000000e-001) (97, 4, 5.00000000000000000000e-001) (97, 4, 5.00000000000000000000e-001) (97, 4, 5.00000000000000000000e-001) (97, 4, 5.00000000000000000000e-001) (97, 4, 5.00000000000000000000e-001) (97, 4, 5.00000000000000000000e-001) (97, 4, 5.00000000000000000000e-001) (97, 4, 5.00000000000000000000e-001) (97, 4, 5.00000000000000000000e-001) (97, 4, 5.00000000000000000000e-001) (97, 4, 5.00000000000000000000e-001) (97, 4, 5.00000000000000000000e-001) (97, 4, 5.00000000000000000000e-001) (97, 4, 5.00000000000000000000e-001) (97, 4, 5.00000000000000000000e-001) (97, 4, 5.00000000000000000000e-001) (97, 4, 5.00000000000000000000e-001) (97, 4, 5.00000000000000000000e-001) (97, 4, 5.00000000000000000000e-001) (97, 4, 5.00000000000000000000e-001) (97, 4, 5.00000000000000000000e-001) (97, 4, 5.00000000000000000000e-001) (0, 0, 0.00000000000000000000e+000) 
connections (connected_to_neuron, weight)=(0, 9.15303006768226620000e-002) (1, -1.50378942489624020000e-001) (2, -1.87724418938159940000e-002) (3, -4.55685615539550780000e-001) (4, -9.53339710831642150000e-002) (5, 8.79492759704589840000e-001) (6, 5.32384999096393590000e-002) (7, 1.38265537098050120000e-002) (8, 2.46899709105491640000e-001) (9, 1.07208840548992160000e-001) (10, -2.22948685288429260000e-001) (11, 9.62250772863626480000e-003) (12, 5.61356134712696080000e-002) (13, -7.93978050351142880000e-002) (14, 1.75175070762634280000e-001) (15, 1.57840609550476070000e-001) (16, -1.16537623107433320000e-001) (17, -2.29183986783027650000e-001) (18, -2.22725644707679750000e-001) (19, 1.00646071135997770000e-001) (20, -1.53136938810348510000e-001) (21, -2.32719071209430690000e-002) (22, -2.11633834987878800000e-002) (23, 3.50603982806205750000e-002) (24, -5.64168989658355710000e-002) (25, -7.19571709632873540000e-002) (26, 1.88105553388595580000e-001) (27, -1.02690234780311580000e-001) (28, 5.27320615947246550000e-002) (29, 1.38331666588783260000e-001) (30, 1.66424617171287540000e-001) (31, 3.53579148650169370000e-002) (32, -1.48094609379768370000e-001) (33, -1.83929592370986940000e-001) (34, -7.92576789855957030000e-001) (35, -7.63389468193054200000e-001) (36, -5.11240586638450620000e-002) (37, 2.91131198406219480000e-001) (38, 7.18609839677810670000e-002) (39, -9.36401635408401490000e-002) (40, -5.26955015957355500000e-002) (41, -2.62258321046829220000e-001) (42, 1.58317551016807560000e-001) (43, -8.88751670718193050000e-002) (44, -1.17950923740863800000e-001) (45, -7.08580240607261660000e-002) (46, -7.94762820005416870000e-002) (47, -1.49762138724327090000e-001) (48, -4.13631685078144070000e-002) (49, -2.83683925867080690000e-001) (50, -6.67916238307952880000e-002) (51, -4.32267040014266970000e-001) (52, -7.08520561456680300000e-002) (53, -2.00308308005332950000e-001) (54, -1.15604244172573090000e-001) (55, 1.36560779064893720000e-002) (56, -1.30001753568649290000e-001) (57, -1.85228213667869570000e-002) (58, 4.53223586082458500000e-002) (59, 2.93548665940761570000e-002) (60, -3.20405989885330200000e-001) (61, -6.04801848530769350000e-002) (62, -8.13351050019264220000e-002) (63, -7.53391012549400330000e-002) (64, -1.64673924446105960000e-001) (65, -9.08593311905860900000e-002) (66, -1.31152141839265820000e-002) (67, 5.32606132328510280000e-002) (68, -1.09208978712558750000e-001) (69, 1.35669901967048650000e-001) (70, -4.16635498404502870000e-002) (71, -1.51706323027610780000e-001) (72, -8.24303776025772090000e-002) (73, -1.94243580102920530000e-001) (74, 1.70045375823974610000e-001) (75, 1.01098410785198210000e-001) (76, -1.20973430573940280000e-001) (77, 1.31642937660217290000e-001) (78, -1.04571782052516940000e-001) (79, -1.59814283251762390000e-001) (80, -7.84385427832603450000e-002) (81, -6.81351244449615480000e-001) (82, -9.43695679306983950000e-002) (83, 1.08178675174713130000e-001) (84, -2.03922808170318600000e-001) (85, -6.25853314995765690000e-002) (86, -2.55639821290969850000e-001) (87, -7.84638822078704830000e-002) (88, -1.13198459148406980000e-001) (89, -6.68819546699523930000e-002) (90, -5.64191818237304690000e-001) (91, -1.70344859361648560000e-001) (92, -5.39578676223754880000e-001) (93, -9.93839427828788760000e-002) (94, -1.46670848131179810000e-001) (95, 1.30707472562789920000e-001) (96, -6.48996187373995780000e-003) (0, -2.91469752788543700000e-001) (1, -5.46990633010864260000e-001) (2, -2.22980678081512450000e-001) (3, -6.07679903507232670000e-001) (4, -1.76743590831756590000e+000) (5, 3.74165087938308720000e-001) (6, 1.39461830258369450000e-001) (7, 7.75935798883438110000e-002) (8, -2.82457113265991210000e-001) (9, -2.65061557292938230000e-002) (10, 2.82309800386428830000e-001) (11, 1.83707699179649350000e-001) (12, 5.91938793659210210000e-002) (13, 1.12394914031028750000e-001) (14, -6.46857023239135740000e-001) (15, 6.15895152091979980000e-001) (16, -3.37123900651931760000e-001) (17, 1.80268079042434690000e-001) (18, 5.42995691299438480000e-001) (19, 4.73825305700302120000e-001) (20, 4.33418393135070800000e-001) (21, 1.55085408687591550000e+000) (22, 3.62602025270462040000e-001) (23, 2.37200185656547550000e-001) (24, 1.60882666707038880000e-001) (25, 4.82032522559165950000e-002) (26, 3.25525432825088500000e-001) (27, -4.10895973443984990000e-001) (28, -2.87892848253250120000e-001) (29, 4.21637088060379030000e-001) (30, 1.89242869615554810000e-001) (31, -3.62135022878646850000e-001) (32, -6.99957385659217830000e-002) (33, -1.11244872212409970000e-001) (34, -1.39235556125640870000e-001) (35, -1.49099797010421750000e-001) (36, 3.39484214782714840000e-002) (37, -4.00017559528350830000e-001) (38, 1.03530831634998320000e-001) (39, 8.53709951043128970000e-002) (40, 7.26170361042022710000e-001) (41, 6.70890510082244870000e-002) (42, -2.75038272142410280000e-001) (43, 9.03424471616745000000e-002) (44, -7.17511832714080810000e-001) (45, -1.32248306274414060000e+000) (46, 3.95037353038787840000e-001) (47, 6.43169283866882320000e-002) (48, 4.21428233385086060000e-001) (49, -2.95513302087783810000e-001) (50, -4.07626450061798100000e-001) (51, -6.53868317604064940000e-001) (52, -6.88772559165954590000e-001) (53, -1.01737487316131590000e+000) (54, 3.46750915050506590000e-001) (55, -5.21867200732231140000e-002) (56, 7.98925638198852540000e-001) (57, 4.86736565828323360000e-001) (58, 2.04422101378440860000e-001) (59, 4.54529851675033570000e-001) (60, -1.17483697831630710000e-001) (61, -1.33154380321502690000e+000) (62, -4.24399971961975100000e-001) (63, -3.88421356678009030000e-001) (64, 7.88738965988159180000e-001) (65, 2.39521905779838560000e-001) (66, 3.82465153932571410000e-001) (67, 1.08111001551151280000e-001) (68, 2.61514037847518920000e-001) (69, 2.02390581369400020000e-001) (70, 5.64654916524887080000e-002) (71, -5.24102568626403810000e-001) (72, -8.87190848588943480000e-002) (73, -9.61165502667427060000e-002) (74, -3.93768459558486940000e-001) (75, 3.26746046543121340000e-001) (76, -8.70888829231262210000e-001) (77, 8.30514207482337950000e-002) (78, -3.28078091144561770000e-001) (79, -5.24142980575561520000e-001) (80, -6.36063694953918460000e-001) (81, -3.54834526777267460000e-001) (82, 1.87020933628082280000e+000) (83, -1.29220569133758540000e+000) (84, -1.63031324744224550000e-001) (85, -7.76020944118499760000e-001) (86, 8.61921072006225590000e-001) (87, 1.89952373504638670000e-001) (88, -4.58460718393325810000e-001) (89, -1.48880469799041750000e+000) (90, 6.03617168962955470000e-002) (91, -1.64896219968795780000e-001) (92, -6.89761489629745480000e-002) (93, -6.24919474124908450000e-001) (94, 3.28667819499969480000e-001) (95, 3.68478074669837950000e-002) (96, -3.38109135627746580000e-001) (0, 6.18957281112670900000e-002) (1, -4.48910556733608250000e-002) (2, -1.06371585279703140000e-002) (3, 1.86852738261222840000e-001) (4, -1.91929608583450320000e-001) (5, -6.84516906738281250000e-001) (6, -1.03607013821601870000e-001) (7, 4.96281981468200680000e-001) (8, 3.81422936916351320000e-001) (9, 1.53305605053901670000e-001) (10, -1.35875657200813290000e-001) (11, 1.21634788811206820000e-001) (12, -2.47460126876831050000e-001) (13, -2.80049711465835570000e-001) (14, 3.90217155218124390000e-001) (15, 6.49602591991424560000e-001) (16, 4.37308400869369510000e-002) (17, -2.12875902652740480000e-001) (18, -5.86110293865203860000e-001) (19, -7.41301834583282470000e-001) (20, -3.71250987052917480000e-001) (21, -1.05080017820000650000e-002) (22, 2.05611854791641240000e-001) (23, 5.96986711025238040000e-001) (24, -2.65910327434539790000e-001) (25, -7.40414187312126160000e-002) (26, -4.50426995754241940000e-001) (27, -6.77625060081481930000e-001) (28, 7.02777951955795290000e-002) (29, -4.02902299538254740000e-003) (30, -2.71496009081602100000e-002) (31, 4.68132793903350830000e-001) (32, -3.22008997201919560000e-001) (33, -3.36224809288978580000e-002) (34, -3.03779959678649900000e-001) (35, 1.38530299067497250000e-001) (36, -5.54462037980556490000e-002) (37, -1.55580252408981320000e-001) (38, 5.10099172592163090000e-001) (39, 3.88100683689117430000e-001) (40, -1.40816703438758850000e-001) (41, 6.05642125010490420000e-002) (42, -6.20975829660892490000e-002) (43, 4.52159643173217770000e-001) (44, -3.24406892061233520000e-001) (45, -3.59942555427551270000e-001) (46, -1.78082972764968870000e-001) (47, 1.73535451292991640000e-001) (48, 6.71304157003760340000e-003) (49, -1.64075776934623720000e-001) (50, -7.44381621479988100000e-002) (51, -3.83750088512897490000e-002) (52, -1.35561376810073850000e-001) (53, -7.27512121200561520000e-001) (54, -4.32275503873825070000e-001) (55, 1.99805289506912230000e-001) (56, -1.00418984889984130000e+000) (57, 1.84199035167694090000e-001) (58, 8.16123858094215390000e-002) (59, 2.13041424751281740000e-001) (60, -1.42681300640106200000e-001) (61, -3.69426608085632320000e-001) (62, -3.04707027971744540000e-002) (63, 4.51257914304733280000e-001) (64, -9.48983132839202880000e-001) (65, 4.65144515037536620000e-001) (66, 2.01292335987091060000e-001) (67, 2.03012034296989440000e-001) (68, -1.71272233128547670000e-001) (69, 3.81664812564849850000e-001) (70, 2.05380365252494810000e-001) (71, 4.76386040449142460000e-001) (72, 7.12307170033454900000e-002) (73, 3.67945224046707150000e-001) (74, 3.95535856485366820000e-001) (75, -3.67316752672195430000e-001) (76, 2.97594368457794190000e-001) (77, 5.40348589420318600000e-001) (78, 1.78879901766777040000e-001) (79, 4.77733850479125980000e-001) (80, 1.42841473221778870000e-001) (81, 6.61468267440795900000e-001) (82, -3.23184609413146970000e-001) (83, -9.80432152748107910000e-001) (84, -4.56531465053558350000e-001) (85, -5.69097042083740230000e-001) (86, 4.86950069665908810000e-001) (87, 2.73631095886230470000e-001) (88, 7.48483300209045410000e-001) (89, 5.39937019348144530000e-001) (90, -3.31869304180145260000e-001) (91, -5.54535627365112300000e-001) (92, -5.76630771160125730000e-001) (93, -6.07483625411987300000e-001) (94, 4.87313181161880490000e-001) (95, 7.72973418235778810000e-001) (96, -4.95134055614471440000e-001) (0, -7.93817415833473210000e-002) (1, -7.00057893991470340000e-002) (2, -4.99663166701793670000e-002) (3, -1.62670984864234920000e-001) (4, 6.87701165676116940000e-001) (5, 3.83020192384719850000e-002) (6, -5.08389770984649660000e-001) (7, -3.90025265514850620000e-002) (8, -2.87785857915878300000e-001) (9, 2.01955154538154600000e-001) (10, -3.25245112180709840000e-001) (11, -1.62693157792091370000e-001) (12, 1.76418900489807130000e-001) (13, 1.19449108839035030000e-001) (14, 3.87088656425476070000e-001) (15, -2.95214653015136720000e-001) (16, 3.00107777118682860000e-001) (17, -3.09016793966293330000e-001) (18, 3.67051124572753910000e-001) (19, -9.88371521234512330000e-002) (20, -3.03350955247879030000e-001) (21, -7.65167891979217530000e-001) (22, -6.01727552711963650000e-002) (23, -4.50085431337356570000e-001) (24, 3.61267656087875370000e-001) (25, -2.32843905687332150000e-001) (26, 5.11622838675975800000e-002) (27, 1.50478839874267580000e-001) (28, 6.61714002490043640000e-002) (29, -9.49952155351638790000e-002) (30, 3.48523795604705810000e-001) (31, -3.64507377147674560000e-001) (32, -7.88276255130767820000e-001) (33, -2.62791365385055540000e-001) (34, -1.15805542469024660000e+000) (35, -6.67911648750305180000e-001) (36, -4.69641499221324920000e-002) (37, -1.03147439658641820000e-001) (38, 2.87377178668975830000e-001) (39, -2.22479745745658870000e-001) (40, -7.96671092510223390000e-001) (41, -1.16850145161151890000e-001) (42, -6.64239048957824710000e-001) (43, -5.29404580593109130000e-001) (44, -6.72102153301239010000e-001) (45, 1.45288392901420590000e-001) (46, 7.41800248622894290000e-001) (47, -1.30251243710517880000e-001) (48, -5.04185497760772710000e-001) (49, -2.43850916624069210000e-001) (50, -4.65085804462432860000e-001) (51, -2.34208136796951290000e-001) (52, -1.19281522929668430000e-001) (53, 4.09140169620513920000e-001) (54, -3.36713463068008420000e-001) (55, -4.75217066705226900000e-002) (56, -2.02478855848312380000e-001) (57, -2.98305124044418330000e-001) (58, -2.67332822084426880000e-001) (59, -5.03590285778045650000e-001) (60, -1.51918411254882810000e-001) (61, -1.27668157219886780000e-001) (62, 4.03079450130462650000e-001) (63, -2.16977402567863460000e-001) (64, -5.08011341094970700000e-001) (65, -1.12695008516311650000e-001) (66, -1.84153839945793150000e-001) (67, -6.37621939182281490000e-001) (68, -3.34736108779907230000e-001) (69, -4.82021600008010860000e-001) (70, 6.75670683383941650000e-001) (71, -1.50650039315223690000e-001) (72, 2.30296894907951350000e-001) (73, -1.81769117712974550000e-001) (74, -2.87939757108688350000e-001) (75, -1.99100598692893980000e-001) (76, -2.12953314185142520000e-001) (77, -3.41738671064376830000e-001) (78, 6.18316054344177250000e-001) (79, -1.92981779575347900000e-001) (80, 2.88759946823120120000e-001) (81, -2.45422035455703740000e-001) (82, -1.50445342063903810000e+000) (83, 8.68526194244623180000e-003) (84, -4.78203624486923220000e-001) (85, 3.01318883895874020000e-001) (86, -1.85177922248840330000e-001) (87, -6.44209682941436770000e-002) (88, 5.58048821985721590000e-002) (89, 3.73001277446746830000e-001) (90, -2.07075431942939760000e-001) (91, -2.67375707626342770000e-001) (92, -4.43092972040176390000e-001) (93, 3.84699255228042600000e-002) (94, -3.05469512939453130000e-001) (95, -3.71985018253326420000e-001) (96, -1.37833803892135620000e-001) (0, -2.72683858871459960000e-001) (1, -4.88784343004226680000e-001) (2, -2.47656360268592830000e-001) (3, -9.75991487503051760000e-001) (4, -1.43352508544921880000e+000) (5, 1.06233179569244380000e+000) (6, -1.30782887339591980000e-001) (7, 1.53970733284950260000e-001) (8, -2.06181362271308900000e-001) (9, 6.29428386688232420000e-001) (10, 2.29989543557167050000e-001) (11, 1.56024500727653500000e-001) (12, -2.25287020206451420000e-001) (13, -4.05319571495056150000e-001) (14, -3.27229529619216920000e-001) (15, 2.46831223368644710000e-001) (16, -2.13071390986442570000e-001) (17, -1.90362650901079180000e-002) (18, 2.71361827850341800000e-001) (19, 1.09754776954650880000e+000) (20, 7.67812550067901610000e-001) (21, 1.14563155174255370000e+000) (22, 4.24669563770294190000e-001) (23, 3.29205930233001710000e-001) (24, 3.59496802091598510000e-001) (25, -2.19797909259796140000e-001) (26, 8.49216133356094360000e-002) (27, -7.11130723357200620000e-002) (28, -4.34263348579406740000e-001) (29, 5.50095379352569580000e-001) (30, 1.84915184974670410000e-001) (31, 3.53338062763214110000e-001) (32, 1.72287449240684510000e-001) (33, -3.33023101091384890000e-001) (34, 2.49072432518005370000e-001) (35, 2.20161646604537960000e-001) (36, -1.18155412375926970000e-001) (37, -1.13935448229312900000e-001) (38, -9.43862181156873700000e-003) (39, 5.46126961708068850000e-001) (40, 8.21192502975463870000e-001) (41, -6.62119984626770020000e-002) (42, -3.55516552925109860000e-001) (43, 2.39693805575370790000e-001) (44, 1.06889260932803150000e-002) (45, -9.61328804492950440000e-001) (46, -6.23534284532070160000e-002) (47, 5.60179054737091060000e-001) (48, 5.68452179431915280000e-001) (49, -2.96269506216049190000e-001) (50, -4.39303189516067500000e-001) (51, -9.51764404773712160000e-001) (52, -2.80006736516952510000e-001) (53, -8.34060490131378170000e-001) (54, 2.19275161623954770000e-001) (55, 2.86777138710021970000e-001) (56, 1.27147042751312260000e+000) (57, 3.15552562475204470000e-001) (58, -2.21321702003479000000e-001) (59, 5.31921029090881350000e-001) (60, -1.46229818463325500000e-001) (61, -1.14765000343322750000e+000) (62, -2.28593870997428890000e-001) (63, 6.23254990205168720000e-003) (64, 1.03413414955139160000e+000) (65, 1.58114191144704820000e-002) (66, -8.06931033730506900000e-002) (67, 5.38348615169525150000e-001) (68, 6.41624271869659420000e-001) (69, -4.68517482280731200000e-001) (70, -8.14309716224670410000e-002) (71, 9.27010402083396910000e-002) (72, 2.04227000474929810000e-001) (73, -2.29798946529626850000e-002) (74, 1.27399131655693050000e-001) (75, 1.28822255134582520000e+000) (76, -5.21189212799072270000e-001) (77, -8.26112031936645510000e-001) (78, 4.84083831310272220000e-001) (79, -7.75529956445097920000e-003) (80, -2.55501508712768550000e-001) (81, -2.25535035133361820000e+000) (82, 1.10686087608337400000e+000) (83, 3.12493473291397090000e-001) (84, 5.38066737353801730000e-002) (85, -2.16018974781036380000e-001) (86, 2.69354522228240970000e-001) (87, 8.63528251647949220000e-002) (88, -7.68689930438995360000e-001) (89, -1.16918206214904790000e+000) (90, -1.41373410820961000000e-001) (91, 2.73563191294670100000e-002) (92, -5.46129271388053890000e-002) (93, -6.97934269905090330000e-001) (94, -3.22489649057388310000e-001) (95, -5.41284680366516110000e-001) (96, -5.17649173736572270000e-001) (0, -1.45389512181282040000e-001) (1, -3.19139331579208370000e-001) (2, -2.46136441826820370000e-001) (3, -1.98330536484718320000e-001) (4, 1.80970406532287600000e+000) (5, -6.63159906864166260000e-001) (6, -3.47100406885147090000e-001) (7, -1.53097689151763920000e-001) (8, -4.15241539478302000000e-001) (9, -1.33833420276641850000e+000) (10, -3.12143594026565550000e-001) (11, 4.69811111688613890000e-002) (12, 2.97496795654296880000e-001) (13, -1.80076882243156430000e-001) (14, -6.52310729026794430000e-001) (15, -3.70971977710723880000e-001) (16, 5.74579715728759770000e-001) (17, 1.44904211163520810000e-001) (18, 1.30658075213432310000e-001) (19, -1.14074900746345520000e-001) (20, -2.98853546380996700000e-001) (21, -7.54651188850402830000e-001) (22, -4.51092541217803960000e-001) (23, -4.42216366529464720000e-001) (24, -3.94639581441879270000e-001) (25, -8.74144375324249270000e-001) (26, -7.08237648010253910000e-001) (27, 2.40012407302856450000e-002) (28, 1.36718377470970150000e-001) (29, -5.49864053726196290000e-001) (30, -2.24034011363983150000e-001) (31, -4.01444196701049800000e-001) (32, 6.01552844047546390000e-001) (33, -6.33667707443237300000e-001) (34, 2.70522803068161010000e-001) (35, 8.72584283351898190000e-001) (36, 1.04314550757408140000e-001) (37, -4.81841206550598140000e-001) (38, 2.50518649816513060000e-001) (39, -3.34568649530410770000e-001) (40, -2.38430663943290710000e-001) (41, -5.18087148666381840000e-001) (42, 3.49282287061214450000e-002) (43, 2.50229179859161380000e-001) (44, -5.94414234161376950000e-001) (45, 1.06290087103843690000e-001) (46, 5.25080442428588870000e-001) (47, -2.49988153576850890000e-001) (48, -2.25718021392822270000e-001) (49, -5.10476291179656980000e-001) (50, 9.80865303426980970000e-003) (51, 3.15103307366371150000e-002) (52, -2.93388009071350100000e-001) (53, 5.61071574687957760000e-001) (54, -4.52752649784088130000e-001) (55, -4.08579856157302860000e-001) (56, -2.68528610467910770000e-001) (57, -5.69889664649963380000e-001) (58, -1.39799276366829870000e-002) (59, -1.61794424057006840000e-001) (60, -1.62106096744537350000e-001) (61, -1.81300178170204160000e-001) (62, -1.91689252853393550000e-001) (63, 1.83061927556991580000e-001) (64, -2.22480177879333500000e-001) (65, -3.62534523010253910000e-001) (66, -1.42647460103034970000e-001) (67, -2.87116505205631260000e-002) (68, -8.90530586242675780000e-001) (69, -4.21651929616928100000e-001) (70, -1.79521158337593080000e-001) (71, 4.03127782046794890000e-002) (72, -1.62530839443206790000e-001) (73, -3.00019890069961550000e-001) (74, 6.34388387203216550000e-001) (75, 1.11840903759002690000e+000) (76, 1.52213859558105470000e+000) (77, -1.20888337492942810000e-001) (78, -1.77226625382900240000e-002) (79, 1.35380685329437260000e-001) (80, -5.50315962755121290000e-005) (81, 2.75268461555242540000e-002) (82, 3.66509035229682920000e-002) (83, 9.78703856468200680000e-001) (84, 4.29922521114349370000e-001) (85, -4.55330610275268550000e-001) (86, -3.42473387718200680000e-001) (87, 1.34436205029487610000e-001) (88, 9.99750375747680660000e-001) (89, 1.03677928447723390000e+000) (90, -2.66345828771591190000e-001) (91, -4.56322096288204190000e-002) (92, 4.58904981613159180000e-001) (93, -1.02590434253215790000e-001) (94, 3.94250810146331790000e-001) (95, -1.58691003918647770000e-001) (96, -1.74707904458045960000e-001) (0, -7.35117867588996890000e-002) (1, -3.02058428525924680000e-001) (2, -1.77211388945579530000e-001) (3, -3.84343296289443970000e-001) (4, -3.78677427768707280000e-001) (5, 1.60165831446647640000e-001) (6, -2.31795832514762880000e-001) (7, -2.56823971867561340000e-002) (8, -1.15181915462017060000e-001) (9, -8.59940797090530400000e-002) (10, 2.19516456127166750000e-001) (11, 2.05921754240989690000e-001) (12, -1.32655814290046690000e-001) (13, -3.64697389304637910000e-002) (14, -5.44519066810607910000e-001) (15, -9.91171002388000490000e-002) (16, 4.48693931102752690000e-002) (17, 5.05594611167907710000e-002) (18, 4.65910077095031740000e-001) (19, 1.45970731973648070000e-001) (20, 1.01699903607368470000e-001) (21, 5.26340365409851070000e-001) (22, -1.02278731763362880000e-001) (23, -1.42094239592552190000e-001) (24, 1.61653295159339900000e-001) (25, 2.13680595159530640000e-001) (26, 1.99726402759552000000e-001) (27, -1.37830704450607300000e-001) (28, -4.82364207506179810000e-001) (29, 1.84890702366828920000e-001) (30, 1.58710718154907230000e-001) (31, -3.74812223017215730000e-002) (32, 6.95469137281179430000e-003) (33, 4.10250052809715270000e-002) (34, -3.57989296317100520000e-002) (35, -5.17636716365814210000e-001) (36, -1.44118696451187130000e-001) (37, 2.44986087083816530000e-001) (38, 2.87311047315597530000e-001) (39, 6.63428306579589840000e-002) (40, 2.05405727028846740000e-001) (41, -6.50264769792556760000e-002) (42, -1.57145231962203980000e-001) (43, -6.59584626555442810000e-002) (44, 1.95367678999900820000e-001) (45, -1.49562666192650790000e-002) (46, -2.72454004734754560000e-002) (47, 7.40679278969764710000e-002) (48, 2.21231341361999510000e-001) (49, 5.12901023030281070000e-002) (50, -1.76730483770370480000e-001) (51, -1.45474448800086980000e-001) (52, -1.85197696089744570000e-001) (53, -1.54811024665832520000e-001) (54, 1.45828127861022950000e-001) (55, -1.38757392764091490000e-001) (56, 1.20792217552661900000e-001) (57, 4.23501618206501010000e-002) (58, -1.25497251749038700000e-001) (59, 1.28379687666893010000e-001) (60, -3.60798602923750880000e-003) (61, -2.11349815130233760000e-001) (62, -1.82114437222480770000e-001) (63, -3.31649541854858400000e-001) (64, 1.04714874178171160000e-002) (65, -2.90370099246501920000e-002) (66, -9.94298513978719710000e-003) (67, -2.72946208715438840000e-001) (68, -3.82096096873283390000e-002) (69, -1.17618680000305180000e-001) (70, 1.49733111262321470000e-001) (71, -2.86488950252532960000e-001) (72, 3.61812412738800050000e-002) (73, 2.12943598628044130000e-001) (74, -2.19526559114456180000e-001) (75, -5.38171082735061650000e-002) (76, -5.55835723876953130000e-001) (77, -1.32187813520431520000e-001) (78, -1.00345566868782040000e-001) (79, -1.31450846791267400000e-001) (80, -1.19848713278770450000e-001) (81, -2.08694756031036380000e-001) (82, 3.85283976793289180000e-001) (83, -4.66218918561935420000e-001) (84, 4.30866442620754240000e-002) (85, -1.94753825664520260000e-001) (86, -2.80520319938659670000e-002) (87, -2.57837057113647460000e-001) (88, -1.62957578897476200000e-001) (89, -4.39248174428939820000e-001) (90, -1.13515608012676240000e-001) (91, -4.36164401471614840000e-002) (92, -1.24498061835765840000e-001) (93, -1.81388825178146360000e-001) (94, -1.73000320792198180000e-001) (95, -1.85354679822921750000e-001) (96, -4.01043713092803960000e-001) (0, -1.92970857024192810000e-001) (1, -2.35199898481369020000e-001) (2, -2.53374606370925900000e-001) (3, -3.58637034893035890000e-001) (4, -2.70819067955017090000e+000) (5, -2.44674012064933780000e-001) (6, 2.67216414213180540000e-001) (7, 1.36721819639205930000e-001) (8, -3.73658686876297000000e-001) (9, -3.36853623390197750000e-001) (10, -6.04116737842559810000e-001) (11, -1.00728356838226320000e+000) (12, -1.46888995170593260000e+000) (13, -8.23425710201263430000e-001) (14, -9.73006784915924070000e-001) (15, -6.61548972129821780000e-002) (16, -4.98633921146392820000e-001) (17, -2.41292670369148250000e-001) (18, -1.32791474461555480000e-001) (19, 6.34719073772430420000e-001) (20, 1.94777131080627440000e+000) (21, 2.24356126785278320000e+000) (22, 2.99284726381301880000e-001) (23, -2.63267904520034790000e-001) (24, -3.18824917078018190000e-001) (25, -3.50359350442886350000e-001) (26, 4.00494188070297240000e-001) (27, 6.48226261138916020000e-001) (28, 1.96247547864913940000e-001) (29, 9.86093938350677490000e-001) (30, -2.51209735870361330000e-001) (31, 1.12840853631496430000e-001) (32, -1.62593610584735870000e-002) (33, -3.83460283279418950000e-001) (34, -8.89338850975036620000e-001) (35, 2.40112140774726870000e-001) (36, 6.29509752616286280000e-003) (37, -6.87094151973724370000e-001) (38, -3.41383844614028930000e-001) (39, 1.24279246665537360000e-003) (40, 9.66893076896667480000e-001) (41, -2.41472516208887100000e-002) (42, -4.19664591550827030000e-001) (43, -1.39621004462242130000e-001) (44, -9.63218927383422850000e-001) (45, -1.20176458358764650000e+000) (46, 6.34465575218200680000e-001) (47, -6.81077092885971070000e-002) (48, 1.39351117610931400000e+000) (49, 6.89414620399475100000e-001) (50, -6.76832973957061770000e-001) (51, -8.60890507698059080000e-001) (52, -1.14446616172790530000e+000) (53, -1.06546187400817870000e+000) (54, 3.23514640331268310000e-001) (55, -1.46516069769859310000e-001) (56, 1.43727838993072510000e+000) (57, 4.34065401554107670000e-001) (58, 9.96444225311279300000e-002) (59, 6.74823820590972900000e-001) (60, 2.55740862339735030000e-002) (61, 1.46080330014228820000e-001) (62, 4.02402460575103760000e-001) (63, 2.74580448865890500000e-001) (64, 1.03954088687896730000e+000) (65, 2.70223859697580340000e-002) (66, 7.20530152320861820000e-001) (67, 1.01417946815490720000e+000) (68, 1.42635488510131840000e+000) (69, 7.23511993885040280000e-001) (70, -1.69334381818771360000e-001) (71, 1.29810526967048650000e-001) (72, 8.27249765396118160000e-001) (73, 7.41767823696136470000e-001) (74, -6.94164037704467770000e-001) (75, 4.56383675336837770000e-001) (76, -2.12809967994689940000e+000) (77, 8.16377043724060060000e-001) (78, -4.02568936347961430000e-001) (79, 5.71294017136096950000e-002) (80, -6.76233097910881040000e-002) (81, -4.32137787342071530000e-001) (82, 1.90144205093383790000e+000) (83, -1.83937358856201170000e+000) (84, -3.52462142705917360000e-001) (85, -2.16904297471046450000e-001) (86, 7.12704718112945560000e-001) (87, -2.92378157377243040000e-001) (88, -3.86115670204162600000e-001) (89, 1.04460164904594420000e-001) (90, 1.53857275843620300000e-001) (91, 1.85698315501213070000e-001) (92, -3.03809076547622680000e-001) (93, 1.12158372998237610000e-001) (94, 2.09237381815910340000e-001) (95, -3.12694907188415530000e-001) (96, -7.21126019954681400000e-001) (0, -6.12200051546096800000e-002) (1, 1.44231274724006650000e-001) (2, -1.82156801223754880000e-001) (3, -4.43810373544692990000e-001) (4, -6.77161574363708500000e-001) (5, 1.71030855178833010000e+000) (6, 3.93415465950965880000e-002) (7, 4.31256622076034550000e-001) (8, 5.19670724868774410000e-001) (9, 7.36602842807769780000e-001) (10, 2.14936986565589900000e-001) (11, 3.05012553930282590000e-001) (12, 4.76904679089784620000e-005) (13, -2.15749278664588930000e-001) (14, 5.39126694202423100000e-001) (15, 6.83663368225097660000e-001) (16, -1.46872282028198240000e-001) (17, -6.62968039512634280000e-001) (18, -2.82266527414321900000e-001) (19, -1.22367620468139650000e-001) (20, -3.18835794925689700000e-001) (21, -3.31491649150848390000e-001) (22, 2.65407085418701170000e-001) (23, 5.09109497070312500000e-001) (24, -2.16822624206542970000e-002) (25, -1.74638450145721440000e-001) (26, 4.17959131300449370000e-002) (27, -1.55395030975341800000e-001) (28, -3.09589654207229610000e-001) (29, -7.25036999210715290000e-003) (30, 5.16750454902648930000e-001) (31, 2.39154547452926640000e-001) (32, -3.81759703159332280000e-002) (33, -2.79753327369689940000e-001) (34, -3.10388505458831790000e-001) (35, -3.48659753799438480000e-001) (36, -9.10861194133758540000e-002) (37, 5.35621702671051030000e-001) (38, 3.03326129913330080000e-001) (39, -2.64302790164947510000e-002) (40, 1.70008279383182530000e-002) (41, -2.03685775399208070000e-001) (42, -8.78662690520286560000e-002) (43, 1.20350480079650880000e-001) (44, 4.88368719816207890000e-001) (45, -2.77697434648871420000e-003) (46, -5.82269608974456790000e-001) (47, -1.26902565360069270000e-001) (48, -1.30458250641822810000e-001) (49, -2.47782990336418150000e-001) (50, -2.43377849459648130000e-001) (51, -8.61980259418487550000e-001) (52, 4.80211764574050900000e-001) (53, -5.47785699367523190000e-001) (54, -4.39169913530349730000e-001) (55, -1.33237972855567930000e-001) (56, -1.10234573483467100000e-001) (57, -2.29413792490959170000e-001) (58, -2.00306996703147890000e-001) (59, 4.51847344636917110000e-001) (60, -7.24891960620880130000e-001) (61, -2.72765129804611210000e-001) (62, -2.05589309334754940000e-001) (63, -6.60959258675575260000e-002) (64, -1.35640159249305730000e-001) (65, -2.86767870187759400000e-001) (66, -8.53323638439178470000e-001) (67, 4.46041762828826900000e-001) (68, -1.12187571823596950000e-001) (69, -1.94800511002540590000e-001) (70, -1.85678005218505860000e-001) (71, -1.54890462756156920000e-001) (72, -5.48046901822090150000e-002) (73, -3.67671847343444820000e-001) (74, 1.91943451762199400000e-001) (75, -9.55544412136077880000e-001) (76, -4.81036864221096040000e-002) (77, -2.03368589282035830000e-001) (78, -2.16098572127521040000e-003) (79, -2.69155383110046390000e-001) (80, -1.55852869153022770000e-001) (81, -1.07482254505157470000e+000) (82, 5.81356175243854520000e-002) (83, 4.02517855167388920000e-001) (84, -1.68278932571411130000e-001) (85, -3.91200691461563110000e-001) (86, -3.90490293502807620000e-001) (87, -3.66001337766647340000e-001) (88, -1.72222912311553960000e-001) (89, 5.93419447541236880000e-002) (90, -1.02299821376800540000e+000) (91, -2.49055158346891400000e-002) (92, -1.33110806345939640000e-001) (93, -4.31911855936050420000e-001) (94, -2.87873148918151860000e-001) (95, 5.14577865600585940000e-001) (96, -7.59117901325225830000e-002) (0, -1.22950132936239240000e-002) (1, -8.18197011947631840000e-001) (2, -6.95730745792388920000e-001) (3, 1.12883543968200680000e+000) (4, -9.70381796360015870000e-001) (5, -2.84623324871063230000e-001) (6, -4.39066439867019650000e-001) (7, 2.81500071287155150000e-001) (8, -2.88437843322753910000e-001) (9, -1.58287441730499270000e+000) (10, -4.22352910041809080000e-001) (11, -1.31854251027107240000e-001) (12, -5.47103822231292720000e-001) (13, -2.73368775844573970000e-001) (14, -6.94556474685668950000e-001) (15, 5.61569571495056150000e-001) (16, -4.30266767740249630000e-001) (17, 2.34838321805000310000e-001) (18, 6.11262768507003780000e-002) (19, 4.65712726116180420000e-001) (20, 6.04942619800567630000e-001) (21, 2.01057267189025880000e+000) (22, -3.34706276655197140000e-001) (23, -5.15971302986145020000e-001) (24, -7.34262824058532710000e-001) (25, 5.79401135444641110000e-001) (26, 3.93585979938507080000e-001) (27, 7.74065479636192320000e-002) (28, -3.55419725179672240000e-001) (29, 7.28693604469299320000e-001) (30, -3.71881037950515750000e-001) (31, -6.98747813701629640000e-001) (32, 7.44267404079437260000e-001) (33, -2.99518574029207230000e-002) (34, -5.01172304153442380000e-001) (35, -9.78509426116943360000e-001) (36, -3.68457794189453130000e-001) (37, 2.48590394854545590000e-001) (38, -1.19368508458137510000e-001) (39, -3.68455290794372560000e-001) (40, 7.13496446609497070000e-001) (41, 2.17290326952934270000e-001) (42, 1.29540011286735530000e-001) (43, 4.61806625127792360000e-001) (44, 8.44093337655067440000e-002) (45, -3.37263047695159910000e-001) (46, -2.76755601167678830000e-001) (47, -3.88022512197494510000e-001) (48, 5.10477125644683840000e-001) (49, 3.21192413568496700000e-001) (50, 3.13070148229599000000e-001) (51, 6.75362527370452880000e-001) (52, -6.76852107048034670000e-001) (53, -6.45184695720672610000e-001) (54, -1.85681849718093870000e-001) (55, 1.40158846974372860000e-001) (56, -6.20127081871032710000e-001) (57, 7.43992805480957030000e-001) (58, 1.88764080405235290000e-001) (59, 1.96765452623367310000e-001) (60, -2.33289793133735660000e-001) (61, -9.35319840908050540000e-001) (62, -1.13275885581970210000e+000) (63, -8.68567287921905520000e-001) (64, -1.38192191720008850000e-001) (65, 4.69660252332687380000e-001) (66, -3.09362471103668210000e-001) (67, 4.80888485908508300000e-001) (68, -2.28783831000328060000e-001) (69, 6.10371887683868410000e-001) (70, -5.34332633018493650000e-001) (71, -7.00292527675628660000e-001) (72, 1.83232039213180540000e-001) (73, 8.35576713085174560000e-001) (74, 5.48753403127193450000e-002) (75, -8.04527938365936280000e-001) (76, -5.92523515224456790000e-001) (77, 8.32425296306610110000e-001) (78, -8.86297941207885740000e-001) (79, -8.32301735877990720000e-001) (80, -1.61127105355262760000e-001) (81, 1.38591241836547850000e+000) (82, 1.06130075454711910000e+000) (83, -8.01910698413848880000e-001) (84, 2.72984504699707030000e-001) (85, -2.48455360531806950000e-001) (86, -4.38737362623214720000e-001) (87, -6.39108300209045410000e-001) (88, -2.63589248061180110000e-002) (89, -3.68309706449508670000e-001) (90, 6.76610887050628660000e-001) (91, 5.92239737510681150000e-001) (92, 4.89464849233627320000e-001) (93, 6.69535040855407710000e-001) (94, 9.42798495292663570000e-001) (95, 1.38747721910476680000e-001) (96, -8.43709349632263180000e-001) (0, 7.79563784599304200000e-002) (1, -2.77027219533920290000e-001) (2, -1.79461807012557980000e-001) (3, -1.18733577430248260000e-001) (4, 6.16582393646240230000e-001) (5, -4.65424478054046630000e-001) (6, -1.00362107157707210000e-001) (7, 9.12403464317321780000e-002) (8, -1.28267198801040650000e-001) (9, -3.80160033702850340000e-001) (10, -4.12555515766143800000e-001) (11, -1.22307240962982180000e-001) (12, -5.30362054705619810000e-002) (13, -2.69378155469894410000e-001) (14, -3.69493663311004640000e-002) (15, 1.41825735569000240000e-001) (16, 1.72570303082466130000e-001) (17, 8.57538953423500060000e-002) (18, -4.67124693095684050000e-002) (19, -1.10136337578296660000e-001) (20, -8.59441235661506650000e-002) (21, -4.88160401582717900000e-001) (22, -2.17814341187477110000e-001) (23, -2.38103538751602170000e-001) (24, -2.55679100751876830000e-001) (25, -3.11046361923217770000e-001) (26, -3.10555994510650630000e-001) (27, -2.39734157919883730000e-001) (28, 3.96265894174575810000e-001) (29, -7.66002312302589420000e-002) (30, 3.47313061356544490000e-002) (31, -8.63274708390235900000e-002) (32, 2.41358265280723570000e-001) (33, -2.16686382889747620000e-001) (34, 1.19893983006477360000e-001) (35, 6.10736191272735600000e-001) (36, 4.62820142507553100000e-001) (37, -2.78598099946975710000e-001) (38, 1.73641651868820190000e-001) (39, -2.12823972105979920000e-001) (40, -2.71016992628574370000e-002) (41, -4.86382693052291870000e-001) (42, 4.16694313287734990000e-001) (43, 5.07433593273162840000e-001) (44, -5.23253858089447020000e-001) (45, -3.29609543085098270000e-001) (46, 2.33113065361976620000e-001) (47, -2.62709468603134160000e-001) (48, -1.70243918895721440000e-001) (49, -5.88175177574157710000e-001) (50, 3.77875447273254390000e-001) (51, -1.81812226772308350000e-001) (52, -2.78590619564056400000e-001) (53, -1.97427235543727870000e-002) (54, -3.35860162973403930000e-001) (55, -2.21737250685691830000e-001) (56, -2.37713068723678590000e-001) (57, -1.81174144148826600000e-001) (58, 2.70944774150848390000e-001) (59, 7.78498500585556030000e-002) (60, -9.43582728505134580000e-002) (61, -7.09945797920227050000e-001) (62, -1.11802168190479280000e-001) (63, -1.45925134420394900000e-001) (64, -1.32244288921356200000e-001) (65, 7.12222680449485780000e-002) (66, -3.79244834184646610000e-002) (67, 5.96726723015308380000e-002) (68, -1.25568389892578130000e-001) (69, -2.46756196022033690000e-001) (70, 4.99674119055271150000e-002) (71, -1.93227350711822510000e-001) (72, 1.12881600856781010000e-001) (73, 1.90331637859344480000e-002) (74, -7.11498968303203580000e-003) (75, 3.38835358619689940000e-001) (76, 1.52148687839508060000e+000) (77, 1.71685125678777690000e-002) (78, -1.09300248324871060000e-001) (79, -6.56513944268226620000e-002) (80, -1.92340686917304990000e-001) (81, -3.02627757191658020000e-002) (82, -3.09700369834899900000e-001) (83, 6.79080784320831300000e-001) (84, 2.60020226240158080000e-001) (85, -4.65531587600708010000e-001) (86, -7.92194157838821410000e-002) (87, 4.60927262902259830000e-002) (88, 4.72526043653488160000e-001) (89, 5.20333349704742430000e-001) (90, -5.17166614532470700000e-001) (91, 2.58245095610618590000e-002) (92, 1.85082793235778810000e-001) (93, -5.61416387557983400000e-001) (94, 9.85678881406784060000e-002) (95, 1.14900484681129460000e-001) (96, 2.94557549059391020000e-002) (0, -8.03465172648429870000e-002) (1, -2.31369614601135250000e-001) (2, 1.72749012708663940000e-002) (3, -5.67649066448211670000e-001) (4, -1.78941667079925540000e-001) (5, 2.51710861921310420000e-001) (6, -8.98752212524414060000e-002) (7, -8.32259729504585270000e-002) (8, -1.86222568154335020000e-001) (9, 1.94930836558341980000e-001) (10, -2.07606911659240720000e-001) (11, 1.49892896413803100000e-001) (12, 1.02508246898651120000e-001) (13, 3.50347697734832760000e-001) (14, -8.90675336122512820000e-002) (15, -1.85136064887046810000e-001) (16, -4.44233156740665440000e-002) (17, -1.88718289136886600000e-001) (18, -2.26595222949981690000e-001) (19, -9.91948023438453670000e-002) (20, -1.80859103798866270000e-001) (21, 4.20210391283035280000e-001) (22, -9.83504801988601680000e-002) (23, 1.08460471034049990000e-001) (24, 8.09206128120422360000e-001) (25, 8.23989689350128170000e-001) (26, -2.82868027687072750000e-001) (27, 1.30752846598625180000e-001) (28, 2.45206177234649660000e-001) (29, -1.08831394463777540000e-002) (30, -1.93584188818931580000e-001) (31, -1.99957594275474550000e-001) (32, 2.27458432316780090000e-001) (33, -1.23337030410766600000e-001) (34, -9.97260808944702150000e-001) (35, -8.79029035568237300000e-001) (36, -9.91863310337066650000e-002) (37, 2.12982296943664550000e-001) (38, -1.80354416370391850000e-001) (39, -1.04945316910743710000e-001) (40, 1.24807462096214290000e-001) (41, -2.32391938567161560000e-001) (42, 4.20823931694030760000e-001) (43, 1.30787789821624760000e-001) (44, 1.62744760513305660000e-001) (45, 2.80779957771301270000e-001) (46, -2.67540395259857180000e-001) (47, -2.86116719245910640000e-001) (48, -1.31221950054168700000e-001) (49, 2.89648175239562990000e-002) (50, 4.56803292036056520000e-001) (51, 5.50321996212005620000e-001) (52, 1.10861584544181820000e-001) (53, 4.95429039001464840000e-001) (54, 4.10043150186538700000e-001) (55, -5.68076550960540770000e-001) (56, 6.46653175354003910000e-002) (57, -1.57440975308418270000e-001) (58, -3.62410396337509160000e-001) (59, -3.57779294252395630000e-001) (60, -2.23999917507171630000e-001) (61, 2.21142947673797610000e-001) (62, 2.05967932939529420000e-001) (63, 1.38415381312370300000e-001) (64, 3.09518009424209590000e-001) (65, -1.46664947271347050000e-001) (66, -1.54264094308018680000e-002) (67, -2.26639091968536380000e-001) (68, 2.19126436859369280000e-002) (69, -5.32088130712509160000e-002) (70, 7.48541653156280520000e-002) (71, 1.35369718074798580000e-001) (72, 1.07500739395618440000e-001) (73, 1.66066661477088930000e-001) (74, -3.28209608793258670000e-001) (75, 3.69317114353179930000e-001) (76, -3.64932715892791750000e-001) (77, -4.28126037120819090000e-001) (78, -3.55687104165554050000e-002) (79, -3.75905743567273020000e-004) (80, 4.22388464212417600000e-002) (81, -5.27955353260040280000e-001) (82, 2.29196757078170780000e-001) (83, -1.86529345810413360000e-002) (84, -3.30155581235885620000e-001) (85, 3.52140992879867550000e-001) (86, 3.70829612016677860000e-001) (87, 2.48929381370544430000e-001) (88, -4.34169918298721310000e-001) (89, -1.36290717124938960000e+000) (90, -2.94802784919738770000e-001) (91, -2.47228369116783140000e-001) (92, -7.01383590698242190000e-001) (93, 2.18916848301887510000e-001) (94, 9.74592268466949460000e-002) (95, -1.21721372008323670000e-001) (96, -2.76409566402435300000e-001) (0, 2.48817294836044310000e-001) (1, -1.76032125949859620000e-001) (2, -1.68845653533935550000e-001) (3, -5.55697605013847350000e-002) (4, -3.99553686380386350000e-001) (5, -8.71304690837860110000e-001) (6, 2.26621199399232860000e-002) (7, 2.08842635154724120000e-001) (8, 2.76946336030960080000e-001) (9, -4.17902231216430660000e-001) (10, -1.74063399434089660000e-001) (11, 7.77953863143920900000e-003) (12, -2.05389499664306640000e-001) (13, -1.56958684325218200000e-001) (14, 8.98549377918243410000e-001) (15, 8.25002014636993410000e-001) (16, 1.05223998427391050000e-001) (17, 1.85631230473518370000e-001) (18, -1.88176721334457400000e-001) (19, -6.56113848090171810000e-002) (20, -3.25213283300399780000e-001) (21, -7.54988640546798710000e-002) (22, -6.99927657842636110000e-002) (23, -1.20506882667541500000e-001) (24, -8.60699638724327090000e-002) (25, 3.37989032268524170000e-001) (26, 1.80407270789146420000e-001) (27, -8.81378576159477230000e-002) (28, 2.66154725104570390000e-002) (29, -2.34611451625823970000e-001) (30, -3.82050573825836180000e-001) (31, -4.11437451839447020000e-001) (32, -1.71433195471763610000e-001) (33, -1.94609835743904110000e-002) (34, -4.59867596626281740000e-001) (35, -4.34025496244430540000e-001) (36, 1.27000913023948670000e-001) (37, -1.70241296291351320000e-002) (38, -3.39430928230285640000e-001) (39, -4.76895689964294430000e-001) (40, 1.16756908595561980000e-001) (41, -5.35510107874870300000e-002) (42, -2.37075742334127430000e-002) (43, -2.22271859645843510000e-001) (44, 2.05055564641952510000e-001) (45, -2.80953515321016310000e-002) (46, -7.26153850555419920000e-001) (47, -5.20780622959136960000e-001) (48, -1.64634302258491520000e-001) (49, 3.11811745166778560000e-001) (50, 2.32894510030746460000e-001) (51, 3.52452516555786130000e-001) (52, -3.82758438587188720000e-001) (53, -2.16335833072662350000e-001) (54, -6.41874611377716060000e-001) (55, 1.37333974242210390000e-001) (56, -1.20742011070251460000e+000) (57, 5.36546885967254640000e-001) (58, 1.46504506468772890000e-001) (59, -1.19800239801406860000e-001) (60, -1.63098588585853580000e-001) (61, -6.71283662319183350000e-001) (62, -7.30415344238281250000e-001) (63, -7.33949124813079830000e-001) (64, -4.92306053638458250000e-001) (65, 5.97677886486053470000e-001) (66, 1.94888859987258910000e-002) (67, -2.62410938739776610000e-001) (68, -5.21214455366134640000e-002) (69, -6.26915514469146730000e-001) (70, -2.10638776421546940000e-001) (71, -9.24256742000579830000e-001) (72, 9.46428701281547550000e-002) (73, 5.58586061000823970000e-001) (74, -1.21087476611137390000e-001) (75, -5.51419436931610110000e-001) (76, -4.04541134834289550000e-001) (77, -5.75627982616424560000e-001) (78, -5.63295125961303710000e-001) (79, -8.68812203407287600000e-001) (80, 2.47139021754264830000e-001) (81, 7.42209553718566890000e-001) (82, -1.72562432289123540000e+000) (83, -6.52843043208122250000e-002) (84, 1.39345303177833560000e-001) (85, -8.07500630617141720000e-003) (86, -3.64562571048736570000e-001) (87, -1.13490432500839230000e-001) (88, 2.48032137751579280000e-002) (89, 6.30339145660400390000e-001) (90, 6.50983631610870360000e-001) (91, 2.37364247441291810000e-001) (92, -2.67465021461248400000e-002) (93, 4.24025982618331910000e-001) (94, 6.87303841114044190000e-001) (95, 4.96951222419738770000e-001) (96, -2.82547533512115480000e-001) (0, -3.40925492346286770000e-002) (1, 5.20346537232398990000e-002) (2, 1.78348332643508910000e-001) (3, -5.39131760597229000000e-001) (4, -5.56974411010742190000e-001) (5, 9.23951268196105960000e-002) (6, 1.34866297245025630000e-001) (7, 1.29667567089200020000e-002) (8, -1.47408783435821530000e-001) (9, -5.44444739818573000000e-001) (10, -1.37468636035919190000e-001) (11, -3.20943176746368410000e-001) (12, -3.86370599269866940000e-001) (13, -1.45687162876129150000e-001) (14, 1.13438246771693230000e-002) (15, -3.53969670832157140000e-002) (16, -2.04814299941062930000e-001) (17, -2.51045882701873780000e-001) (18, 2.36928183585405350000e-002) (19, 3.82247716188430790000e-001) (20, -1.76776811480522160000e-001) (21, 8.36173236370086670000e-001) (22, 1.57958433032035830000e-001) (23, 2.05885589122772220000e-001) (24, -5.24353623390197750000e-001) (25, -3.37250143289566040000e-001) (26, 2.33808442950248720000e-001) (27, -1.60878047347068790000e-001) (28, -1.41143918037414550000e-001) (29, -3.54505062103271480000e-001) (30, -1.44145742058753970000e-001) (31, 3.84432941675186160000e-001) (32, -4.32657510042190550000e-001) (33, -2.74144262075424190000e-001) (34, 2.41782531142234800000e-001) (35, -4.52686436474323270000e-002) (36, -2.76806801557540890000e-001) (37, -1.07830476760864260000e+000) (38, -1.17286980152130130000e-001) (39, 3.56435537338256840000e-001) (40, -9.74511355161666870000e-002) (41, 9.87687632441520690000e-002) (42, 1.18181116878986360000e-001) (43, -1.48986071348190310000e-001) (44, -3.66518914699554440000e-001) (45, -1.02710568904876710000e+000) (46, -8.20012670010328290000e-003) (47, 3.54149520397186280000e-001) (48, 2.82821446657180790000e-001) (49, 1.70066386461257930000e-001) (50, 1.75559356808662410000e-001) (51, -2.59494990110397340000e-001) (52, -5.31761609017848970000e-002) (53, -4.05375987291336060000e-001) (54, 7.50596344470977780000e-001) (55, 3.36481273174285890000e-001) (56, 5.20494222640991210000e-001) (57, 4.63493227958679200000e-001) (58, 1.46068617701530460000e-001) (59, -1.69447630643844600000e-001) (60, -2.67802979797124860000e-002) (61, -4.62529450654983520000e-001) (62, 1.53211653232574460000e-001) (63, 1.80082559585571290000e-001) (64, 3.25170457363128660000e-001) (65, 2.76953071355819700000e-001) (66, 2.35639780759811400000e-001) (67, 1.85841009020805360000e-001) (68, 1.31122767925262450000e-001) (69, 2.86160260438919070000e-001) (70, 1.07358098030090330000e-001) (71, 3.07144999504089360000e-001) (72, 4.00246024131774900000e-001) (73, -1.19466312229633330000e-001) (74, -3.31654220819473270000e-001) (75, 1.25953003764152530000e-001) (76, -4.37310010194778440000e-001) (77, -7.72089138627052310000e-002) (78, 4.18200016021728520000e-001) (79, 2.59481906890869140000e-001) (80, -2.35087022185325620000e-001) (81, -4.06551927328109740000e-001) (82, 2.43722513318061830000e-001) (83, 2.16168928891420360000e-002) (84, -7.78365880250930790000e-002) (85, -3.63842904567718510000e-001) (86, -2.50118553638458250000e-001) (87, 3.29557061195373540000e-001) (88, -2.85668432712554930000e-001) (89, -3.97281497716903690000e-001) (90, 3.26303005218505860000e-001) (91, -4.54250276088714600000e-002) (92, -7.40820690989494320000e-002) (93, -3.03164511919021610000e-001) (94, -3.09044688940048220000e-001) (95, -1.96681573987007140000e-001) (96, -8.56748670339584350000e-002) (0, -3.99510681629180910000e-001) (1, 3.00988983362913130000e-002) (2, 2.78994701802730560000e-002) (3, 1.05430507659912110000e+000) (4, 1.65791973471641540000e-001) (5, -9.21583175659179690000e-001) (6, -2.45656147599220280000e-001) (7, 6.88798651099205020000e-002) (8, 1.79780408740043640000e-001) (9, 7.21647739410400390000e-002) (10, -2.48429507017135620000e-001) (11, -3.58373343944549560000e-001) (12, -3.57670605182647710000e-001) (13, -2.30081081390380860000e-002) (14, 7.43589937686920170000e-001) (15, 1.96626037359237670000e-001) (16, -1.73077121376991270000e-001) (17, -1.19725346565246580000e+000) (18, 3.72645050287246700000e-001) (19, -1.85818269848823550000e-001) (20, 2.39156365394592290000e-001) (21, -1.72720515727996830000e+000) (22, -9.00947809219360350000e-001) (23, 7.31701850891113280000e-001) (24, -8.97909045219421390000e-001) (25, -4.59816038608551030000e-001) (26, 1.47596704959869380000e+000) (27, -3.68998557329177860000e-001) (28, -2.23418399691581730000e-001) (29, 2.09044113755226140000e-001) (30, -5.10423004627227780000e-001) (31, 1.04717719554901120000e+000) (32, -2.23230049014091490000e-001) (33, -1.29584208130836490000e-001) (34, -1.08768856152892110000e-002) (35, -8.72285187244415280000e-001) (36, -8.15758943557739260000e-001) (37, 5.08424222469329830000e-001) (38, 4.41355049610137940000e-001) (39, 4.67486441135406490000e-001) (40, 4.84055317938327790000e-002) (41, -1.95143714547157290000e-001) (42, 5.01749455928802490000e-001) (43, 9.27484273910522460000e-001) (44, 3.73200714588165280000e-001) (45, 5.78351438045501710000e-001) (46, -9.96070876717567440000e-002) (47, 4.30453866720199580000e-001) (48, 1.67055130004882810000e-001) (49, -3.20066541433334350000e-001) (50, -2.94993758201599120000e-001) (51, -1.02909076213836670000e+000) (52, -9.95754152536392210000e-002) (53, -8.52183997631073000000e-001) (54, -1.39996922016143800000e+000) (55, 3.15036803483963010000e-001) (56, -1.65968835353851320000e+000) (57, -1.59539118409156800000e-001) (58, 5.59894084930419920000e-001) (59, -7.55262002348899840000e-003) (60, 7.43195474147796630000e-001) (61, 1.60217821598052980000e+000) (62, -1.60513535141944890000e-001) (63, -3.80084440112113950000e-002) (64, -8.93320977687835690000e-001) (65, 7.70370885729789730000e-002) (66, -2.30180799961090090000e-001) (67, -4.94186997413635250000e-001) (68, -2.97939091920852660000e-001) (69, 1.05086100101470950000e+000) (70, 3.23534727096557620000e-001) (71, 7.50105381011962890000e-002) (72, -2.55753308534622190000e-001) (73, -1.24423243105411530000e-001) (74, 3.37458640336990360000e-001) (75, -2.03289270401000980000e+000) (76, -4.70838785171508790000e-001) (77, 1.42746126651763920000e+000) (78, -2.71569669246673580000e-001) (79, 1.64151623845100400000e-001) (80, -3.58605802059173580000e-001) (81, 1.03348779678344730000e+000) (82, -1.15617081522941590000e-001) (83, -1.00224757194519040000e+000) (84, -9.13856446743011470000e-001) (85, -6.08824014663696290000e-001) (86, 8.24948072433471680000e-001) (87, -2.31526181101799010000e-001) (88, -1.55539646744728090000e-001) (89, 7.46396183967590330000e-001) (90, 2.82065182924270630000e-001) (91, 9.87148582935333250000e-002) (92, -2.88387894630432130000e-001) (93, 3.43210138380527500000e-002) (94, 1.34737282991409300000e-001) (95, 1.15523779392242430000e+000) (96, -5.57958066463470460000e-001) (0, 2.11230948567390440000e-001) (1, -1.69784113764762880000e-001) (2, 1.06687964871525760000e-002) (3, -8.30652341246604920000e-002) (4, -1.97638705372810360000e-001) (5, -2.61626511812210080000e-001) (6, 2.62304216623306270000e-001) (7, 9.44296941161155700000e-002) (8, 2.74659544229507450000e-001) (9, 3.55169624090194700000e-001) (10, -5.75334012508392330000e-001) (11, -7.08139315247535710000e-002) (12, -1.10443755984306340000e-001) (13, -1.25700861215591430000e-001) (14, -1.16565279662609100000e-001) (15, 1.26032829284667970000e-001) (16, -1.25663354992866520000e-001) (17, -3.29215496778488160000e-001) (18, -5.22061586380004880000e-001) (19, 2.86470025777816770000e-001) (20, -1.75928056240081790000e-001) (21, -9.04855970293283460000e-003) (22, -1.20018221437931060000e-001) (23, 1.28602817654609680000e-001) (24, -7.48171582818031310000e-002) (25, -1.17067150771617890000e-001) (26, 2.39633589982986450000e-001) (27, -2.08840727806091310000e-001) (28, 2.27180063724517820000e-001) (29, 5.09848773479461670000e-001) (30, 8.70025083422660830000e-002) (31, 2.51682668924331670000e-001) (32, -2.10450708866119380000e-001) (33, -7.36638531088829040000e-002) (34, -9.19120848178863530000e-001) (35, -1.03296029567718510000e+000) (36, -3.95570814609527590000e-001) (37, 6.71229720115661620000e-001) (38, 4.32776510715484620000e-001) (39, -3.36014218628406520000e-002) (40, -1.73630222678184510000e-001) (41, -4.71943438053131100000e-001) (42, 2.67623841762542720000e-001) (43, 1.40380375087261200000e-002) (44, -4.10531878471374510000e-001) (45, 5.37251710891723630000e-001) (46, 2.40756496787071230000e-001) (47, -3.87688577175140380000e-002) (48, -2.37821862101554870000e-001) (49, -6.50484442710876460000e-001) (50, 3.06221038103103640000e-001) (51, 9.73450839519500730000e-002) (52, -6.27725780010223390000e-001) (53, 5.23509569466114040000e-002) (54, -1.18490152060985570000e-001) (55, -1.73819422721862790000e-001) (56, -2.49736502766609190000e-001) (57, -1.39505818486213680000e-001) (58, 4.62719947099685670000e-001) (59, 1.13574992865324020000e-002) (60, -2.19040289521217350000e-001) (61, 5.10692954063415530000e-001) (62, 1.15692742168903350000e-001) (63, -5.51612339913845060000e-002) (64, 5.43832555413246150000e-002) (65, -1.86272218823432920000e-001) (66, 1.07408285140991210000e+000) (67, 3.77689450979232790000e-002) (68, 7.03863874077796940000e-002) (69, 9.76276814937591550000e-001) (70, 2.15101152658462520000e-001) (71, -7.24586695432662960000e-002) (72, -1.37925192713737490000e-001) (73, -1.40315517783164980000e-002) (74, 3.93917381763458250000e-001) (75, 5.16969919204711910000e-001) (76, -2.46498301625251770000e-001) (77, 1.10366381704807280000e-001) (78, 4.64952737092971800000e-002) (79, -2.84140855073928830000e-002) (80, -1.52016744017601010000e-001) (81, -1.24624103307724000000e-001) (82, -3.82700294256210330000e-001) (83, 2.61662781238555910000e-001) (84, -4.32291805744171140000e-001) (85, 5.90248778462409970000e-002) (86, -2.08719614893198010000e-002) (87, 1.01241692900657650000e-001) (88, 7.76101648807525630000e-002) (89, -3.68821710348129270000e-001) (90, -4.26848083734512330000e-001) (91, -2.19316929578781130000e-001) (92, -8.92395734786987300000e-001) (93, -2.98661619424819950000e-001) (94, 1.86642944812774660000e-001) (95, 3.19463759660720830000e-001) (96, -1.67631685733795170000e-001) (0, -8.89568477869033810000e-002) (1, 5.86181022226810460000e-002) (2, 2.50030845403671260000e-001) (3, -2.53487974405288700000e-001) (4, 2.87378698587417600000e-001) (5, 5.64710378646850590000e-001) (6, -3.54787617921829220000e-001) (7, -1.24903656542301180000e-001) (8, -2.96362936496734620000e-001) (9, -1.61380812525749210000e-001) (10, -9.25376266241073610000e-002) (11, 6.25797435641288760000e-002) (12, 2.68009364604949950000e-001) (13, 2.46236518025398250000e-001) (14, -8.65388289093971250000e-002) (15, -7.87672307342290880000e-003) (16, 1.43720701336860660000e-001) (17, 2.41098329424858090000e-002) (18, 7.30731785297393800000e-001) (19, 2.22938939929008480000e-001) (20, 1.96552351117134090000e-001) (21, -3.61583568155765530000e-002) (22, -2.35916286706924440000e-001) (23, 2.00975798070430760000e-002) (24, -7.39327520132064820000e-002) (25, -9.48172509670257570000e-002) (26, 4.39188599586486820000e-001) (27, 2.25717425346374510000e-001) (28, 2.82504349946975710000e-001) (29, 8.96815806627273560000e-002) (30, -3.73321741819381710000e-001) (31, -3.93729433417320250000e-002) (32, -2.25570023059844970000e-001) (33, -1.08938097953796390000e-001) (34, -1.46873188018798830000e+000) (35, -1.42023921012878420000e+000) (36, -1.56413316726684570000e-001) (37, 1.03451937437057500000e-001) (38, -2.55012810230255130000e-001) (39, -3.23065556585788730000e-002) (40, -8.72249379754066470000e-002) (41, -1.15493997931480410000e-001) (42, 2.02441692352294920000e-001) (43, -1.97545111179351810000e-001) (44, -3.92323136329650880000e-001) (45, 3.59389245510101320000e-001) (46, -1.22235052287578580000e-001) (47, -6.25015273690223690000e-002) (48, -3.18878591060638430000e-001) (49, -6.65275156497955320000e-002) (50, 6.14247051998972890000e-003) (51, -1.17918036878108980000e-001) (52, -3.10972303152084350000e-001) (53, 2.61374205350875850000e-001) (54, -6.74940347671508790000e-001) (55, -3.38993370532989500000e-001) (56, -1.96182176470756530000e-001) (57, -5.11196143925189970000e-002) (58, 7.34091550111770630000e-002) (59, -1.63655146956443790000e-001) (60, -9.79842618107795720000e-002) (61, 2.07708775997161870000e-001) (62, -3.74527603387832640000e-001) (63, -1.81575655937194820000e-001) (64, -6.50853961706161500000e-002) (65, 3.86989153921604160000e-002) (66, -2.50544488430023190000e-001) (67, -4.07781004905700680000e-001) (68, -2.39464968442916870000e-001) (69, 9.91440657526254650000e-003) (70, -2.87735044956207280000e-001) (71, -1.84609055519104000000e-001) (72, -3.17138761281967160000e-001) (73, -6.57631754875183110000e-002) (74, -3.42832505702972410000e-001) (75, -4.07751500606536870000e-002) (76, -5.33736824989318850000e-001) (77, -7.96409547328948970000e-002) (78, -1.54346838593482970000e-001) (79, -1.53179541230201720000e-001) (80, -1.30363121628761290000e-001) (81, -1.23767703771591190000e-002) (82, -4.93411481380462650000e-001) (83, 1.69794000685215000000e-002) (84, -5.93475520610809330000e-001) (85, 2.19705596566200260000e-001) (86, 1.34655088186264040000e-002) (87, -3.91538478434085850000e-002) (88, 1.69997178018093110000e-002) (89, 9.23376530408859250000e-002) (90, -1.31465598940849300000e-001) (91, 2.90937647223472600000e-002) (92, -6.95966422557830810000e-001) (93, 3.72210890054702760000e-001) (94, 1.72781869769096370000e-001) (95, -1.11218363046646120000e-001) (96, 1.07180513441562650000e-001) (0, -3.03129971027374270000e-001) (1, -3.58868509531021120000e-001) (2, -3.24537843465805050000e-001) (3, -3.94781380891799930000e-001) (4, -1.56320855021476750000e-001) (5, 3.19852501153945920000e-001) (6, -1.56539320945739750000e-001) (7, -5.23722544312477110000e-002) (8, -2.57593333721160890000e-001) (9, -1.06471264734864230000e-002) (10, 2.24804624915122990000e-001) (11, -2.16429121792316440000e-002) (12, -3.11960309743881230000e-001) (13, -1.90876662731170650000e-001) (14, -3.09715330600738530000e-001) (15, -4.93272729218006130000e-002) (16, -1.88191533088684080000e-001) (17, 2.35567972064018250000e-001) (18, -3.19602787494659420000e-001) (19, 6.12532913684844970000e-001) (20, 1.11560091376304630000e-001) (21, 8.05347800254821780000e-001) (22, 3.33623379468917850000e-001) (23, -5.21142520010471340000e-002) (24, 1.34677976369857790000e-001) (25, -3.23605835437774660000e-001) (26, 2.34789505600929260000e-001) (27, -3.17830108106136320000e-002) (28, -5.40470123291015630000e-001) (29, 2.07169294357299800000e-001) (30, 3.76882880926132200000e-001) (31, -5.84140159189701080000e-002) (32, 2.49402463436126710000e-001) (33, -2.68432140350341800000e-001) (34, -1.25648602843284610000e-001) (35, -2.38340348005294800000e-001) (36, -2.14961335062980650000e-001) (37, -1.60132974386215210000e-001) (38, 3.27402472496032710000e-001) (39, 3.22432875633239750000e-001) (40, 4.20504510402679440000e-001) (41, -1.55026577413082120000e-002) (42, -1.25806406140327450000e-001) (43, -1.38737186789512630000e-001) (44, -4.08716201782226560000e-001) (45, -4.10430461168289180000e-001) (46, 5.24822533130645750000e-001) (47, 3.13715219497680660000e-001) (48, 4.57361608743667600000e-001) (49, -1.35079041123390200000e-001) (50, -4.01052802801132200000e-001) (51, -2.56633162498474120000e-001) (52, -2.97769874334335330000e-001) (53, -1.89258068799972530000e-001) (54, -8.00438672304153440000e-002) (55, 1.88658937811851500000e-001) (56, 2.17082172632217410000e-001) (57, -3.45863103866577150000e-002) (58, -9.83407162129879000000e-003) (59, 1.82330802083015440000e-001) (60, -5.72202026844024660000e-001) (61, -5.16629457473754880000e-001) (62, -3.00071090459823610000e-001) (63, 1.53900180011987690000e-002) (64, 2.50180661678314210000e-001) (65, -1.19163326919078830000e-001) (66, -8.69133323431015010000e-002) (67, 4.10239726305007930000e-001) (68, -3.29810738563537600000e-001) (69, 1.98735073208808900000e-001) (70, -2.33299776911735530000e-001) (71, 8.78814831376075740000e-002) (72, -1.00259572267532350000e-001) (73, -2.65627473592758180000e-001) (74, 6.38004481792449950000e-001) (75, 6.05667412281036380000e-001) (76, -4.17027503252029420000e-001) (77, 3.30619178712368010000e-002) (78, -1.67696420103311540000e-002) (79, -7.37243145704269410000e-002) (80, -1.71967655420303340000e-001) (81, -8.54906022548675540000e-001) (82, 1.20213532447814940000e+000) (83, 1.50736480951309200000e-001) (84, -5.54330684244632720000e-002) (85, 3.94130460917949680000e-002) (86, 3.19650135934352870000e-002) (87, -5.20593002438545230000e-002) (88, 1.22109465301036830000e-001) (89, 1.91475972533226010000e-002) (90, -2.30817735195159910000e-001) (91, 5.58567605912685390000e-002) (92, 1.37757718563079830000e-001) (93, 1.82976275682449340000e-001) (94, 9.48854535818099980000e-002) (95, -3.15807998180389400000e-001) (96, -2.88594096899032590000e-001) (0, -9.83244087547063830000e-003) (1, -1.16179957985877990000e-001) (2, -9.73471626639366150000e-002) (3, -5.15483558177948000000e-001) (4, -8.11702981591224670000e-002) (5, 1.17036283016204830000e-001) (6, 1.02576039731502530000e-001) (7, 8.93274322152137760000e-002) (8, -1.94495528936386110000e-001) (9, 2.64528077095746990000e-002) (10, 6.89487904310226440000e-002) (11, -1.21723689138889310000e-001) (12, -3.23779463768005370000e-001) (13, -4.94134388864040370000e-002) (14, 3.16220104694366460000e-001) (15, 1.96844279766082760000e-001) (16, -7.61918649077415470000e-002) (17, 1.41367927193641660000e-001) (18, -7.77114406228065490000e-002) (19, -7.65841603279113770000e-002) (20, -2.08061635494232180000e-001) (21, 5.26385866105556490000e-002) (22, 3.96258495748043060000e-002) (23, 1.24915711581707000000e-001) (24, -7.32276309281587600000e-003) (25, -1.65619719773530960000e-002) (26, 1.47887721657752990000e-001) (27, 8.31574108451604840000e-003) (28, -3.22908341884613040000e-001) (29, 2.30335712432861330000e-001) (30, 1.03501334786415100000e-001) (31, -1.08033634722232820000e-001) (32, 1.18393562734127040000e-001) (33, -1.91365897655487060000e-001) (34, -7.41831399500370030000e-003) (35, 1.18914790451526640000e-001) (36, 2.02791299670934680000e-002) (37, -9.40520688891410830000e-002) (38, 1.82402431964874270000e-001) (39, -1.69272404164075850000e-002) (40, 1.06346197426319120000e-001) (41, -9.43346545100212100000e-002) (42, 1.51970699429512020000e-001) (43, 3.37901383638381960000e-001) (44, -1.80546045303344730000e-001) (45, -1.41666069626808170000e-001) (46, 1.96156352758407590000e-002) (47, -7.48363742604851720000e-003) (48, -1.99508946388959880000e-002) (49, -1.60948202013969420000e-001) (50, -1.33447900414466860000e-001) (51, -3.48179489374160770000e-001) (52, -4.46147561073303220000e-001) (53, -2.94005516916513440000e-002) (54, -1.95229649543762210000e-001) (55, -6.52089640498161320000e-002) (56, -1.77795290946960450000e-001) (57, -9.80408415198326110000e-002) (58, 8.36510881781578060000e-002) (59, 1.03886209428310390000e-001) (60, -2.38624125719070430000e-001) (61, -3.26119750738143920000e-001) (62, -3.34545314311981200000e-001) (63, -1.67529121041297910000e-001) (64, 8.53538885712623600000e-002) (65, -1.37199133634567260000e-001) (66, 1.64443403482437130000e-002) (67, 3.61454427242279050000e-001) (68, -1.83816682547330860000e-002) (69, -1.12591963261365890000e-002) (70, -1.89596220850944520000e-001) (71, -1.60021737217903140000e-001) (72, 6.84821158647537230000e-002) (73, -1.30285173654556270000e-001) (74, 1.09518602490425110000e-001) (75, 5.74186325073242190000e-001) (76, 2.14329361915588380000e-001) (77, 1.16638122126460080000e-002) (78, 4.17067343369126320000e-003) (79, 3.71265895664691930000e-002) (80, -1.26123890280723570000e-001) (81, -6.16442382335662840000e-001) (82, 6.77927434444427490000e-002) (83, 2.71857291460037230000e-001) (84, 2.03681830316782000000e-002) (85, -2.39216282963752750000e-001) (86, 7.34678879380226140000e-002) (87, -1.57415810972452160000e-002) (88, 1.16924129426479340000e-001) (89, 6.24714717268943790000e-002) (90, -7.10750743746757510000e-002) (91, 1.41623094677925110000e-001) (92, -4.26875576376914980000e-002) (93, -2.13904380798339840000e-002) (94, 6.30522072315216060000e-002) (95, -2.20900043845176700000e-001) (96, -1.97192043066024780000e-001) (0, -2.66774415969848630000e-001) (1, 4.27897870540618900000e-002) (2, -8.08506682515144350000e-002) (3, 4.25946176052093510000e-001) (4, -3.76745283603668210000e-001) (5, -9.12697136402130130000e-001) (6, 6.55967071652412410000e-002) (7, 2.50984225422143940000e-002) (8, -4.43863719701766970000e-001) (9, 2.13271509855985640000e-002) (10, -2.18201205134391780000e-001) (11, -5.26533603668212890000e-001) (12, -1.00028884410858150000e+000) (13, -9.45320487022399900000e-001) (14, 3.81663918495178220000e-001) (15, -1.47565662860870360000e-001) (16, -3.70510190725326540000e-001) (17, 3.69546413421630860000e-002) (18, 1.08166408538818360000e+000) (19, 3.05342197418212890000e-001) (20, 9.43854629993438720000e-001) (21, 6.09499394893646240000e-001) (22, 5.14783859252929690000e-001) (23, -3.46614181995391850000e-001) (24, -1.59401893615722660000e-001) (25, -1.86805903911590580000e-001) (26, 1.36014133691787720000e-001) (27, -4.15124185383319850000e-002) (28, -4.22390997409820560000e-001) (29, 8.64510059356689450000e-001) (30, 9.08946871757507320000e-001) (31, -1.23729981482028960000e-001) (32, -7.92473495006561280000e-001) (33, -3.70470322668552400000e-002) (34, -1.11829578876495360000e+000) (35, -2.95783042907714840000e-001) (36, 3.66040617227554320000e-002) (37, -2.38564506173133850000e-001) (38, 7.54146993160247800000e-001) (39, 1.59683257341384890000e-001) (40, -2.71825432777404790000e-001) (41, 1.18897266685962680000e-001) (42, -1.11830711364746090000e+000) (43, -7.84854471683502200000e-001) (44, -1.24012863636016850000e+000) (45, -1.56305623054504390000e+000) (46, 1.39802014827728270000e+000) (47, 2.47254610061645510000e-001) (48, 1.43929407000541690000e-001) (49, 7.73285850882530210000e-002) (50, -8.69653642177581790000e-001) (51, -1.08356392383575440000e+000) (52, -9.61416959762573240000e-001) (53, -7.70084440708160400000e-001) (54, 6.73612952232360840000e-001) (55, 6.06214642524719240000e-001) (56, 3.02242130041122440000e-001) (57, 3.35377275943756100000e-001) (58, 1.52418538928031920000e-002) (59, -6.92111924290657040000e-002) (60, 9.95495244860649110000e-002) (61, -9.23903107643127440000e-001) (62, 5.71206152439117430000e-001) (63, -1.91037669777870180000e-001) (64, -3.00176516175270080000e-002) (65, 2.31652989983558650000e-001) (66, 7.64173924922943120000e-001) (67, 5.51694750785827640000e-001) (68, 1.03928649425506590000e+000) (69, 8.36469769477844240000e-001) (70, 5.67366421222686770000e-001) (71, -6.67822808027267460000e-002) (72, 2.81136661767959590000e-001) (73, 5.72231888771057130000e-001) (74, -7.23057568073272710000e-001) (75, -2.27920878678560260000e-002) (76, -7.61182963848114010000e-001) (77, 2.95893430709838870000e-001) (78, 4.89961355924606320000e-001) (79, -1.81409552693367000000e-001) (80, 1.38428315520286560000e-001) (81, -9.79951739311218260000e-001) (82, 1.34228527545928960000e-001) (83, -9.94455695152282710000e-001) (84, -1.88324883580207820000e-001) (85, -2.94737815856933590000e-001) (86, 2.25097253918647770000e-001) (87, -3.25520515441894530000e-001) (88, -6.95544660091400150000e-001) (89, 4.04502063989639280000e-001) (90, -4.00787085294723510000e-001) (91, -5.00315308570861820000e-001) (92, -4.27133768796920780000e-001) (93, -4.43072646856307980000e-001) (94, 3.03781609982252120000e-002) (95, -4.09519582986831670000e-001) (96, -3.76148074865341190000e-001) (0, -4.96277101337909700000e-002) (1, 1.24261826276779170000e-001) (2, 4.05198365449905400000e-001) (3, 1.52377754449844360000e-001) (4, 3.88878434896469120000e-001) (5, -4.52477624639868740000e-003) (6, 1.35229945182800290000e-001) (7, 3.86363938450813290000e-002) (8, -3.02339076995849610000e-001) (9, 1.97898387908935550000e-001) (10, -5.33883273601531980000e-001) (11, -3.88569712638854980000e-001) (12, -4.29884582757949830000e-001) (13, -2.17940911650657650000e-001) (14, 2.08796858787536620000e-001) (15, 6.43175840377807620000e-002) (16, -2.41404846310615540000e-002) (17, -4.18181568384170530000e-001) (18, -1.16655983030796050000e-001) (19, 9.43280816078186040000e-001) (20, 7.45003461837768550000e-001) (21, -1.12448796629905700000e-001) (22, -9.87544834613800050000e-001) (23, -3.87937091290950780000e-002) (24, -3.25754731893539430000e-001) (25, 5.58077059686183930000e-002) (26, 1.10966026782989500000e+000) (27, 1.23657874763011930000e-001) (28, 5.46590089797973630000e-001) (29, 9.10564303398132320000e-001) (30, -1.07258343696594240000e+000) (31, -1.64687819778919220000e-002) (32, -1.92172601819038390000e-001) (33, -1.97279453277587890000e-001) (34, -8.26483964920043950000e-001) (35, -8.27431857585906980000e-001) (36, 1.55475139617919920000e-001) (37, -3.37193846702575680000e-001) (38, -5.19092857837677000000e-001) (39, -7.43909692391753200000e-003) (40, -3.06328404694795610000e-002) (41, -3.47580820322036740000e-001) (42, 4.42805171012878420000e-001) (43, 1.17257595062255860000e+000) (44, -4.53180044889450070000e-001) (45, -2.50080972909927370000e-001) (46, 3.13678711652755740000e-001) (47, -1.83085110038518910000e-002) (48, -1.25129714608192440000e-001) (49, -1.34896516799926760000e-001) (50, 3.35649222135543820000e-001) (51, -3.10415625572204590000e-001) (52, -4.84806150197982790000e-001) (53, -2.31735780835151670000e-001) (54, -5.58804035186767580000e-001) (55, -1.94506555795669560000e-001) (56, -4.91566538810729980000e-001) (57, 6.91147968173027040000e-002) (58, 9.03484702110290530000e-001) (59, -8.19536298513412480000e-002) (60, -2.04504951834678650000e-002) (61, 3.59408140182495120000e-001) (62, -2.89688855409622190000e-002) (63, -1.38539522886276250000e-001) (64, 6.49965524673461910000e-001) (65, 2.39617407321929930000e-001) (66, 3.10939010232687000000e-002) (67, -6.34916126728057860000e-001) (68, -2.66291916370391850000e-001) (69, 7.93964684009552000000e-001) (70, 1.41466498374938960000e-001) (71, -1.84102542698383330000e-002) (72, 1.46657377481460570000e-001) (73, 1.53052285313606260000e-001) (74, -2.97110527753829960000e-001) (75, -7.95373544096946720000e-002) (76, -3.19154113531112670000e-001) (77, 1.22181499004364010000e+000) (78, 2.90571391582489010000e-001) (79, -2.14786306023597720000e-002) (80, -2.19043672084808350000e-001) (81, 4.44793820381164550000e-001) (82, 2.38683834671974180000e-001) (83, -4.53364193439483640000e-001) (84, -1.56132709980010990000e+000) (85, -7.95907303690910340000e-002) (86, 7.72685706615448000000e-001) (87, 1.08534552156925200000e-001) (88, 1.84308648109436040000e-001) (89, 1.42180919647216800000e+000) (90, -8.54128450155258180000e-002) (91, -4.06415492296218870000e-001) (92, -1.18031656742095950000e+000) (93, -5.77626168727874760000e-001) (94, -2.26134523749351500000e-001) (95, 2.87292540073394780000e-001) (96, -3.61928790807724000000e-001) (0, -2.11149722337722780000e-001) (1, 4.80515584349632260000e-002) (2, 4.29961308836936950000e-002) (3, -6.18661418557167050000e-002) (4, -5.03405220806598660000e-002) (5, -4.42759990692138670000e-001) (6, -5.03037497401237490000e-002) (7, 2.05941289663314820000e-001) (8, -2.27922812104225160000e-001) (9, -3.19244921207427980000e-001) (10, 9.37637761235237120000e-002) (11, -2.41917848587036130000e-001) (12, -6.03407323360443120000e-001) (13, -4.15681838989257810000e-001) (14, 2.07945764064788820000e-001) (15, 2.53654658794403080000e-001) (16, 8.73259603977203370000e-002) (17, -1.24589251354336740000e-002) (18, 7.74562597274780270000e-001) (19, 1.49490445852279660000e-001) (20, -4.41213756799697880000e-001) (21, 2.63452261686325070000e-001) (22, 8.37144702672958370000e-002) (23, -5.82153722643852230000e-003) (24, -3.37259590625762940000e-001) (25, 3.31486016511917110000e-002) (26, 2.98089861869812010000e-001) (27, -4.81278628110885620000e-001) (28, -3.64614009857177730000e-001) (29, -1.62747859954833980000e-001) (30, 7.08592593669891360000e-001) (31, 5.88976740837097170000e-002) (32, -6.93288385868072510000e-001) (33, -2.87636779248714450000e-002) (34, -2.44277045130729680000e-001) (35, -2.51513361930847170000e-001) (36, -1.83504037559032440000e-002) (37, -6.47676289081573490000e-001) (38, 5.82730948925018310000e-001) (39, 1.62957102060317990000e-001) (40, -3.67680460214614870000e-001) (41, 2.05742880702018740000e-001) (42, -2.70780414342880250000e-001) (43, -2.31640323996543880000e-001) (44, -8.56692492961883540000e-001) (45, -1.24898064136505130000e+000) (46, 6.14956974983215330000e-001) (47, 2.63946264982223510000e-001) (48, 5.66106736660003660000e-002) (49, -1.26669034361839290000e-001) (50, -1.26027211546897890000e-001) (51, -6.56836807727813720000e-001) (52, -4.68874245882034300000e-001) (53, -5.28807997703552250000e-001) (54, 5.70964634418487550000e-001) (55, 6.60755038261413570000e-001) (56, -2.89271950721740720000e-001) (57, 6.14345729351043700000e-001) (58, 2.44195118546485900000e-001) (59, -3.28319489955902100000e-001) (60, -1.27850264310836790000e-001) (61, -1.02966058254241940000e+000) (62, 3.23971480131149290000e-001) (63, 2.26551920175552370000e-001) (64, -1.26103818416595460000e-001) (65, 5.73453426361083980000e-001) (66, 2.84720271825790410000e-001) (67, 6.49566203355789180000e-003) (68, 9.01481062173843380000e-002) (69, 4.18461531400680540000e-001) (70, 5.79051911830902100000e-001) (71, 1.92537069320678710000e-001) (72, 5.40684103965759280000e-001) (73, 6.78516700863838200000e-002) (74, -2.49515473842620850000e-002) (75, -4.93510328233242030000e-002) (76, -2.23921567201614380000e-001) (77, -9.48018431663513180000e-002) (78, 4.14026051759719850000e-001) (79, 2.09729760885238650000e-001) (80, -8.01677331328392030000e-002) (81, -2.95832544565200810000e-001) (82, -2.37755089998245240000e-001) (83, -4.46630835533142090000e-001) (84, -4.16990458965301510000e-001) (85, -4.53450173139572140000e-001) (86, -3.72332572937011720000e-001) (87, 1.12540617585182190000e-001) (88, -1.76272824406623840000e-001) (89, 2.20717877149581910000e-001) (90, 2.30585515499114990000e-001) (91, -1.97030857205390930000e-001) (92, -3.81994873285293580000e-001) (93, -4.98757243156433110000e-001) (94, -4.74616914987564090000e-001) (95, -4.28887866437435150000e-002) (96, -2.14798748493194580000e-003) (0, -3.18028628826141360000e-002) (1, 2.75796711444854740000e-001) (2, 4.93436068296432500000e-001) (3, -4.00251626968383790000e-001) (4, -2.98680126667022710000e-001) (5, 4.04549866914749150000e-001) (6, 4.27234470844268800000e-001) (7, 9.18328464031219480000e-002) (8, 7.22814304754137990000e-003) (9, 8.62906157970428470000e-001) (10, 1.82444036006927490000e-001) (11, 2.11121171712875370000e-001) (12, 4.29466217756271360000e-002) (13, 3.59146445989608760000e-001) (14, 1.52790397405624390000e-001) (15, 3.70760746300220490000e-002) (16, -2.62928679585456850000e-002) (17, 2.11796358227729800000e-001) (18, -6.59842729568481450000e-001) (19, 9.64393243193626400000e-002) (20, -3.62722098827362060000e-001) (21, 1.46846070885658260000e-001) (22, -2.93172359466552730000e-001) (23, 4.06549908220767970000e-002) (24, 4.47135508060455320000e-001) (25, 4.11546409130096440000e-001) (26, 3.15837770700454710000e-001) (27, -5.36780774593353270000e-001) (28, -2.35441252589225770000e-001) (29, -1.45816966891288760000e-001) (30, -6.02099180221557620000e-001) (31, -4.56325292587280270000e-001) (32, 3.17621305584907530000e-002) (33, 1.07930742204189300000e-001) (34, 9.85436439514160160000e-002) (35, -1.19929276406764980000e-001) (36, -4.90582555532455440000e-001) (37, -4.35512483119964600000e-001) (38, -6.88704729080200200000e-001) (39, -4.19161349534988400000e-001) (40, -1.71440672129392620000e-002) (41, 9.42672714591026310000e-002) (42, 1.36351540684700010000e-001) (43, -3.35138022899627690000e-001) (44, -1.63284555077552800000e-001) (45, -1.59051477909088130000e-001) (46, -3.35852384567260740000e-001) (47, -2.70270377397537230000e-001) (48, -1.13515399396419530000e-001) (49, -3.83748888969421390000e-001) (50, 1.41651585698127750000e-001) (51, 7.85185694694519040000e-002) (52, 3.23529213666915890000e-001) (53, 3.22531372308731080000e-001) (54, -4.80013946071267130000e-003) (55, 1.52174964547157290000e-001) (56, -1.77773624658584590000e-001) (57, -4.87327009439468380000e-001) (58, -9.17521789669990540000e-002) (59, -3.92539918422698970000e-001) (60, -6.45319759845733640000e-001) (61, 6.07917308807373050000e-001) (62, -1.51294738054275510000e-001) (63, 5.60789443552494050000e-002) (64, -2.69448429346084590000e-001) (65, -4.12043750286102290000e-001) (66, 1.81291952729225160000e-001) (67, -4.71386581659317020000e-001) (68, -7.79192149639129640000e-002) (69, 8.38456228375434880000e-002) (70, 2.16564536094665530000e-002) (71, -5.01895584166049960000e-002) (72, -4.16338950395584110000e-001) (73, -1.89656779170036320000e-001) (74, 3.46225947141647340000e-002) (75, 3.91776971518993380000e-002) (76, -4.05245602130889890000e-001) (77, -7.16604217886924740000e-002) (78, 6.44980892539024350000e-002) (79, -4.36258241534233090000e-002) (80, -4.70224507153034210000e-002) (81, -2.24739655852317810000e-001) (82, 1.68081536889076230000e-001) (83, 3.27437371015548710000e-001) (84, -2.07428574562072750000e-001) (85, 3.60174715518951420000e-001) (86, 2.51482963562011720000e-001) (87, 9.08065587282180790000e-002) (88, -1.61215290427207950000e-001) (89, -1.58077970147132870000e-001) (90, -7.88343250751495360000e-002) (91, -6.78720399737358090000e-002) (92, -4.97856736183166500000e-001) (93, 5.87380863726139070000e-002) (94, -1.43091797828674320000e-001) (95, 1.95009961724281310000e-001) (96, -4.41444903612136840000e-001) (0, -2.27114617824554440000e-001) (1, 1.36080965399742130000e-001) (2, 2.29683101177215580000e-001) (3, -6.40355765819549560000e-001) (4, 8.81065905094146730000e-001) (5, 2.31209754943847660000e-001) (6, -2.45812356472015380000e-001) (7, -2.84085460007190700000e-002) (8, -2.85448551177978520000e-001) (9, -4.28497880697250370000e-001) (10, 3.86503249406814580000e-001) (11, 1.67255356907844540000e-001) (12, 1.34643658995628360000e-001) (13, 1.33746396750211720000e-002) (14, 5.62319457530975340000e-001) (15, 3.39759178459644320000e-002) (16, 6.01826310157775880000e-001) (17, 3.55476886034011840000e-001) (18, 1.12593424320220950000e+000) (19, -1.91955655813217160000e-001) (20, -8.13558936119079590000e-001) (21, -1.20911252498626710000e+000) (22, -2.66823738813400270000e-001) (23, -1.67687281966209410000e-001) (24, -5.18846273422241210000e-001) (25, -6.95983827114105220000e-001) (26, 3.76211762428283690000e-001) (27, -1.26678287982940670000e-001) (28, -3.53074014186859130000e-001) (29, -2.59552299976348880000e-001) (30, -2.02723771333694460000e-001) (31, -2.05714792013168330000e-001) (32, -1.23059011995792390000e-001) (33, 1.09164910390973090000e-002) (34, 2.09396824240684510000e-001) (35, 8.14269036054611210000e-002) (36, 2.94010132551193240000e-001) (37, -3.15990239381790160000e-001) (38, -2.89722353219985960000e-001) (39, -2.81202554702758790000e-001) (40, -3.89224253594875340000e-002) (41, 4.70878668129444120000e-002) (42, 1.58290520310401920000e-001) (43, 4.14051353931427000000e-001) (44, 5.47357916831970210000e-001) (45, 3.08077543973922730000e-001) (46, -2.86452293395996090000e-001) (47, -2.15994104743003850000e-001) (48, -3.54880571365356450000e-001) (49, -2.15317621827125550000e-001) (50, -6.95377588272094730000e-001) (51, -5.83085596561431880000e-001) (52, -6.90737292170524600000e-002) (53, -1.68276771903038020000e-001) (54, -4.33820873498916630000e-001) (55, -1.61621749401092530000e-001) (56, -3.99162679910659790000e-001) (57, 1.11446760594844820000e-001) (58, -5.75294077396392820000e-001) (59, -2.58433669805526730000e-001) (60, 2.59856998920440670000e-001) (61, -6.77967965602874760000e-001) (62, -6.11076727509498600000e-002) (63, -3.05092453956604000000e-001) (64, 6.99504166841506960000e-002) (65, 5.53458705544471740000e-002) (66, -8.21461677551269530000e-001) (67, -3.55269104242324830000e-001) (68, -1.05617344379425050000e-001) (69, -1.33946311473846440000e+000) (70, 2.42841929197311400000e-001) (71, -2.31631487607955930000e-001) (72, -1.78877353668212890000e-001) (73, -3.48965466022491460000e-001) (74, -2.48227849602699280000e-001) (75, 1.45174220204353330000e-001) (76, -1.79685745388269420000e-002) (77, -7.13077068328857420000e-001) (78, 4.37545925378799440000e-001) (79, -2.46066659688949580000e-001) (80, -1.55227363109588620000e-001) (81, -7.49638020992279050000e-001) (82, -1.25660216808319090000e+000) (83, 6.57418012619018550000e-001) (84, 1.19008675217628480000e-001) (85, -8.86363759636878970000e-002) (86, -2.58709609508514400000e-001) (87, -1.50867879390716550000e-001) (88, 4.61914479732513430000e-001) (89, 4.66989248991012570000e-001) (90, 4.70206439495086670000e-002) (91, 3.89945477247238160000e-001) (92, 2.19407960772514340000e-001) (93, 2.30841785669326780000e-001) (94, -7.08303973078727720000e-003) (95, -3.56241315603256230000e-001) (96, -7.26084336638450620000e-002) (0, 2.19119697809219360000e-001) (1, 9.03373118489980700000e-003) (2, 5.67761838436126710000e-001) (3, -6.19348168373107910000e-001) (4, -1.48715898394584660000e-001) (5, 1.19796800613403320000e+000) (6, -1.30477890372276310000e-001) (7, -1.24702908098697660000e-001) (8, 1.00709989666938780000e-001) (9, 6.36156141757965090000e-001) (10, 7.46362879872322080000e-002) (11, 2.17250287532806400000e-001) (12, 2.91968554258346560000e-001) (13, 1.27565264701843260000e-001) (14, -9.72741767764091490000e-002) (15, -2.52792716026306150000e-001) (16, 3.80873531103134160000e-001) (17, 2.92727500200271610000e-001) (18, -4.44881111383438110000e-001) (19, 1.35987997055053710000e-001) (20, 7.87326917052268980000e-002) (21, 4.26359772682189940000e-001) (22, 1.86610817909240720000e-001) (23, -1.24917859211564060000e-002) (24, 1.92240744829177860000e-001) (25, -2.45802149176597600000e-001) (26, 4.73623462021350860000e-002) (27, -5.44851310551166530000e-002) (28, -2.65492379665374760000e-001) (29, -2.97689363360404970000e-002) (30, 6.08813986182212830000e-002) (31, 3.67761254310607910000e-001) (32, -1.32245525717735290000e-001) (33, -1.53803959488868710000e-001) (34, -4.06977444887161250000e-001) (35, -4.02563959360122680000e-001) (36, -1.57882824540138240000e-001) (37, -3.27618926763534550000e-001) (38, 1.42694145441055300000e-001) (39, 4.45331335067749020000e-001) (40, 1.32889181375503540000e-001) (41, 8.06580334901809690000e-002) (42, -8.32625925540924070000e-002) (43, -1.67513620108366010000e-002) (44, 2.25399862974882130000e-002) (45, -1.21646404266357420000e-001) (46, 4.25070762634277340000e-001) (47, 2.06441134214401250000e-001) (48, 1.45553737878799440000e-001) (49, 1.94446574896574020000e-002) (50, -8.33580493927001950000e-002) (51, -4.45331305265426640000e-001) (52, 1.59336164593696590000e-001) (53, 7.40194842219352720000e-002) (54, -4.30995337665081020000e-002) (55, -1.06781698763370510000e-001) (56, 1.58976376056671140000e-001) (57, 1.55202075839042660000e-001) (58, -1.26281514763832090000e-001) (59, -1.41184687614440920000e-001) (60, -4.31119084358215330000e-001) (61, -4.71846848726272580000e-001) (62, -2.18230560421943660000e-001) (63, 1.51774466037750240000e-001) (64, 9.64838787913322450000e-002) (65, -2.29090377688407900000e-002) (66, -3.15667361021041870000e-001) (67, 1.55331771820783620000e-002) (68, 8.66515040397644040000e-002) (69, -3.39714050292968750000e-001) (70, -2.76276528835296630000e-001) (71, 1.51554763317108150000e-001) (72, -1.61804258823394780000e-002) (73, -3.56486067175865170000e-002) (74, -1.65571853518486020000e-001) (75, 7.52091765403747560000e-001) (76, -5.50307989120483400000e-001) (77, -4.64845269918441770000e-001) (78, -1.34776562452316280000e-001) (79, 7.93682858347892760000e-002) (80, 1.75834670662879940000e-001) (81, -1.28799319267272950000e+000) (82, -2.44004324078559880000e-001) (83, -1.63396857678890230000e-002) (84, -6.53661713004112240000e-002) (85, -4.76121995598077770000e-003) (86, -1.73738077282905580000e-001) (87, -5.80610185861587520000e-002) (88, 1.96170940995216370000e-001) (89, 2.94548943638801570000e-002) (90, -5.44397413730621340000e-001) (91, 1.63292437791824340000e-002) (92, -1.37148261070251460000e-001) (93, -6.46090209484100340000e-002) (94, -4.02054399251937870000e-001) (95, -6.17047548294067380000e-001) (96, -5.02032525837421420000e-002) (0, 2.45948418974876400000e-001) (1, -1.49598985910415650000e-001) (2, 1.63785077165812250000e-003) (3, 2.05163449048995970000e-001) (4, 1.15776014328002930000e+000) (5, -1.64519965648651120000e-001) (6, -7.24103450775146480000e-002) (7, 5.86600527167320250000e-002) (8, -1.01132169365882870000e-001) (9, -1.33438646793365480000e+000) (10, -2.23584353923797610000e-001) (11, -1.01524956524372100000e-001) (12, -1.55285447835922240000e-001) (13, 2.91265875101089480000e-001) (14, 1.14598703384399410000e+000) (15, 5.95222651958465580000e-001) (16, 1.47537946701049800000e-001) (17, 1.27128049731254580000e-001) (18, -2.43462882936000820000e-002) (19, -4.89536911249160770000e-001) (20, 1.39657318592071530000e-001) (21, -4.75016474723815920000e-001) (22, 1.41184657812118530000e-001) (23, 1.37833103537559510000e-001) (24, -4.58171963691711430000e-001) (25, -1.09504051506519320000e-001) (26, -5.23059546947479250000e-001) (27, 2.18425229191780090000e-001) (28, 4.06098216772079470000e-001) (29, 1.00353933870792390000e-001) (30, -3.38221490383148190000e-001) (31, -1.96672931313514710000e-001) (32, 7.14954137802124020000e-001) (33, 1.30861029028892520000e-001) (34, -8.89214217662811280000e-001) (35, -4.53910529613494870000e-002) (36, 4.23278272151947020000e-001) (37, -2.93334484100341800000e-001) (38, -7.13399529457092290000e-001) (39, -2.61951625347137450000e-001) (40, -1.43081203103065490000e-001) (41, 1.64140716195106510000e-001) (42, -8.51463153958320620000e-002) (43, -5.63413649797439580000e-002) (44, -5.63838481903076170000e-001) (45, -3.81322383880615230000e-001) (46, -2.69880801439285280000e-001) (47, -3.06133687496185300000e-001) (48, -3.83779078722000120000e-001) (49, 4.35143947601318360000e-001) (50, 4.13174390792846680000e-001) (51, -4.84192781150341030000e-002) (52, -9.95511591434478760000e-001) (53, 1.72752499580383300000e-001) (54, -2.73272931575775150000e-001) (55, -4.72399592399597170000e-001) (56, -5.83351671695709230000e-001) (57, 2.61997491121292110000e-001) (58, 2.54389256238937380000e-001) (59, -2.51190662384033200000e-001) (60, -5.73523521423339840000e-001) (61, -4.60919320583343510000e-001) (62, -6.61184728145599370000e-001) (63, -6.56834959983825680000e-001) (64, 1.01805962622165680000e-001) (65, 2.34619736671447750000e-001) (66, -4.22286808490753170000e-001) (67, -1.54068097472190860000e-001) (68, -2.24296092987060550000e-001) (69, -4.06201481819152830000e-001) (70, -5.16675412654876710000e-001) (71, -5.89604854583740230000e-001) (72, 1.65325582027435300000e-001) (73, 3.06286156177520750000e-001) (74, -7.89629757404327390000e-001) (75, -2.69705772399902340000e-001) (76, 1.15337240695953370000e+000) (77, -4.04844701290130620000e-001) (78, -6.26494824886322020000e-001) (79, -6.91128253936767580000e-001) (80, 5.36365918815135960000e-002) (81, 1.51127085089683530000e-001) (82, -1.37332046031951900000e+000) (83, 6.74196898937225340000e-001) (84, -5.17249889671802520000e-002) (85, -2.24577918648719790000e-001) (86, -7.55319356918334960000e-001) (87, -3.01306862384080890000e-002) (88, -7.30352522805333140000e-003) (89, 9.39294636249542240000e-001) (90, -1.52809098362922670000e-001) (91, -3.07269424200057980000e-001) (92, -1.83832600712776180000e-001) (93, -7.61068910360336300000e-002) (94, 1.51498690247535710000e-001) (95, -6.62366002798080440000e-002) (96, 5.34357130527496340000e-002) (0, -1.37540340423583980000e-001) (1, -8.27272608876228330000e-002) (2, -2.28193745017051700000e-001) (3, -4.03993099927902220000e-001) (4, -1.88335180282592770000e-001) (5, 1.52870371937751770000e-001) (6, 2.48115435242652890000e-001) (7, -3.49269434809684750000e-002) (8, -2.36326888203620910000e-001) (9, 3.45380418002605440000e-002) (10, -8.05228427052497860000e-002) (11, -3.61438274383544920000e-001) (12, -4.75397795438766480000e-001) (13, -2.24663749337196350000e-001) (14, 1.81003749370574950000e-001) (15, 2.52597052603960040000e-002) (16, -5.92408254742622380000e-002) (17, 5.22769466042518620000e-002) (18, -5.03404676914215090000e-001) (19, -1.21586434543132780000e-001) (20, -3.99156540632247920000e-001) (21, -5.35610139369964600000e-001) (22, -4.86556351184844970000e-001) (23, 2.98446357250213620000e-001) (24, 8.57749104499816890000e-001) (25, 9.01518404483795170000e-001) (26, -1.01835682988166810000e-001) (27, -5.53268849849700930000e-001) (28, -2.51618832349777220000e-001) (29, -2.42477253079414370000e-001) (30, -9.71709311008453370000e-001) (31, -4.84512180089950560000e-001) (32, 3.43419224023818970000e-001) (33, 2.74158060550689700000e-001) (34, 2.16310071945190430000e+000) (35, 1.61766469478607180000e+000) (36, -5.95739543437957760000e-001) (37, -6.15426480770111080000e-001) (38, -1.11789822578430180000e+000) (39, -4.42987561225891110000e-001) (40, -6.01936578750610350000e-002) (41, 2.31748789548873900000e-001) (42, 4.51126158237457280000e-001) (43, 2.40385383367538450000e-001) (44, 7.31124207377433780000e-002) (45, -3.47254186868667600000e-001) (46, -7.96890020370483400000e-001) (47, -3.45414668321609500000e-001) (48, 1.56995728611946110000e-001) (49, -6.38055205345153810000e-001) (50, -1.18710786104202270000e-001) (51, 3.62874627113342290000e-001) (52, 4.29239511489868160000e-001) (53, 9.02643278241157530000e-002) (54, 1.91008403897285460000e-001) (55, -3.92865478992462160000e-001) (56, 5.45916140079498290000e-001) (57, -8.35265398025512700000e-001) (58, -5.95755934715271000000e-001) (59, -3.75207960605621340000e-001) (60, -1.48343190550804140000e-001) (61, 4.75354552268981930000e-001) (62, 4.39421087503433230000e-001) (63, 3.97379249334335330000e-001) (64, 1.44891947507858280000e-001) (65, -7.30628669261932370000e-001) (66, -2.47928753495216370000e-001) (67, -1.70061349868774410000e-001) (68, 2.18471232801675800000e-002) (69, 5.74894957244396210000e-002) (70, 2.48698055744171140000e-001) (71, 4.75547760725021360000e-001) (72, -4.70963679254055020000e-002) (73, -3.73771697282791140000e-001) (74, -4.26881223917007450000e-001) (75, -1.26812770962715150000e-001) (76, -2.38046497106552120000e-002) (77, 7.75510743260383610000e-002) (78, 3.29390257596969600000e-001) (79, 2.08322241902351380000e-001) (80, 2.91139453649520870000e-001) (81, 3.75623032450675960000e-002) (82, 9.99942481517791750000e-001) (83, 2.83467561006546020000e-001) (84, 4.08450275659561160000e-001) (85, 5.82177579402923580000e-001) (86, 5.78850090503692630000e-001) (87, 3.48542422056198120000e-001) (88, 1.47932276129722600000e-001) (89, -6.89782261848449710000e-001) (90, -1.32304713129997250000e-001) (91, -3.58390867710113530000e-001) (92, -2.25046321749687190000e-001) (93, -3.02891373634338380000e-001) (94, -3.68758827447891240000e-001) (95, -1.71187072992324830000e-001) (96, -8.48087191581726070000e-001) 