FANN_FLO_2.1
num_layers=3
learning_rate=0.700000
connection_rate=1.000000
network_type=0
learning_momentum=0.400000
training_algorithm=0
train_error_function=1
train_stop_function=0
cascade_output_change_fraction=0.010000
quickprop_decay=-0.000100
quickprop_mu=1.750000
rprop_increase_factor=1.200000
rprop_decrease_factor=0.500000
rprop_delta_min=0.000000
rprop_delta_max=50.000000
rprop_delta_zero=0.100000
cascade_output_stagnation_epochs=12
cascade_candidate_change_fraction=0.010000
cascade_candidate_stagnation_epochs=12
cascade_max_out_epochs=150
cascade_min_out_epochs=50
cascade_max_cand_epochs=150
cascade_min_cand_epochs=50
cascade_num_candidate_groups=2
bit_fail_limit=3.49999994039535520000e-001
cascade_candidate_limit=1.00000000000000000000e+003
cascade_weight_multiplier=4.00000005960464480000e-001
cascade_activation_functions_count=10
cascade_activation_functions=3 5 7 8 10 11 14 15 16 17 
cascade_activation_steepnesses_count=4
cascade_activation_steepnesses=2.50000000000000000000e-001 5.00000000000000000000e-001 7.50000000000000000000e-001 1.00000000000000000000e+000 
layer_sizes=97 301 37 
scale_included=0
neurons (num_inputs, activation_function, activation_steepness)=(0, 0, 0.00000000000000000000e+000) (0, 0, 0.00000000000000000000e+000) (0, 0, 0.00000000000000000000e+000) (0, 0, 0.00000000000000000000e+000) (0, 0, 0.00000000000000000000e+000) (0, 0, 0.00000000000000000000e+000) (0, 0, 0.00000000000000000000e+000) (0, 0, 0.00000000000000000000e+000) (0, 0, 0.00000000000000000000e+000) (0, 0, 0.00000000000000000000e+000) (0, 0, 0.00000000000000000000e+000) (0, 0, 0.00000000000000000000e+000) (0, 0, 0.00000000000000000000e+000) (0, 0, 0.00000000000000000000e+000) (0, 0, 0.00000000000000000000e+000) (0, 0, 0.00000000000000000000e+000) (0, 0, 0.00000000000000000000e+000) (0, 0, 0.00000000000000000000e+000) (0, 0, 0.00000000000000000000e+000) (0, 0, 0.00000000000000000000e+000) (0, 0, 0.00000000000000000000e+000) (0, 0, 0.00000000000000000000e+000) (0, 0, 0.00000000000000000000e+000) (0, 0, 0.00000000000000000000e+000) (0, 0, 0.00000000000000000000e+000) (0, 0, 0.00000000000000000000e+000) (0, 0, 0.00000000000000000000e+000) (0, 0, 0.00000000000000000000e+000) (0, 0, 0.00000000000000000000e+000) (0, 0, 0.00000000000000000000e+000) (0, 0, 0.00000000000000000000e+000) (0, 0, 0.00000000000000000000e+000) (0, 0, 0.00000000000000000000e+000) (0, 0, 0.00000000000000000000e+000) (0, 0, 0.00000000000000000000e+000) (0, 0, 0.00000000000000000000e+000) (0, 0, 0.00000000000000000000e+000) (0, 0, 0.00000000000000000000e+000) (0, 0, 0.00000000000000000000e+000) (0, 0, 0.00000000000000000000e+000) (0, 0, 0.00000000000000000000e+000) (0, 0, 0.00000000000000000000e+000) (0, 0, 0.00000000000000000000e+000) (0, 0, 0.00000000000000000000e+000) (0, 0, 0.00000000000000000000e+000) (0, 0, 0.00000000000000000000e+000) (0, 0, 0.00000000000000000000e+000) (0, 0, 0.00000000000000000000e+000) (0, 0, 0.00000000000000000000e+000) (0, 0, 0.00000000000000000000e+000) (0, 0, 0.00000000000000000000e+000) (0, 0, 0.00000000000000000000e+000) (0, 0, 0.00000000000000000000e+000) (0, 0, 0.00000000000000000000e+000) (0, 0, 0.00000000000000000000e+000) (0, 0, 0.00000000000000000000e+000) (0, 0, 0.00000000000000000000e+000) (0, 0, 0.00000000000000000000e+000) (0, 0, 0.00000000000000000000e+000) (0, 0, 0.00000000000000000000e+000) (0, 0, 0.00000000000000000000e+000) (0, 0, 0.00000000000000000000e+000) (0, 0, 0.00000000000000000000e+000) (0, 0, 0.00000000000000000000e+000) (0, 0, 0.00000000000000000000e+000) (0, 0, 0.00000000000000000000e+000) (0, 0, 0.00000000000000000000e+000) (0, 0, 0.00000000000000000000e+000) (0, 0, 0.00000000000000000000e+000) (0, 0, 0.00000000000000000000e+000) (0, 0, 0.00000000000000000000e+000) (0, 0, 0.00000000000000000000e+000) (0, 0, 0.00000000000000000000e+000) (0, 0, 0.00000000000000000000e+000) (0, 0, 0.00000000000000000000e+000) (0, 0, 0.00000000000000000000e+000) (0, 0, 0.00000000000000000000e+000) (0, 0, 0.00000000000000000000e+000) (0, 0, 0.00000000000000000000e+000) (0, 0, 0.00000000000000000000e+000) (0, 0, 0.00000000000000000000e+000) (0, 0, 0.00000000000000000000e+000) (0, 0, 0.00000000000000000000e+000) (0, 0, 0.00000000000000000000e+000) (0, 0, 0.00000000000000000000e+000) (0, 0, 0.00000000000000000000e+000) (0, 0, 0.00000000000000000000e+000) (0, 0, 0.00000000000000000000e+000) (0, 0, 0.00000000000000000000e+000) (0, 0, 0.00000000000000000000e+000) (0, 0, 0.00000000000000000000e+000) (0, 0, 0.00000000000000000000e+000) (0, 0, 0.00000000000000000000e+000) (0, 0, 0.00000000000000000000e+000) (0, 0, 0.00000000000000000000e+000) (0, 0, 0.00000000000000000000e+000) (0, 0, 0.00000000000000000000e+000) (97, 4, 5.00000000000000000000e-001) (97, 4, 5.00000000000000000000e-001) (97, 4, 5.00000000000000000000e-001) (97, 4, 5.00000000000000000000e-001) (97, 4, 5.00000000000000000000e-001) (97, 4, 5.00000000000000000000e-001) (97, 4, 5.00000000000000000000e-001) (97, 4, 5.00000000000000000000e-001) (97, 4, 5.00000000000000000000e-001) (97, 4, 5.00000000000000000000e-001) (97, 4, 5.00000000000000000000e-001) (97, 4, 5.00000000000000000000e-001) (97, 4, 5.00000000000000000000e-001) (97, 4, 5.00000000000000000000e-001) (97, 4, 5.00000000000000000000e-001) (97, 4, 5.00000000000000000000e-001) (97, 4, 5.00000000000000000000e-001) (97, 4, 5.00000000000000000000e-001) (97, 4, 5.00000000000000000000e-001) (97, 4, 5.00000000000000000000e-001) (97, 4, 5.00000000000000000000e-001) (97, 4, 5.00000000000000000000e-001) (97, 4, 5.00000000000000000000e-001) (97, 4, 5.00000000000000000000e-001) (97, 4, 5.00000000000000000000e-001) (97, 4, 5.00000000000000000000e-001) (97, 4, 5.00000000000000000000e-001) (97, 4, 5.00000000000000000000e-001) (97, 4, 5.00000000000000000000e-001) (97, 4, 5.00000000000000000000e-001) (97, 4, 5.00000000000000000000e-001) (97, 4, 5.00000000000000000000e-001) (97, 4, 5.00000000000000000000e-001) (97, 4, 5.00000000000000000000e-001) (97, 4, 5.00000000000000000000e-001) (97, 4, 5.00000000000000000000e-001) (97, 4, 5.00000000000000000000e-001) (97, 4, 5.00000000000000000000e-001) (97, 4, 5.00000000000000000000e-001) (97, 4, 5.00000000000000000000e-001) (97, 4, 5.00000000000000000000e-001) (97, 4, 5.00000000000000000000e-001) (97, 4, 5.00000000000000000000e-001) (97, 4, 5.00000000000000000000e-001) (97, 4, 5.00000000000000000000e-001) (97, 4, 5.00000000000000000000e-001) (97, 4, 5.00000000000000000000e-001) (97, 4, 5.00000000000000000000e-001) (97, 4, 5.00000000000000000000e-001) (97, 4, 5.00000000000000000000e-001) (97, 4, 5.00000000000000000000e-001) (97, 4, 5.00000000000000000000e-001) (97, 4, 5.00000000000000000000e-001) (97, 4, 5.00000000000000000000e-001) (97, 4, 5.00000000000000000000e-001) (97, 4, 5.00000000000000000000e-001) (97, 4, 5.00000000000000000000e-001) (97, 4, 5.00000000000000000000e-001) (97, 4, 5.00000000000000000000e-001) (97, 4, 5.00000000000000000000e-001) (97, 4, 5.00000000000000000000e-001) (97, 4, 5.00000000000000000000e-001) (97, 4, 5.00000000000000000000e-001) (97, 4, 5.00000000000000000000e-001) (97, 4, 5.00000000000000000000e-001) (97, 4, 5.00000000000000000000e-001) (97, 4, 5.00000000000000000000e-001) (97, 4, 5.00000000000000000000e-001) (97, 4, 5.00000000000000000000e-001) (97, 4, 5.00000000000000000000e-001) (97, 4, 5.00000000000000000000e-001) (97, 4, 5.00000000000000000000e-001) (97, 4, 5.00000000000000000000e-001) (97, 4, 5.00000000000000000000e-001) (97, 4, 5.00000000000000000000e-001) (97, 4, 5.00000000000000000000e-001) (97, 4, 5.00000000000000000000e-001) (97, 4, 5.00000000000000000000e-001) (97, 4, 5.00000000000000000000e-001) (97, 4, 5.00000000000000000000e-001) (97, 4, 5.00000000000000000000e-001) (97, 4, 5.00000000000000000000e-001) (97, 4, 5.00000000000000000000e-001) (97, 4, 5.00000000000000000000e-001) (97, 4, 5.00000000000000000000e-001) (97, 4, 5.00000000000000000000e-001) (97, 4, 5.00000000000000000000e-001) (97, 4, 5.00000000000000000000e-001) (97, 4, 5.00000000000000000000e-001) (97, 4, 5.00000000000000000000e-001) (97, 4, 5.00000000000000000000e-001) (97, 4, 5.00000000000000000000e-001) (97, 4, 5.00000000000000000000e-001) (97, 4, 5.00000000000000000000e-001) (97, 4, 5.00000000000000000000e-001) (97, 4, 5.00000000000000000000e-001) (97, 4, 5.00000000000000000000e-001) (97, 4, 5.00000000000000000000e-001) (97, 4, 5.00000000000000000000e-001) (97, 4, 5.00000000000000000000e-001) (97, 4, 5.00000000000000000000e-001) (97, 4, 5.00000000000000000000e-001) (97, 4, 5.00000000000000000000e-001) (97, 4, 5.00000000000000000000e-001) (97, 4, 5.00000000000000000000e-001) (97, 4, 5.00000000000000000000e-001) (97, 4, 5.00000000000000000000e-001) (97, 4, 5.00000000000000000000e-001) (97, 4, 5.00000000000000000000e-001) (97, 4, 5.00000000000000000000e-001) (97, 4, 5.00000000000000000000e-001) (97, 4, 5.00000000000000000000e-001) (97, 4, 5.00000000000000000000e-001) (97, 4, 5.00000000000000000000e-001) (97, 4, 5.00000000000000000000e-001) (97, 4, 5.00000000000000000000e-001) (97, 4, 5.00000000000000000000e-001) (97, 4, 5.00000000000000000000e-001) (97, 4, 5.00000000000000000000e-001) (97, 4, 5.00000000000000000000e-001) (97, 4, 5.00000000000000000000e-001) (97, 4, 5.00000000000000000000e-001) (97, 4, 5.00000000000000000000e-001) (97, 4, 5.00000000000000000000e-001) (97, 4, 5.00000000000000000000e-001) (97, 4, 5.00000000000000000000e-001) (97, 4, 5.00000000000000000000e-001) (97, 4, 5.00000000000000000000e-001) (97, 4, 5.00000000000000000000e-001) (97, 4, 5.00000000000000000000e-001) (97, 4, 5.00000000000000000000e-001) (97, 4, 5.00000000000000000000e-001) (97, 4, 5.00000000000000000000e-001) (97, 4, 5.00000000000000000000e-001) (97, 4, 5.00000000000000000000e-001) (97, 4, 5.00000000000000000000e-001) (97, 4, 5.00000000000000000000e-001) (97, 4, 5.00000000000000000000e-001) (97, 4, 5.00000000000000000000e-001) (97, 4, 5.00000000000000000000e-001) (97, 4, 5.00000000000000000000e-001) (97, 4, 5.00000000000000000000e-001) (97, 4, 5.00000000000000000000e-001) (97, 4, 5.00000000000000000000e-001) (97, 4, 5.00000000000000000000e-001) (97, 4, 5.00000000000000000000e-001) (97, 4, 5.00000000000000000000e-001) (97, 4, 5.00000000000000000000e-001) (97, 4, 5.00000000000000000000e-001) (97, 4, 5.00000000000000000000e-001) (97, 4, 5.00000000000000000000e-001) (97, 4, 5.00000000000000000000e-001) (97, 4, 5.00000000000000000000e-001) (97, 4, 5.00000000000000000000e-001) (97, 4, 5.00000000000000000000e-001) (97, 4, 5.00000000000000000000e-001) (97, 4, 5.00000000000000000000e-001) (97, 4, 5.00000000000000000000e-001) (97, 4, 5.00000000000000000000e-001) (97, 4, 5.00000000000000000000e-001) (97, 4, 5.00000000000000000000e-001) (97, 4, 5.00000000000000000000e-001) (97, 4, 5.00000000000000000000e-001) (97, 4, 5.00000000000000000000e-001) (97, 4, 5.00000000000000000000e-001) (97, 4, 5.00000000000000000000e-001) (97, 4, 5.00000000000000000000e-001) (97, 4, 5.00000000000000000000e-001) (97, 4, 5.00000000000000000000e-001) (97, 4, 5.00000000000000000000e-001) (97, 4, 5.00000000000000000000e-001) (97, 4, 5.00000000000000000000e-001) (97, 4, 5.00000000000000000000e-001) (97, 4, 5.00000000000000000000e-001) (97, 4, 5.00000000000000000000e-001) (97, 4, 5.00000000000000000000e-001) (97, 4, 5.00000000000000000000e-001) (97, 4, 5.00000000000000000000e-001) (97, 4, 5.00000000000000000000e-001) (97, 4, 5.00000000000000000000e-001) (97, 4, 5.00000000000000000000e-001) (97, 4, 5.00000000000000000000e-001) (97, 4, 5.00000000000000000000e-001) (97, 4, 5.00000000000000000000e-001) (97, 4, 5.00000000000000000000e-001) (97, 4, 5.00000000000000000000e-001) (97, 4, 5.00000000000000000000e-001) (97, 4, 5.00000000000000000000e-001) (97, 4, 5.00000000000000000000e-001) (97, 4, 5.00000000000000000000e-001) (97, 4, 5.00000000000000000000e-001) (97, 4, 5.00000000000000000000e-001) (97, 4, 5.00000000000000000000e-001) (97, 4, 5.00000000000000000000e-001) (97, 4, 5.00000000000000000000e-001) (97, 4, 5.00000000000000000000e-001) (97, 4, 5.00000000000000000000e-001) (97, 4, 5.00000000000000000000e-001) (97, 4, 5.00000000000000000000e-001) (97, 4, 5.00000000000000000000e-001) (97, 4, 5.00000000000000000000e-001) (97, 4, 5.00000000000000000000e-001) (97, 4, 5.00000000000000000000e-001) (97, 4, 5.00000000000000000000e-001) (97, 4, 5.00000000000000000000e-001) (97, 4, 5.00000000000000000000e-001) (97, 4, 5.00000000000000000000e-001) (97, 4, 5.00000000000000000000e-001) (97, 4, 5.00000000000000000000e-001) (97, 4, 5.00000000000000000000e-001) (97, 4, 5.00000000000000000000e-001) (97, 4, 5.00000000000000000000e-001) (97, 4, 5.00000000000000000000e-001) (97, 4, 5.00000000000000000000e-001) (97, 4, 5.00000000000000000000e-001) (97, 4, 5.00000000000000000000e-001) (97, 4, 5.00000000000000000000e-001) (97, 4, 5.00000000000000000000e-001) (97, 4, 5.00000000000000000000e-001) (97, 4, 5.00000000000000000000e-001) (97, 4, 5.00000000000000000000e-001) (97, 4, 5.00000000000000000000e-001) (97, 4, 5.00000000000000000000e-001) (97, 4, 5.00000000000000000000e-001) (97, 4, 5.00000000000000000000e-001) (97, 4, 5.00000000000000000000e-001) (97, 4, 5.00000000000000000000e-001) (97, 4, 5.00000000000000000000e-001) (97, 4, 5.00000000000000000000e-001) (97, 4, 5.00000000000000000000e-001) (97, 4, 5.00000000000000000000e-001) (97, 4, 5.00000000000000000000e-001) (97, 4, 5.00000000000000000000e-001) (97, 4, 5.00000000000000000000e-001) (97, 4, 5.00000000000000000000e-001) (97, 4, 5.00000000000000000000e-001) (97, 4, 5.00000000000000000000e-001) (97, 4, 5.00000000000000000000e-001) (97, 4, 5.00000000000000000000e-001) (97, 4, 5.00000000000000000000e-001) (97, 4, 5.00000000000000000000e-001) (97, 4, 5.00000000000000000000e-001) (97, 4, 5.00000000000000000000e-001) (97, 4, 5.00000000000000000000e-001) (97, 4, 5.00000000000000000000e-001) (97, 4, 5.00000000000000000000e-001) (97, 4, 5.00000000000000000000e-001) (97, 4, 5.00000000000000000000e-001) (97, 4, 5.00000000000000000000e-001) (97, 4, 5.00000000000000000000e-001) (97, 4, 5.00000000000000000000e-001) (97, 4, 5.00000000000000000000e-001) (97, 4, 5.00000000000000000000e-001) (97, 4, 5.00000000000000000000e-001) (97, 4, 5.00000000000000000000e-001) (97, 4, 5.00000000000000000000e-001) (97, 4, 5.00000000000000000000e-001) (97, 4, 5.00000000000000000000e-001) (97, 4, 5.00000000000000000000e-001) (97, 4, 5.00000000000000000000e-001) (97, 4, 5.00000000000000000000e-001) (97, 4, 5.00000000000000000000e-001) (97, 4, 5.00000000000000000000e-001) (97, 4, 5.00000000000000000000e-001) (97, 4, 5.00000000000000000000e-001) (97, 4, 5.00000000000000000000e-001) (97, 4, 5.00000000000000000000e-001) (97, 4, 5.00000000000000000000e-001) (97, 4, 5.00000000000000000000e-001) (97, 4, 5.00000000000000000000e-001) (97, 4, 5.00000000000000000000e-001) (97, 4, 5.00000000000000000000e-001) (97, 4, 5.00000000000000000000e-001) (97, 4, 5.00000000000000000000e-001) (97, 4, 5.00000000000000000000e-001) (97, 4, 5.00000000000000000000e-001) (97, 4, 5.00000000000000000000e-001) (97, 4, 5.00000000000000000000e-001) (97, 4, 5.00000000000000000000e-001) (97, 4, 5.00000000000000000000e-001) (97, 4, 5.00000000000000000000e-001) (97, 4, 5.00000000000000000000e-001) (97, 4, 5.00000000000000000000e-001) (97, 4, 5.00000000000000000000e-001) (97, 4, 5.00000000000000000000e-001) (97, 4, 5.00000000000000000000e-001) (97, 4, 5.00000000000000000000e-001) (97, 4, 5.00000000000000000000e-001) (97, 4, 5.00000000000000000000e-001) (97, 4, 5.00000000000000000000e-001) (97, 4, 5.00000000000000000000e-001) (97, 4, 5.00000000000000000000e-001) (97, 4, 5.00000000000000000000e-001) (97, 4, 5.00000000000000000000e-001) (97, 4, 5.00000000000000000000e-001) (97, 4, 5.00000000000000000000e-001) (97, 4, 5.00000000000000000000e-001) (97, 4, 5.00000000000000000000e-001) (97, 4, 5.00000000000000000000e-001) (97, 4, 5.00000000000000000000e-001) (0, 0, 0.00000000000000000000e+000) (301, 4, 5.00000000000000000000e-001) (301, 4, 5.00000000000000000000e-001) (301, 4, 5.00000000000000000000e-001) (301, 4, 5.00000000000000000000e-001) (301, 4, 5.00000000000000000000e-001) (301, 4, 5.00000000000000000000e-001) (301, 4, 5.00000000000000000000e-001) (301, 4, 5.00000000000000000000e-001) (301, 4, 5.00000000000000000000e-001) (301, 4, 5.00000000000000000000e-001) (301, 4, 5.00000000000000000000e-001) (301, 4, 5.00000000000000000000e-001) (301, 4, 5.00000000000000000000e-001) (301, 4, 5.00000000000000000000e-001) (301, 4, 5.00000000000000000000e-001) (301, 4, 5.00000000000000000000e-001) (301, 4, 5.00000000000000000000e-001) (301, 4, 5.00000000000000000000e-001) (301, 4, 5.00000000000000000000e-001) (301, 4, 5.00000000000000000000e-001) (301, 4, 5.00000000000000000000e-001) (301, 4, 5.00000000000000000000e-001) (301, 4, 5.00000000000000000000e-001) (301, 4, 5.00000000000000000000e-001) (301, 4, 5.00000000000000000000e-001) (301, 4, 5.00000000000000000000e-001) (301, 4, 5.00000000000000000000e-001) (301, 4, 5.00000000000000000000e-001) (301, 4, 5.00000000000000000000e-001) (301, 4, 5.00000000000000000000e-001) (301, 4, 5.00000000000000000000e-001) (301, 4, 5.00000000000000000000e-001) (301, 4, 5.00000000000000000000e-001) (301, 4, 5.00000000000000000000e-001) (301, 4, 5.00000000000000000000e-001) (301, 4, 5.00000000000000000000e-001) (0, 0, 0.00000000000000000000e+000) 
connections (connected_to_neuron, weight)=(0, -2.83390611410140990000e-001) (1, -2.34120488166809080000e-001) (2, -1.05919592082500460000e-001) (3, -1.70993328094482420000e-001) (4, -2.27591514587402340000e-001) (5, 1.58595487475395200000e-001) (6, -1.33977845311164860000e-001) (7, -7.82264247536659240000e-002) (8, -3.70953351259231570000e-001) (9, -2.65090703964233400000e-001) (10, 2.57645606994628910000e-001) (11, 1.97232335805892940000e-001) (12, 1.57778263092041020000e-001) (13, 1.30614295601844790000e-001) (14, -1.89518518745899200000e-002) (15, -1.05085343122482300000e-001) (16, -2.46667355298995970000e-001) (17, 2.86016911268234250000e-001) (18, 5.60819923877716060000e-001) (19, 6.73549532890319820000e-001) (20, -9.87949222326278690000e-002) (21, -2.06999436020851140000e-001) (22, -1.05651579797267910000e-001) (23, -2.38346949219703670000e-001) (24, 4.59573678672313690000e-002) (25, 1.99392572045326230000e-001) (26, 2.10995241999626160000e-001) (27, -2.85552054643630980000e-001) (28, -2.86177337169647220000e-001) (29, -7.43817612528800960000e-002) (30, -5.02375327050685880000e-002) (31, -4.42421257495880130000e-001) (32, -1.44686147570610050000e-001) (33, 1.65232583880424500000e-001) (34, -3.14954929053783420000e-002) (35, -2.48917236924171450000e-001) (36, -1.89410775899887080000e-001) (37, -1.45925372838974000000e-001) (38, -1.53886735439300540000e-001) (39, -4.18593317270278930000e-001) (40, 6.99318498373031620000e-002) (41, 1.35654121637344360000e-001) (42, -3.05485844612121580000e-001) (43, -1.30353137850761410000e-001) (44, -1.52475982904434200000e-001) (45, -6.26760497689247130000e-002) (46, -3.55273075401782990000e-002) (47, -4.04476284980773930000e-001) (48, -2.42976650595664980000e-001) (49, 1.79545376449823380000e-002) (50, -7.97842264175415040000e-001) (51, -6.80495023727416990000e-001) (52, -6.38716936111450200000e-001) (53, -5.31672179698944090000e-001) (54, -8.70631635189056400000e-003) (55, -3.98198276758193970000e-001) (56, 6.24666213989257810000e-001) (57, 5.81421051174402240000e-003) (58, -2.75960773229599000000e-001) (59, -3.36478084325790410000e-001) (60, -1.69632062315940860000e-001) (61, -9.07352101057767870000e-003) (62, 4.42682206630706790000e-002) (63, -4.58842277526855470000e-001) (64, 5.64172983169555660000e-001) (65, -1.47431507706642150000e-001) (66, -1.21870398521423340000e-001) (67, -1.85745984315872190000e-001) (68, -2.07813799381256100000e-001) (69, -3.27704846858978270000e-002) (70, 1.40924051403999330000e-001) (71, -4.50315505266189580000e-001) (72, -1.13866962492465970000e-001) (73, -6.20450302958488460000e-002) (74, -3.11473459005355830000e-001) (75, -2.69685596227645870000e-001) (76, -1.89373955130577090000e-001) (77, 2.00711339712142940000e-001) (78, 5.32810688018798830000e-001) (79, -3.27710539102554320000e-001) (80, -3.18509787321090700000e-001) (81, -1.05564650148153310000e-002) (82, 2.29102462530136110000e-001) (83, 4.14999842643737790000e-001) (84, -2.04363223165273670000e-002) (85, 6.44192993640899660000e-001) (86, 2.60262846946716310000e-001) (87, -1.28694921731948850000e-001) (88, -1.35914022102952000000e-002) (89, -3.71707886457443240000e-001) (90, 2.17692062258720400000e-001) (91, 2.75968492031097410000e-001) (92, 2.01766833662986760000e-001) (93, 2.12589070200920100000e-001) (94, -1.51365295052528380000e-001) (95, -2.46244743466377260000e-001) (96, -1.70036390423774720000e-001) (0, -1.70983061194419860000e-001) (1, -1.20572306215763090000e-001) (2, -1.37257069349288940000e-001) (3, -9.17417109012603760000e-002) (4, -3.36981862783432010000e-002) (5, -3.12822079285979270000e-003) (6, -6.79980665445327760000e-002) (7, -8.33191648125648500000e-002) (8, -1.31958529353141780000e-001) (9, -3.12982201576232910000e-001) (10, -7.82239064574241640000e-002) (11, -2.46327176690101620000e-001) (12, -2.85179298371076580000e-002) (13, -1.12192118540406230000e-002) (14, -1.25650137662887570000e-001) (15, 3.26619967818260190000e-002) (16, -1.57451748847961430000e-001) (17, -1.58023849129676820000e-001) (18, -3.14988829195499420000e-002) (19, 5.59779070317745210000e-002) (20, -1.33537566289305690000e-002) (21, -4.67317663133144380000e-002) (22, -2.07660287618637080000e-001) (23, -1.33090615272521970000e-001) (24, -1.36501327157020570000e-001) (25, -1.08523041009902950000e-001) (26, 2.31865048408508300000e-002) (27, 5.79038597643375400000e-002) (28, -7.01776333153247830000e-003) (29, -1.19386874139308930000e-002) (30, -1.27324342727661130000e-001) (31, -1.14103145897388460000e-001) (32, -1.46852368488907810000e-002) (33, -2.43675112724304200000e-001) (34, 1.65683776140213010000e-002) (35, 6.45308420062065120000e-002) (36, -7.11542293429374690000e-002) (37, 8.23714733123779300000e-002) (38, -8.28359499573707580000e-002) (39, -3.69266495108604430000e-002) (40, -1.37163326144218440000e-001) (41, -1.02303236722946170000e-001) (42, -3.40686440467834470000e-002) (43, -3.79889160394668580000e-002) (44, 2.45705209672451020000e-002) (45, 7.21353814005851750000e-002) (46, 3.68534810841083530000e-002) (47, -8.81743207573890690000e-002) (48, -8.81281346082687380000e-002) (49, -2.00760036706924440000e-001) (50, -7.45097175240516660000e-002) (51, -1.30307361483573910000e-001) (52, -2.33772218227386470000e-001) (53, 4.42832782864570620000e-002) (54, 7.36085232347249980000e-004) (55, -9.43839177489280700000e-002) (56, -1.18640944361686710000e-001) (57, -1.52817264199256900000e-001) (58, -3.38287018239498140000e-002) (59, -1.01932860910892490000e-001) (60, -1.47342622280120850000e-001) (61, 1.08464106917381290000e-001) (62, -2.72908601909875870000e-002) (63, -6.57472461462020870000e-002) (64, 2.14872751384973530000e-002) (65, -7.22443535923957820000e-002) (66, -4.32732561603188510000e-003) (67, -2.07941532135009770000e-001) (68, -2.10675105452537540000e-001) (69, 1.43393939360976220000e-002) (70, 7.31378272175788880000e-002) (71, -9.20168012380599980000e-002) (72, -6.82671293616294860000e-002) (73, 4.63051050901412960000e-002) (74, 3.81468492560088630000e-003) (75, 6.94633694365620610000e-003) (76, 1.62257328629493710000e-002) (77, 1.09950639307498930000e-001) (78, -6.79736882448196410000e-002) (79, -7.25632458925247190000e-002) (80, -1.08002841472625730000e-001) (81, -9.91846844553947450000e-002) (82, -1.44724827259778980000e-002) (83, -6.24504266306757930000e-003) (84, -3.73367592692375180000e-002) (85, 4.11492167040705680000e-003) (86, -5.65689839422702790000e-002) (87, 4.65661846101284030000e-002) (88, -1.49093151092529300000e-001) (89, -8.86512398719787600000e-002) (90, -1.80231913924217220000e-001) (91, -2.83649832010269170000e-001) (92, -2.51376211643218990000e-001) (93, -4.08507622778415680000e-002) (94, -2.77555789798498150000e-002) (95, 1.05175361037254330000e-001) (96, -2.24854394793510440000e-001) (0, 5.10433055460453030000e-002) (1, 1.34907141327857970000e-001) (2, 8.89913290739059450000e-002) (3, -1.06193460524082180000e-001) (4, 7.82869234681129460000e-002) (5, 2.18560308218002320000e-001) (6, 3.25587801635265350000e-002) (7, 1.35638982057571410000e-001) (8, 6.82628974318504330000e-002) (9, 1.01118274033069610000e-001) (10, -1.06988683342933650000e-001) (11, -6.56578987836837770000e-002) (12, 6.37604817748069760000e-002) (13, 7.96656012535095210000e-002) (14, -1.01911567151546480000e-001) (15, -1.02862867061048750000e-003) (16, -6.20907247066497800000e-002) (17, -3.26661288738250730000e-001) (18, -1.92895784974098210000e-001) (19, 2.85461843013763430000e-002) (20, -1.08436360955238340000e-001) (21, 8.16799849271774290000e-002) (22, -7.52801448106765750000e-002) (23, -5.55793270468711850000e-002) (24, -4.13670167326927190000e-002) (25, -2.75745838880538940000e-001) (26, 1.19657255709171300000e-001) (27, 2.47552003711462020000e-002) (28, -1.08675554394721980000e-001) (29, 2.50733699649572370000e-002) (30, 3.32597941160202030000e-002) (31, 2.21029650419950490000e-002) (32, -5.17507689073681830000e-003) (33, -2.36922681331634520000e-001) (34, -6.92312121391296390000e-002) (35, -9.39939245581626890000e-002) (36, -6.99558258056640630000e-002) (37, 2.29538261890411380000e-001) (38, -3.66068482398986820000e-002) (39, -1.19034662842750550000e-001) (40, -2.07696706056594850000e-002) (41, -1.90446317195892330000e-001) (42, -1.47220030426979060000e-001) (43, -2.05959156155586240000e-001) (44, 1.80091515183448790000e-001) (45, 4.61261160671710970000e-002) (46, -2.26557210087776180000e-001) (47, 3.92309799790382390000e-002) (48, -2.97936480492353440000e-002) (49, -1.72513186931610110000e-001) (50, -2.11042001843452450000e-001) (51, 5.41793033480644230000e-002) (52, -2.51406747847795490000e-002) (53, -1.10388569533824920000e-001) (54, -2.09843888878822330000e-001) (55, 6.75045792013406750000e-003) (56, -7.21993967890739440000e-002) (57, -2.00023218989372250000e-001) (58, -8.90318080782890320000e-002) (59, 5.04333749413490300000e-002) (60, -1.00315518677234650000e-001) (61, 1.28574997186660770000e-001) (62, -1.17790415883064270000e-001) (63, 2.83645931631326680000e-002) (64, -1.36289209127426150000e-001) (65, -1.31518423557281490000e-001) (66, -1.41476104035973550000e-002) (67, -7.36753344535827640000e-002) (68, -2.07788214087486270000e-001) (69, -2.93204411864280700000e-002) (70, -1.66352540254592900000e-002) (71, 4.92751970887184140000e-002) (72, 1.08848540112376210000e-002) (73, -1.29446804523468020000e-001) (74, 7.71650820970535280000e-002) (75, -1.22957251965999600000e-001) (76, -4.85981702804565430000e-002) (77, 1.78349003195762630000e-001) (78, -1.96082070469856260000e-002) (79, -9.30314809083938600000e-002) (80, -1.10967144370079040000e-001) (81, -1.92729428410530090000e-001) (82, -4.35338765382766720000e-002) (83, -1.38718992471694950000e-001) (84, -8.39334279298782350000e-002) (85, 8.92896875739097600000e-002) (86, -1.08887232840061190000e-001) (87, -1.13640695810317990000e-001) (88, -1.71142041683197020000e-001) (89, 1.22234769165515900000e-001) (90, -4.07322049140930180000e-002) (91, -2.67161160707473750000e-001) (92, -2.24103465676307680000e-001) (93, -2.02844664454460140000e-001) (94, -2.27354243397712710000e-001) (95, 4.68214564025402070000e-002) (96, -1.22248537838459010000e-001) (0, -7.90875554084777830000e-002) (1, -2.41632666438817980000e-002) (2, -7.50769451260566710000e-002) (3, 1.09098106622695920000e-001) (4, -6.21176464483141900000e-003) (5, -9.69936326146125790000e-003) (6, -3.45124602317810060000e-001) (7, -1.10948339104652400000e-001) (8, -1.63825333118438720000e-001) (9, -2.40710139274597170000e-001) (10, -1.44191861152648930000e-001) (11, -6.39146938920021060000e-002) (12, 4.62808907032012940000e-002) (13, -1.58008545637130740000e-001) (14, -2.52772986888885500000e-001) (15, -9.11482982337474820000e-003) (16, 6.63289129734039310000e-002) (17, 3.69769544340670110000e-003) (18, 6.62228316068649290000e-002) (19, 1.42691582441329960000e-001) (20, 1.28875732421875000000e-001) (21, -4.60348688066005710000e-002) (22, -1.52058243751525880000e-001) (23, -1.96651428937911990000e-001) (24, 2.72831600159406660000e-002) (25, -8.08859467506408690000e-002) (26, -9.02026817202568050000e-002) (27, 1.05416677892208100000e-001) (28, 1.48348629474639890000e-001) (29, -2.96708755195140840000e-002) (30, -8.05327445268630980000e-002) (31, -1.25445410609245300000e-001) (32, 6.14828951656818390000e-002) (33, -7.70985335111618040000e-002) (34, -1.99403882026672360000e-001) (35, 3.77738624811172490000e-002) (36, 4.26975749433040620000e-002) (37, -8.35941061377525330000e-002) (38, -1.07616089284420010000e-001) (39, 2.03915610909461980000e-002) (40, 9.07715931534767150000e-002) (41, -1.61855012178421020000e-001) (42, -1.30589470267295840000e-001) (43, 9.22428593039512630000e-002) (44, -1.89614277333021160000e-002) (45, -2.28260252624750140000e-002) (46, 1.47674039006233220000e-001) (47, -3.94538566470146180000e-002) (48, -1.29767850041389470000e-001) (49, -8.87405052781105040000e-002) (50, -1.17333389818668370000e-001) (51, -1.50433899834752080000e-002) (52, -1.93635985255241390000e-001) (53, 1.82726029306650160000e-002) (54, -3.60885597765445710000e-002) (55, -2.33108595013618470000e-001) (56, -7.47459232807159420000e-002) (57, -9.27661657333374020000e-002) (58, -1.91023778170347210000e-002) (59, 7.33331218361854550000e-002) (60, 1.55532687902450560000e-001) (61, 1.04281552135944370000e-001) (62, -1.36970415711402890000e-001) (63, -8.04604887962341310000e-002) (64, -9.94018763303756710000e-002) (65, -1.45865693688392640000e-001) (66, -1.54928769916296010000e-002) (67, 3.55903282761573790000e-002) (68, 1.51402413845062260000e-001) (69, -1.15851804614067080000e-001) (70, -9.37001779675483700000e-002) (71, -1.59971669316291810000e-001) (72, -1.33817926049232480000e-001) (73, -6.42064958810806270000e-002) (74, -1.49120092391967770000e-001) (75, 1.20074808597564700000e-001) (76, 2.68335580825805660000e-001) (77, 1.35334944352507590000e-002) (78, -1.04544512927532200000e-001) (79, -1.11526828259229660000e-002) (80, 1.83729305863380430000e-002) (81, -6.38582557439804080000e-002) (82, -1.01078785955905910000e-001) (83, 5.52795529365539550000e-002) (84, -2.66021192073822020000e-002) (85, -8.40592533349990840000e-002) (86, -6.12756684422492980000e-002) (87, -3.42171899974346160000e-002) (88, -1.44826740026474000000e-001) (89, -8.59171035699546340000e-004) (90, -1.15107715129852290000e-001) (91, -1.28494370728731160000e-002) (92, -1.17245338857173920000e-001) (93, -2.46115222573280330000e-001) (94, -1.72679483890533450000e-001) (95, -2.91118677705526350000e-002) (96, -1.77000105381011960000e-001) (0, -9.53219234943389890000e-002) (1, -2.44187623262405400000e-001) (2, -4.23764847218990330000e-002) (3, -1.02366283535957340000e-001) (4, 3.07930678129196170000e-001) (5, -8.13448503613471980000e-002) (6, -3.39162379503250120000e-001) (7, -1.46455079317092900000e-001) (8, -3.10400873422622680000e-001) (9, -2.80066967010498050000e-001) (10, -2.62953769415616990000e-002) (11, 4.28584441542625430000e-002) (12, 3.78965400159358980000e-002) (13, -4.95072565972805020000e-002) (14, -8.53985324501991270000e-002) (15, -8.67343135178089140000e-003) (16, 2.34807413071393970000e-002) (17, 4.83127422630786900000e-002) (18, 7.84453898668289180000e-002) (19, -2.82103002071380620000e-001) (20, -2.44431778788566590000e-001) (21, 4.38174605369567870000e-002) (22, 2.60172426700592040000e-001) (23, 1.85069203376770020000e-001) (24, 2.42751047015190120000e-001) (25, 8.15463960170745850000e-002) (26, -5.13576567173004150000e-002) (27, -1.17397479712963100000e-001) (28, -1.07736915349960330000e-001) (29, -9.95690599083900450000e-002) (30, 9.18763056397438050000e-002) (31, -1.17180354893207550000e-001) (32, -2.39237651228904720000e-001) (33, 1.71526998281478880000e-001) (34, -1.67125239968299870000e-001) (35, -1.09713420271873470000e-001) (36, -1.79989054799079900000e-001) (37, -7.69282504916191100000e-002) (38, 3.07681828737258910000e-001) (39, -3.39529633522033690000e-001) (40, -3.84009033441543580000e-001) (41, -2.15720687992870810000e-003) (42, 2.52990871667861940000e-001) (43, 6.00668676197528840000e-002) (44, 1.16681702435016630000e-001) (45, -1.76862906664609910000e-002) (46, 1.95403352379798890000e-001) (47, -3.20113003253936770000e-001) (48, -4.04753804206848140000e-001) (49, -2.16317743062973020000e-001) (50, 3.35391789674758910000e-001) (51, 3.39206844568252560000e-001) (52, 2.97030776739120480000e-001) (53, 2.57802903652191160000e-001) (54, 5.93377761542797090000e-002) (55, -5.05737066268920900000e-001) (56, -4.01371896266937260000e-001) (57, -1.37374565005302430000e-001) (58, -5.22233732044696810000e-002) (59, -2.40446433424949650000e-001) (60, -9.93430018424987790000e-002) (61, 2.00720921158790590000e-001) (62, 6.76722824573516850000e-001) (63, 3.55063557624816890000e-001) (64, -1.63119018077850340000e-001) (65, -8.84704068303108220000e-002) (66, -1.40167444944381710000e-001) (67, -2.22986385226249690000e-001) (68, -1.17346197366714480000e-001) (69, -6.98353722691535950000e-002) (70, -2.61313468217849730000e-002) (71, 3.26254367828369140000e-001) (72, -4.82513718307018280000e-002) (73, -1.38113155961036680000e-001) (74, -7.03212559223175050000e-001) (75, -1.20041891932487490000e-001) (76, 2.81565450131893160000e-002) (77, -1.38245344161987300000e-001) (78, -2.57945209741592410000e-001) (79, 3.55337888002395630000e-001) (80, -9.14069786667823790000e-002) (81, -2.46702656149864200000e-001) (82, -1.64028659462928770000e-001) (83, -2.65701711177825930000e-001) (84, 2.73239612579345700000e-003) (85, -1.58628910779953000000e-001) (86, 9.96285825967788700000e-002) (87, 3.65786671638488770000e-001) (88, -2.25000455975532530000e-001) (89, -1.84235125780105590000e-001) (90, 2.59259715676307680000e-002) (91, -2.54020327702164650000e-003) (92, 9.52709987759590150000e-002) (93, 2.41396985948085780000e-002) (94, 2.46808715164661410000e-002) (95, -1.67433604598045350000e-001) (96, -2.76555746793746950000e-001) (0, -1.71654671430587770000e-001) (1, 6.19386434555053710000e-002) (2, -5.46681210398674010000e-002) (3, 3.37972603738307950000e-002) (4, -1.47855594754219060000e-001) (5, -1.50959834456443790000e-001) (6, -2.21394360065460210000e-001) (7, 9.39553752541542050000e-002) (8, -1.05831503868103030000e-001) (9, 7.35634714365005490000e-002) (10, -1.83696284890174870000e-001) (11, -3.57164561748504640000e-001) (12, -3.28458547592163090000e-001) (13, -3.21523249149322510000e-001) (14, -5.69142438471317290000e-002) (15, 2.60224640369415280000e-001) (16, 6.71995058655738830000e-002) (17, -1.06419198215007780000e-001) (18, 1.12252995371818540000e-001) (19, -1.21017806231975560000e-001) (20, -5.20727410912513730000e-002) (21, -1.85707867145538330000e-001) (22, -1.75725892186164860000e-002) (23, 1.19042232632637020000e-001) (24, 1.33386507630348210000e-001) (25, 7.50977471470832820000e-002) (26, 1.27301812171936040000e-001) (27, -4.65241409838199620000e-002) (28, -8.61899778246879580000e-002) (29, -2.07931473851203920000e-002) (30, -2.31662824749946590000e-001) (31, -1.64827972650527950000e-001) (32, 3.85274812579154970000e-002) (33, 8.24444517493247990000e-002) (34, 7.68828317523002620000e-002) (35, -2.69941817969083790000e-002) (36, -1.00187562406063080000e-001) (37, -1.86591446399688720000e-001) (38, -1.00074023008346560000e-001) (39, -1.10738009214401250000e-001) (40, -1.11657783389091490000e-001) (41, 4.58937995135784150000e-002) (42, 2.29130193591117860000e-001) (43, -1.52446463704109190000e-001) (44, -1.48321822285652160000e-001) (45, -3.91540020704269410000e-001) (46, -2.42684587836265560000e-001) (47, 7.89927244186401370000e-002) (48, 4.25507593899965290000e-003) (49, -1.82225853204727170000e-001) (50, 2.71302968263626100000e-001) (51, 2.67306566238403320000e-001) (52, 4.98953014612197880000e-002) (53, -7.36822932958602910000e-002) (54, 1.07272535562515260000e-001) (55, 2.00403094291687010000e-001) (56, -9.80688072741031650000e-003) (57, -2.14087247848510740000e-001) (58, 3.18476813845336440000e-003) (59, -7.57488459348678590000e-002) (60, -6.20226524770259860000e-002) (61, -1.69177785515785220000e-001) (62, -4.11800257861614230000e-002) (63, 1.51168793439865110000e-001) (64, -1.78553655743598940000e-001) (65, -1.20817855000495910000e-001) (66, -1.21463683899492030000e-003) (67, -1.22704379260540010000e-001) (68, -1.59459605813026430000e-001) (69, 1.12161384895443920000e-002) (70, 3.51966917514801030000e-002) (71, 2.59774506092071530000e-001) (72, 9.55106392502784730000e-002) (73, -1.12392187118530270000e-001) (74, 1.17188386619091030000e-001) (75, -2.03618288040161130000e-001) (76, -6.77681788802146910000e-002) (77, -2.30815950781106950000e-002) (78, -8.48588645458221440000e-002) (79, 2.33677625656127930000e-001) (80, 2.12546624243259430000e-002) (81, -6.62215724587440490000e-002) (82, 4.33894731104373930000e-002) (83, -1.72986701130867000000e-001) (84, -1.26788645982742310000e-001) (85, -4.60947155952453610000e-002) (86, -1.10407397150993350000e-002) (87, 9.66033041477203370000e-002) (88, 1.06884941458702090000e-001) (89, -2.74052191525697710000e-002) (90, -8.47928002476692200000e-002) (91, -1.35317608714103700000e-001) (92, -1.48407906293869020000e-001) (93, -2.38084837794303890000e-001) (94, 3.54234799742698670000e-002) (95, 2.23064765334129330000e-001) (96, -2.75900512933731080000e-001) (0, 9.13552343845367430000e-002) (1, 3.56561020016670230000e-002) (2, 3.34247499704360960000e-001) (3, 3.64231079816818240000e-001) (4, 1.59127250313758850000e-001) (5, 1.37808039784431460000e-001) (6, 2.14978709816932680000e-001) (7, 1.22210815548896790000e-001) (8, 1.23801872134208680000e-001) (9, -4.60948906838893890000e-002) (10, 2.91033178567886350000e-001) (11, 2.85847932100296020000e-001) (12, 1.38641998171806340000e-001) (13, 2.25470319390296940000e-001) (14, -6.81623443961143490000e-002) (15, -9.31705534458160400000e-002) (16, 1.20958961546421050000e-001) (17, -2.24699094891548160000e-001) (18, -1.07870638370513920000e-001) (19, 3.80152575671672820000e-002) (20, -5.37553615868091580000e-002) (21, 4.41671818494796750000e-001) (22, -4.02714237570762630000e-002) (23, -1.32852509617805480000e-001) (24, 1.68985411524772640000e-001) (25, -1.47658616304397580000e-001) (26, -1.32127732038497920000e-001) (27, -5.73574528098106380000e-002) (28, -7.46658444404602050000e-002) (29, 1.51192560791969300000e-001) (30, 2.32561230659484860000e-001) (31, -4.72525283694267270000e-002) (32, 2.25398093461990360000e-001) (33, 1.79416332393884660000e-002) (34, 2.43442095816135410000e-002) (35, -2.08177521824836730000e-001) (36, 4.22198586165905000000e-002) (37, 7.68761858344078060000e-002) (38, 2.44935881346464160000e-002) (39, -6.15466153249144550000e-003) (40, 1.87130004167556760000e-001) (41, -1.17939047515392300000e-001) (42, -2.45324879884719850000e-001) (43, -1.65887534618377690000e-001) (44, 2.33722012490034100000e-002) (45, -8.45140144228935240000e-002) (46, 3.66034395992755890000e-002) (47, 2.08608880639076230000e-001) (48, 2.16246902942657470000e-001) (49, 9.82807832770049570000e-004) (50, -2.85999663174152370000e-002) (51, 1.30535200238227840000e-001) (52, 1.57523411326110360000e-003) (53, -3.98711189627647400000e-002) (54, 2.51090973615646360000e-001) (55, 6.18214868009090420000e-002) (56, 2.76988446712493900000e-001) (57, 1.19998209178447720000e-001) (58, -8.17449316382408140000e-002) (59, 1.31675573065876960000e-002) (60, -7.25798681378364560000e-002) (61, -2.12360441684722900000e-001) (62, -4.55318093299865720000e-002) (63, -2.64538705348968510000e-001) (64, 4.34896886348724370000e-001) (65, 8.57495516538620000000e-002) (66, -1.87497586011886600000e-001) (67, -1.32816284894943240000e-001) (68, -1.37471497058868410000e-001) (69, -9.49124768376350400000e-002) (70, 2.05173820257186890000e-001) (71, -3.19000214338302610000e-001) (72, 7.56700411438941960000e-002) (73, 6.74247667193412780000e-002) (74, 2.55793854594230650000e-002) (75, 1.19104884564876560000e-001) (76, -1.85158774256706240000e-001) (77, -1.10280483961105350000e-001) (78, 2.76945948600769040000e-001) (79, -2.52918064594268800000e-001) (80, -2.06465229392051700000e-001) (81, -2.32726171612739560000e-001) (82, 1.10350951552391050000e-001) (83, -1.99257414788007740000e-002) (84, -3.01781557500362400000e-002) (85, 2.67999976873397830000e-001) (86, -2.12551236152648930000e-001) (87, -2.44802385568618770000e-001) (88, -3.47414553165435790000e-001) (89, 1.70861575752496720000e-002) (90, -6.05080053210258480000e-002) (91, -2.30951115489006040000e-001) (92, -1.95302277803421020000e-001) (93, -3.62044572830200200000e-001) (94, -7.25448369979858400000e-001) (95, -5.45755177736282350000e-002) (96, -2.48054414987564090000e-001) (0, -1.70734763145446780000e-001) (1, 4.91474084556102750000e-002) (2, 1.13587751984596250000e-001) (3, -6.57098591327667240000e-002) (4, -1.28256991505622860000e-001) (5, 1.58761944621801380000e-002) (6, 1.94070041179656980000e-001) (7, -4.16508987545967100000e-002) (8, 2.11598612368106840000e-002) (9, 8.53737518191337590000e-002) (10, -1.14417098462581630000e-001) (11, -9.66895520687103270000e-002) (12, -2.23288595676422120000e-001) (13, -8.19497779011726380000e-002) (14, 1.75996810197830200000e-001) (15, -7.08873122930526730000e-002) (16, -1.15198180079460140000e-001) (17, -7.02739059925079350000e-002) (18, -1.27941489219665530000e-001) (19, 1.05191608890891080000e-002) (20, -1.36528581380844120000e-001) (21, 1.39025405049324040000e-001) (22, -9.08993855118751530000e-002) (23, -1.85429062694311140000e-002) (24, -3.98133099079132080000e-002) (25, -7.59750753641128540000e-002) (26, -4.65068742632865910000e-002) (27, -2.01686635613441470000e-001) (28, 6.26120017841458320000e-003) (29, 1.72688812017440800000e-001) (30, 1.09819374978542330000e-001) (31, -1.48176461458206180000e-001) (32, -1.31972983479499820000e-001) (33, -9.58832874894142150000e-002) (34, 5.97473420202732090000e-002) (35, -6.03625625371932980000e-002) (36, 1.03942357003688810000e-001) (37, 7.15103745460510250000e-002) (38, -2.33456104993820190000e-001) (39, -4.15800064802169800000e-002) (40, 3.04623618721961980000e-002) (41, -1.65998399257659910000e-001) (42, 1.98223650455474850000e-001) (43, 3.13443914055824280000e-002) (44, 1.83650761842727660000e-001) (45, 1.33339185267686840000e-002) (46, -1.58781558275222780000e-001) (47, -2.78194509446620940000e-002) (48, -1.30038604140281680000e-001) (49, -1.87124505639076230000e-001) (50, -1.27063374966382980000e-002) (51, -1.41645818948745730000e-002) (52, -1.22297920286655430000e-001) (53, -1.87931045889854430000e-001) (54, 3.86305935680866240000e-002) (55, -1.71634240541607140000e-003) (56, -1.25228226184844970000e-001) (57, 5.61164058744907380000e-002) (58, 1.16729142609983680000e-003) (59, -2.09635682404041290000e-002) (60, -1.23315460979938510000e-001) (61, -2.48698651790618900000e-001) (62, -4.22748271375894550000e-003) (63, -1.42190605401992800000e-001) (64, 3.11484523117542270000e-002) (65, 2.10685003548860550000e-002) (66, 8.23102891445159910000e-002) (67, 1.27172932028770450000e-001) (68, 7.84438550472259520000e-002) (69, -1.31039312109351160000e-002) (70, -5.80414980649948120000e-002) (71, -1.93222728557884690000e-003) (72, 3.93252372741699220000e-002) (73, -2.21617832779884340000e-001) (74, 4.08880338072776790000e-002) (75, -8.90366919338703160000e-003) (76, -1.76875308156013490000e-001) (77, -4.98407371342182160000e-002) (78, -2.05080006271600720000e-002) (79, -9.29033681750297550000e-002) (80, -1.11675649881362920000e-001) (81, -2.77147084474563600000e-001) (82, 5.10061569511890410000e-002) (83, 2.58279424160718920000e-002) (84, -6.46988749504089360000e-002) (85, 3.21033298969268800000e-002) (86, -5.20561374723911290000e-002) (87, -1.70181542634963990000e-001) (88, -6.50316029787063600000e-002) (89, -1.16719573736190800000e-001) (90, 1.33616449311375620000e-002) (91, -1.75816327333450320000e-001) (92, -1.95789590477943420000e-001) (93, -1.99987381696701050000e-001) (94, -2.89740711450576780000e-001) (95, -1.07082873582839970000e-001) (96, -1.30455344915390010000e-001) (0, 1.48543387651443480000e-001) (1, 4.35949787497520450000e-002) (2, -4.58733588457107540000e-002) (3, -2.24666759371757510000e-001) (4, -5.26972591876983640000e-001) (5, -2.20788806676864620000e-001) (6, -3.96785251796245570000e-002) (7, 8.80439728498458860000e-002) (8, -4.64168824255466460000e-002) (9, 1.93737939000129700000e-001) (10, -3.66617262363433840000e-001) (11, -4.04111027717590330000e-001) (12, -4.55716192722320560000e-001) (13, -4.15103256702423100000e-001) (14, -3.25026601552963260000e-001) (15, -1.00555531680583950000e-001) (16, 1.10306322574615480000e-001) (17, 1.46000823006033900000e-002) (18, -3.23947906494140630000e-001) (19, -1.75185408443212510000e-003) (20, 4.40164417028427120000e-001) (21, 5.09418666362762450000e-001) (22, -3.82452607154846190000e-001) (23, -1.00947618484497070000e-001) (24, 1.42609402537345890000e-001) (25, 9.82466042041778560000e-002) (26, -1.29220962524414060000e-001) (27, 2.55694001913070680000e-001) (28, 2.60795980691909790000e-001) (29, 8.28467905521392820000e-002) (30, -2.29784175753593440000e-001) (31, 6.56118169426918030000e-002) (32, 1.06902420520782470000e-001) (33, 1.02199636399745940000e-001) (34, -1.57981514930725100000e-001) (35, 2.11239725351333620000e-001) (36, 2.00101241469383240000e-001) (37, -3.28968226909637450000e-001) (38, -1.83398976922035220000e-001) (39, 9.88408550620079040000e-002) (40, 3.98332402110099790000e-002) (41, 2.82816916704177860000e-001) (42, -1.82422548532485960000e-001) (43, 1.10166423022747040000e-001) (44, -1.05201594531536100000e-001) (45, -3.71478468179702760000e-001) (46, 1.01571254432201390000e-001) (47, 2.06845313310623170000e-001) (48, 1.70226424932479860000e-001) (49, 4.64374959468841550000e-001) (50, -7.72696956992149350000e-002) (51, -1.38378411531448360000e-001) (52, -3.60870182514190670000e-001) (53, -2.23682433366775510000e-001) (54, 2.73341000080108640000e-001) (55, -1.02341771125793460000e-001) (56, 4.04918789863586430000e-001) (57, 2.85199522972106930000e-001) (58, -5.26655539870262150000e-002) (59, 1.67260974645614620000e-001) (60, -9.95976105332374570000e-002) (61, -3.24639350175857540000e-001) (62, -2.46429666876792910000e-002) (63, 5.13905845582485200000e-002) (64, 1.70515373349189760000e-001) (65, 2.95026451349258420000e-001) (66, -1.69868931174278260000e-001) (67, -5.57966306805610660000e-002) (68, 2.20686998218297960000e-002) (69, 2.78899539262056350000e-002) (70, 1.31892040371894840000e-001) (71, -8.70067924261093140000e-002) (72, 1.82129904627799990000e-001) (73, 3.39791744947433470000e-001) (74, -1.40467137098312380000e-001) (75, -5.52224218845367430000e-002) (76, -1.97638034820556640000e-001) (77, -2.57403627038002010000e-002) (78, 3.03666353225708010000e-001) (79, -8.84187296032905580000e-002) (80, 1.82893678545951840000e-001) (81, 1.26790508627891540000e-001) (82, -3.98630695417523380000e-003) (83, 1.58053375780582430000e-002) (84, -8.44331607222557070000e-002) (85, 2.30434343218803410000e-001) (86, -7.03761726617813110000e-002) (87, -2.25324153900146480000e-001) (88, 1.61719352006912230000e-001) (89, -1.22297201305627820000e-002) (90, -1.70808453112840650000e-002) (91, -2.01123446226120000000e-001) (92, -1.86300110071897510000e-002) (93, -1.78813517093658450000e-001) (94, -5.28918921947479250000e-001) (95, 1.26961190253496170000e-002) (96, -2.67772018909454350000e-001) (0, -1.30417183041572570000e-001) (1, -4.42255884408950810000e-002) (2, -5.79271987080574040000e-002) (3, -4.92081046104431150000e-003) (4, -1.51980951428413390000e-001) (5, 7.62226013466715810000e-003) (6, -3.02191618829965590000e-002) (7, -6.09352290630340580000e-002) (8, -2.13009610772132870000e-001) (9, 9.14120972156524660000e-002) (10, -1.71433493494987490000e-001) (11, -3.26562494039535520000e-001) (12, -2.82319247722625730000e-001) (13, -2.19615533947944640000e-001) (14, -8.74710306525230410000e-002) (15, 1.50044888257980350000e-001) (16, 2.53497045487165450000e-002) (17, -5.20171225070953370000e-002) (18, -3.37780034169554710000e-003) (19, -9.29388031363487240000e-002) (20, -4.47577051818370820000e-002) (21, -1.71097397804260250000e-001) (22, -4.26448553800582890000e-001) (23, 7.99572914838790890000e-002) (24, 1.32766351103782650000e-001) (25, -8.07376950979232790000e-003) (26, -3.21044474840164180000e-002) (27, -9.71349030733108520000e-002) (28, -1.71635642647743230000e-001) (29, -1.54108688235282900000e-001) (30, -3.62465798854827880000e-001) (31, -2.93287098407745360000e-001) (32, -6.06147125363349910000e-002) (33, 6.23414143919944760000e-002) (34, 1.55326155945658680000e-002) (35, -1.87827691435813900000e-001) (36, -5.62604777514934540000e-002) (37, -1.48909181356430050000e-001) (38, -3.20658564567565920000e-001) (39, -1.97854578495025630000e-001) (40, -3.08279424905776980000e-001) (41, 2.02723324298858640000e-001) (42, 4.02497828006744380000e-001) (43, -9.85568240284919740000e-002) (44, -8.69077146053314210000e-002) (45, -1.83083161711692810000e-001) (46, -1.85992240905761720000e-001) (47, 2.71910545416176320000e-003) (48, -1.37336298823356630000e-001) (49, -3.91906827688217160000e-001) (50, 4.64680135250091550000e-001) (51, 3.36053848266601560000e-001) (52, 5.04046678543090820000e-001) (53, 5.18591284751892090000e-001) (54, 4.28734153509140010000e-001) (55, 1.43477573990821840000e-001) (56, -1.02097794413566590000e-001) (57, -3.97068738937377930000e-001) (58, -6.62458613514900210000e-002) (59, -2.92234271764755250000e-001) (60, -1.50621071457862850000e-001) (61, -1.12184204161167140000e-001) (62, 3.94852429628372190000e-001) (63, 2.01040193438529970000e-001) (64, -1.01862408220767970000e-001) (65, -2.83121585845947270000e-001) (66, -1.71974897384643550000e-001) (67, -2.52753376960754390000e-001) (68, -2.77557894587516780000e-002) (69, -8.73431861400604250000e-002) (70, 8.87635499238967900000e-002) (71, 3.72279733419418330000e-001) (72, -1.82647898327559230000e-003) (73, -3.50370883941650390000e-001) (74, -1.12048260867595670000e-001) (75, -2.60050594806671140000e-001) (76, -1.65022477507591250000e-001) (77, -6.84148669242858890000e-002) (78, -2.16958727687597270000e-002) (79, 2.38645762205123900000e-001) (80, 1.26734435558319090000e-001) (81, -8.31269398331642150000e-002) (82, -1.06671683490276340000e-001) (83, -8.03979039192199710000e-002) (84, 6.81852325797080990000e-002) (85, -9.26960632205009460000e-002) (86, -2.63308018445968630000e-001) (87, 1.44293472170829770000e-001) (88, 6.96427226066589360000e-002) (89, 1.11149035394191740000e-001) (90, -7.05204084515571590000e-002) (91, -2.22072210162878040000e-002) (92, -5.06230480968952180000e-002) (93, 3.29853519797325130000e-002) (94, 4.87570688128471370000e-002) (95, 2.52505600452423100000e-001) (96, -3.41245114803314210000e-001) (0, -3.76156270503997800000e-002) (1, -1.50196850299835210000e-001) (2, -4.86121810972690580000e-002) (3, -1.80060312151908870000e-001) (4, -3.01842130720615390000e-002) (5, 7.85690322518348690000e-002) (6, 8.15336480736732480000e-002) (7, -3.56839038431644440000e-002) (8, -1.24369740486145020000e-001) (9, -1.14350996911525730000e-001) (10, -1.14285610616207120000e-001) (11, -1.59433260560035710000e-001) (12, -1.26843765377998350000e-001) (13, -3.20189073681831360000e-002) (14, -1.22569859027862550000e-001) (15, -4.03241775929927830000e-002) (16, -1.12133733928203580000e-002) (17, -1.10312327742576600000e-001) (18, -9.76844653487205510000e-002) (19, 6.01344592869281770000e-002) (20, -6.36467486619949340000e-002) (21, 4.35937335714697840000e-003) (22, -3.86354550719261170000e-002) (23, -6.91632851958274840000e-002) (24, 2.42489147931337360000e-002) (25, -1.38328164815902710000e-001) (26, 1.05499103665351870000e-001) (27, -7.75412172079086300000e-002) (28, -1.16396896541118620000e-001) (29, 3.16535606980323790000e-002) (30, -5.39766438305377960000e-002) (31, -8.17881599068641660000e-002) (32, 3.50996269844472410000e-003) (33, -2.13241100311279300000e-001) (34, 2.73352139629423620000e-003) (35, -1.31691887974739070000e-001) (36, -9.17726308107376100000e-002) (37, -9.44003462791442870000e-003) (38, 4.43314239382743840000e-002) (39, -3.58953140676021580000e-002) (40, -7.29601783677935600000e-003) (41, -1.35054960846900940000e-001) (42, -5.42293153703212740000e-002) (43, -1.98276728391647340000e-001) (44, -7.68173299729824070000e-003) (45, 7.30913802981376650000e-002) (46, -1.12844765186309810000e-001) (47, -4.99216131865978240000e-002) (48, 2.35959645360708240000e-002) (49, -1.71893879771232600000e-001) (50, -1.39704540371894840000e-001) (51, -1.52398183941841130000e-001) (52, -1.71232700347900390000e-001) (53, -8.51572975516319270000e-002) (54, -3.76830063760280610000e-002) (55, 4.95261475443840030000e-002) (56, -7.80752301216125490000e-002) (57, 1.52171151712536810000e-002) (58, -6.88554570078849790000e-002) (59, -2.22612954676151280000e-002) (60, 1.02232610806822780000e-002) (61, -8.20995494723320010000e-002) (62, -7.77488350868225100000e-002) (63, 4.53449673950672150000e-002) (64, -1.05041436851024630000e-001) (65, -1.29595687612891200000e-002) (66, 4.79498729109764100000e-002) (67, -1.76635272800922390000e-002) (68, 4.56331633031368260000e-002) (69, 1.50801301002502440000e-001) (70, -1.14460259675979610000e-001) (71, -7.26483538746833800000e-002) (72, 8.77349823713302610000e-002) (73, -1.93212866783142090000e-001) (74, -5.48040978610515590000e-002) (75, -1.63998499512672420000e-001) (76, -3.98548692464828490000e-002) (77, 5.68231046199798580000e-002) (78, -1.80455729365348820000e-001) (79, -1.06701545417308810000e-001) (80, -1.12712755799293520000e-001) (81, -2.97423869371414180000e-001) (82, -1.88187375664711000000e-001) (83, -1.40227317810058590000e-001) (84, 8.39035660028457640000e-002) (85, 1.03676646947860720000e-001) (86, -9.40734297037124630000e-002) (87, -6.85364082455635070000e-002) (88, -4.30116243660449980000e-002) (89, -1.89745813608169560000e-001) (90, -1.36915951967239380000e-001) (91, -1.91105261445045470000e-001) (92, -6.12281784415245060000e-002) (93, 6.03786483407020570000e-002) (94, -2.38221064209938050000e-001) (95, -1.28285601735115050000e-001) (96, -2.87494480609893800000e-001) (0, -6.20839409530162810000e-002) (1, -5.41869848966598510000e-002) (2, -8.99151191115379330000e-002) (3, -1.45638257265090940000e-001) (4, 6.76860809326171880000e-002) (5, 2.58554965257644650000e-001) (6, 2.11420938372612000000e-001) (7, -1.19987942278385160000e-001) (8, -3.89683246612548830000e-002) (9, -2.65193581581115720000e-001) (10, -1.97464525699615480000e-001) (11, -1.74680650234222410000e-001) (12, -9.42469462752342220000e-002) (13, 7.71441757678985600000e-002) (14, -5.32482564449310300000e-002) (15, -2.13556393980979920000e-001) (16, -1.18555694818496700000e-001) (17, -2.03489810228347780000e-001) (18, -2.96487838029861450000e-001) (19, -1.77878439426422120000e-002) (20, 3.24184089899063110000e-001) (21, 1.78805351257324220000e-001) (22, -3.13925266265869140000e-001) (23, -2.46252387762069700000e-001) (24, -7.34710916876792910000e-002) (25, -3.78282338380813600000e-001) (26, -6.01632446050643920000e-002) (27, 2.61582851409912110000e-001) (28, 1.66013687849044800000e-001) (29, -3.01891844719648360000e-003) (30, -2.11649537086486820000e-001) (31, -3.49341444671154020000e-002) (32, -1.09467782080173490000e-001) (33, -3.51391285657882690000e-001) (34, -6.72116782516241070000e-003) (35, 3.21560978889465330000e-001) (36, 1.57482594251632690000e-001) (37, -1.66141256690025330000e-001) (38, -2.36452579498291020000e-001) (39, -3.75640876591205600000e-002) (40, -8.85396301746368410000e-002) (41, -1.12199768424034120000e-001) (42, 4.60266433656215670000e-002) (43, 2.38332271575927730000e-001) (44, 2.62527674436569210000e-001) (45, 5.79692013561725620000e-002) (46, -1.29550043493509290000e-002) (47, -6.40708208084106450000e-002) (48, -4.23337779939174650000e-002) (49, -4.28193509578704830000e-002) (50, -1.08957409858703610000e-001) (51, 4.75918687880039220000e-002) (52, 8.22502002120018010000e-002) (53, -4.25623059272766110000e-002) (54, 1.29104793071746830000e-001) (55, -4.15755100548267360000e-002) (56, 9.58044081926345830000e-002) (57, 3.89390252530574800000e-002) (58, -1.43852248787879940000e-001) (59, -2.90376357734203340000e-002) (60, -4.43575941026210780000e-002) (61, -1.16063490509986880000e-001) (62, -1.68495140969753270000e-002) (63, -1.41134142875671390000e-001) (64, 1.36605933308601380000e-001) (65, -6.75114020705223080000e-002) (66, 1.13754635676741600000e-002) (67, -5.36762587726116180000e-002) (68, -1.09310662373900410000e-002) (69, -1.44414931535720830000e-001) (70, -4.90435138344764710000e-002) (71, -1.86275497078895570000e-001) (72, 1.03401705622673030000e-001) (73, -1.24853441957384350000e-003) (74, -7.25233182311058040000e-002) (75, 3.80627927370369430000e-003) (76, 6.21240725740790370000e-003) (77, 7.47770592570304870000e-002) (78, -1.11616857349872590000e-001) (79, -1.73590183258056640000e-001) (80, -1.92457213997840880000e-001) (81, -9.59644317626953130000e-002) (82, -3.41296680271625520000e-002) (83, -4.82884887605905530000e-003) (84, 4.98594455420970920000e-002) (85, -2.06352248787879940000e-002) (86, -1.80001080036163330000e-001) (87, -1.08688520267605780000e-002) (88, -2.03011184930801390000e-001) (89, -1.07927486300468440000e-001) (90, 3.85168357752263550000e-003) (91, 2.83324420452117920000e-002) (92, 5.73933171108365060000e-003) (93, -1.01793609559535980000e-001) (94, -2.53076136112213130000e-001) (95, -7.06260278820991520000e-002) (96, -6.93550258874893190000e-002) (0, -3.34918871521949770000e-002) (1, 4.12022955715656280000e-002) (2, -5.29291592538356780000e-002) (3, 4.63823713362216950000e-002) (4, -2.51511037349700930000e-002) (5, -1.44641129299998280000e-002) (6, -1.35407552123069760000e-001) (7, 3.03678661584854130000e-002) (8, -6.28101378679275510000e-002) (9, 1.84004127979278560000e-001) (10, -2.08857972174882890000e-002) (11, -6.50162473320961000000e-002) (12, -2.57840901613235470000e-002) (13, -6.53372332453727720000e-003) (14, -1.79715216159820560000e-001) (15, -1.36446744203567500000e-001) (16, 5.07601238787174220000e-002) (17, 1.67220741510391240000e-001) (18, -3.05552389472723010000e-002) (19, -6.01158663630485530000e-002) (20, -1.85649953782558440000e-002) (21, 9.49987247586250310000e-002) (22, -2.06665188074111940000e-001) (23, -1.20829805731773380000e-001) (24, -1.14632390439510350000e-001) (25, -1.06099143624305730000e-001) (26, 7.27380290627479550000e-002) (27, -4.90591078996658330000e-002) (28, -1.96738913655281070000e-001) (29, 1.10290274024009700000e-001) (30, -1.57424077391624450000e-001) (31, -1.23724959790706630000e-001) (32, -4.71050478518009190000e-002) (33, -1.13534152507781980000e-001) (34, -1.88739113509655000000e-002) (35, -1.89856335520744320000e-001) (36, -9.59764868021011350000e-002) (37, -1.72646418213844300000e-002) (38, -7.44995251297950740000e-002) (39, -1.62541177123785020000e-002) (40, 8.64338651299476620000e-002) (41, -1.51327908039093020000e-001) (42, -1.76246419548988340000e-001) (43, -6.19205683469772340000e-002) (44, -1.27373874187469480000e-001) (45, 8.05796757340431210000e-002) (46, 2.83734058029949670000e-003) (47, -5.99260255694389340000e-002) (48, -2.07244362682104110000e-002) (49, -2.09736451506614690000e-001) (50, -2.67730027437210080000e-001) (51, -1.23682789504528050000e-001) (52, 1.89193673431873320000e-002) (53, 1.62996113300323490000e-001) (54, -1.74880906939506530000e-001) (55, 3.57450470328330990000e-002) (56, -4.04514335095882420000e-002) (57, -2.08951637148857120000e-001) (58, -2.14312881231307980000e-001) (59, 7.35527351498603820000e-002) (60, 1.89123675227165220000e-001) (61, -1.25668242573738100000e-001) (62, -2.97262609004974370000e-001) (63, 1.79025754332542420000e-002) (64, -1.26006230711936950000e-001) (65, -8.04223865270614620000e-002) (66, 6.37134686112403870000e-002) (67, 1.35689988732337950000e-001) (68, -1.49530351161956790000e-001) (69, -1.16395629942417140000e-001) (70, -1.16593852639198300000e-001) (71, -1.52507692575454710000e-001) (72, 5.09489960968494420000e-002) (73, -8.02358835935592650000e-002) (74, 1.42955780029296880000e-001) (75, 8.87752100825309750000e-002) (76, -1.64181351661682130000e-001) (77, 2.90318224579095840000e-002) (78, -2.97774195671081540000e-001) (79, -1.45950406789779660000e-001) (80, 1.08535498380661010000e-001) (81, 7.38006830215454100000e-002) (82, 4.05136309564113620000e-002) (83, -2.09964826703071590000e-001) (84, -2.25670752115547660000e-003) (85, -2.76987217366695400000e-002) (86, -1.88591420650482180000e-001) (87, -7.62406140565872190000e-002) (88, 2.19227403402328490000e-001) (89, 1.97302982211112980000e-001) (90, -4.04596962034702300000e-002) (91, -1.02142602205276490000e-001) (92, 3.97951602935791020000e-002) (93, 1.90820351243019100000e-001) (94, -1.21826589107513430000e-001) (95, -2.13364943861961360000e-001) (96, -3.07946256361901760000e-003) (0, -7.18213915824890140000e-002) (1, -1.05763837695121770000e-001) (2, -1.25812113285064700000e-001) (3, 1.12722869962453840000e-002) (4, 8.52503925561904910000e-002) (5, -2.37101212143898010000e-001) (6, -1.24041862785816190000e-001) (7, -3.63088361918926240000e-002) (8, -1.59144595265388490000e-001) (9, -3.17580282688140870000e-001) (10, -5.59896640479564670000e-002) (11, 1.32289677858352660000e-001) (12, -2.54082903265953060000e-002) (13, -4.61019873619079590000e-002) (14, -1.87551930546760560000e-001) (15, -1.67574927210807800000e-001) (16, 1.91167071461677550000e-002) (17, -1.28421455621719360000e-001) (18, 9.32661592960357670000e-002) (19, 2.42707669734954830000e-001) (20, 1.28944158554077150000e-001) (21, 1.68903201818466190000e-001) (22, 1.18622601032257080000e-001) (23, -7.89442583918571470000e-002) (24, -2.90140509605407710000e-003) (25, -1.89505130052566530000e-001) (26, -9.97040197253227230000e-002) (27, -1.36295884847640990000e-001) (28, 1.33297964930534360000e-001) (29, 2.15836480259895320000e-001) (30, 9.80045944452285770000e-002) (31, -1.36654242873191830000e-001) (32, 3.07887885719537730000e-002) (33, -1.32482141256332400000e-001) (34, -2.47732236981391910000e-001) (35, 1.69746845960617070000e-001) (36, 2.03110456466674800000e-001) (37, -9.88165885210037230000e-002) (38, 2.09169745445251460000e-001) (39, -5.59978820383548740000e-002) (40, 9.69180315732955930000e-002) (41, 6.09116367995738980000e-002) (42, -9.72747653722763060000e-002) (43, 1.38765811920166020000e-001) (44, -1.77423283457756040000e-001) (45, -2.67294853925704960000e-001) (46, 2.59991198778152470000e-001) (47, -2.90739443153142930000e-002) (48, 7.72862136363983150000e-002) (49, 7.48405978083610530000e-002) (50, 6.50906860828399660000e-002) (51, -2.33212187886238100000e-001) (52, -4.98891949653625490000e-001) (53, -3.10514092445373540000e-001) (54, 1.40982065349817280000e-002) (55, -1.86584264039993290000e-001) (56, 6.66409507393836980000e-002) (57, -1.17527514696121220000e-001) (58, 3.90663295984268190000e-001) (59, -2.65723448246717450000e-002) (60, -8.89542922377586360000e-002) (61, 5.73339127004146580000e-002) (62, 7.71687477827072140000e-002) (63, -1.41282349824905400000e-001) (64, 4.81342636048793790000e-002) (65, 2.03909337520599370000e-001) (66, 4.67657577246427540000e-003) (67, 1.92454718053340910000e-002) (68, 4.35261167585849760000e-002) (69, 1.07784636318683620000e-001) (70, 2.69311547279357910000e-001) (71, 1.42415566369891170000e-002) (72, -1.04577787220478060000e-001) (73, 1.85021117329597470000e-001) (74, 7.75778740644454960000e-002) (75, 1.87365204095840450000e-001) (76, 3.71394902467727660000e-001) (77, 3.21603387594223020000e-001) (78, 3.38908046483993530000e-001) (79, 6.40043765306472780000e-002) (80, -1.45406484603881840000e-001) (81, -9.93897318840026860000e-002) (82, 2.37570762634277340000e-001) (83, -1.32009452208876610000e-002) (84, -2.00710296630859380000e-001) (85, -6.60917386412620540000e-002) (86, 1.88784062862396240000e-001) (87, -4.89732101559638980000e-002) (88, -5.46929147094488140000e-003) (89, 1.92209158558398490000e-003) (90, -2.17727586627006530000e-001) (91, -4.09495592117309570000e-001) (92, -5.53072273731231690000e-001) (93, -4.41515356302261350000e-001) (94, -7.93691724538803100000e-002) (95, 8.75440463423728940000e-002) (96, -1.28328889608383180000e-001) (0, -9.55753773450851440000e-002) (1, -5.25992810726165770000e-002) (2, -7.11745172739028930000e-002) (3, -3.04812900722026820000e-002) (4, -1.47388353943824770000e-001) (5, -2.67137065529823300000e-002) (6, -1.05398394167423250000e-001) (7, -4.22543138265609740000e-002) (8, -1.22182637453079220000e-001) (9, -1.46836549043655400000e-001) (10, -1.70610696077346800000e-001) (11, -8.81986171007156370000e-002) (12, -1.59453377127647400000e-001) (13, -2.42412522435188290000e-001) (14, -4.42017577588558200000e-002) (15, -8.41066762804985050000e-002) (16, -3.97979617118835450000e-002) (17, -1.71379193663597110000e-001) (18, -5.07776513695716860000e-002) (19, -9.83150303363800050000e-002) (20, -9.29726008325815200000e-003) (21, -1.28852844238281250000e-001) (22, -1.49040326476097110000e-001) (23, 3.39145585894584660000e-002) (24, 8.63043889403343200000e-002) (25, 1.09690809622406960000e-002) (26, -2.53722909837961200000e-002) (27, 4.96527664363384250000e-002) (28, -1.33335039019584660000e-001) (29, -1.98313500732183460000e-002) (30, -2.15173084288835530000e-002) (31, 2.42061112076044080000e-002) (32, -7.95960500836372380000e-002) (33, -1.59845259040594100000e-002) (34, -1.00077189505100250000e-001) (35, 2.68191471695899960000e-002) (36, 4.32324856519699100000e-002) (37, -2.98349782824516300000e-002) (38, 2.23881634883582590000e-003) (39, -1.18509516119956970000e-001) (40, -1.53006434440612790000e-001) (41, -4.10963334143161770000e-002) (42, 9.23206284642219540000e-002) (43, -2.99075078219175340000e-002) (44, -4.57215346395969390000e-002) (45, -1.76116079092025760000e-002) (46, -8.43890830874443050000e-002) (47, -1.55665678903460500000e-002) (48, -1.21428489685058590000e-001) (49, -1.36318892240524290000e-001) (50, 6.38774633407592770000e-002) (51, 2.09923321381211280000e-003) (52, -5.14189824461936950000e-002) (53, -6.16681501269340520000e-002) (54, -2.94496472924947740000e-002) (55, -2.22567245364189150000e-002) (56, -6.44294023513793950000e-002) (57, -9.71683636307716370000e-002) (58, 3.13446596264839170000e-002) (59, 3.23341824114322660000e-002) (60, -9.01416167616844180000e-002) (61, -3.56805771589279170000e-002) (62, -1.22632786631584170000e-001) (63, -7.03877732157707210000e-002) (64, -1.59620925784111020000e-001) (65, -2.03636318445205690000e-001) (66, 5.08522726595401760000e-002) (67, -1.01792529225349430000e-001) (68, -1.18460103869438170000e-001) (69, -7.58523717522621150000e-002) (70, -1.63352116942405700000e-001) (71, -1.01863577961921690000e-001) (72, 3.71214896440505980000e-002) (73, -1.42699452117085460000e-002) (74, -2.04340107738971710000e-002) (75, -6.12155646085739140000e-002) (76, -5.07001718506217000000e-003) (77, -4.53059598803520200000e-002) (78, -1.93457439541816710000e-001) (79, -3.47221009433269500000e-002) (80, -7.61750563979148860000e-002) (81, -1.70402675867080690000e-001) (82, -1.63964360952377320000e-001) (83, -3.51093709468841550000e-002) (84, -9.34433266520500180000e-002) (85, -1.81898742914199830000e-001) (86, -1.19938611984252930000e-001) (87, 3.08225378394126890000e-002) (88, -1.17827497422695160000e-001) (89, -7.48125538229942320000e-002) (90, -1.48891106247901920000e-001) (91, -1.21334858238697050000e-001) (92, -1.77784010767936710000e-001) (93, -2.01669216156005860000e-001) (94, 3.66908796131610870000e-002) (95, 7.31028988957405090000e-002) (96, -2.64996647834777830000e-001) (0, -5.54883666336536410000e-002) (1, -1.94423973560333250000e-001) (2, -1.28565445542335510000e-001) (3, -1.03059470653533940000e-001) (4, 2.17159138992428780000e-003) (5, -7.04326778650283810000e-002) (6, 8.13662484288215640000e-002) (7, 3.83276888169348240000e-003) (8, -1.84988960623741150000e-001) (9, -3.15919756889343260000e-001) (10, -2.96017765998840330000e-001) (11, -2.87029772996902470000e-001) (12, -2.10530906915664670000e-001) (13, -1.56285792589187620000e-001) (14, -2.12735980749130250000e-001) (15, -1.34953232482075690000e-002) (16, -7.24765583872795100000e-002) (17, -3.33651423454284670000e-001) (18, -2.90512651205062870000e-001) (19, 8.50405097007751460000e-002) (20, 4.58578497171401980000e-001) (21, 2.20049455761909480000e-001) (22, -3.07620942592620850000e-001) (23, -1.44252330064773560000e-001) (24, 5.61413839459419250000e-002) (25, -3.11415135860443120000e-001) (26, -1.75379902124404910000e-001) (27, 3.07017534971237180000e-001) (28, 5.09744584560394290000e-001) (29, 4.85874153673648830000e-002) (30, -3.43149542808532710000e-001) (31, -1.57759517431259160000e-001) (32, -3.06764990091323850000e-002) (33, -1.31999731063842770000e-001) (34, 1.49853741750121120000e-002) (35, 3.98716300725936890000e-001) (36, 2.27283403277397160000e-001) (37, -1.29686549305915830000e-001) (38, -2.57202863693237300000e-001) (39, -1.47701576352119450000e-001) (40, 5.46217616647481920000e-003) (41, -7.50784948468208310000e-002) (42, 2.34185293316841130000e-001) (43, 4.25230264663696290000e-001) (44, 1.24700129032135010000e-001) (45, 3.49275139160454270000e-003) (46, -8.82128626108169560000e-002) (47, -3.73320244252681730000e-002) (48, -6.10572546720504760000e-002) (49, -1.04711428284645080000e-001) (50, 2.72676110267639160000e-001) (51, 2.47482553124427800000e-001) (52, -6.69173449277877810000e-002) (53, -7.49641377478837970000e-003) (54, 1.86419084668159480000e-001) (55, -2.07553338259458540000e-002) (56, 4.34024073183536530000e-002) (57, 3.63955460488796230000e-002) (58, -8.56206845492124560000e-003) (59, 5.51977753639221190000e-002) (60, -9.19795408844947810000e-002) (61, -4.73776981234550480000e-002) (62, 1.50070756673812870000e-001) (63, 7.23485499620437620000e-002) (64, 1.70468568801879880000e-001) (65, -6.90870434045791630000e-002) (66, -7.17217475175857540000e-002) (67, 1.10389776527881620000e-002) (68, 1.52837380766868590000e-001) (69, -6.78223073482513430000e-002) (70, 7.57122039794921880000e-002) (71, -8.77893418073654170000e-002) (72, 1.58168703317642210000e-001) (73, 1.77478760480880740000e-001) (74, -8.70534032583236690000e-002) (75, 1.05180449783802030000e-001) (76, 1.37137055397033690000e-001) (77, -3.76635640859603880000e-002) (78, -1.70135740190744400000e-002) (79, -1.27105675637722020000e-002) (80, -1.13169401884078980000e-001) (81, -5.80806881189346310000e-002) (82, -1.09705358743667600000e-001) (83, -5.06426207721233370000e-002) (84, 6.35584369301795960000e-002) (85, -6.47430447861552240000e-003) (86, -5.37170888856053350000e-003) (87, -7.52811431884765630000e-002) (88, -5.03331311047077180000e-002) (89, -4.59035411477088930000e-002) (90, -2.27474838495254520000e-001) (91, -7.13978558778762820000e-002) (92, -6.03073567617684600000e-004) (93, -2.00095862150192260000e-001) (94, -1.37906046584248540000e-002) (95, 1.21783897280693050000e-001) (96, -2.03468471765518190000e-001) (0, 1.28620048053562640000e-003) (1, 5.45094050467014310000e-002) (2, 1.26747682690620420000e-001) (3, 8.25586840510368350000e-002) (4, 1.80037189275026320000e-002) (5, 1.99369207024574280000e-001) (6, -5.57587184011936190000e-002) (7, -1.37243747711181640000e-001) (8, 2.61656809598207470000e-002) (9, -1.17860175669193270000e-003) (10, 1.00593827664852140000e-001) (11, -1.36469285935163500000e-002) (12, -7.37542435526847840000e-002) (13, -5.22831231355667110000e-002) (14, 5.69570204243063930000e-003) (15, -8.28578546643257140000e-002) (16, 9.64822024106979370000e-002) (17, 9.79944914579391480000e-002) (18, 3.37758334353566170000e-003) (19, 2.97788484022021290000e-003) (20, -1.68542027473449710000e-001) (21, 1.25368013978004460000e-002) (22, 3.43100056052207950000e-002) (23, 8.60379859805107120000e-002) (24, 2.61501789093017580000e-001) (25, 1.62128079682588580000e-002) (26, 6.80196508765220640000e-002) (27, -1.23780719935894010000e-001) (28, -9.29097533226013180000e-002) (29, 8.92886833753436800000e-004) (30, -1.30124434828758240000e-001) (31, -1.21085892897099260000e-003) (32, 1.69402271509170530000e-001) (33, 1.69266983866691590000e-001) (34, -1.28162965178489690000e-001) (35, -1.05724036693573000000e-001) (36, -5.56699782609939580000e-002) (37, -9.85101163387298580000e-002) (38, 1.99010013602674010000e-003) (39, 5.07022179663181300000e-002) (40, -9.47968587279319760000e-002) (41, 3.10642309486866000000e-002) (42, -8.28777775168418880000e-002) (43, -1.91361784934997560000e-001) (44, -1.06455788016319270000e-001) (45, -2.02577918767929080000e-001) (46, 4.18101958930492400000e-002) (47, 1.25659242272377010000e-001) (48, -5.40346428751945500000e-002) (49, 6.35882914066314700000e-002) (50, 2.55849957466125490000e-001) (51, 1.91877752542495730000e-001) (52, 1.97525754570961000000e-001) (53, 2.32926353812217710000e-001) (54, 2.15087130665779110000e-001) (55, -1.31510674953460690000e-001) (56, -6.31402730941772460000e-002) (57, -1.42227515578269960000e-001) (58, -6.82409256696701050000e-002) (59, 2.78740972280502320000e-002) (60, 2.29569952934980390000e-002) (61, -1.25459715723991390000e-001) (62, -1.95768028497695920000e-001) (63, 1.11999712884426120000e-001) (64, 9.52652692794799800000e-002) (65, -1.93875133991241460000e-001) (66, -2.04512581229209900000e-001) (67, -3.08664105832576750000e-002) (68, 6.60184724256396290000e-003) (69, -8.97324681282043460000e-002) (70, -1.84580862522125240000e-001) (71, -6.02477379143238070000e-002) (72, 4.34587709605693820000e-002) (73, -2.40855559706687930000e-001) (74, -7.99947455525398250000e-002) (75, -2.83762626349925990000e-002) (76, -1.15487709641456600000e-001) (77, -1.41842588782310490000e-001) (78, -1.53110250830650330000e-001) (79, 9.06853750348091130000e-002) (80, 1.21182166039943700000e-001) (81, -2.54531413316726680000e-001) (82, -7.33807533979415890000e-002) (83, -6.17017038166522980000e-002) (84, -4.59090434014797210000e-002) (85, -1.63911521434783940000e-001) (86, -3.01803022623062130000e-001) (87, -5.41148409247398380000e-002) (88, -3.32332998514175420000e-002) (89, 1.05626977980136870000e-001) (90, -1.67833387851715090000e-001) (91, -3.95005106925964360000e-001) (92, -2.38688111305236820000e-001) (93, -2.61625051498413090000e-001) (94, -3.61117988824844360000e-001) (95, -7.73243010044097900000e-002) (96, -2.26991906762123110000e-001) (0, 1.30945473909378050000e-001) (1, 3.74253578484058380000e-002) (2, 3.26333642005920410000e-002) (3, 8.21838676929473880000e-002) (4, -8.80770981311798100000e-002) (5, -2.23034527152776720000e-003) (6, -6.63266703486442570000e-002) (7, 2.88623645901679990000e-002) (8, 9.19351279735565190000e-002) (9, -3.34262363612651820000e-002) (10, -1.02602779865264890000e-001) (11, -9.25830565392971040000e-003) (12, -1.16375617682933810000e-001) (13, -8.61021131277084350000e-002) (14, -1.66111677885055540000e-001) (15, -3.57096865773200990000e-002) (16, -6.79217875003814700000e-002) (17, -2.39272862672805790000e-001) (18, -8.84005129337310790000e-002) (19, -1.42079621553421020000e-001) (20, 2.30202022939920430000e-002) (21, 1.90837541595101360000e-003) (22, -2.50061377882957460000e-002) (23, -2.03556753695011140000e-003) (24, 7.80466869473457340000e-002) (25, -8.57046544551849370000e-002) (26, 2.21146959811449050000e-002) (27, -5.48689626157283780000e-002) (28, -1.94844484329223630000e-001) (29, -5.16731701791286470000e-002) (30, 8.69925543665885930000e-002) (31, -3.30242998898029330000e-002) (32, -1.07682803645730020000e-002) (33, -9.44679081439971920000e-002) (34, 7.02145183458924290000e-003) (35, -1.03717774152755740000e-001) (36, -7.38627696409821510000e-003) (37, -1.50911301374435420000e-001) (38, -8.69270861148834230000e-002) (39, -2.79753338545560840000e-002) (40, 1.05623863637447360000e-001) (41, 3.16862873733043670000e-002) (42, -1.29001915454864500000e-001) (43, -1.24735251069068910000e-001) (44, -4.74036186933517460000e-002) (45, -1.74459025263786320000e-001) (46, 3.31097021698951720000e-002) (47, 7.88403078913688660000e-002) (48, 4.05548140406608580000e-002) (49, 1.98523374274373050000e-003) (50, -1.18240974843502040000e-001) (51, -1.21227577328681950000e-001) (52, -1.14892691373825070000e-001) (53, -1.81183248758316040000e-001) (54, 1.62121146917343140000e-001) (55, 2.06788163632154460000e-002) (56, 1.65140360593795780000e-001) (57, 2.98583973199129100000e-002) (58, -1.23166747391223910000e-001) (59, -2.01909646391868590000e-001) (60, -1.53932541608810420000e-001) (61, -1.36087849736213680000e-001) (62, 1.76093764603137970000e-002) (63, -1.67674958705902100000e-001) (64, 1.12587489187717440000e-001) (65, 9.99669656157493590000e-002) (66, -6.15563504397869110000e-002) (67, -1.93851649761199950000e-001) (68, -1.18771523237228390000e-001) (69, -1.99934653937816620000e-002) (70, 6.83077052235603330000e-002) (71, -5.19153773784637450000e-002) (72, 1.67445719242095950000e-001) (73, -7.16717392206192020000e-002) (74, -1.93940117955207820000e-001) (75, -7.92665705084800720000e-002) (76, -9.49966683983802800000e-002) (77, 5.66164366900920870000e-002) (78, 1.20672211050987240000e-001) (79, -1.76540568470954900000e-001) (80, -9.02625471353530880000e-002) (81, -1.48732379078865050000e-001) (82, -2.99747418612241740000e-002) (83, -1.64341852068901060000e-001) (84, 5.81368207931518550000e-002) (85, 7.89698436856269840000e-002) (86, -1.34822785854339600000e-001) (87, -1.05699546635150910000e-001) (88, -1.53921931982040410000e-001) (89, -6.52770176529884340000e-002) (90, -2.31641113758087160000e-001) (91, -2.59430378675460820000e-001) (92, -7.42073580622673030000e-002) (93, -1.68626949191093440000e-001) (94, -2.19107955694198610000e-001) (95, -1.44530192017555240000e-001) (96, -1.85192078351974490000e-001) (0, 6.99250027537345890000e-002) (1, -9.07738786190748210000e-003) (2, -2.73012042045593260000e-001) (3, -1.99104920029640200000e-001) (4, -3.73506963253021240000e-001) (5, -4.23617511987686160000e-002) (6, -1.12922586500644680000e-001) (7, 1.04104883968830110000e-001) (8, 1.89837321639060970000e-001) (9, -1.25720903277397160000e-001) (10, -2.00970768928527830000e-001) (11, -2.02936112880706790000e-001) (12, -2.02929168939590450000e-001) (13, -1.94178447127342220000e-001) (14, 1.95752397179603580000e-001) (15, 3.12205433845520020000e-001) (16, -6.87239691615104680000e-002) (17, 1.38926982879638670000e-001) (18, -2.33615785837173460000e-002) (19, -3.51196020841598510000e-001) (20, -6.75552710890769960000e-002) (21, -2.16037318110466000000e-001) (22, 1.08306333422660830000e-001) (23, 4.81865592300891880000e-002) (24, -1.92232672125101090000e-002) (25, 6.21817372739315030000e-002) (26, -4.62306402623653410000e-002) (27, -1.26311033964157100000e-001) (28, 3.63168492913246150000e-002) (29, 5.04804179072380070000e-002) (30, -2.65474528074264530000e-001) (31, -1.22886091470718380000e-001) (32, -1.14431008696556090000e-001) (33, -2.42659986019134520000e-001) (34, -1.94499641656875610000e-001) (35, 1.09986215829849240000e-001) (36, 4.96183410286903380000e-002) (37, 3.99254746735095980000e-002) (38, -7.94361606240272520000e-002) (39, -2.56076157093048100000e-001) (40, 5.60363940894603730000e-002) (41, -1.47667095065116880000e-001) (42, -8.48874598741531370000e-002) (43, -1.26949185505509380000e-002) (44, -1.83323755860328670000e-001) (45, -1.59303337335586550000e-001) (46, -4.31707978248596190000e-001) (47, -2.27629050612449650000e-001) (48, -1.73953384160995480000e-001) (49, 1.00604273378849030000e-001) (50, -2.69264549016952510000e-001) (51, -3.30904424190521240000e-001) (52, -4.21702712774276730000e-001) (53, -5.41097164154052730000e-001) (54, -5.04704892635345460000e-001) (55, -2.83993899822235110000e-001) (56, -9.03127714991569520000e-002) (57, 1.64798066020011900000e-001) (58, -4.32454757392406460000e-002) (59, 1.34894579648971560000e-001) (60, -4.88357618451118470000e-002) (61, -2.44091991335153580000e-002) (62, -4.19928938150405880000e-001) (63, -3.18723261356353760000e-001) (64, -1.07303239405155180000e-001) (65, 1.22617945075035100000e-001) (66, 1.19145903736352920000e-002) (67, 1.21430188417434690000e-001) (68, 1.46090671420097350000e-001) (69, -9.59691554307937620000e-002) (70, -4.15167212486267090000e-001) (71, -3.62839579582214360000e-001) (72, 2.17202631756663320000e-003) (73, 1.10675491392612460000e-001) (74, -1.06736041605472560000e-001) (75, -3.41217517852783200000e-001) (76, 3.70039157569408420000e-002) (77, 8.59032720327377320000e-002) (78, -6.66471600532531740000e-001) (79, -3.87326419353485110000e-001) (80, -4.58657182753086090000e-002) (81, 3.18833380937576290000e-001) (82, -2.15118587017059330000e-001) (83, -3.16764533519744870000e-001) (84, -1.32845327258110050000e-001) (85, -3.23381066322326660000e-001) (86, 5.15453591942787170000e-002) (87, -1.53449848294258120000e-001) (88, 1.30504712462425230000e-001) (89, 5.95501214265823360000e-002) (90, 8.06983858346939090000e-002) (91, 3.56358766555786130000e-001) (92, 3.87217044830322270000e-001) (93, 4.80930775403976440000e-001) (94, 6.47793769836425780000e-001) (95, 3.03825259208679200000e-001) (96, 1.55506283044815060000e-002) (0, 3.88425216078758240000e-002) (1, -4.61431108415126800000e-002) (2, 6.16782903671264650000e-003) (3, -2.52084266394376750000e-002) (4, 1.43401054665446280000e-002) (5, 6.28510713577270510000e-002) (6, -8.85669887065887450000e-002) (7, -2.26058866828680040000e-002) (8, -2.23365724086761470000e-002) (9, -9.21890959143638610000e-002) (10, -1.64426729083061220000e-001) (11, -1.54550462961196900000e-001) (12, 6.19013188406825070000e-003) (13, -9.84847173094749450000e-003) (14, -2.21742242574691770000e-002) (15, -2.55628228187561040000e-002) (16, -1.76680590957403180000e-002) (17, -1.06190890073776250000e-001) (18, -8.52153822779655460000e-002) (19, -2.97905523329973220000e-002) (20, 7.08391983062028880000e-003) (21, -6.61049336194992070000e-002) (22, -2.38800242543220520000e-001) (23, 2.17796079814434050000e-002) (24, -1.38668730854988100000e-001) (25, -6.95032179355621340000e-002) (26, 7.43556022644042970000e-003) (27, -5.62973320484161380000e-002) (28, -1.21540904045104980000e-001) (29, -1.28686487674713130000e-001) (30, -1.76482707262039180000e-001) (31, -6.35043010115623470000e-002) (32, -9.84569415450096130000e-002) (33, -8.27160701155662540000e-002) (34, -9.46850329637527470000e-002) (35, -1.03702768683433530000e-001) (36, -7.20244795083999630000e-002) (37, -6.71302527189254760000e-002) (38, -1.63191825151443480000e-001) (39, -1.25336229801177980000e-001) (40, 3.33964661695063110000e-003) (41, -1.27290263772010800000e-001) (42, -7.75116384029388430000e-002) (43, -1.16116069257259370000e-001) (44, 1.16026014089584350000e-001) (45, -7.18309357762336730000e-002) (46, -8.91757532954216000000e-002) (47, 8.86347517371177670000e-003) (48, -1.49426773190498350000e-001) (49, -6.50148168206214900000e-002) (50, -1.34134873747825620000e-001) (51, -1.16783685982227330000e-001) (52, 6.18251599371433260000e-002) (53, -1.08356788754463200000e-001) (54, -2.76998709887266160000e-002) (55, -1.07553824782371520000e-001) (56, -1.53739482164382930000e-001) (57, -1.36612653732299800000e-001) (58, -2.19177891267463560000e-004) (59, -7.56728947162628170000e-002) (60, 3.28708477318286900000e-002) (61, 8.01161378622055050000e-002) (62, -1.04186967015266420000e-001) (63, -1.12723484635353090000e-001) (64, -1.26645758748054500000e-001) (65, -1.92105755209922790000e-001) (66, -3.03007755428552630000e-003) (67, -1.13097548484802250000e-001) (68, 3.44807356595993040000e-002) (69, -7.14623406529426570000e-002) (70, -4.12644743919372560000e-002) (71, -6.07763864099979400000e-002) (72, -3.05923018604516980000e-002) (73, -6.68767616152763370000e-002) (74, -6.88664019107818600000e-002) (75, -1.33416384458541870000e-001) (76, 2.13954616338014600000e-002) (77, 6.80015981197357180000e-002) (78, -1.30179837346076970000e-001) (79, -9.36879515647888180000e-002) (80, -6.07512705028057100000e-002) (81, -2.75566756725311280000e-001) (82, -1.51449128985404970000e-001) (83, -2.86087952554225920000e-002) (84, 4.78846766054630280000e-002) (85, 5.33966273069381710000e-002) (86, -5.73075637221336360000e-002) (87, -9.51543822884559630000e-002) (88, -1.78536832332611080000e-001) (89, -9.50039848685264590000e-002) (90, -1.97111517190933230000e-001) (91, -1.58915221691131590000e-001) (92, -1.19505085051059720000e-001) (93, -9.95244607329368590000e-002) (94, -2.39273667335510250000e-001) (95, 8.18873867392539980000e-002) (96, -2.67111927270889280000e-001) (0, -9.67448428273200990000e-002) (1, -5.28403446078300480000e-002) (2, -4.26891678944230080000e-003) (3, 1.85250956565141680000e-002) (4, -1.61683201789855960000e-001) (5, -4.75315034389495850000e-001) (6, -1.36328831315040590000e-001) (7, 6.87378123402595520000e-002) (8, -5.48148676753044130000e-002) (9, -1.88876286149024960000e-001) (10, -2.00116842985153200000e-001) (11, -1.23451054096221920000e-001) (12, -4.82169806957244870000e-001) (13, -2.64736622571945190000e-001) (14, -1.57169356942176820000e-001) (15, -3.93054559826850890000e-002) (16, -4.22957865521311760000e-003) (17, 2.36369460821151730000e-001) (18, 2.27738559246063230000e-001) (19, -1.26304000616073610000e-001) (20, -2.15315178036689760000e-001) (21, 1.09462916851043700000e-001) (22, 2.21045181155204770000e-001) (23, -2.53132969141006470000e-001) (24, -1.05279996991157530000e-001) (25, 2.97766387462615970000e-001) (26, 2.35068246722221370000e-001) (27, -4.76703315973281860000e-001) (28, -2.22601711750030520000e-001) (29, 2.28709772229194640000e-001) (30, 4.75725710391998290000e-001) (31, -5.45036680996418000000e-002) (32, -2.39005044102668760000e-001) (33, 1.99967786669731140000e-001) (34, 1.95410743355751040000e-001) (35, -1.29732102155685420000e-001) (36, -1.29273563623428340000e-001) (37, 1.14072628319263460000e-001) (38, 3.60955983400344850000e-001) (39, -7.02010020613670350000e-002) (40, -4.49125207960605620000e-002) (41, -1.60738125443458560000e-001) (42, 4.93522375822067260000e-001) (43, 1.14123225212097170000e-001) (44, 9.88964457064867020000e-003) (45, -2.30726078152656560000e-001) (46, 3.38197916746139530000e-001) (47, -1.23739555478096010000e-001) (48, 1.60949215292930600000e-001) (49, -2.55222078412771220000e-002) (50, 3.94836902618408200000e-001) (51, 1.91771939396858220000e-001) (52, 5.03660663962364200000e-002) (53, -2.37369939684867860000e-001) (54, 1.72284707427024840000e-001) (55, 7.84681364893913270000e-002) (56, -1.98132082819938660000e-001) (57, 3.16826939582824710000e-001) (58, 3.81284445524215700000e-001) (59, -1.32527187466621400000e-001) (60, -4.88124452531337740000e-002) (61, -1.88775941729545590000e-001) (62, 6.09156414866447450000e-002) (63, -1.53827220201492310000e-001) (64, 3.05375933647155760000e-001) (65, 3.82996737957000730000e-001) (66, 1.44380852580070500000e-001) (67, 9.94264781475067140000e-002) (68, 2.54090130329132080000e-001) (69, 2.41967380046844480000e-001) (70, 1.23927108943462370000e-001) (71, -1.44690304994583130000e-001) (72, 2.10402101278305050000e-001) (73, 2.92298167943954470000e-001) (74, 4.49723862111568450000e-002) (75, -3.66174317896366120000e-002) (76, 1.23778715729713440000e-001) (77, 6.59256950020790100000e-002) (78, 3.51432859897613530000e-002) (79, -5.85423409938812260000e-002) (80, 7.16138035058975220000e-002) (81, -3.32755297422409060000e-001) (82, -2.14645296335220340000e-001) (83, -5.08068464696407320000e-002) (84, 1.00280709564685820000e-001) (85, -7.37467408180236820000e-002) (86, -1.86897099018096920000e-001) (87, -1.47324442863464360000e-001) (88, -2.64092963188886640000e-002) (89, -4.98104661703109740000e-001) (90, -4.94277089834213260000e-001) (91, -3.15158069133758540000e-001) (92, -3.75067919492721560000e-001) (93, -3.22049111127853390000e-001) (94, 6.68757259845733640000e-002) (95, -2.03549601137638090000e-002) (96, -2.04098582267761230000e-001) (0, -1.75627395510673520000e-001) (1, -3.81980657577514650000e-001) (2, -4.00582045316696170000e-001) (3, 4.16523069143295290000e-002) (4, -9.86818373203277590000e-002) (5, -6.30220711231231690000e-001) (6, -6.07078015804290770000e-001) (7, -1.65856003761291500000e-001) (8, -3.82673710584640500000e-001) (9, -2.50073283910751340000e-001) (10, 1.68442185968160630000e-002) (11, 9.27800312638282780000e-003) (12, 3.70532646775245670000e-002) (13, -4.09539610147476200000e-001) (14, -9.48730409145355220000e-001) (15, -3.47983181476593020000e-001) (16, -6.50184974074363710000e-002) (17, -1.43213957548141480000e-001) (18, 2.42610678076744080000e-001) (19, 1.03389345109462740000e-001) (20, -1.57171010971069340000e-001) (21, 8.55822339653968810000e-002) (22, -3.53606529533863070000e-002) (23, -2.90606886148452760000e-001) (24, 9.83698200434446330000e-003) (25, -7.82380288001149890000e-004) (26, -6.10854364931583400000e-002) (27, -2.96446323394775390000e-001) (28, -3.83578151464462280000e-001) (29, -1.13815441727638240000e-001) (30, 3.65653097629547120000e-001) (31, -4.32669371366500850000e-001) (32, -1.40131136868149040000e-003) (33, 6.71489611268043520000e-002) (34, 1.59955713897943500000e-002) (35, -3.33786934614181520000e-001) (36, -1.69838607311248780000e-001) (37, 1.56718328595161440000e-001) (38, 5.66971182823181150000e-001) (39, -2.52832442522048950000e-001) (40, -1.77837729454040530000e-001) (41, 1.60321488976478580000e-001) (42, 1.00458227097988130000e-001) (43, -9.02354270219802860000e-002) (44, -2.42154732346534730000e-001) (45, 2.97604836523532870000e-002) (46, 5.09954929351806640000e-001) (47, -1.68410584330558780000e-001) (48, 1.39999806880950930000e-001) (49, -9.86055433750152590000e-002) (50, 1.81726038455963130000e-001) (51, 2.82614141702651980000e-001) (52, 1.05229049921035770000e-001) (53, 1.91757410764694210000e-001) (54, 1.33570253849029540000e-001) (55, -1.21802397072315220000e-001) (56, -2.30950806289911270000e-002) (57, -2.51296341419219970000e-001) (58, 2.12585702538490300000e-001) (59, -4.72804129123687740000e-001) (60, -3.21743756532669070000e-001) (61, 2.38850653171539310000e-001) (62, 7.46239542961120610000e-001) (63, 2.41016298532485960000e-002) (64, -1.76372498273849490000e-001) (65, -1.21018141508102420000e-001) (66, -1.53727993369102480000e-001) (67, -5.32173752784729000000e-001) (68, -3.49163621664047240000e-001) (69, -1.69897034764289860000e-001) (70, 8.75117838382720950000e-001) (71, -1.02222919464111330000e-001) (72, 3.95277664065361020000e-002) (73, 2.61259913444519040000e-001) (74, -2.92828351259231570000e-001) (75, -1.37812465429306030000e-001) (76, 8.82435292005538940000e-002) (77, 2.26258710026741030000e-001) (78, 7.25130498409271240000e-001) (79, 3.74558866024017330000e-002) (80, 2.65521444380283360000e-002) (81, 1.71812847256660460000e-001) (82, 1.06200836598873140000e-001) (83, -2.28015780448913570000e-001) (84, -6.81591033935546880000e-003) (85, 3.45741569995880130000e-001) (86, 3.31273466348648070000e-001) (87, -1.70619204640388490000e-001) (88, -1.16244070231914520000e-001) (89, -1.14606648683547970000e-001) (90, -1.65858864784240720000e-001) (91, -2.74559110403060910000e-001) (92, -3.56148302555084230000e-001) (93, -4.80390489101409910000e-001) (94, -2.71720737218856810000e-001) (95, -1.94215178489685060000e-002) (96, -2.71847873926162720000e-001) (0, -4.68520000576972960000e-002) (1, -1.46788224577903750000e-001) (2, 1.44607154652476310000e-002) (3, 3.85796763002872470000e-002) (4, -1.23751878738403320000e-001) (5, 9.51005369424819950000e-002) (6, 1.52125835418701170000e-001) (7, 7.36349746584892270000e-002) (8, -1.27094045281410220000e-001) (9, -8.63282606005668640000e-002) (10, -2.49851867556571960000e-002) (11, -7.81595781445503230000e-002) (12, -1.94845572113990780000e-001) (13, 1.04126855731010440000e-001) (14, -5.27375154197216030000e-002) (15, 9.13803279399871830000e-003) (16, 1.00649744272232060000e-001) (17, -1.96934178471565250000e-001) (18, -1.46484881639480590000e-001) (19, 1.54347151517868040000e-001) (20, 1.68033018708229060000e-001) (21, 1.71109408140182500000e-001) (22, -1.81908458471298220000e-001) (23, -1.08379527926445010000e-001) (24, 8.81503522396087650000e-002) (25, -3.02329778671264650000e-001) (26, 4.65445853769779210000e-002) (27, 6.38033263385295870000e-003) (28, 1.31357386708259580000e-001) (29, 3.22434655390679840000e-003) (30, -2.04391375184059140000e-001) (31, 3.64053039811551570000e-003) (32, -2.65224743634462360000e-002) (33, -1.05991348624229430000e-001) (34, -7.04065710306167600000e-002) (35, 1.40749420970678330000e-002) (36, -1.02664440870285030000e-001) (37, -1.17320552468299870000e-001) (38, -1.38863891363143920000e-001) (39, 1.22494921088218690000e-001) (40, -7.26332068443298340000e-002) (41, -6.74802884459495540000e-002) (42, 9.49290320277214050000e-002) (43, -9.04060993343591690000e-003) (44, 7.73469507694244380000e-002) (45, 4.32249121367931370000e-002) (46, -1.45804345607757570000e-001) (47, -3.08810803107917310000e-003) (48, 9.17574986815452580000e-002) (49, -1.82888463139534000000e-001) (50, -3.02347112447023390000e-002) (51, -2.13540852069854740000e-001) (52, -1.79519534111022950000e-001) (53, 1.10584340989589690000e-001) (54, 9.37403589487075810000e-002) (55, 8.27558040618896480000e-002) (56, 2.65510171651840210000e-001) (57, 2.18346584588289260000e-002) (58, -1.34701669216156010000e-001) (59, -2.43588596582412720000e-001) (60, -1.85130700469017030000e-001) (61, 1.81165256071835760000e-003) (62, 4.96391858905553820000e-003) (63, 6.81579262018203740000e-002) (64, 4.20290708541870120000e-001) (65, -5.42498473078012470000e-003) (66, -6.76998868584632870000e-002) (67, -2.06201344728469850000e-001) (68, -8.25376138091087340000e-002) (69, 1.12333931028842930000e-001) (70, 5.71165978908538820000e-002) (71, 5.44555038213729860000e-002) (72, 3.33554781973361970000e-002) (73, -2.31468100100755690000e-002) (74, -2.50604569911956790000e-001) (75, -1.99858024716377260000e-001) (76, -2.43462979793548580000e-001) (77, -3.81570607423782350000e-002) (78, 4.00064468383789060000e-001) (79, -4.57137227058410640000e-002) (80, -2.15326808393001560000e-002) (81, -1.86904534697532650000e-001) (82, -2.34509855508804320000e-001) (83, 1.15122415125370030000e-001) (84, -1.24796658754348750000e-001) (85, 5.17726480960845950000e-001) (86, 9.81818214058876040000e-002) (87, 1.08639001846313480000e-001) (88, -1.20840661227703090000e-001) (89, -1.14313960075378420000e-001) (90, 7.30161368846893310000e-002) (91, 6.81395232677459720000e-002) (92, 7.94284194707870480000e-002) (93, 2.23130792379379270000e-001) (94, -3.97941887378692630000e-001) (95, -4.27528470754623410000e-002) (96, -2.10659489035606380000e-001) (0, -8.66232663393020630000e-002) (1, -6.90992176532745360000e-002) (2, 7.58486390113830570000e-002) (3, 9.21916961669921880000e-002) (4, 3.93330156803131100000e-002) (5, -1.91077426075935360000e-001) (6, 1.95659130811691280000e-001) (7, 3.58290150761604310000e-002) (8, 1.27710640430450440000e-001) (9, 2.79311537742614750000e-002) (10, 3.26030999422073360000e-002) (11, 6.72363266348838810000e-002) (12, -1.68181940913200380000e-001) (13, -1.73669770359992980000e-001) (14, 8.05234536528587340000e-002) (15, 6.67427703738212590000e-002) (16, -1.39562562108039860000e-001) (17, -4.06659573316574100000e-001) (18, -2.92250037193298340000e-001) (19, -1.00013993680477140000e-001) (20, -1.39184668660163880000e-001) (21, -2.96027272939682010000e-001) (22, -2.13488161563873290000e-001) (23, 1.45213320851325990000e-001) (24, -1.22736275196075440000e-001) (25, -1.66393488645553590000e-001) (26, -1.16103895008564000000e-001) (27, -3.11416666954755780000e-002) (28, 4.48830937966704370000e-003) (29, -2.49082241207361220000e-002) (30, 8.96386429667472840000e-003) (31, 1.24276921153068540000e-001) (32, -9.01112109422683720000e-002) (33, -9.26715582609176640000e-002) (34, -6.59819543361663820000e-002) (35, -8.46106335520744320000e-002) (36, 1.43471553921699520000e-001) (37, 1.15401167422533040000e-002) (38, 5.13994693756103520000e-003) (39, -9.21355094760656360000e-005) (40, -1.19675165042281150000e-002) (41, -2.08561226725578310000e-001) (42, 4.36739437282085420000e-002) (43, 1.89249843358993530000e-001) (44, 2.62858629226684570000e-001) (45, -5.75547218322753910000e-002) (46, -1.26773804426193240000e-001) (47, 6.47370656952261920000e-003) (48, -2.88917720317840580000e-002) (49, -1.14323809742927550000e-001) (50, -1.56317442655563350000e-001) (51, -3.18672470748424530000e-002) (52, -2.95766126364469530000e-002) (53, -2.77172058820724490000e-001) (54, -4.18019481003284450000e-002) (55, 2.32476908713579180000e-002) (56, -1.84017732739448550000e-001) (57, -2.05954417586326600000e-001) (58, -3.69429737329483030000e-002) (59, 1.52309015393257140000e-001) (60, -3.05901654064655300000e-003) (61, -3.64891663193702700000e-002) (62, 3.87089364230632780000e-002) (63, -3.15537899732589720000e-002) (64, -7.95197114348411560000e-002) (65, -1.94121375679969790000e-001) (66, 1.65984824299812320000e-001) (67, 2.48208850622177120000e-001) (68, 8.02245438098907470000e-002) (69, 3.60364001244306560000e-003) (70, 1.29763007164001460000e-001) (71, -3.94151508808135990000e-002) (72, -1.59642063081264500000e-002) (73, -1.39270484447479250000e-001) (74, 9.13494601845741270000e-002) (75, 1.19595825672149660000e-001) (76, -7.47028291225433350000e-002) (77, -9.51358303427696230000e-003) (78, 1.19103349745273590000e-001) (79, 9.81988036073744300000e-004) (80, -1.62583425641059880000e-001) (81, -1.09120510518550870000e-001) (82, -1.41393303871154790000e-001) (83, 4.58893701434135440000e-002) (84, 1.14163719117641450000e-001) (85, -2.08046197891235350000e-001) (86, -1.57767862081527710000e-001) (87, -3.93190607428550720000e-002) (88, -6.51446357369422910000e-002) (89, 1.29663455300033090000e-003) (90, -1.47348627448081970000e-001) (91, -1.42956912517547610000e-001) (92, -5.88767305016517640000e-002) (93, -1.47669345140457150000e-001) (94, -8.12627300620079040000e-002) (95, 2.36101970076560970000e-001) (96, -9.86975356936454770000e-002) (0, -9.74406450986862180000e-002) (1, 8.74670781195163730000e-003) (2, 2.71464362740516660000e-002) (3, -7.47223291546106340000e-003) (4, -1.51339054107666020000e-001) (5, 1.64859905838966370000e-001) (6, -5.97051605582237240000e-002) (7, -6.20173439383506770000e-002) (8, -1.32281720638275150000e-001) (9, -1.17422558367252350000e-001) (10, 8.59784483909606930000e-002) (11, -4.81231175363063810000e-002) (12, -9.87598896026611330000e-002) (13, 7.69523680210113530000e-002) (14, -1.74510315060615540000e-001) (15, 7.66638517379760740000e-002) (16, -3.30198220908641820000e-002) (17, -2.08707585930824280000e-001) (18, -5.41547946631908420000e-002) (19, 9.71877388656139370000e-003) (20, -9.85025092959403990000e-002) (21, 1.44313341006636620000e-002) (22, 4.31000953540205960000e-003) (23, 2.15515829622745510000e-002) (24, 3.12619656324386600000e-002) (25, -6.25499188899993900000e-002) (26, 9.86038818955421450000e-002) (27, 1.14994263276457790000e-002) (28, -2.12360560894012450000e-001) (29, 5.96743710339069370000e-002) (30, -9.16138738393783570000e-002) (31, -2.91817933320999150000e-002) (32, -2.97046136111021040000e-002) (33, -1.02978177368640900000e-001) (34, -9.77820456027984620000e-002) (35, -1.09436273574829100000e-001) (36, -4.00579199194908140000e-002) (37, 7.55237191915512080000e-002) (38, -1.05035975575447080000e-001) (39, -6.57560154795646670000e-002) (40, 4.66124415397644040000e-002) (41, -1.69961377978324890000e-001) (42, -1.62532359361648560000e-001) (43, -2.59659588336944580000e-001) (44, -3.29845063388347630000e-002) (45, 2.89244055747985840000e-002) (46, -7.22796469926834110000e-002) (47, 4.70159985125064850000e-002) (48, 3.32279540598392490000e-002) (49, -1.10653787851333620000e-001) (50, -1.52095228433609010000e-001) (51, -2.08048656582832340000e-001) (52, -1.34662151336669920000e-001) (53, -5.35981357097625730000e-002) (54, -1.79366156458854680000e-001) (55, -4.96477000415325160000e-002) (56, 8.10629576444625850000e-002) (57, -1.08688399195671080000e-001) (58, -2.09469228982925420000e-001) (59, -2.26590320467948910000e-001) (60, -1.90544143319129940000e-001) (61, -4.90112565457820890000e-002) (62, 5.55107705295085910000e-002) (63, -1.61623239517211910000e-001) (64, -4.84095290303230290000e-002) (65, -2.39916771650314330000e-001) (66, -1.26658305525779720000e-001) 