FANN_FLO_2.1
num_layers=3
learning_rate=0.700000
connection_rate=1.000000
network_type=0
learning_momentum=0.400000
training_algorithm=0
train_error_function=1
train_stop_function=0
cascade_output_change_fraction=0.010000
quickprop_decay=-0.000100
quickprop_mu=1.750000
rprop_increase_factor=1.200000
rprop_decrease_factor=0.500000
rprop_delta_min=0.000000
rprop_delta_max=50.000000
rprop_delta_zero=0.100000
cascade_output_stagnation_epochs=12
cascade_candidate_change_fraction=0.010000
cascade_candidate_stagnation_epochs=12
cascade_max_out_epochs=150
cascade_min_out_epochs=50
cascade_max_cand_epochs=150
cascade_min_cand_epochs=50
cascade_num_candidate_groups=2
bit_fail_limit=3.49999994039535520000e-001
cascade_candidate_limit=1.00000000000000000000e+003
cascade_weight_multiplier=4.00000005960464480000e-001
cascade_activation_functions_count=10
cascade_activation_functions=3 5 7 8 10 11 14 15 16 17 
cascade_activation_steepnesses_count=4
cascade_activation_steepnesses=2.50000000000000000000e-001 5.00000000000000000000e-001 7.50000000000000000000e-001 1.00000000000000000000e+000 
layer_sizes=97 97 37 
scale_included=0
neurons (num_inputs, activation_function, activation_steepness)=(0, 0, 0.00000000000000000000e+000) (0, 0, 0.00000000000000000000e+000) (0, 0, 0.00000000000000000000e+000) (0, 0, 0.00000000000000000000e+000) (0, 0, 0.00000000000000000000e+000) (0, 0, 0.00000000000000000000e+000) (0, 0, 0.00000000000000000000e+000) (0, 0, 0.00000000000000000000e+000) (0, 0, 0.00000000000000000000e+000) (0, 0, 0.00000000000000000000e+000) (0, 0, 0.00000000000000000000e+000) (0, 0, 0.00000000000000000000e+000) (0, 0, 0.00000000000000000000e+000) (0, 0, 0.00000000000000000000e+000) (0, 0, 0.00000000000000000000e+000) (0, 0, 0.00000000000000000000e+000) (0, 0, 0.00000000000000000000e+000) (0, 0, 0.00000000000000000000e+000) (0, 0, 0.00000000000000000000e+000) (0, 0, 0.00000000000000000000e+000) (0, 0, 0.00000000000000000000e+000) (0, 0, 0.00000000000000000000e+000) (0, 0, 0.00000000000000000000e+000) (0, 0, 0.00000000000000000000e+000) (0, 0, 0.00000000000000000000e+000) (0, 0, 0.00000000000000000000e+000) (0, 0, 0.00000000000000000000e+000) (0, 0, 0.00000000000000000000e+000) (0, 0, 0.00000000000000000000e+000) (0, 0, 0.00000000000000000000e+000) (0, 0, 0.00000000000000000000e+000) (0, 0, 0.00000000000000000000e+000) (0, 0, 0.00000000000000000000e+000) (0, 0, 0.00000000000000000000e+000) (0, 0, 0.00000000000000000000e+000) (0, 0, 0.00000000000000000000e+000) (0, 0, 0.00000000000000000000e+000) (0, 0, 0.00000000000000000000e+000) (0, 0, 0.00000000000000000000e+000) (0, 0, 0.00000000000000000000e+000) (0, 0, 0.00000000000000000000e+000) (0, 0, 0.00000000000000000000e+000) (0, 0, 0.00000000000000000000e+000) (0, 0, 0.00000000000000000000e+000) (0, 0, 0.00000000000000000000e+000) (0, 0, 0.00000000000000000000e+000) (0, 0, 0.00000000000000000000e+000) (0, 0, 0.00000000000000000000e+000) (0, 0, 0.00000000000000000000e+000) (0, 0, 0.00000000000000000000e+000) (0, 0, 0.00000000000000000000e+000) (0, 0, 0.00000000000000000000e+000) (0, 0, 0.00000000000000000000e+000) (0, 0, 0.00000000000000000000e+000) (0, 0, 0.00000000000000000000e+000) (0, 0, 0.00000000000000000000e+000) (0, 0, 0.00000000000000000000e+000) (0, 0, 0.00000000000000000000e+000) (0, 0, 0.00000000000000000000e+000) (0, 0, 0.00000000000000000000e+000) (0, 0, 0.00000000000000000000e+000) (0, 0, 0.00000000000000000000e+000) (0, 0, 0.00000000000000000000e+000) (0, 0, 0.00000000000000000000e+000) (0, 0, 0.00000000000000000000e+000) (0, 0, 0.00000000000000000000e+000) (0, 0, 0.00000000000000000000e+000) (0, 0, 0.00000000000000000000e+000) (0, 0, 0.00000000000000000000e+000) (0, 0, 0.00000000000000000000e+000) (0, 0, 0.00000000000000000000e+000) (0, 0, 0.00000000000000000000e+000) (0, 0, 0.00000000000000000000e+000) (0, 0, 0.00000000000000000000e+000) (0, 0, 0.00000000000000000000e+000) (0, 0, 0.00000000000000000000e+000) (0, 0, 0.00000000000000000000e+000) (0, 0, 0.00000000000000000000e+000) (0, 0, 0.00000000000000000000e+000) (0, 0, 0.00000000000000000000e+000) (0, 0, 0.00000000000000000000e+000) (0, 0, 0.00000000000000000000e+000) (0, 0, 0.00000000000000000000e+000) (0, 0, 0.00000000000000000000e+000) (0, 0, 0.00000000000000000000e+000) (0, 0, 0.00000000000000000000e+000) (0, 0, 0.00000000000000000000e+000) (0, 0, 0.00000000000000000000e+000) (0, 0, 0.00000000000000000000e+000) (0, 0, 0.00000000000000000000e+000) (0, 0, 0.00000000000000000000e+000) (0, 0, 0.00000000000000000000e+000) (0, 0, 0.00000000000000000000e+000) (0, 0, 0.00000000000000000000e+000) (0, 0, 0.00000000000000000000e+000) (0, 0, 0.00000000000000000000e+000) (0, 0, 0.00000000000000000000e+000) (97, 4, 5.00000000000000000000e-001) (97, 4, 5.00000000000000000000e-001) (97, 4, 5.00000000000000000000e-001) (97, 4, 5.00000000000000000000e-001) (97, 4, 5.00000000000000000000e-001) (97, 4, 5.00000000000000000000e-001) (97, 4, 5.00000000000000000000e-001) (97, 4, 5.00000000000000000000e-001) (97, 4, 5.00000000000000000000e-001) (97, 4, 5.00000000000000000000e-001) (97, 4, 5.00000000000000000000e-001) (97, 4, 5.00000000000000000000e-001) (97, 4, 5.00000000000000000000e-001) (97, 4, 5.00000000000000000000e-001) (97, 4, 5.00000000000000000000e-001) (97, 4, 5.00000000000000000000e-001) (97, 4, 5.00000000000000000000e-001) (97, 4, 5.00000000000000000000e-001) (97, 4, 5.00000000000000000000e-001) (97, 4, 5.00000000000000000000e-001) (97, 4, 5.00000000000000000000e-001) (97, 4, 5.00000000000000000000e-001) (97, 4, 5.00000000000000000000e-001) (97, 4, 5.00000000000000000000e-001) (97, 4, 5.00000000000000000000e-001) (97, 4, 5.00000000000000000000e-001) (97, 4, 5.00000000000000000000e-001) (97, 4, 5.00000000000000000000e-001) (97, 4, 5.00000000000000000000e-001) (97, 4, 5.00000000000000000000e-001) (97, 4, 5.00000000000000000000e-001) (97, 4, 5.00000000000000000000e-001) (97, 4, 5.00000000000000000000e-001) (97, 4, 5.00000000000000000000e-001) (97, 4, 5.00000000000000000000e-001) (97, 4, 5.00000000000000000000e-001) (97, 4, 5.00000000000000000000e-001) (97, 4, 5.00000000000000000000e-001) (97, 4, 5.00000000000000000000e-001) (97, 4, 5.00000000000000000000e-001) (97, 4, 5.00000000000000000000e-001) (97, 4, 5.00000000000000000000e-001) (97, 4, 5.00000000000000000000e-001) (97, 4, 5.00000000000000000000e-001) (97, 4, 5.00000000000000000000e-001) (97, 4, 5.00000000000000000000e-001) (97, 4, 5.00000000000000000000e-001) (97, 4, 5.00000000000000000000e-001) (97, 4, 5.00000000000000000000e-001) (97, 4, 5.00000000000000000000e-001) (97, 4, 5.00000000000000000000e-001) (97, 4, 5.00000000000000000000e-001) (97, 4, 5.00000000000000000000e-001) (97, 4, 5.00000000000000000000e-001) (97, 4, 5.00000000000000000000e-001) (97, 4, 5.00000000000000000000e-001) (97, 4, 5.00000000000000000000e-001) (97, 4, 5.00000000000000000000e-001) (97, 4, 5.00000000000000000000e-001) (97, 4, 5.00000000000000000000e-001) (97, 4, 5.00000000000000000000e-001) (97, 4, 5.00000000000000000000e-001) (97, 4, 5.00000000000000000000e-001) (97, 4, 5.00000000000000000000e-001) (97, 4, 5.00000000000000000000e-001) (97, 4, 5.00000000000000000000e-001) (97, 4, 5.00000000000000000000e-001) (97, 4, 5.00000000000000000000e-001) (97, 4, 5.00000000000000000000e-001) (97, 4, 5.00000000000000000000e-001) (97, 4, 5.00000000000000000000e-001) (97, 4, 5.00000000000000000000e-001) (97, 4, 5.00000000000000000000e-001) (97, 4, 5.00000000000000000000e-001) (97, 4, 5.00000000000000000000e-001) (97, 4, 5.00000000000000000000e-001) (97, 4, 5.00000000000000000000e-001) (97, 4, 5.00000000000000000000e-001) (97, 4, 5.00000000000000000000e-001) (97, 4, 5.00000000000000000000e-001) (97, 4, 5.00000000000000000000e-001) (97, 4, 5.00000000000000000000e-001) (97, 4, 5.00000000000000000000e-001) (97, 4, 5.00000000000000000000e-001) (97, 4, 5.00000000000000000000e-001) (97, 4, 5.00000000000000000000e-001) (97, 4, 5.00000000000000000000e-001) (97, 4, 5.00000000000000000000e-001) (97, 4, 5.00000000000000000000e-001) (97, 4, 5.00000000000000000000e-001) (97, 4, 5.00000000000000000000e-001) (97, 4, 5.00000000000000000000e-001) (97, 4, 5.00000000000000000000e-001) (97, 4, 5.00000000000000000000e-001) (97, 4, 5.00000000000000000000e-001) (97, 4, 5.00000000000000000000e-001) (0, 0, 0.00000000000000000000e+000) (97, 4, 5.00000000000000000000e-001) (97, 4, 5.00000000000000000000e-001) (97, 4, 5.00000000000000000000e-001) (97, 4, 5.00000000000000000000e-001) (97, 4, 5.00000000000000000000e-001) (97, 4, 5.00000000000000000000e-001) (97, 4, 5.00000000000000000000e-001) (97, 4, 5.00000000000000000000e-001) (97, 4, 5.00000000000000000000e-001) (97, 4, 5.00000000000000000000e-001) (97, 4, 5.00000000000000000000e-001) (97, 4, 5.00000000000000000000e-001) (97, 4, 5.00000000000000000000e-001) (97, 4, 5.00000000000000000000e-001) (97, 4, 5.00000000000000000000e-001) (97, 4, 5.00000000000000000000e-001) (97, 4, 5.00000000000000000000e-001) (97, 4, 5.00000000000000000000e-001) (97, 4, 5.00000000000000000000e-001) (97, 4, 5.00000000000000000000e-001) (97, 4, 5.00000000000000000000e-001) (97, 4, 5.00000000000000000000e-001) (97, 4, 5.00000000000000000000e-001) (97, 4, 5.00000000000000000000e-001) (97, 4, 5.00000000000000000000e-001) (97, 4, 5.00000000000000000000e-001) (97, 4, 5.00000000000000000000e-001) (97, 4, 5.00000000000000000000e-001) (97, 4, 5.00000000000000000000e-001) (97, 4, 5.00000000000000000000e-001) (97, 4, 5.00000000000000000000e-001) (97, 4, 5.00000000000000000000e-001) (97, 4, 5.00000000000000000000e-001) (97, 4, 5.00000000000000000000e-001) (97, 4, 5.00000000000000000000e-001) (97, 4, 5.00000000000000000000e-001) (0, 0, 0.00000000000000000000e+000) 
connections (connected_to_neuron, weight)=(0, 7.62985870242118840000e-002) (1, 6.91348537802696230000e-002) (2, 6.25633373856544490000e-002) (3, -4.31471526622772220000e-001) (4, -7.07748234272003170000e-001) (5, 1.59104689955711360000e-002) (6, 9.42101404070854190000e-002) (7, 2.50467568635940550000e-001) (8, 1.08982056379318240000e-001) (9, -3.88014614582061770000e-002) (10, -3.51027280092239380000e-001) (11, -8.01599264144897460000e-001) (12, -5.23577213287353520000e-001) (13, -2.49623134732246400000e-001) (14, -2.09034904837608340000e-001) (15, 2.12612703442573550000e-001) (16, 7.21025690436363220000e-002) (17, -1.50788709521293640000e-001) (18, -2.93886899948120120000e-001) (19, -3.52021269500255580000e-002) (20, 3.45807045698165890000e-001) (21, 4.41703766584396360000e-001) (22, -2.37323999404907230000e-001) (23, -1.28277584910392760000e-001) (24, 2.31694821268320080000e-002) (25, -8.32583904266357420000e-002) (26, 1.05165183544158940000e-001) (27, 3.27254801988601680000e-001) (28, 4.28480863571166990000e-001) (29, 8.98730754852294920000e-002) (30, -4.11249101161956790000e-001) (31, -2.08730071783065800000e-001) (32, 1.08785897493362430000e-001) (33, -7.04999193549156190000e-002) (34, 9.38784331083297730000e-002) (35, 2.88848429918289180000e-001) (36, -4.92553152143955230000e-002) (37, -1.91758841276168820000e-001) (38, -3.25429826974868770000e-001) (39, -2.79382079839706420000e-001) (40, 9.17939692735672000000e-002) (41, 7.46599808335304260000e-002) (42, 9.19802337884902950000e-002) (43, -1.34380310773849490000e-001) (44, -9.25607308745384220000e-002) (45, 1.00444816052913670000e-002) (46, -3.13692748546600340000e-001) (47, -3.08470040559768680000e-001) (48, 1.48691479116678240000e-002) (49, 4.64039564132690430000e-001) (50, 1.00642025470733640000e-001) (51, -1.64872631430625920000e-001) (52, -1.46629855036735530000e-001) (53, -2.95382849872112270000e-002) (54, -1.33821010589599610000e-001) (55, -8.54022949934005740000e-002) (56, 1.73622459173202510000e-001) (57, 5.82130849361419680000e-001) (58, -1.30680561065673830000e-001) (59, -3.24069596827030180000e-002) (60, -2.72955805063247680000e-001) (61, -1.61560133099555970000e-001) (62, -1.23651303350925450000e-001) (63, -1.16700075566768650000e-001) (64, 2.20339715480804440000e-001) (65, 3.99394780397415160000e-001) (66, -4.23593163490295410000e-001) (67, -6.68751895427703860000e-002) (68, -2.56777890026569370000e-002) (69, -6.49125277996063230000e-002) (70, -1.52945697307586670000e-001) (71, -2.14311569929122920000e-001) (72, 3.57990175485610960000e-001) (73, 3.41352254152297970000e-001) (74, -4.47779774665832520000e-001) (75, -5.99604904651641850000e-001) (76, -9.81533452868461610000e-002) (77, 1.64716318249702450000e-002) (78, -2.49790742993354800000e-001) (79, -1.13921314477920530000e-001) (80, 1.76294192671775820000e-001) (81, 1.37762933969497680000e-001) (82, -1.03936744853854180000e-002) (83, -1.29617407917976380000e-001) (84, -1.67281292378902440000e-002) (85, 2.95962721109390260000e-001) (86, -2.85226434469223020000e-001) (87, -2.54946380853652950000e-001) (88, -6.65659457445144650000e-002) (89, -2.12190095335245130000e-002) (90, -3.63009870052337650000e-002) (91, -5.90082667768001560000e-002) (92, 1.36400107294321060000e-002) (93, 4.46217507123947140000e-001) (94, 2.36782580614089970000e-002) (95, 4.58020903170108800000e-002) (96, -1.19346804916858670000e-001) (0, 3.39736461639404300000e-001) (1, 3.04650157690048220000e-001) (2, 2.17441022396087650000e-001) (3, -1.87487870454788210000e-001) (4, -1.57049924135208130000e-001) (5, -1.74215421080589290000e-001) (6, 3.56591073796153070000e-003) (7, 4.72760140895843510000e-001) (8, 3.11636298894882200000e-001) (9, -1.62387341260910030000e-001) (10, -1.07848025858402250000e-001) (11, -1.22751869261264800000e-001) (12, -2.52103030681610110000e-001) (13, -3.46264451742172240000e-001) (14, -8.19155797362327580000e-002) (15, 8.34411382675170900000e-001) (16, -2.03140765428543090000e-001) (17, -3.08474838733673100000e-001) (18, -2.24431097507476810000e-001) (19, -1.32252067327499390000e-001) (20, -1.87174603343009950000e-001) (21, -5.19624531269073490000e-001) (22, -3.28807920217514040000e-001) (23, 7.59744882583618160000e-001) (24, -4.62297126650810240000e-002) (25, -4.46544662117958070000e-002) (26, -3.33340555429458620000e-001) (27, -2.57077544927597050000e-001) (28, -2.43059203028678890000e-001) (29, -8.96040260791778560000e-001) (30, -2.81680852174758910000e-001) (31, 9.04254913330078130000e-002) (32, 1.84926763176918030000e-001) (33, 1.06622721068561080000e-003) (34, -1.21327035129070280000e-001) (35, -5.51600515842437740000e-001) (36, -7.86993443965911870000e-001) (37, 1.02158688008785250000e-001) (38, 1.66925027966499330000e-001) (39, -7.33747258782386780000e-002) (40, 3.31903636455535890000e-001) (41, -8.88537019491195680000e-002) (42, -2.40315288305282590000e-001) (43, -2.49566048383712770000e-001) (44, 2.02772706747055050000e-001) (45, 3.57997179031372070000e-001) (46, -3.78365278244018550000e-001) (47, 8.57282206416130070000e-002) (48, 2.55609583109617230000e-002) (49, -7.75277391076087950000e-002) (50, -3.96500974893569950000e-001) (51, -5.85685193538665770000e-001) (52, -4.36498709022998810000e-002) (53, -8.47659230232238770000e-001) (54, -1.59342795610427860000e-001) (55, 3.10244932770729060000e-002) (56, -3.76837030053138730000e-002) (57, 1.84332020580768590000e-002) (58, -3.40508788824081420000e-001) (59, 2.57415235042572020000e-001) (60, -2.46269315481185910000e-001) (61, -2.48288229107856750000e-001) (62, -1.77106782793998720000e-001) (63, -1.52068421244621280000e-001) (64, -2.17104941606521610000e-001) (65, -1.53309494256973270000e-001) (66, 2.64365673065185550000e-001) (67, -8.00482705235481260000e-002) (68, -4.69582289457321170000e-001) (69, -2.20171436667442320000e-001) (70, -1.10602527856826780000e-001) (71, 4.19036671519279480000e-002) (72, -7.76846194639801980000e-003) (73, 7.58508220314979550000e-002) (74, -1.14695407450199130000e-001) (75, -6.59370958805084230000e-001) (76, -2.32337027788162230000e-001) (77, -1.70601800084114070000e-001) (78, -2.00572654604911800000e-001) (79, 2.94399559497833250000e-002) (80, -2.44641393423080440000e-001) (81, 4.24457609653472900000e-001) (82, -2.17095404863357540000e-001) (83, -3.82033258676528930000e-001) (84, -1.97070240974426270000e-001) (85, -1.85252949595451350000e-001) (86, -3.08796800673007970000e-002) (87, -3.36864776909351350000e-002) (88, 1.27234663814306260000e-002) (89, -2.57993549108505250000e-001) (90, 1.70766055583953860000e-001) (91, 3.34569454193115230000e-001) (92, 1.75604864954948430000e-001) (93, 3.93713623285293580000e-001) (94, -2.42697447538375850000e-002) (95, 4.93419528007507320000e-001) (96, -6.73493981361389160000e-001) (0, 1.95618681609630580000e-002) (1, 2.19478562474250790000e-001) (2, 2.27718744426965710000e-002) (3, -2.26636156439781190000e-001) (4, -3.71506512165069580000e-002) (5, -2.78351873159408570000e-001) (6, -2.49560102820396420000e-001) (7, -3.77780087292194370000e-002) (8, -3.56032438576221470000e-002) (9, -3.39615978300571440000e-002) (10, -8.23257714509963990000e-002) (11, -2.59654492139816280000e-001) (12, -8.52504670619964600000e-002) (13, -2.23269298672676090000e-001) (14, -8.35004597902297970000e-002) (15, -9.82401967048645020000e-002) (16, -7.08008781075477600000e-002) (17, 4.26561743021011350000e-001) (18, 1.86112940311431880000e-001) (19, -3.35136838257312770000e-002) (20, 9.79628935456275940000e-002) (21, 6.70275688171386720000e-002) (22, -7.14380815625190730000e-002) (23, -2.64233142137527470000e-001) (24, 1.05020001530647280000e-001) (25, 4.87779855728149410000e-001) (26, 2.39741429686546330000e-001) (27, 4.60899388417601590000e-003) (28, -9.71627831459045410000e-002) (29, 3.92092466354370120000e-002) (30, -8.47214758396148680000e-002) (31, 4.84357848763465880000e-002) (32, 1.90513387322425840000e-001) (33, 4.72344249486923220000e-001) (34, 5.41652962565422060000e-002) (35, -9.57512706518173220000e-002) (36, -1.09102293848991390000e-001) (37, 2.03341357409954070000e-002) (38, -1.13759391009807590000e-001) (39, -2.22449570894241330000e-001) (40, 1.15324273705482480000e-001) (41, 4.27414327859878540000e-001) (42, -6.28188624978065490000e-002) (43, -9.72187370061874390000e-002) (44, -2.53718197345733640000e-001) (45, -1.93314403295516970000e-001) (46, -7.09324926137924190000e-002) (47, -2.11517781019210820000e-001) (48, 1.03971799835562710000e-002) (49, 2.52630650997161870000e-001) (50, 1.90291747450828550000e-001) (51, -1.47987448144704100000e-003) (52, -1.30206346511840820000e-001) (53, -6.50579866487532850000e-004) (54, -3.80634963512420650000e-002) (55, -1.06589101254940030000e-001) (56, -2.54651699215173720000e-002) (57, -3.09835863299667840000e-003) (58, 4.27819266915321350000e-002) (59, 3.41183632612228390000e-001) (60, 2.95143753290176390000e-001) (61, 2.91833400726318360000e-001) (62, -4.43498164415359500000e-001) (63, -3.56877177953720090000e-001) (64, -6.12949021160602570000e-002) (65, -8.37187841534614560000e-002) (66, -1.95766329765319820000e-001) (67, 5.21051883697509770000e-003) (68, 1.67889878153800960000e-001) (69, 5.52192665636539460000e-002) (70, -4.04083609580993650000e-001) (71, -3.61914157867431640000e-001) (72, -1.50464415550231930000e-001) (73, 1.02662101387977600000e-001) (74, -1.57553493976593020000e-001) (75, 1.26857727766036990000e-001) (76, 3.06300580501556400000e-001) (77, 2.61713862419128420000e-001) (78, -2.21192106604576110000e-001) (79, -3.95063787698745730000e-001) (80, 2.14483570307493210000e-002) (81, 2.85818297415971760000e-002) (82, -4.86717112362384800000e-002) (83, 2.59273052215576170000e-001) (84, 2.02274750918149950000e-002) (85, -4.01299772784113880000e-003) (86, -2.74565577507019040000e-001) (87, -1.76693677902221680000e-001) (88, 5.73057457804679870000e-002) (89, -4.15797606110572810000e-002) (90, -2.30885386466979980000e-001) (91, -2.05378398299217220000e-001) (92, -2.21522018313407900000e-001) (93, -2.59651303291320800000e-001) (94, -1.12867847084999080000e-001) (95, 2.34032526612281800000e-001) (96, -1.19426019489765170000e-001) (0, 1.99227988719940190000e-001) (1, 6.30274740979075430000e-003) (2, 1.13702220842242240000e-002) (3, 5.63794486224651340000e-002) (4, 1.30767524242401120000e-001) (5, -1.08828455209732060000e-001) (6, -1.74941867589950560000e-001) (7, 2.96111293137073520000e-002) (8, 5.67525327205657960000e-002) (9, -2.56483346223831180000e-001) (10, -2.60859489440917970000e-001) (11, -7.31878802180290220000e-002) (12, 2.97479629516601560000e-002) (13, -3.60077142715454100000e-001) (14, -4.45230096578598020000e-001) (15, -1.26077279448509220000e-001) (16, 8.20918679237365720000e-002) (17, -1.63726136088371280000e-001) (18, -3.95903550088405610000e-002) (19, 1.51387229561805730000e-001) (20, 1.66620641946792600000e-001) (21, -6.14718087017536160000e-002) (22, -2.14974746108055110000e-001) (23, -1.01893395185470580000e-001) (24, -1.25116273760795590000e-001) (25, -2.82382249832153320000e-001) (26, -1.93067595362663270000e-001) (27, 7.36957788467407230000e-002) (28, 7.79935196042060850000e-002) (29, -7.89631724357604980000e-001) (30, -2.89251059293746950000e-001) (31, -2.39702776074409480000e-001) (32, -1.66937932372093200000e-001) (33, -2.83228904008865360000e-001) (34, -1.11008062958717350000e-001) (35, -1.31389081478118900000e-001) (36, -3.12753170728683470000e-001) (37, -4.55315411090850830000e-001) (38, 1.47281497716903690000e-001) (39, -1.50580942630767820000e-001) (40, 5.35423159599304200000e-002) (41, -9.79420989751815800000e-002) (42, -2.58481383323669430000e-001) (43, 7.17233419418334960000e-002) (44, 4.79323342442512510000e-002) (45, -1.28785297274589540000e-001) (46, -1.65094947442412380000e-003) (47, -3.45765682868659500000e-003) (48, -7.41484388709068300000e-002) (49, 1.87631491571664810000e-002) (50, -5.08696913719177250000e-001) (51, -5.67182838916778560000e-001) (52, -1.44391208887100220000e-001) (53, -2.95241206884384160000e-001) (54, -2.36772358417510990000e-001) (55, -2.24069714546203610000e-001) (56, 2.46250890195369720000e-002) (57, 5.42822852730751040000e-002) (58, -5.71036525070667270000e-002) (59, 2.48668164014816280000e-001) (60, 4.60092306137084960000e-001) (61, -1.45100712776184080000e-001) (62, -4.08480495214462280000e-001) (63, -3.80803644657135010000e-001) (64, -1.07884131371974950000e-001) (65, -3.89350727200508120000e-002) (66, 1.23192347586154940000e-001) (67, 3.64809393882751460000e-001) (68, 3.35608087480068210000e-002) (69, -2.00857743620872500000e-001) (70, -1.78946301341056820000e-001) (71, -3.09822946786880490000e-001) (72, 4.83502410352230070000e-002) (73, -4.43061999976634980000e-002) (74, 2.81602710485458370000e-001) (75, 3.07624161243438720000e-001) (76, 1.01093366742134090000e-001) (77, -2.05364033579826350000e-001) (78, -2.44141444563865660000e-001) (79, -2.90474146604537960000e-001) (80, 9.18326452374458310000e-002) (81, 3.38268041610717770000e-001) (82, -3.54206636548042300000e-002) (83, 1.04183003306388850000e-001) (84, 1.22807063162326810000e-001) (85, -1.46383807063102720000e-001) (86, -7.29569196701049800000e-001) (87, -3.14462244510650630000e-001) (88, 7.79256105422973630000e-001) (89, 4.09646004438400270000e-001) (90, 1.07700332999229430000e-001) (91, 5.02698421478271480000e-001) (92, 5.42100548744201660000e-001) (93, 2.08058767020702360000e-002) (94, 3.68487268686294560000e-001) (95, 8.77774879336357120000e-002) (96, -2.56472527980804440000e-001) (0, -4.40568551421165470000e-002) (1, -5.43595198541879650000e-003) (2, -1.61672420799732210000e-002) (3, -4.57135774195194240000e-002) (4, -4.96059834957122800000e-001) (5, -2.06339195370674130000e-001) (6, 3.07731628417968750000e-002) (7, 4.89002205431461330000e-002) (8, 8.96993651986122130000e-002) (9, -1.84531331062316890000e-001) (10, -3.45961421728134160000e-001) (11, -3.19259524345397950000e-001) (12, -5.23049235343933110000e-001) (13, -7.34621584415435790000e-002) (14, -1.14937230944633480000e-001) (15, 7.80678763985633850000e-002) (16, -1.10767424106597900000e-001) (17, -2.77104288339614870000e-001) (18, -1.61670908331871030000e-001) (19, -4.78437468409538270000e-002) (20, -2.93460786342620850000e-001) (21, 4.01543766260147090000e-001) (22, 1.56344801187515260000e-001) (23, 1.01459234952926640000e-001) (24, 1.76943749189376830000e-001) (25, -1.31455659866333010000e-001) (26, -6.10825493931770320000e-002) (27, -9.12791565060615540000e-002) (28, -4.96296659111976620000e-002) (29, -1.38611346483230590000e-001) (30, 4.35456871986389160000e-001) (31, 1.07164569199085240000e-001) (32, 1.52754768729209900000e-001) (33, -1.59405842423439030000e-001) (34, -6.21138326823711400000e-003) (35, -1.58370256423950200000e-001) (36, -1.92238613963127140000e-001) (37, -2.30674251914024350000e-001) (38, 4.62670981884002690000e-001) (39, 8.14908444881439210000e-002) (40, 8.93235206604003910000e-002) (41, 3.81556414067745210000e-002) (42, -2.92250484228134160000e-001) (43, -2.00129002332687380000e-001) (44, -3.14779698848724370000e-001) (45, -5.24869799613952640000e-001) (46, 6.20534896850585940000e-001) (47, 7.66027271747589110000e-002) (48, 1.96024850010871890000e-001) (49, 2.02144727110862730000e-001) (50, -2.66976375132799150000e-002) (51, -4.60368394851684570000e-001) (52, -4.50547128915786740000e-001) (53, -6.44549250602722170000e-001) (54, 4.00322288274765010000e-001) (55, 5.90463913977146150000e-002) (56, 9.98017191886901860000e-002) (57, 2.10146233439445500000e-001) (58, 1.61512345075607300000e-002) (59, -3.56503754854202270000e-001) (60, -2.25087761878967290000e-001) (61, -7.27804675698280330000e-002) (62, 5.53436160087585450000e-001) (63, -2.01668679714202880000e-001) (64, 1.92438185214996340000e-001) (65, 2.38336801528930660000e-001) (66, 2.47404545545578000000e-001) (67, 2.19331920146942140000e-001) (68, 1.12616688013076780000e-001) (69, 3.39133292436599730000e-001) (70, 5.22522449493408200000e-001) (71, -1.80587396025657650000e-001) (72, 1.47008106112480160000e-001) (73, 1.79915055632591250000e-002) (74, -4.03664186596870420000e-002) (75, -2.70552515983581540000e-001) (76, -2.83594310283660890000e-001) (77, -2.20791444182395940000e-001) (78, 5.01773834228515630000e-001) (79, -1.98081985116004940000e-001) (80, -3.42400409281253810000e-002) (81, -3.77669453620910640000e-001) (82, -1.04778423905372620000e-001) (83, -1.31211698055267330000e-001) (84, -5.72438351809978490000e-002) (85, 1.53608888387680050000e-001) (86, 2.27578449994325640000e-002) (87, -2.91396170854568480000e-001) (88, -9.63610932230949400000e-002) (89, -4.96293991804122920000e-001) (90, -2.34432473778724670000e-001) (91, -1.76530376076698300000e-001) (92, -8.20524096488952640000e-002) (93, -5.55034615099430080000e-002) (94, 1.60096451640129090000e-001) (95, -3.44657093286514280000e-001) (96, -2.90703058242797850000e-001) (0, 2.01064124703407290000e-001) (1, 2.71155983209609990000e-001) (2, 1.76944732666015630000e-001) (3, -3.06720882654190060000e-001) (4, -2.70855277776718140000e-001) (5, 1.98271404951810840000e-002) (6, -1.67767032980918880000e-001) (7, 4.94060486555099490000e-001) (8, 1.96672230958938600000e-001) (9, -4.69055660068988800000e-002) (10, 1.01890325546264650000e-001) (11, -2.93135136365890500000e-001) (12, -7.08509162068367000000e-002) (13, -1.06960587203502660000e-001) (14, 1.63376435637474060000e-001) (15, 4.74360585212707520000e-001) (16, 4.51249536126852040000e-003) (17, -4.88607734441757200000e-001) (18, -6.31778389215469360000e-002) (19, -2.68024555407464500000e-003) (20, 4.22698818147182460000e-002) (21, -2.89503276348114010000e-001) (22, 1.44705414772033690000e-001) (23, 5.00616967678070070000e-001) (24, -2.52556681632995610000e-001) (25, -2.76155650615692140000e-001) (26, 8.27607885003089900000e-002) (27, 1.82882279157638550000e-001) (28, -1.73913151025772090000e-001) (29, -1.66412681341171260000e-001) (30, 5.93814738094806670000e-002) (31, 7.71723166108131410000e-002) (32, -4.71914894878864290000e-002) (33, -4.95935440063476560000e-001) (34, -7.79325366020202640000e-002) (35, 1.47847652435302730000e-001) (36, -1.77679613232612610000e-001) (37, 5.12139499187469480000e-001) (38, 1.53808481991291050000e-002) (39, -2.77816534042358400000e-001) (40, -9.91789996623992920000e-003) (41, -4.12924289703369140000e-001) (42, -4.82357174158096310000e-001) (43, -8.76050591468811040000e-002) (44, 2.47534573078155520000e-001) (45, 2.57149428129196170000e-001) (46, -2.06861168146133420000e-001) (47, -2.44054302573204040000e-001) (48, -1.64440184831619260000e-001) (49, -3.46489191055297850000e-001) (50, -5.03769636154174800000e-001) (51, -2.67117083072662350000e-001) (52, 1.96790888905525210000e-001) (53, -6.61281049251556400000e-001) (54, -5.68609595298767090000e-001) (55, -1.31958261132240300000e-001) (56, -1.55131414532661440000e-001) (57, -1.00472629070281980000e-001) (58, -2.18127593398094180000e-001) (59, 3.10861736536026000000e-001) (60, 2.49193474650383000000e-001) (61, 2.50279176980257030000e-002) (62, -4.77799564599990840000e-001) (63, -2.29607596993446350000e-001) (64, 1.37440604157745840000e-003) (65, -2.40106552839279170000e-001) (66, 2.34198093414306640000e-001) (67, 3.12563121318817140000e-001) (68, -1.03681653738021850000e-001) (69, -4.17089387774467470000e-002) (70, -2.72924602031707760000e-001) (71, -1.70455783605575560000e-001) (72, -6.00630454719066620000e-002) (73, -1.44540503621101380000e-001) (74, 4.52865399420261380000e-002) (75, -2.07372516393661500000e-001) (76, -3.89103442430496220000e-002) (77, 2.89544579572975640000e-004) (78, -2.75519579648971560000e-001) (79, -1.60863012075424190000e-001) (80, 6.55640140175819400000e-002) (81, 3.44437435269355770000e-002) (82, -4.54218566417694090000e-001) (83, -1.90227150917053220000e-001) (84, -9.49127897620201110000e-002) (85, -1.63929879665374760000e-001) (86, -4.85420107841491700000e-001) (87, -2.31970325112342830000e-001) (88, 1.34175658226013180000e-001) (89, -2.06270694732666020000e-001) (90, -2.05306842923164370000e-001) (91, -6.08979873359203340000e-002) (92, -6.64752274751663210000e-002) (93, 6.75128921866416930000e-002) (94, 9.54458117485046390000e-002) (95, 3.97378236055374150000e-001) (96, -2.84081548452377320000e-001) (0, -9.40956100821495060000e-002) (1, -4.21140432357788090000e-001) (2, -1.73592120409011840000e-001) (3, 3.56657177209854130000e-001) (4, -1.41209989786148070000e-001) (5, -2.71983951330184940000e-001) (6, 1.67475454509258270000e-002) (7, -2.09207668900489810000e-001) (8, -2.98949241638183590000e-001) (9, 1.52660682797431950000e-002) (10, 1.90108641982078550000e-001) (11, 6.17131292819976810000e-002) (12, -3.55846807360649110000e-002) (13, 1.41896829009056090000e-001) (14, -4.19685512781143190000e-001) (15, -3.51110547780990600000e-001) (16, 1.03373534977436070000e-001) (17, 6.04884475469589230000e-002) (18, 3.42755854129791260000e-001) (19, -4.85514290630817410000e-002) (20, -3.48417907953262330000e-001) (21, 5.90309143066406250000e-001) (22, 6.23693466186523440000e-001) (23, -1.77515983581542970000e-001) (24, -1.26380637288093570000e-001) (25, -6.95376336574554440000e-001) (26, -4.40435647964477540000e-001) (27, -1.88565328717231750000e-001) (28, -3.65119159221649170000e-001) (29, -4.51300442218780520000e-001) (30, 6.62868261337280270000e-001) (31, 6.22683949768543240000e-002) (32, -2.72437073290348050000e-002) (33, -5.55277943611145020000e-001) (34, -3.42896282672882080000e-001) (35, -4.96287614107131960000e-001) (36, -1.89015865325927730000e-001) (37, -8.25808346271514890000e-001) (38, 1.09393095970153810000e+000) (39, 1.40690401196479800000e-001) (40, 9.94666069746017460000e-002) (41, -4.82950925827026370000e-001) (42, -8.75837802886962890000e-001) (43, -6.97192549705505370000e-001) (44, -1.15267741680145260000e+000) (45, -5.28716444969177250000e-001) (46, 1.46964728832244870000e+000) (47, 1.85995817184448240000e-001) (48, 1.93641949445009230000e-002) (49, -1.10280275344848630000e-001) (50, -9.15110707283020020000e-001) (51, -9.91755008697509770000e-001) (52, -6.34702920913696290000e-001) (53, -3.31824362277984620000e-001) (54, 4.28017348051071170000e-001) (55, -3.79331022500991820000e-001) (56, -4.16647344827651980000e-002) (57, -1.83942113071680070000e-002) (58, -1.34871145710349080000e-002) (59, -2.74713277816772460000e-001) (60, 1.49965777993202210000e-001) (61, 7.58099481463432310000e-002) (62, 5.21094679832458500000e-001) (63, -4.29745018482208250000e-001) (64, -2.99567192792892460000e-001) (65, 3.05001549422740940000e-002) (66, -2.28716321289539340000e-002) (67, 4.86674904823303220000e-001) (68, 2.11162045598030090000e-001) (69, 2.10331544280052190000e-001) (70, 4.98784512281417850000e-001) (71, -3.72951328754425050000e-001) (72, -1.28260150551795960000e-001) (73, -5.23779332637786870000e-001) (74, 2.83041447401046750000e-001) (75, 1.72840386629104610000e-001) (76, -5.97519129514694210000e-002) (77, -1.85075193643569950000e-001) (78, 4.38402503728866580000e-001) (79, -3.01934719085693360000e-001) (80, -3.05908601731061940000e-002) (81, -2.81210780143737790000e-001) (82, 1.96300670504570010000e-001) (83, -1.43033221364021300000e-001) (84, -3.04814204573631290000e-002) (85, 1.18257142603397370000e-001) (86, -1.63117513060569760000e-001) (87, -3.69343012571334840000e-001) (88, 2.62446761131286620000e-001) (89, 1.80884227156639100000e-001) (90, -1.63202494382858280000e-001) (91, -1.26364510506391530000e-002) (92, -1.12691283226013180000e-001) (93, -1.36186718940734860000e-001) (94, 3.30829769372940060000e-001) (95, -5.08664429187774660000e-001) (96, -4.02995675802230830000e-001) (0, -2.35342949628829960000e-001) (1, -3.47193092107772830000e-001) (2, -1.85133218765258790000e-001) (3, 3.93981374800205230000e-002) (4, -2.18827247619628910000e-001) (5, 6.18119239807128910000e-002) (6, -1.56461104750633240000e-001) (7, -1.01826690137386320000e-001) (8, -3.09138238430023190000e-001) (9, 1.72972679138183590000e-001) (10, 1.12249903380870820000e-001) (11, -2.83470936119556430000e-002) (12, 1.57369673252105710000e-001) (13, -4.56974394619464870000e-002) (14, -4.00772690773010250000e-001) (15, -2.86590695381164550000e-001) (16, -9.23612788319587710000e-002) (17, -2.05770656466484070000e-002) (18, -2.60693281888961790000e-002) (19, -1.92753165960311890000e-001) (20, 1.98952984064817430000e-002) (21, 2.68523804843425750000e-002) (22, -3.05071711540222170000e-001) (23, -3.27563822269439700000e-001) (24, 2.11669117212295530000e-001) (25, -9.47514921426773070000e-002) (26, -2.50252544879913330000e-001) (27, -2.71895110607147220000e-001) (28, 1.50633351877331730000e-002) (29, 2.84093528985977170000e-001) (30, 1.12547159194946290000e-001) (31, -6.53455197811126710000e-001) (32, 1.36324256658554080000e-001) (33, -2.06608814187347890000e-003) (34, -1.84649348258972170000e-001) (35, 1.36203154921531680000e-001) (36, 2.11201876401901250000e-001) (37, 1.57102793455123900000e-001) (38, 6.93339258432388310000e-002) (39, -2.37630367279052730000e-001) (40, -2.00536474585533140000e-001) (41, 1.58460557460784910000e-001) (42, 1.69801250100135800000e-001) (43, -1.92351087927818300000e-001) (44, -3.69994431734085080000e-001) (45, -9.73910540342330930000e-002) (46, -4.42549288272857670000e-002) (47, -1.45314976572990420000e-001) (48, -1.29295140504837040000e-001) (49, -8.24277818202972410000e-001) (50, 2.13323175907135010000e-001) (51, 4.06643122434616090000e-001) (52, 2.30067074298858640000e-001) (53, 4.67464983463287350000e-001) (54, 4.09116894006729130000e-001) (55, -1.77100375294685360000e-001) (56, -1.22264139354228970000e-001) (57, -7.28396117687225340000e-001) (58, -7.99083039164543150000e-002) (59, -2.96625316143035890000e-001) (60, -3.30421328544616700000e-001) (61, 4.76813428103923800000e-002) (62, 6.85365438461303710000e-001) (63, 3.67787301540374760000e-001) (64, -3.94177138805389400000e-001) (65, -6.92221343517303470000e-001) (66, -3.03156465291976930000e-001) (67, -5.82273542881011960000e-001) (68, -2.57082790136337280000e-001) (69, -2.73722052574157710000e-001) (70, 4.33868885040283200000e-001) (71, 4.30385410785675050000e-001) (72, -3.26011389493942260000e-001) (73, -2.36043751239776610000e-001) (74, -4.22821491956710820000e-001) (75, -3.69798898696899410000e-001) (76, 1.04337260127067570000e-001) (77, -4.55398596823215480000e-002) (78, 3.55386674404144290000e-001) (79, 2.71282374858856200000e-001) (80, 1.75648555159568790000e-002) (81, -3.85429970920085910000e-002) (82, -6.49628117680549620000e-002) (83, 1.78344137966632840000e-002) (84, -1.08972147107124330000e-001) (85, 4.05117690563201900000e-001) (86, 3.55442792177200320000e-001) (87, 5.29957413673400880000e-001) (88, -3.18232566118240360000e-001) (89, 1.89843177795410160000e-002) (90, 1.51783302426338200000e-001) (91, 6.52007088065147400000e-002) (92, 8.94744992256164550000e-002) (93, 3.01080822944641110000e-001) (94, -9.08926725387573240000e-002) (95, 4.22920808196067810000e-002) (96, -2.03555017709732060000e-001) (0, -1.11120849847793580000e-001) (1, -5.88868856430053710000e-002) (2, 6.93699866533279420000e-002) (3, -1.34608119726181030000e-001) (4, -1.99194625020027160000e-002) (5, -1.51556190103292470000e-002) (6, 1.97226062417030330000e-001) (7, -2.47883617877960210000e-001) (8, -3.13706174492836000000e-002) (9, -1.94904372096061710000e-001) (10, -2.27213665843009950000e-001) (11, 1.14001315087080000000e-002) (12, -4.19998988509178160000e-002) (13, 4.64719301089644430000e-003) (14, -1.17043025791645050000e-001) (15, -1.69166758656501770000e-001) (16, -1.63183793425560000000e-001) (17, -6.18904866278171540000e-002) (18, -9.62332636117935180000e-002) (19, -6.45442306995391850000e-002) (20, -3.84066849946975710000e-002) (21, 1.64272561669349670000e-001) (22, 2.26786270737648010000e-001) (23, -1.72384902834892270000e-001) (24, 6.47448226809501650000e-002) (25, 1.03621773421764370000e-001) (26, 1.39779761433601380000e-001) (27, -1.43348887562751770000e-001) (28, -6.94664716720581050000e-002) (29, 3.04489672183990480000e-001) (30, 1.54116556048393250000e-001) (31, -5.68582899868488310000e-002) (32, 8.11489224433898930000e-002) (33, 1.07342422008514400000e-001) (34, 7.22185969352722170000e-002) (35, -2.06896558403968810000e-001) (36, -4.88735213875770570000e-002) (37, 2.30505570769310000000e-001) (38, 1.60199135541915890000e-001) (39, -2.42832064628601070000e-001) (40, 3.58786284923553470000e-002) (41, -1.14114567637443540000e-001) (42, 1.70920431613922120000e-001) (43, -2.29816645383834840000e-001) (44, -2.02502444386482240000e-001) (45, 8.49067941308021550000e-002) (46, 2.54231601953506470000e-001) (47, -2.30726584792137150000e-001) (48, 6.83483406901359560000e-002) (49, -1.58886030316352840000e-001) (50, 2.93188571929931640000e-001) (51, 9.14010778069496150000e-002) (52, -1.89723953604698180000e-001) (53, 7.84887745976448060000e-003) (54, 3.24246704578399660000e-001) (55, -9.71702635288238530000e-002) (56, 1.84959415346384050000e-002) (57, -2.61904120445251460000e-001) (58, 2.44995057582855220000e-001) (59, 1.04074418544769290000e-001) (60, -5.66339865326881410000e-002) (61, 2.64826536178588870000e-001) (62, 1.51869118213653560000e-001) (63, -1.34752960875630380000e-002) (64, 9.74515378475189210000e-002) (65, -2.50148326158523560000e-001) (66, 2.64070630073547360000e-001) (67, 6.74755498766899110000e-002) (68, 1.69644176959991460000e-001) (69, 2.97120332717895510000e-001) (70, 5.27711361646652220000e-002) (71, 1.70907750725746150000e-002) (72, -3.28003391623497010000e-002) (73, -6.15729801356792450000e-002) (74, 2.34514877200126650000e-001) (75, 1.60525918006896970000e-001) (76, 2.34259292483329770000e-001) (77, 1.23325653374195100000e-001) (78, -1.05374857783317570000e-001) (79, 4.50299121439456940000e-002) (80, -1.19875855743885040000e-001) (81, -3.16288381814956670000e-001) (82, 1.50776743888854980000e-001) (83, 1.14340916275978090000e-001) (84, -1.02570652961730960000e-001) (85, -1.21883943211287260000e-003) (86, -2.22068578004837040000e-001) (87, -1.22867964208126070000e-001) (88, -1.10469147562980650000e-001) (89, -1.09309874475002290000e-001) (90, -3.05079311132431030000e-001) (91, -4.65583115816116330000e-001) (92, -4.28873091936111450000e-001) (93, -3.14661324024200440000e-001) (94, -2.24806085228919980000e-001) (95, -3.21719981729984280000e-002) (96, -1.89982488751411440000e-001) (0, 2.60908365249633790000e-001) (1, 9.16656032204627990000e-002) (2, -1.84344537556171420000e-002) (3, -3.48824523389339450000e-002) (4, -2.76155263185501100000e-001) (5, -3.00356358289718630000e-001) (6, -2.73666471242904660000e-001) (7, 3.55458468198776250000e-001) (8, 1.06796860694885250000e-001) (9, 2.26287636905908580000e-002) (10, -2.96352446079254150000e-001) (11, -5.54949104785919190000e-001) (12, -5.15590786933898930000e-001) (13, -4.38715934753417970000e-001) (14, -3.18706035614013670000e-001) (15, 2.62315869331359860000e-001) (16, 1.89851358532905580000e-001) (17, 1.30873635411262510000e-001) (18, -7.46864080429077150000e-002) (19, -3.80452185869216920000e-001) (20, -3.08510422706604000000e-001) (21, -3.33916991949081420000e-001) (22, 1.03301905095577240000e-001) (23, 2.92937457561492920000e-001) (24, -2.34949767589569090000e-001) (25, -2.02045217156410220000e-001) (26, -3.38111191987991330000e-001) (27, -3.47843050956726070000e-001) (28, -1.05313338339328770000e-001) (29, -7.94490635395050050000e-001) (30, 1.08429426327347760000e-002) (31, -2.45176836848258970000e-001) (32, -4.69146878458559510000e-004) (33, -1.99562862515449520000e-001) (34, -2.64072120189666750000e-001) (35, -3.42589914798736570000e-001) (36, -4.07193988561630250000e-001) (37, -2.49330788850784300000e-001) (38, 1.74400642514228820000e-001) (39, 1.01245418190956120000e-001) (40, 4.68051955103874210000e-002) (41, -1.39926970005035400000e-001) (42, -2.04803869128227230000e-001) (43, -3.85555535554885860000e-001) (44, -5.11362373828887940000e-001) (45, -3.18100720643997190000e-001) (46, -2.62931793928146360000e-001) (47, 5.10869659483432770000e-002) (48, -1.79679632186889650000e-001) (49, -4.70584064722061160000e-001) (50, -3.33326190710067750000e-001) (51, -1.48593544960021970000e-001) (52, -1.79051861166954040000e-001) (53, -2.44130149483680730000e-001) (54, -3.60201179981231690000e-001) (55, 4.04635727405548100000e-001) (56, -2.65689849853515630000e-001) (57, -1.61222536116838460000e-002) (58, -3.63603591918945310000e-001) (59, 1.01912148296833040000e-001) (60, 2.71753668785095210000e-001) (61, -4.39190059900283810000e-001) (62, -7.31548130512237550000e-001) (63, 1.99650689959526060000e-001) (64, -2.04009458422660830000e-001) (65, 4.13773097097873690000e-002) (66, 2.71396070718765260000e-001) (67, 6.87082350254058840000e-001) (68, -2.46973946690559390000e-001) (69, -1.77082881331443790000e-001) (70, -4.75614309310913090000e-001) (71, 4.89055179059505460000e-002) (72, -1.44764915108680730000e-001) (73, 8.72977226972579960000e-002) (74, 3.89859080314636230000e-001) (75, 2.62724786996841430000e-001) (76, -1.77281230688095090000e-001) (77, -2.20746427774429320000e-001) (78, -7.52581179141998290000e-001) (79, 5.25353737175464630000e-002) (80, -1.81688234210014340000e-001) (81, 5.25856018066406250000e-001) (82, 2.95138895511627200000e-001) (83, -3.92854541540145870000e-001) (84, -7.53567814826965330000e-002) (85, -3.31699281930923460000e-001) (86, -9.49932932853698730000e-001) (87, 6.37099593877792360000e-002) (88, 7.12716162204742430000e-001) (89, 2.91470229625701900000e-001) (90, 3.64753067493438720000e-001) (91, 5.11469960212707520000e-001) (92, 7.06161737442016600000e-001) (93, 3.44916015863418580000e-001) (94, 9.46328639984130860000e-001) (95, 3.60975623130798340000e-001) (96, -5.31070172786712650000e-001) (0, -1.68677326291799550000e-002) (1, -4.89434659481048580000e-001) (2, -5.80981612205505370000e-001) (3, -2.71816849708557130000e-001) (4, -5.42583502829074860000e-002) (5, -2.06157624721527100000e-001) (6, -3.50969105958938600000e-001) (7, -5.60056157410144810000e-002) (8, -2.98139065504074100000e-001) (9, -6.34870231151580810000e-002) (10, -1.31068006157875060000e-001) (11, -2.75829106569290160000e-001) (12, -4.55887913703918460000e-001) (13, -9.36318337917327880000e-002) (14, 8.51989723742008210000e-003) (15, 2.25697115063667300000e-001) (16, -3.76124918460845950000e-001) (17, 2.59071022272109990000e-001) (18, 1.11985102295875550000e-001) (19, -2.09880784153938290000e-001) (20, -3.33771333098411560000e-002) (21, 9.21357944607734680000e-002) (22, 8.62035378813743590000e-002) (23, -5.77518306672573090000e-002) (24, 3.91551703214645390000e-001) (25, 4.81591463088989260000e-001) (26, -2.96366453170776370000e-001) (27, -1.43711939454078670000e-001) (28, 1.51593431830406190000e-001) (29, 6.60244762897491460000e-001) (30, 4.39288496971130370000e-001) (31, -6.59899771213531490000e-001) (32, 1.54027208685874940000e-001) (33, 3.08899402618408200000e-001) (34, -7.48108178377151490000e-002) (35, 2.62134075164794920000e-001) (36, 3.59419167041778560000e-001) (37, 7.99575209617614750000e-001) (38, 3.09594988822937010000e-001) (39, -5.74202597141265870000e-001) (40, -1.37919753789901730000e-001) (41, 8.68415459990501400000e-002) (42, 3.02177757024765010000e-001) (43, -9.85074341297149660000e-002) (44, -3.43189090490341190000e-001) (45, -1.29651889204978940000e-001) (46, -4.82320040464401250000e-001) (47, -6.81900203227996830000e-001) (48, -8.63897129893302920000e-002) (49, -3.97287607192993160000e-001) (50, 7.20408260822296140000e-001) (51, 7.75475978851318360000e-001) (52, 1.19599655270576480000e-001) (53, -1.05178818106651310000e-001) (54, 3.61858704127371310000e-003) (55, -4.30789381265640260000e-001) (56, -1.54836988076567650000e-003) (57, -3.54889988899230960000e-001) (58, 2.08290249109268190000e-001) (59, 3.49702924489974980000e-001) (60, -4.22795653343200680000e-001) (61, -1.68330863118171690000e-001) (62, 1.57268285751342770000e-001) (63, 3.45114052295684810000e-001) (64, -1.03330068290233610000e-001) (65, -1.67316228151321410000e-001) (66, 1.40150964260101320000e-001) (67, -2.50773821026086810000e-002) (68, -1.34499385952949520000e-001) (69, -2.44732126593589780000e-001) (70, -6.15120083093643190000e-002) (71, 1.82300984859466550000e-001) (72, 2.01371625065803530000e-001) (73, 3.95718246698379520000e-001) (74, -6.71580955386161800000e-002) (75, -4.58410903811454770000e-002) (76, 1.67326852679252620000e-001) (77, 2.55607694387435910000e-001) (78, -2.37550407648086550000e-001) (79, 2.41601526737213130000e-001) (80, -5.77249974012374880000e-002) (81, 6.31744503974914550000e-001) (82, -7.19154179096221920000e-002) (83, -9.90275442600250240000e-002) (84, -1.36008918285369870000e-001) (85, 1.26286178827285770000e-001) (86, 1.98738470673561100000e-001) (87, 3.80372196435928340000e-001) (88, -4.21348839998245240000e-001) (89, -2.53081351518630980000e-001) (90, 2.38882645964622500000e-001) (91, -1.40766069293022160000e-001) (92, -2.21438184380531310000e-001) (93, 4.57916520535945890000e-002) (94, 2.15980619192123410000e-001) (95, 5.66663503646850590000e-001) (96, -1.37320250272750850000e-001) (0, -6.56664311885833740000e-001) (1, -1.64721816778182980000e-001) (2, 1.48973122239112850000e-001) (3, 1.09806150197982790000e-001) (4, 4.96225059032440190000e-001) (5, 1.40360355377197270000e-001) (6, 1.21093764901161190000e-001) (7, -5.55438220500946040000e-001) (8, -8.98474156856536870000e-002) (9, 1.77633866667747500000e-001) (10, 4.08814907073974610000e-001) (11, 4.75875794887542720000e-001) (12, 2.83389419317245480000e-001) (13, 4.78657871484756470000e-001) (14, 5.09546399116516110000e-001) (15, -4.64653044939041140000e-001) (16, -2.26356074213981630000e-001) (17, -1.34114712476730350000e-001) (18, 5.33495470881462100000e-002) (19, -1.93274900317192080000e-001) (20, -4.57296907901763920000e-001) (21, -1.60706430673599240000e-001) (22, 4.50962871313095090000e-001) (23, -2.13004976511001590000e-001) (24, -3.99264246225357060000e-001) (25, 2.10531085729599000000e-001) (26, -2.07371056079864500000e-001) (27, -1.95180237293243410000e-001) (28, -4.92586344480514530000e-001) (29, 1.83316364884376530000e-001) (30, -2.58103847503662110000e-001) (31, -4.47843745350837710000e-002) (32, -4.33157056570053100000e-001) (33, -1.82762499898672100000e-002) (34, 1.99672281742095950000e-001) (35, -6.78218662738800050000e-001) (36, -1.56518027186393740000e-001) (37, 2.79989749193191530000e-001) (38, -4.60509926080703740000e-001) (39, 1.56501755118370060000e-002) (40, -1.21549822390079500000e-001) (41, -3.15493643283843990000e-001) (42, 2.23614826798439030000e-001) (43, 6.54645785689353940000e-002) (44, 7.28596270084381100000e-001) (45, 7.13263630867004390000e-001) (46, -2.35883966088294980000e-001) (47, 3.22630740702152250000e-002) (48, -2.18015477061271670000e-001) (49, -1.96903631091117860000e-001) (50, -2.86315053701400760000e-001) (51, 2.90965259075164790000e-001) (52, 3.61021012067794800000e-001) (53, 1.08464688062667850000e-001) (54, 5.25437667965888980000e-002) (55, -1.50765985250473020000e-001) (56, 1.83626323938369750000e-001) (57, 1.21680960059165950000e-001) (58, -2.48807653784751890000e-001) (59, -1.78691238164901730000e-001) (60, -7.52857863903045650000e-001) (61, -1.70359700918197630000e-001) (62, -8.54235328733921050000e-003) (63, -2.56549268960952760000e-001) (64, 2.91061937808990480000e-001) (65, 1.35318234562873840000e-001) (66, -2.68163114786148070000e-001) (67, -3.67866933345794680000e-001) (68, -2.49402672052383420000e-001) (69, -5.06066203117370610000e-001) (70, -2.08852961659431460000e-002) (71, -2.30644688010215760000e-001) (72, 2.09735497832298280000e-001) (73, -3.01946513354778290000e-002) (74, -8.04973542690277100000e-002) (75, -3.76996785402297970000e-001) (76, -5.27418613433837890000e-001) (77, -5.34559011459350590000e-001) (78, -2.46530503034591670000e-001) (79, -3.24180305004119870000e-001) (80, -2.30612643063068390000e-002) (81, -1.75358906388282780000e-001) (82, 1.49416416883468630000e-001) (83, -4.55844640731811520000e-001) (84, -2.94786423444747920000e-001) (85, 2.20642820931971070000e-003) (86, 2.47799277305603030000e-001) (87, -2.48294696211814880000e-001) (88, -5.35382926464080810000e-001) (89, -7.79871717095375060000e-002) (90, 1.51315867900848390000e-001) (91, -7.17753231525421140000e-001) (92, -6.58784270286560060000e-001) (93, -1.23345635831356050000e-001) (94, -1.13351523876190190000e+000) (95, -6.76545083522796630000e-001) (96, -2.18955367803573610000e-001) (0, 1.79807558655738830000e-001) (1, 2.35323682427406310000e-001) (2, 1.12782061100006100000e-001) (3, -5.19809685647487640000e-002) (4, 8.77575017511844640000e-003) (5, 6.88435435295104980000e-002) (6, -1.81411594152450560000e-001) (7, -3.75894531607627870000e-002) (8, -5.98729029297828670000e-002) (9, -1.28092959523200990000e-001) (10, 5.92512488365173340000e-002) (11, -2.09703832864761350000e-001) (12, 1.42837613821029660000e-001) (13, -1.40080705285072330000e-001) (14, -2.66690701246261600000e-001) (15, -2.10401251912117000000e-001) (16, 1.60294443368911740000e-001) (17, -2.14253500103950500000e-001) (18, -6.19178600609302520000e-002) (19, 2.36663326621055600000e-001) (20, 2.02131316065788270000e-001) (21, -4.17382866144180300000e-002) (22, -1.17844499647617340000e-001) (23, -4.16271984577178960000e-002) (24, -9.55700725317001340000e-002) (25, -9.24363210797309880000e-002) (26, 2.42645189166069030000e-001) (27, 2.58738130331039430000e-001) (28, 4.53919582068920140000e-002) (29, 1.92773953080177310000e-001) (30, -1.03952854871749880000e-001) (31, 1.36018514633178710000e-001) (32, -1.70878440141677860000e-001) (33, -8.77274796366691590000e-002) (34, -6.96280375123023990000e-002) (35, 1.44196897745132450000e-001) (36, 3.88735048472881320000e-002) (37, 9.92298200726509090000e-002) (38, -2.90927797555923460000e-001) (39, 2.82808225601911540000e-002) (40, 6.16614818572998050000e-002) (41, -2.20864593982696530000e-001) (42, -2.04303845763206480000e-001) (43, -1.65780726820230480000e-002) (44, 2.62348860502243040000e-001) (45, 9.60032194852828980000e-002) (46, -2.15082153677940370000e-001) (47, -1.12990066409111020000e-002) (48, 6.45728856325149540000e-002) (49, -1.24994069337844850000e-002) (50, -4.09781992435455320000e-001) (51, 1.03620328009128570000e-001) (52, 3.17821294069290160000e-001) (53, -3.45815606415271760000e-002) (54, -3.33282381296157840000e-001) (55, -3.48048023879528050000e-002) (56, -1.11061878502368930000e-001) (57, -1.97971999645233150000e-001) (58, -9.95774045586586000000e-002) (59, 5.86111471056938170000e-002) (60, 3.27853769063949580000e-001) (61, 1.96100175380706790000e-001) (62, -1.50679975748062130000e-001) (63, -3.19623142480850220000e-001) (64, -1.15442320704460140000e-001) (65, -2.05920681357383730000e-001) (66, -3.03814768791198730000e-001) (67, -6.13503679633140560000e-002) (68, 4.43743467330932620000e-002) (69, -5.56248985230922700000e-002) (70, -2.29334250092506410000e-001) (71, -2.64343321323394780000e-001) (72, -8.87627061456441880000e-003) (73, -1.74536496400833130000e-001) (74, -1.83657735586166380000e-001) (75, 1.14618360996246340000e-001) (76, 1.34749948978424070000e-001) (77, 9.46574658155441280000e-003) (78, 4.22805510461330410000e-002) (79, -2.09217026829719540000e-001) (80, -3.64240631461143490000e-002) (81, -2.31083765625953670000e-001) (82, -1.79088249802589420000e-001) (83, -6.69677108526229860000e-002) (84, 8.21167081594467160000e-002) (85, 3.83825190365314480000e-002) (86, -1.00612342357635500000e-001) (87, -2.81023770570755000000e-001) (88, -1.45345479249954220000e-001) (89, -6.23323246836662290000e-002) (90, -2.07900732755661010000e-001) (91, -3.17422896623611450000e-001) (92, -1.95266112685203550000e-001) (93, -2.49972537159919740000e-001) (94, -4.60354894399642940000e-001) (95, -6.24910071492195130000e-002) (96, 3.63258086144924160000e-002) (0, -1.14293895661830900000e-001) (1, -5.45071303844451900000e-001) (2, -3.51039201021194460000e-001) (3, 1.04714930057525630000e-001) (4, 4.52605694532394410000e-001) (5, 1.05489328503608700000e-001) (6, -2.91476786136627200000e-001) (7, -2.62120604515075680000e-001) (8, -4.02776777744293210000e-001) (9, -5.08210837841033940000e-001) (10, 2.62421846389770510000e-001) (11, 2.98164606094360350000e-001) (12, 2.44255717843770980000e-002) (13, 3.43616753816604610000e-002) (14, -2.85849235951900480000e-002) (15, -1.79740592837333680000e-001) (16, -3.40822100639343260000e-001) (17, 3.78450632095336910000e-001) (18, 2.74210453033447270000e-001) (19, -9.64447390288114550000e-003) (20, -1.13709807395935060000e-001) (21, -1.36598959565162660000e-001) (22, -2.08847403526306150000e-001) (23, -2.17693269252777100000e-001) (24, 3.33042114973068240000e-001) (25, 4.29207235574722290000e-001) (26, 4.96475920081138610000e-002) (27, -1.24831169843673710000e-001) (28, -3.22944700717926030000e-001) (29, -1.67241021990776060000e-001) (30, -2.47872114181518550000e-001) (31, -3.68695616722106930000e-001) (32, 2.68055498600006100000e-001) (33, 3.82667571306228640000e-001) (34, -1.70828383415937420000e-002) (35, -2.20925226807594300000e-001) (36, -2.01178207993507390000e-001) (37, -2.09294378757476810000e-001) (38, -4.21676561236381530000e-002) (39, -5.44180035591125490000e-001) (40, -1.15901224315166470000e-001) (41, 2.89215058088302610000e-001) (42, 3.08449476957321170000e-001) (43, -6.75725042819976810000e-002) (44, -1.67082846164703370000e-001) (45, -1.24971158802509310000e-001) (46, -8.52761045098304750000e-002) (47, -3.94582182168960570000e-001) (48, 1.93374380469322200000e-001) (49, -1.27867281436920170000e-001) (50, 1.17483176290988920000e-001) (51, 1.61034286022186280000e-001) (52, -2.22459241747856140000e-001) (53, 3.31618450582027440000e-002) (54, 1.38543725013732910000e-001) (55, -4.49852555990219120000e-001) (56, 2.56272226572036740000e-001) (57, -2.24897012114524840000e-001) (58, -4.30441088974475860000e-002) (59, -1.41539111733436580000e-001) (60, -8.64184722304344180000e-002) (61, -1.77941679954528810000e-001) (62, -2.13754698634147640000e-002) (63, -2.76138037443161010000e-001) (64, 6.95699825882911680000e-002) (65, -2.12078303098678590000e-001) (66, -2.27956116199493410000e-001) (67, -2.34222665429115300000e-001) (68, 1.30592798814177510000e-003) (69, -1.70034527778625490000e-001) (70, -1.43902167677879330000e-001) (71, -3.86940747499465940000e-001) (72, 1.28795087337493900000e-001) (73, -2.43475899100303650000e-001) (74, -1.73579603433609010000e-001) (75, -1.25962898135185240000e-001) (76, 4.74794581532478330000e-003) (77, -1.79010435938835140000e-001) (78, -1.56141713261604310000e-001) (79, -3.18564355373382570000e-001) (80, -1.24399580061435700000e-001) (81, -9.95784904807806020000e-003) (82, -4.12171870470047000000e-001) (83, 4.86609749495983120000e-002) (84, -1.75910517573356630000e-001) (85, 2.79433149844408040000e-002) (86, -1.11925512552261350000e-001) (87, -9.93998125195503230000e-002) (88, -9.74148511886596680000e-002) (89, -1.57514199614524840000e-001) (90, 1.10804751515388490000e-001) (91, -4.78057228028774260000e-002) (92, -2.61044412851333620000e-001) (93, -5.11027537286281590000e-002) (94, -2.73137211799621580000e-001) (95, -9.64708477258682250000e-002) (96, -1.15687452256679530000e-001) (0, -2.16161862015724180000e-001) (1, 5.82402525469660760000e-003) (2, 1.40016913414001460000e-001) (3, 2.19723116606473920000e-002) (4, 1.17450989782810210000e-001) (5, 2.42721602320671080000e-001) (6, 5.08129522204399110000e-002) (7, -2.18897745013237000000e-001) (8, -1.07809126377105710000e-001) (9, -2.64587640762329100000e-001) (10, -7.44116753339767460000e-002) (11, -3.59251014888286590000e-002) (12, -1.20254799723625180000e-001) (13, 1.50003433227539060000e-001) (14, 2.08841606974601750000e-001) (15, -2.05212742090225220000e-001) (16, -1.39587953686714170000e-001) (17, -1.40416964888572690000e-001) (18, 1.78589876741170880000e-002) (19, -4.86971400678157810000e-002) (20, -1.22367151081562040000e-001) (21, 2.30415225028991700000e-001) (22, 2.43411600589752200000e-001) (23, -1.73322468996047970000e-001) (24, 1.20552308857440950000e-001) (25, 5.25934575125575070000e-003) (26, -1.03465750813484190000e-001) (27, 8.94360989332199100000e-002) (28, -6.43787011504173280000e-002) (29, 1.10330939292907710000e-001) (30, -6.31870254874229430000e-002) (31, -1.10433831810951230000e-001) (32, 1.38542085886001590000e-001) (33, -8.52448046207427980000e-002) (34, -8.47115591168403630000e-002) (35, -7.06251487135887150000e-002) (36, -1.30141794681549070000e-001) (37, 1.51369422674179080000e-002) (38, -1.23118609189987180000e-001) (39, -6.55668973922729490000e-002) (40, 7.92321935296058650000e-002) (41, -1.22976206243038180000e-001) (42, -1.62748664617538450000e-001) (43, -1.96242988109588620000e-001) (44, -3.06829512119293210000e-002) (45, 4.35891747474670410000e-002) (46, -5.39513677358627320000e-002) (47, -6.89748078584671020000e-002) (48, 1.43099084496498110000e-001) (49, 1.81560978293418880000e-001) (50, -2.32281237840652470000e-001) (51, -2.29008689522743230000e-001) (52, -8.18812549114227290000e-002) (53, -3.02419066429138180000e-001) (54, 5.42285740375518800000e-002) (55, -1.34181052446365360000e-001) (56, 1.47688105702400210000e-001) (57, 1.17312960326671600000e-001) (58, 6.96025928482413290000e-003) (59, 8.19256976246833800000e-002) (60, -6.36769309639930730000e-002) (61, -1.75162464380264280000e-001) (62, -9.33227390050888060000e-002) (63, -1.02419584989547730000e-001) (64, 7.65836238861083980000e-002) (65, 2.73470859974622730000e-002) (66, 5.70004247128963470000e-002) (67, 1.28271326422691350000e-001) (68, -5.32561503350734710000e-002) (69, 1.26860871911048890000e-001) (70, -1.52605641633272170000e-002) (71, -2.39524841308593750000e-001) (72, 1.67223349213600160000e-001) (73, 6.46675331518054010000e-003) (74, 1.38178899884223940000e-001) (75, -1.24464124441146850000e-001) (76, -2.37831294536590580000e-001) (77, -9.35792252421379090000e-002) (78, -1.16661973297595980000e-001) (79, -1.46775186061859130000e-001) (80, 2.63106133788824080000e-002) (81, -1.96244195103645320000e-001) (82, 2.15311404317617420000e-002) (83, -8.12090411782264710000e-002) (84, -9.97223779559135440000e-002) (85, 5.19885271787643430000e-002) (86, -1.10022760927677150000e-001) (87, -1.45595610141754150000e-001) (88, -2.27691903710365300000e-001) (89, -9.18885990977287290000e-002) (90, -1.41772544011473660000e-002) (91, -3.54923367500305180000e-001) (92, -4.30748611688613890000e-001) (93, 1.42224850133061410000e-002) (94, -3.31008940935134890000e-001) (95, -9.62290763854980470000e-002) (96, -1.79619967937469480000e-001) (0, 3.45355272293090820000e-003) (1, -7.88429528474807740000e-002) (2, -9.64915305376052860000e-002) (3, -3.42081040143966670000e-002) (4, 1.32994264364242550000e-001) (5, 5.56786432862281800000e-002) (6, -1.08736373484134670000e-001) (7, -6.42301812767982480000e-002) (8, -2.20160707831382750000e-001) (9, -3.74523937702178960000e-001) (10, -1.85140684247016910000e-001) (11, -2.36639589071273800000e-001) (12, 2.65074074268341060000e-001) (13, -1.08360946178436280000e-001) (14, -5.21780252456665040000e-001) (15, -2.82101690769195560000e-001) (16, -7.88432806730270390000e-002) (17, -6.08963742852211000000e-002) (18, 7.57477506995201110000e-002) (19, 3.22315871715545650000e-001) (20, 3.90698790550231930000e-001) (21, 1.34662911295890810000e-001) (22, -2.07697123289108280000e-001) (23, -1.99314385652542110000e-001) (24, 1.44705832004547120000e-001) (25, -1.13488718867301940000e-001) (26, 1.78014561533927920000e-001) (27, 3.70271414518356320000e-001) (28, 6.48160055279731750000e-002) (29, 2.07800075411796570000e-001) (30, -3.27575713396072390000e-001) (31, -3.63114625215530400000e-002) (32, 1.48884117603302000000e-001) (33, 1.03792592883110050000e-001) (34, -6.80700540542602540000e-002) (35, 1.93581491708755490000e-001) (36, -8.48500523716211320000e-003) (37, 9.15640816092491150000e-002) (38, -3.29970955848693850000e-001) (39, -1.40972241759300230000e-001) (40, 1.28190279006958010000e-001) (41, 1.18731789290905000000e-001) (42, -1.53019115328788760000e-001) (43, -1.26741766929626460000e-001) (44, -1.72487124800682070000e-002) (45, 1.32200658321380620000e-001) (46, 5.13609498739242550000e-002) (47, -3.02414953708648680000e-001) (48, -5.63365481793880460000e-002) (49, -8.51516500115394590000e-002) (50, -1.45781576633453370000e-001) (51, 6.42726123332977290000e-002) (52, -5.48768304288387300000e-002) (53, 1.78407102823257450000e-001) (54, 9.98900923877954480000e-003) (55, -7.49884769320487980000e-002) (56, 3.93196707591414450000e-003) (57, -2.09320321679115300000e-001) (58, 3.19722592830657960000e-002) (59, 1.63918435573577880000e-001) (60, 2.01415762305259700000e-001) (61, 2.42050305008888240000e-001) (62, -1.27303868532180790000e-001) (63, -1.33936420083045960000e-001) (64, -1.34447962045669560000e-001) (65, -3.48394215106964110000e-001) (66, -1.96871295571327210000e-001) (67, -1.57504186034202580000e-001) (68, 2.07783311605453490000e-001) (69, -8.89775343239307400000e-004) (70, -1.84391096234321590000e-001) (71, -7.63650909066200260000e-002) (72, -8.41565951704978940000e-002) (73, -3.05157303810119630000e-001) (74, -1.55270591378211980000e-001) (75, 2.74124503135681150000e-001) (76, 1.44019201397895810000e-001) (77, 3.60762663185596470000e-002) (78, -1.59528642892837520000e-001) (79, -9.29814502596855160000e-002) (80, -4.80442401021718980000e-003) (81, -2.91450291872024540000e-001) (82, -1.82948168367147450000e-002) (83, 1.72993853688240050000e-001) (84, -9.82882007956504820000e-002) (85, -5.36597780883312230000e-002) (86, -3.28311294317245480000e-001) (87, -2.00007304549217220000e-001) (88, -9.47217568755149840000e-002) (89, 9.71062481403350830000e-002) (90, -1.42593234777450560000e-001) (91, -1.89942404627799990000e-001) (92, -3.95827978849411010000e-001) (93, -2.28086456656455990000e-001) (94, -4.90732818841934200000e-001) (95, -1.95718154311180110000e-001) (96, -1.82787664234638210000e-002) (0, -1.27435371279716490000e-001) (1, 1.24016486108303070000e-001) (2, -1.93729754537343980000e-002) (3, -1.91499739885330200000e-002) (4, 3.25295656919479370000e-001) (5, 4.12436984479427340000e-002) (6, 2.06903129816055300000e-001) (7, -6.07329756021499630000e-002) (8, -1.37940108776092530000e-001) (9, -1.44863307476043700000e-001) (10, 4.21991527080535890000e-001) (11, 2.20029383897781370000e-001) (12, -6.52369484305381770000e-002) (13, 9.07032489776611330000e-002) (14, 3.00177544355392460000e-001) (15, -3.44844907522201540000e-001) (16, -8.81352722644805910000e-002) (17, 8.73001441359519960000e-002) (18, 2.80591040849685670000e-001) (19, -6.39013424515724180000e-002) (20, -1.89725920557975770000e-001) (21, -3.81144993007183070000e-002) (22, 3.62868905067443850000e-002) (23, -2.11989328265190120000e-001) (24, -2.09019929170608520000e-002) (25, 1.88357010483741760000e-001) (26, 8.56078477227129040000e-005) (27, -1.75200849771499630000e-002) (28, -2.44428008794784550000e-001) (29, 1.76334306597709660000e-001) (30, -5.29057048261165620000e-002) (31, -3.21064665913581850000e-002) (32, 1.27917915582656860000e-001) (33, 1.06246694922447200000e-001) (34, -1.26001477241516110000e-001) (35, -1.04837177786976100000e-003) (36, 3.95383566617965700000e-001) (37, -8.17771553993225100000e-002) (38, -4.10841375589370730000e-001) (39, 5.71036562323570250000e-002) (40, -4.14545498788356780000e-002) (41, 1.53051286935806270000e-001) (42, -2.38402679562568660000e-001) (43, 1.82836607098579410000e-001) (44, 5.10378718376159670000e-001) (45, -2.13943660259246830000e-001) (46, -1.24905608594417570000e-001) (47, -6.04602554813027380000e-003) (48, 9.52096134424209590000e-002) (49, 3.43416109681129460000e-002) (50, -4.16193693876266480000e-001) (51, -4.33184839785099030000e-002) (52, 7.44944140315055850000e-002) (53, -2.43513822555541990000e-001) (54, -1.38185262680053710000e-001) (55, -6.67275041341781620000e-002) (56, 4.46040779352188110000e-002) (57, -1.01251117885112760000e-001) (58, -4.46856617927551270000e-002) (59, 2.35212221741676330000e-001) (60, 5.40832340717315670000e-001) (61, -9.53532233834266660000e-002) (62, -3.03950875997543330000e-001) (63, -3.66864174604415890000e-001) (64, 1.18646368384361270000e-001) (65, -1.30152150988578800000e-001) (66, -3.02638381719589230000e-001) (67, 1.35162338614463810000e-001) (68, 5.55365562438964840000e-001) (69, -1.31691366434097290000e-001) (70, -2.52939820289611820000e-001) (71, -2.94521421194076540000e-001) (72, 1.93163505173288290000e-004) (73, -1.97896227240562440000e-001) (74, -3.59168723225593570000e-002) (75, 4.38435941934585570000e-001) (76, 2.23450865596532820000e-002) (77, -2.20408916473388670000e-001) (78, -2.68708318471908570000e-001) (79, -3.75241458415985110000e-001) (80, -2.54502117633819580000e-001) (81, -4.73665744066238400000e-001) (82, 3.09699922800064090000e-001) (83, 1.16493768990039830000e-001) (84, 1.68320000171661380000e-001) (85, -2.39192903041839600000e-001) (86, -1.26034900546073910000e-001) (87, -2.17622339725494380000e-001) (88, -1.93250313401222230000e-001) (89, -2.48376056551933290000e-002) (90, 4.95238713920116420000e-002) (91, -3.73981624841690060000e-001) (92, -5.35765051841735840000e-001) (93, -4.01170700788497920000e-001) (94, -5.54719388484954830000e-001) (95, -4.21413391828536990000e-001) (96, -1.51540622115135190000e-001) (0, -3.13515737652778630000e-002) (1, -1.32283732295036320000e-001) (2, -6.33171796798706050000e-002) (3, -1.52701899409294130000e-001) (4, -3.64818990230560300000e-001) (5, 1.73424445092678070000e-002) (6, -9.77405086159706120000e-002) (7, -5.65201751887798310000e-002) (8, -1.63603574037551880000e-001) (9, -2.08804398775100710000e-001) (10, -1.47268578410148620000e-001) (11, -3.62120956182479860000e-001) (12, 6.11798763275146480000e-002) (13, 1.00555822253227230000e-001) (14, -1.82468786835670470000e-001) (15, 3.59841026365756990000e-002) (16, -5.50858378410339360000e-002) (17, -1.81725159287452700000e-001) (18, -6.22839629650115970000e-002) (19, 2.10360720753669740000e-001) (20, 4.06931340694427490000e-001) (21, 2.81116336584091190000e-001) (22, -1.59645304083824160000e-001) (23, -1.75599753856658940000e-001) (24, -1.85604151338338850000e-002) (25, -3.74153582379221920000e-003) (26, 2.35914751887321470000e-001) (27, 2.20195680856704710000e-001) (28, 2.10461437702178960000e-001) (29, 6.21818155050277710000e-002) (30, -3.32587808370590210000e-001) (31, -7.29993078857660290000e-003) (32, 1.12853705883026120000e-001) (33, -1.52313798666000370000e-001) (34, 5.17549179494380950000e-003) (35, 2.78634756803512570000e-001) (36, -7.00570642948150630000e-002) (37, -1.18031039834022520000e-001) (38, -3.38874429464340210000e-001) (39, -8.80813300609588620000e-002) (40, 1.00954301655292510000e-001) (41, -9.34967398643493650000e-003) (42, 3.54092419147491460000e-002) (43, -1.04706101119518280000e-001) (44, -9.97909754514694210000e-002) (45, 1.34278371930122380000e-001) (46, -6.48902952671051030000e-002) (47, -2.13072091341018680000e-001) (48, -3.87794673442840580000e-002) (49, 2.15847548097372060000e-002) (50, -2.12888255715370180000e-001) (51, -2.17589691281318660000e-001) (52, -1.68679505586624150000e-001) (53, 4.81397137045860290000e-002) (54, -8.89205560088157650000e-002) (55, -1.16493932902812960000e-001) (56, 6.83464854955673220000e-002) (57, 1.14331051707267760000e-001) (58, -1.36446297168731690000e-001) (59, -2.73088604211807250000e-001) (60, -2.18294247984886170000e-001) (61, 1.07183873653411870000e-001) (62, 3.46180759370327000000e-002) (63, -1.99000149965286250000e-001) (64, 5.27492761611938480000e-002) (65, -6.44648969173431400000e-002) (66, -3.15788120031356810000e-001) (67, -2.68933683633804320000e-001) (68, -6.18857033550739290000e-002) (69, 4.16660010814666750000e-002) (70, -8.38962420821189880000e-002) (71, -1.48791059851646420000e-001) (72, 8.51884558796882630000e-002) (73, -1.26150444149971010000e-001) (74, -3.18096607923507690000e-001) (75, -3.80616724491119380000e-001) (76, -2.21423253417015080000e-001) (77, 2.00093999505043030000e-001) (78, 4.10971194505691530000e-002) (79, -9.08715575933456420000e-002) (80, -5.39785958826541900000e-002) (81, -3.14832895994186400000e-001) (82, -2.08641707897186280000e-001) (83, -2.10506290197372440000e-001) (84, -5.74766173958778380000e-002) (85, 2.51609772443771360000e-001) (86, -1.69860109686851500000e-001) (87, -1.22048035264015200000e-001) (88, -4.46102023124694820000e-002) (89, -2.05333665013313290000e-001) (90, -1.21124349534511570000e-001) (91, -6.04768805205821990000e-002) (92, -1.72902762889862060000e-001) (93, 9.50778499245643620000e-002) (94, -2.78459846973419190000e-001) (95, -1.47443085908889770000e-001) (96, 2.49963719397783280000e-003) (0, -4.55227680504322050000e-002) (1, -7.68938735127449040000e-002) (2, -7.06246867775917050000e-002) (3, -8.43417942523956300000e-002) (4, -2.49117881059646610000e-001) (5, -1.33342236280441280000e-001) (6, -3.59720796346664430000e-001) (7, 4.37404096126556400000e-001) (8, -9.11166071891784670000e-002) (9, -4.69181478023529050000e-001) (10, 7.83051922917366030000e-002) (11, 2.14952304959297180000e-002) (12, 9.55526158213615420000e-002) (13, -1.12306708469986920000e-002) (14, -3.78233015537261960000e-001) (15, 4.77755308151245120000e-001) (16, -3.96674901247024540000e-001) (17, -3.93113851547241210000e-001) (18, -1.39741629362106320000e-001) (19, -8.70413482189178470000e-002) (20, -2.66393244266510010000e-001) (21, -3.70661467313766480000e-001) (22, 3.85375440120697020000e-001) (23, 8.97685229778289790000e-001) (24, -4.53334420919418330000e-001) (25, -2.70905882120132450000e-001) (26, -3.33302855491638180000e-001) (27, -5.45814484357833860000e-002) (28, -4.35771852731704710000e-001) (29, -7.66617000102996830000e-001) (30, 7.43664562702178960000e-001) (31, 9.56247672438621520000e-002) (32, -1.90476715564727780000e-001) (33, 2.11136881262063980000e-002) (34, -5.92519622296094890000e-003) (35, -2.56402283906936650000e-001) (36, -6.69221878051757810000e-001) (37, 4.54573661088943480000e-001) (38, 1.09657347202301030000e+000) (39, 1.70919641852378850000e-001) (40, 1.01262263953685760000e-001) (41, -6.36182874441146850000e-002) (42, 5.86171858012676240000e-002) (43, -1.90430849790573120000e-001) (44, 1.36391848325729370000e-001) (45, 1.99532359838485720000e-001) (46, 2.82249867916107180000e-001) (47, 6.37287124991416930000e-002) (48, -3.27116459608078000000e-001) (49, -4.04883533716201780000e-001) (50, -7.54127874970436100000e-002) (51, -1.29586100578308110000e-001) (52, 4.86581563949584960000e-001) (53, -1.19686388969421390000e+000) (54, -9.84611585736274720000e-002) (55, 3.45884524285793300000e-002) (56, -1.81505858898162840000e-001) (57, -2.48190641403198240000e-001) (58, -5.17309755086898800000e-002) (59, -4.20916415750980380000e-002) (60, -6.81945919990539550000e-001) (61, -1.65285840630531310000e-001) (62, 5.42005300521850590000e-001) (63, 5.39508581161499020000e-001) (64, -1.46949797868728640000e-001) (65, -3.59705150127410890000e-001) (66, 3.95013511180877690000e-001) (67, -6.81946814060211180000e-001) (68, -6.52327299118041990000e-001) (69, -3.01681995391845700000e-001) (70, 4.74090725183486940000e-001) (71, 5.64970374107360840000e-001) (72, 2.19942465424537660000e-001) (73, 4.98937070369720460000e-002) (74, -3.60396087169647220000e-001) (75, -9.54658687114715580000e-001) (76, -1.95898056030273440000e-001) (77, -3.20029079914093020000e-001) (78, 3.38665395975112920000e-001) (79, 5.39441168308258060000e-001) (80, -2.45301216840744020000e-001) (81, 2.91523367166519170000e-001) (82, -9.07858237624168400000e-002) (83, -1.39577507972717290000e-001) (84, -4.39084976911544800000e-001) (85, 3.24181579053401950000e-002) (86, 4.54546809196472170000e-001) (87, 3.43293279409408570000e-001) (88, -5.25030016899108890000e-001) (89, -5.34927845001220700000e-001) (90, -1.47276476491242650000e-003) (91, 3.31956893205642700000e-001) (92, 4.77310419082641600000e-001) (93, 5.72243928909301760000e-001) (94, 4.52576458454132080000e-001) (95, 4.54876214265823360000e-001) (96, -8.10189843177795410000e-001) (0, -1.51723578572273250000e-001) (1, -1.13573469221591950000e-001) (2, 7.43407104164361950000e-003) (3, 3.48827405832707880000e-003) (4, -1.39113545417785640000e-001) (5, 1.10460393130779270000e-001) (6, 1.57332152128219600000e-001) (7, -2.44740009307861330000e-001) (8, 1.39311552047729490000e-001) (9, 4.54628542065620420000e-002) (10, -9.37785878777503970000e-002) (11, -1.70660898089408870000e-001) (12, 7.56701529026031490000e-002) (13, 9.96993854641914370000e-002) (14, -9.62640717625617980000e-002) (15, -1.04086957871913910000e-001) (16, 4.41047511994838710000e-002) (17, 1.22829554602503780000e-002) (18, -3.43992747366428380000e-002) (19, 1.94589793682098390000e-002) (20, 4.31182458996772770000e-002) (21, 2.19230011105537410000e-001) (22, 2.14027732610702510000e-001) (23, -3.20381224155426030000e-002) (24, -6.47438839077949520000e-002) (25, -1.31940022110939030000e-001) (26, 9.45066735148429870000e-002) (27, 2.36853281967341900000e-003) (28, -4.32652644813060760000e-002) (29, 2.60740160942077640000e-001) (30, -5.35848513245582580000e-002) (31, -1.67443066835403440000e-001) (32, 5.34127466380596160000e-002) (33, -7.78210386633872990000e-002) (34, -1.68191298842430110000e-001) (35, 4.71042804419994350000e-002) (36, 1.59773919731378560000e-002) (37, -3.00915706902742390000e-002) (38, -1.37659221887588500000e-001) (39, -7.79837593436241150000e-002) (40, 6.67725652456283570000e-002) (41, -1.30189001560211180000e-001) (42, 6.00715875625610350000e-002) (43, -1.61002814769744870000e-001) (44, -2.14866727590560910000e-001) (45, 3.21090698242187500000e-001) (46, 9.40919220447540280000e-002) (47, -1.69226810336112980000e-001) (48, 2.74658966809511180000e-002) (49, -3.81206840276718140000e-001) (50, -1.49137690663337710000e-001) (51, 5.62116838991642000000e-002) (52, 5.01165315508842470000e-002) (53, 2.59755700826644900000e-001) (54, -1.42345027998089790000e-002) (55, -1.60954207181930540000e-001) (56, -6.97891563177108760000e-002) (57, -2.18634679913520810000e-001) (58, -3.32625093869864940000e-003) (59, -1.10737264156341550000e-001) (60, -3.37434828281402590000e-001) (61, 3.58324110507965090000e-001) (62, 2.36143603920936580000e-001) (63, -7.72019922733306880000e-002) (64, 4.87102344632148740000e-002) (65, -2.00356379151344300000e-001) (66, 1.79293472319841380000e-002) (67, 1.09914526343345640000e-001) (68, -1.50684654712677000000e-001) (69, 1.17877840995788570000e-001) (70, -4.34023849666118620000e-002) (71, -3.84612567722797390000e-002) (72, -8.43432620167732240000e-002) (73, -3.64203304052352910000e-001) (74, -1.96491435170173650000e-001) (75, -1.47863879799842830000e-001) (76, -2.35184714198112490000e-001) (77, 4.41091135144233700000e-002) (78, -1.97810474783182140000e-002) (79, -4.67376038432121280000e-002) (80, 9.03518944978713990000e-002) (81, -3.08334052562713620000e-001) (82, -2.49334909021854400000e-002) (83, -2.51300454139709470000e-001) (84, -6.46668225526809690000e-002) (85, 2.54574656486511230000e-001) (86, -1.63105688989162450000e-002) (87, 9.11730062216520310000e-003) (88, -2.09578201174736020000e-001) (89, 3.13210412859916690000e-002) (90, 5.37388026714324950000e-002) (91, -2.20221757888793950000e-001) (92, -2.03192755579948430000e-001) (93, 9.77769866585731510000e-002) (94, -2.15839907526969910000e-001) (95, -8.77052173018455510000e-002) (96, -1.04307450354099270000e-001) (0, 8.20964574813842770000e-002) (1, -3.15972328186035160000e-001) (2, -1.01218201220035550000e-001) (3, -2.30593115091323850000e-001) (4, -1.74374848604202270000e-001) (5, 4.37456592917442320000e-002) (6, 2.61911809444427490000e-001) (7, -2.45018340647220610000e-002) (8, -3.50592106580734250000e-001) (9, -5.95085382461547850000e-001) (10, -6.14331603050231930000e-001) (11, -5.51913678646087650000e-001) (12, -7.09286689758300780000e-001) (13, -2.73458153009414670000e-001) (14, -1.27239048480987550000e-001) (15, -3.41850399971008300000e-001) (16, -1.81146502494812010000e-001) (17, -5.79910516738891600000e-001) (18, -3.12163621187210080000e-001) (19, -1.47944733500480650000e-001) (20, 2.25201830267906190000e-001) (21, 3.19121092557907100000e-001) (22, 1.35697841644287110000e-001) (23, -3.25710117816925050000e-001) (24, -1.21911093592643740000e-001) (25, -5.12567996978759770000e-001) (26, -1.61276623606681820000e-001) (27, -6.78066909313201900000e-003) (28, 3.58526498079299930000e-001) (29, 2.57838696241378780000e-001) (30, 1.08724357560276990000e-002) (31, -2.37621441483497620000e-001) (32, -2.00450673699378970000e-001) (33, -4.96447056531906130000e-001) (34, 1.05147711932659150000e-001) (35, 1.87085688114166260000e-001) (36, 1.60077467560768130000e-001) (37, -7.91877433657646180000e-002) (38, -8.88086333870887760000e-002) (39, -3.36510211229324340000e-001) (40, 3.82933057844638820000e-002) (41, -6.88677847385406490000e-001) (42, 4.47124093770980830000e-001) (43, 3.62375020980834960000e-001) (44, 3.08520011603832240000e-002) (45, 9.36780422925949100000e-002) (46, 1.28953292965888980000e-001) (47, -2.47312948107719420000e-001) (48, -5.82226552069187160000e-002) (49, -1.47256955504417420000e-001) (50, 4.71130251884460450000e-001) (51, 1.40801116824150090000e-001) (52, -4.05573040246963500000e-001) (53, -3.20704863406717780000e-003) (54, 1.44249603152275090000e-001) (55, -2.02325776219367980000e-001) (56, -2.39271931350231170000e-002) (57, 1.43283650279045100000e-001) (58, 3.34563016891479490000e-001) (59, -2.22643524408340450000e-001) (60, -3.42950135469436650000e-001) (61, -1.85841083526611330000e-001) (62, 2.57339388132095340000e-001) (63, -3.67010682821273800000e-002) (64, 1.47178053855896000000e-001) (65, 2.10448786616325380000e-001) (66, 3.18159252405166630000e-001) (67, -1.55878171324729920000e-001) (68, -4.56336811184883120000e-002) (69, 1.14902034401893620000e-001) (70, 3.66805821657180790000e-001) (71, -5.79502396285533910000e-002) (72, 1.70007526874542240000e-001) (73, 2.15279504656791690000e-001) (74, 2.69390810281038280000e-002) (75, 9.07253697514534000000e-002) (76, 3.18443775177001950000e-001) (77, 3.41697216033935550000e-001) (78, 4.64251458644866940000e-001) (79, 3.77296330407261850000e-003) (80, -6.25966489315032960000e-002) (81, 1.29868432879447940000e-001) (82, -1.32260546088218690000e-001) (83, -1.93885013461112980000e-001) (84, -2.77615897357463840000e-002) (85, -3.19197952747344970000e-001) (86, 1.79252445697784420000e-001) (87, -3.38888317346572880000e-002) (88, -1.36186942458152770000e-001) (89, -4.75441142916679380000e-002) (90, -4.06403541564941410000e-001) (91, -3.53118777275085450000e-001) (92, -2.20374256372451780000e-001) (93, -2.91070848703384400000e-001) (94, -1.49297237396240230000e-001) (95, -1.54620140790939330000e-001) (96, -3.88315916061401370000e-001) (0, -1.44081816077232360000e-001) (1, -4.38365429639816280000e-001) (2, -2.54281491041183470000e-001) (3, -7.92259629815816880000e-003) (4, 5.82666516304016110000e-001) (5, -2.47602015733718870000e-002) (6, -2.16859042644500730000e-001) (7, -1.27330809831619260000e-001) (8, -3.63859027624130250000e-001) (9, -4.16374683380126950000e-001) (10, 1.01457744836807250000e-001) (11, 2.37045437097549440000e-001) (12, -7.16544687747955320000e-002) (13, 7.28736147284507750000e-002) (14, 2.42007449269294740000e-001) (15, -2.25526288151741030000e-001) (16, -1.22039683163166050000e-001) (17, 5.99864230025559660000e-004) (18, 1.79023563861846920000e-001) (19, -1.79553702473640440000e-001) (20, -1.62457734346389770000e-001) (21, -1.57625064253807070000e-001) (22, 3.18018227815628050000e-001) (23, 1.62010714411735530000e-001) (24, 6.09402284026145940000e-002) (25, -9.04704704880714420000e-002) (26, -5.12066245079040530000e-001) (27, -2.85799711942672730000e-001) (28, 1.43687278032302860000e-001) (29, -2.36194774508476260000e-001) (30, -1.00547097623348240000e-001) (31, -2.51298904418945310000e-001) (32, -4.82383975759148600000e-003) (33, -1.73672467470169070000e-001) (34, -2.38063186407089230000e-001) (35, -5.46191968023777010000e-002) (36, -4.03059013187885280000e-002) (37, -1.50256484746932980000e-001) (38, 8.52110758423805240000e-002) (39, -1.63215517997741700000e-001) (40, -1.29397874698042870000e-002) (41, -1.39584720134735110000e-001) (42, -9.61450412869453430000e-002) (43, -2.33187422156333920000e-001) (44, -8.99072289466857910000e-002) (45, -3.49373400211334230000e-001) (46, -3.24433892965316770000e-001) (47, -1.96833923459053040000e-001) (48, -1.17396794259548190000e-001) (49, -3.78933161497116090000e-001) (50, -2.31578573584556580000e-001) (51, -2.29660302400588990000e-001) (52, 5.18005974590778350000e-002) (53, -3.37670594453811650000e-001) (54, -3.36725413799285890000e-001) (55, -2.65905082225799560000e-001) (56, 6.14674426615238190000e-002) (57, -2.48375132679939270000e-001) (58, -2.55409032106399540000e-001) (59, 2.97223985195159910000e-001) (60, 3.61400067806243900000e-001) (61, -1.88168689608573910000e-001) (62, -3.53627145290374760000e-001) (63, -2.36193668097257610000e-002) (64, 1.24848194420337680000e-001) (65, -1.88559085130691530000e-001) (66, -1.25262349843978880000e-001) (67, 3.21035861968994140000e-001) (68, 1.58786736428737640000e-002) (69, 4.22408618032932280000e-002) (70, -3.82084995508193970000e-001) (71, -4.27999608218669890000e-002) (72, -1.28823459148406980000e-001) (73, -2.28400304913520810000e-001) (74, -4.93813678622245790000e-002) (75, 1.93019822239875790000e-001) (76, -8.33353623747825620000e-002) (77, -1.58014163374900820000e-001) (78, -4.80445861816406250000e-001) (79, -8.83089471608400340000e-003) (80, -2.73505747318267820000e-001) (81, 1.63840681314468380000e-001) (82, -1.70865474501624700000e-004) (83, -1.37109998613595960000e-002) (84, -4.98734414577484130000e-003) (85, -1.47474840283393860000e-001) (86, -1.87335327267646790000e-001) (87, 9.33352485299110410000e-003) (88, 1.13692190498113630000e-002) (89, -8.11408832669258120000e-002) (90, 4.35964643955230710000e-001) (91, 4.52457696199417110000e-001) (92, 1.31667837500572200000e-001) (93, 1.01762659847736360000e-001) (94, 2.89172977209091190000e-001) (95, 1.22908033430576320000e-001) (96, -1.42533808946609500000e-001) (0, 9.46463346481323240000e-002) (1, 5.53743876516819000000e-002) (2, -8.16627144813537600000e-002) (3, -1.64578184485435490000e-001) (4, -4.84408885240554810000e-001) (5, -1.53614312410354610000e-001) (6, -7.68104046583175660000e-002) (7, 6.70705139636993410000e-002) (8, -2.87727490067481990000e-002) (9, -2.66399413347244260000e-001) (10, -1.76495641469955440000e-001) (11, -5.06665468215942380000e-001) (12, -1.39075040817260740000e-001) (13, -6.19584284722805020000e-002) (14, -2.35781654715538020000e-001) (15, -2.99322456121444700000e-001) (16, 2.75832284241914750000e-002) (17, 9.94409341365098950000e-003) (18, -2.24678497761487960000e-002) (19, -4.24631647765636440000e-002) (20, 1.86979055404663090000e-001) (21, 5.17175555229187010000e-001) (22, -2.14315354824066160000e-001) (23, -9.77609232068061830000e-002) (24, -4.14559841156005860000e-002) (25, 3.81786786019802090000e-002) (26, 2.93331176042556760000e-001) (27, 2.14470744132995610000e-001) (28, 2.24845916032791140000e-001) (29, 1.73885077238082890000e-001) (30, -2.13034614920616150000e-001) (31, 6.81450888514518740000e-002) (32, -2.29646582156419750000e-002) (33, 1.00899234414100650000e-001) (34, -4.55648340284824370000e-002) (35, 2.22523584961891170000e-001) (36, -4.94314506649971010000e-002) (37, -8.09897035360336300000e-002) (38, -1.41962394118309020000e-002) (39, 7.44710490107536320000e-002) (40, -2.17480696737766270000e-002) (41, 2.58075237274169920000e-001) (42, -1.73535287380218510000e-001) (43, -1.84532940387725830000e-001) (44, -1.18129402399063110000e-001) (45, -2.36375838518142700000e-001) (46, 7.14468434453010560000e-002) (47, 8.70871096849441530000e-002) (48, -1.19240820407867430000e-001) (49, 3.15339922904968260000e-001) (50, 1.49124875664711000000e-001) (51, 3.58406723535154010000e-005) (52, -1.23098999261856080000e-001) (53, -7.85935148596763610000e-002) (54, -9.89778488874435420000e-002) (55, -1.37994177639484410000e-002) (56, -1.90891906619071960000e-001) (57, 1.52968823909759520000e-001) (58, 9.82529371976852420000e-002) (59, -7.06930756568908690000e-002) (60, 3.44899088144302370000e-001) (61, 3.41936409473419190000e-001) (62, -6.49189352989196780000e-002) (63, -1.59075558185577390000e-001) (64, -2.99220886081457140000e-002) (65, 1.84001728892326350000e-001) (66, -2.89575636386871340000e-001) (67, 6.79471343755722050000e-002) (68, 1.83888509869575500000e-001) (69, 4.27119284868240360000e-001) (70, -1.08137488365173340000e-001) (71, -7.93148949742317200000e-002) (72, -7.24195390939712520000e-002) (73, 1.65070276707410810000e-002) (74, -1.40728786587715150000e-001) (75, -3.46593409776687620000e-001) (76, -2.56236903369426730000e-002) (77, 4.10118371248245240000e-001) (78, 1.72644406557083130000e-001) (79, -1.41292229294776920000e-001) (80, -1.58276602625846860000e-001) (81, -2.28997215628623960000e-001) (82, -2.60510116815567020000e-001) (83, -2.28963047266006470000e-001) (84, -1.94849625229835510000e-001) (85, 1.76190018653869630000e-001) (86, 2.05848932266235350000e-001) (87, -3.08945298194885250000e-001) (88, -1.79338037967681880000e-001) (89, -3.77864874899387360000e-002) (90, -3.90973091125488280000e-001) (91, -5.98433256149291990000e-001) (92, -5.45223116874694820000e-001) (93, -2.26740941405296330000e-001) (94, 2.91375398635864260000e-001) (95, 1.83820754289627080000e-001) (96, -1.96501657366752620000e-001) (0, 2.22215801477432250000e-002) (1, -1.94835841655731200000e-001) (2, 2.06428226083517070000e-002) (3, 1.85478791594505310000e-001) (4, -1.41495848074555400000e-002) (5, 2.96158224344253540000e-001) (6, 2.96640619635581970000e-002) (7, -1.77276834845542910000e-001) (8, -2.07192380912601950000e-003) (9, -2.98410087823867800000e-001) (10, -2.11921799927949910000e-002) (11, 1.27939328551292420000e-001) (12, 4.25937771797180180000e-001) (13, 5.42387783527374270000e-001) (14, 8.75649824738502500000e-002) (15, -4.05084341764450070000e-001) (16, 4.27078530192375180000e-002) (17, -2.39005610346794130000e-001) (18, -6.28999322652816770000e-002) (19, 7.70684331655502320000e-002) (20, -5.94753921031951900000e-002) (21, 4.81685370206832890000e-001) (22, 3.21776390075683590000e-001) (23, 1.59032210707664490000e-001) (24, -9.78873744606971740000e-002) (25, -3.19078713655471800000e-001) (26, -3.54612134397029880000e-002) (27, 4.08119261264801030000e-002) (28, -7.77152478694915770000e-002) (29, -4.93938960134983060000e-002) (30, 2.10157990455627440000e-001) (31, 1.15520335733890530000e-001) (32, -1.17672234773635860000e-001) (33, -1.56283080577850340000e-001) (34, -1.75015434622764590000e-001) (35, -6.46560713648796080000e-002) (36, -2.00533345341682430000e-001) (37, -1.07923805713653560000e-001) (38, 2.99336820840835570000e-001) (39, 2.04953417181968690000e-001) (40, 1.75361618399620060000e-001) (41, -6.72272965312004090000e-002) (42, -2.32136577367782590000e-001) (43, -3.77670973539352420000e-001) (44, -5.06626844406127930000e-001) (45, -2.35404968261718750000e-001) (46, 3.90188306570053100000e-001) (47, 9.32273790240287780000e-002) (48, 1.40263766050338750000e-001) (49, -1.21241390705108640000e-001) (50, -1.58778503537178040000e-001) (51, -3.48179966211318970000e-001) (52, -4.77392077445983890000e-001) (53, -2.43217840790748600000e-001) (54, -5.80464638769626620000e-002) (55, 1.09179444611072540000e-001) (56, -5.03173619508743290000e-002) (57, -1.67360022664070130000e-001) (58, 4.57077473402023320000e-002) (59, 5.51063381135463710000e-002) (60, 1.24348983168601990000e-001) (61, 4.29994724690914150000e-002) (62, -1.07791530899703500000e-003) (63, 4.73499670624732970000e-002) (64, 4.46857586503028870000e-002) (65, -1.03902392089366910000e-001) (66, 1.83415800333023070000e-001) (67, 3.16999524831771850000e-001) (68, 3.82915772497653960000e-002) (69, 3.54200482368469240000e-001) (70, 7.79193714261054990000e-002) (71, 6.29809945821762080000e-002) (72, -1.56198263168334960000e-001) (73, -3.37258100509643550000e-001) (74, 2.37528622150421140000e-001) (75, -2.09199413657188420000e-002) (76, -1.60721287131309510000e-001) (77, 2.17931523919105530000e-001) (78, 2.79702335596084590000e-001) (79, -9.54331532120704650000e-002) (80, -1.64655074477195740000e-001) (81, -2.22842007875442500000e-001) (82, 2.96897113323211670000e-001) (83, -1.86526924371719360000e-001) (84, -1.78607270121574400000e-001) (85, 2.43739083409309390000e-001) (86, 2.09040209650993350000e-001) (87, -1.21688582003116610000e-001) (88, -9.32974070310592650000e-002) (89, -4.08072285354137420000e-002) (90, -2.29628115892410280000e-001) (91, -3.99193167686462400000e-002) (92, -3.66111844778060910000e-002) (93, 8.92756432294845580000e-002) (94, 1.99163720011711120000e-001) (95, -1.84491589665412900000e-001) (96, -2.39294573664665220000e-001) (0, -1.14088833332061770000e-001) (1, -3.07194262742996220000e-001) (2, -1.83389723300933840000e-001) (3, 2.12822169065475460000e-001) (4, 4.27806615829467770000e-001) (5, -6.21508993208408360000e-002) (6, -3.99842798709869380000e-001) (7, -1.51813313364982600000e-001) (8, -3.35660666227340700000e-001) (9, -4.56531494855880740000e-001) (10, 5.92075735330581670000e-002) (11, 1.71173363924026490000e-001) (12, 1.67939722537994380000e-001) (13, -1.36119067668914790000e-001) (14, -3.07780355215072630000e-001) (15, -1.08303010463714600000e-001) (16, -2.13583502918481830000e-002) (17, 9.99774336814880370000e-002) (18, -3.22773233056068420000e-002) (19, -1.29580259323120120000e-001) (20, 4.59388568997383120000e-002) (21, -1.44082963466644290000e-001) (22, -1.29573002457618710000e-001) (23, 5.53943589329719540000e-002) (24, 3.68052393198013310000e-001) (25, 1.38762280344963070000e-001) (26, -4.37445074319839480000e-001) (27, -1.21411129832267760000e-001) (28, 1.51671543717384340000e-001) (29, -9.65205654501914980000e-002) (30, -3.25614005327224730000e-001) (31, -3.41426402330398560000e-001) (32, 2.79528677463531490000e-001) (33, 1.38404101133346560000e-001) (34, -3.75131964683532710000e-001) (35, -1.26051470637321470000e-001) (36, 1.73472434282302860000e-001) (37, -5.66726550459861760000e-002) (38, -2.44977772235870360000e-001) (39, -2.52486437559127810000e-001) (40, 4.37971577048301700000e-002) (41, 2.40075364708900450000e-001) (42, -1.54902458190917970000e-001) (43, -4.21608060598373410000e-001) (44, -2.63468950986862180000e-001) (45, -5.09543180465698240000e-001) (46, -1.26288592815399170000e-001) (47, -1.54878631234169010000e-001) (48, -8.43133032321929930000e-002) (49, -1.93324834108352660000e-001) (50, 2.11293220520019530000e-001) (51, 3.92220288515090940000e-001) (52, 2.80333071947097780000e-001) (53, 1.30166247487068180000e-001) (54, -5.68041130900383000000e-002) (55, -1.82943284511566160000e-001) (56, 5.76528608798980710000e-002) (57, -4.43340837955474850000e-001) (58, -1.06826402246952060000e-001) (59, 1.81794002652168270000e-001) (60, 2.34157532453536990000e-001) (61, 2.61650830507278440000e-001) (62, -5.55096864700317380000e-002) (63, 1.68117761611938480000e-001) (64, -2.25131332874298100000e-001) (65, -4.20340716838836670000e-001) (66, -2.41186976432800290000e-001) (67, -2.78115808963775630000e-001) (68, 1.42812833189964290000e-001) (69, 2.07659322768449780000e-002) (70, -3.80423635244369510000e-001) (71, 9.92389321327209470000e-002) (72, -1.56954318284988400000e-001) (73, -1.66336834430694580000e-001) (74, -3.10012370347976680000e-001) (75, 2.42122963070869450000e-001) (76, 4.00706231594085690000e-001) (77, -1.17461793124675750000e-002) (78, -1.78733423352241520000e-001) (79, 7.99751058220863340000e-002) (80, 3.34472469985485080000e-002) (81, 1.22709125280380250000e-001) (82, -2.06131830811500550000e-001) (83, 2.71553099155426030000e-001) (84, 8.52661132812500000000e-002) (85, -1.13887347280979160000e-001) (86, -1.10503815114498140000e-001) (87, 2.60497659444808960000e-001) (88, -1.60476252436637880000e-001) (89, -3.60640883445739750000e-002) (90, 2.84667545929551120000e-003) (91, -4.72052320837974550000e-002) (92, -1.24570116400718690000e-001) (93, -2.65247523784637450000e-001) (94, -1.22946359217166900000e-001) (95, 3.71283024549484250000e-001) (96, -7.64686986804008480000e-002) (0, -1.70634955167770390000e-001) (1, -2.13171645998954770000e-001) (2, -4.73251976072788240000e-002) (3, -6.50125741958618160000e-002) (4, -1.41632944345474240000e-001) (5, 1.44710049033164980000e-001) (6, -1.63217633962631230000e-001) (7, -1.33628800511360170000e-001) (8, -2.06574335694313050000e-001) (9, -3.07537585496902470000e-001) (10, -1.00570075213909150000e-001) (11, -2.89453417062759400000e-001) (12, 1.09687522053718570000e-001) (13, -4.30936291813850400000e-002) (14, -2.18245744705200200000e-001) (15, -3.81558313965797420000e-002) (16, -2.62659639120101930000e-001) (17, -8.07864814996719360000e-002) (18, -1.38116046786308290000e-001) (19, -7.69654214382171630000e-002) (20, 1.31131291389465330000e-001) (21, 7.43848830461502080000e-002) (22, -1.34225606918334960000e-001) (23, -4.85721677541732790000e-002) (24, 2.07446828484535220000e-001) (25, 1.33624419569969180000e-001) (26, -1.52167186141014100000e-001) (27, -2.10703443735837940000e-002) (28, -2.60292682796716690000e-002) (29, 2.78210997581481930000e-001) (30, -1.80656328797340390000e-001) (31, -4.83140945434570310000e-001) (32, 1.76968574523925780000e-001) (33, 1.72627300024032590000e-001) (34, -2.11412653326988220000e-001) (35, 5.16603328287601470000e-002) (36, 7.38038197159767150000e-002) (37, 2.96865433454513550000e-001) (38, -3.48019301891326900000e-001) (39, -5.92325806617736820000e-001) (40, -5.28923347592353820000e-002) (41, 3.61199706792831420000e-001) (42, 2.47034177184104920000e-001) (43, -2.07367718219757080000e-001) (44, -3.72243821620941160000e-001) (45, -4.27876025438308720000e-001) (46, -2.36679181456565860000e-001) (47, -5.01754283905029300000e-001) (48, -1.03062652051448820000e-001) (49, -6.90868437290191650000e-001) (50, 3.93576979637146000000e-001) (51, 5.71394681930541990000e-001) (52, 3.11853680759668350000e-002) (53, 3.21557790040969850000e-001) (54, 3.73264074325561520000e-001) (55, -3.65440696477890010000e-001) (56, -2.30505213141441350000e-001) (57, -6.56178057193756100000e-001) (58, -2.12235539220273490000e-003) (59, -8.71595814824104310000e-002) (60, -2.27912276983261110000e-001) (61, -6.30717054009437560000e-002) (62, 3.55659365653991700000e-001) (63, 4.37193214893341060000e-001) (64, -3.91839623451232910000e-001) (65, -6.42454802989959720000e-001) (66, -1.54147759079933170000e-001) (67, -5.24818301200866700000e-001) (68, -1.27333685755729680000e-001) (69, -8.30702036619186400000e-002) (70, 1.24835431575775150000e-001) (71, 2.92959123849868770000e-001) (72, -2.79863446950912480000e-001) (73, -2.24921762943267820000e-001) (74, -1.67096182703971860000e-001) (75, 4.70538064837455750000e-002) (76, 1.89816564321517940000e-001) (77, 2.27980315685272220000e-001) (78, -1.01387547329068180000e-002) (79, 3.33962529897689820000e-001) (80, 8.95975977182388310000e-002) (81, -6.38755932450294490000e-002) (82, -1.83266744017601010000e-001) (83, -1.57088428735733030000e-001) (84, -2.28285655379295350000e-001) (85, 7.75810256600379940000e-002) (86, -7.81673789024353030000e-002) (87, 3.40622842311859130000e-001) (88, -3.05279016494750980000e-001) (89, 1.42787262797355650000e-001) (90, -1.08678974211215970000e-001) (91, -2.93155997991561890000e-001) (92, -6.38551861047744750000e-002) (93, -8.04191529750823970000e-002) (94, 1.21831439435482030000e-001) (95, 2.09208741784095760000e-001) (96, -3.93205881118774410000e-001) (0, 6.19174465537071230000e-002) (1, 1.07660040259361270000e-001) (2, 2.09811955690383910000e-001) (3, 1.97624266147613530000e-002) (4, 2.32926592230796810000e-001) (5, 1.68852686882019040000e-001) (6, 6.26886263489723210000e-002) (7, 1.08608812093734740000e-001) (8, 7.73317366838455200000e-002) (9, 5.58971464633941650000e-002) (10, 1.93031787872314450000e-001) (11, 1.00478149950504300000e-001) (12, -8.49454253911972050000e-002) (13, -1.36101797223091130000e-001) (14, 4.74540561437606810000e-001) (15, 3.61868172883987430000e-001) (16, -1.61624431610107420000e-001) (17, 1.76543623208999630000e-001) (18, -7.48603511601686480000e-003) (19, -2.79565513134002690000e-001) (20, -2.66909658908843990000e-001) (21, -6.58622145652771000000e-001) (22, -3.82308721542358400000e-001) (23, 2.36153807491064070000e-002) (24, 4.48242098093032840000e-001) (25, 5.30607819557189940000e-001) (26, -1.27161845564842220000e-001) (27, -3.51563185453414920000e-001) (28, -2.74987757205963130000e-001) (29, -4.96931746602058410000e-002) (30, -6.68979227542877200000e-001) (31, -4.85700696706771850000e-001) (32, 4.55317646265029910000e-001) (33, 4.91961747407913210000e-001) (34, 5.70785664021968840000e-002) (35, -2.90622830390930180000e-001) (36, -1.82609871029853820000e-001) (37, 1.83564901351928710000e-001) (38, -7.81348705291748050000e-001) (39, -6.43863737583160400000e-001) (40, 2.43602804839611050000e-002) (41, 3.39005976915359500000e-001) (42, 4.55123871564865110000e-001) (43, 2.18695446848869320000e-001) (44, 5.24896323680877690000e-001) (45, -8.40489193797111510000e-003) (46, -1.06668603420257570000e+000) (47, -6.59386336803436280000e-001) (48, 1.29814460873603820000e-001) (49, -5.74402272701263430000e-001) (50, -7.20166265964508060000e-002) (51, 2.01811552047729490000e-001) (52, 3.83706726133823390000e-002) (53, -3.49107906222343440000e-002) (54, 3.30818355083465580000e-001) (55, -2.34108000993728640000e-001) (56, 4.11300994455814360000e-002) (57, -4.05211299657821660000e-001) (58, -3.71432662010192870000e-001) (59, 8.91856998205184940000e-002) (60, -2.17541426420211790000e-001) (61, -2.97564327716827390000e-001) (62, 3.70322093367576600000e-002) (63, -8.59624296426773070000e-002) (64, -1.80791005492210390000e-001) (65, -4.83179837465286250000e-001) (66, -1.49581834673881530000e-001) (67, -2.83024311065673830000e-001) (68, -2.78303235769271850000e-001) (69, -1.70276746153831480000e-001) (70, -2.24924266338348390000e-001) (71, -2.25538447499275210000e-001) (72, -1.17459043860435490000e-001) (73, -1.99273154139518740000e-001) (74, -2.94514209032058720000e-001) (75, -2.56804406642913820000e-001) (76, -2.18059286475181580000e-001) (77, -2.00074300169944760000e-001) (78, -1.76427349448204040000e-001) (79, -2.55063861608505250000e-001) (80, -2.10159763693809510000e-001) (81, 3.86587195098400120000e-002) (82, -4.75852340459823610000e-001) (83, -1.01559586822986600000e-001) (84, 1.13069146871566770000e-001) (85, 4.03423786163330080000e-001) (86, 3.15567618235945700000e-003) (87, -5.10846190154552460000e-002) (88, -1.70052364468574520000e-001) (89, -3.40357333421707150000e-001) (90, 4.84371989965438840000e-001) (91, 3.59070569276809690000e-001) (92, 9.71430018544197080000e-002) (93, 2.22143381834030150000e-001) (94, -3.42465609312057500000e-001) 