FANN_FLO_2.1
num_layers=3
learning_rate=0.700000
connection_rate=1.000000
network_type=0
learning_momentum=0.400000
training_algorithm=0
train_error_function=1
train_stop_function=0
cascade_output_change_fraction=0.010000
quickprop_decay=-0.000100
quickprop_mu=1.750000
rprop_increase_factor=1.200000
rprop_decrease_factor=0.500000
rprop_delta_min=0.000000
rprop_delta_max=50.000000
rprop_delta_zero=0.100000
cascade_output_stagnation_epochs=12
cascade_candidate_change_fraction=0.010000
cascade_candidate_stagnation_epochs=12
cascade_max_out_epochs=150
cascade_min_out_epochs=50
cascade_max_cand_epochs=150
cascade_min_cand_epochs=50
cascade_num_candidate_groups=2
bit_fail_limit=3.49999994039535520000e-001
cascade_candidate_limit=1.00000000000000000000e+003
cascade_weight_multiplier=4.00000005960464480000e-001
cascade_activation_functions_count=10
cascade_activation_functions=3 5 7 8 10 11 14 15 16 17 
cascade_activation_steepnesses_count=4
cascade_activation_steepnesses=2.50000000000000000000e-001 5.00000000000000000000e-001 7.50000000000000000000e-001 1.00000000000000000000e+000 
layer_sizes=97 301 37 
scale_included=0
neurons (num_inputs, activation_function, activation_steepness)=(0, 0, 0.00000000000000000000e+000) (0, 0, 0.00000000000000000000e+000) (0, 0, 0.00000000000000000000e+000) (0, 0, 0.00000000000000000000e+000) (0, 0, 0.00000000000000000000e+000) (0, 0, 0.00000000000000000000e+000) (0, 0, 0.00000000000000000000e+000) (0, 0, 0.00000000000000000000e+000) (0, 0, 0.00000000000000000000e+000) (0, 0, 0.00000000000000000000e+000) (0, 0, 0.00000000000000000000e+000) (0, 0, 0.00000000000000000000e+000) (0, 0, 0.00000000000000000000e+000) (0, 0, 0.00000000000000000000e+000) (0, 0, 0.00000000000000000000e+000) (0, 0, 0.00000000000000000000e+000) (0, 0, 0.00000000000000000000e+000) (0, 0, 0.00000000000000000000e+000) (0, 0, 0.00000000000000000000e+000) (0, 0, 0.00000000000000000000e+000) (0, 0, 0.00000000000000000000e+000) (0, 0, 0.00000000000000000000e+000) (0, 0, 0.00000000000000000000e+000) (0, 0, 0.00000000000000000000e+000) (0, 0, 0.00000000000000000000e+000) (0, 0, 0.00000000000000000000e+000) (0, 0, 0.00000000000000000000e+000) (0, 0, 0.00000000000000000000e+000) (0, 0, 0.00000000000000000000e+000) (0, 0, 0.00000000000000000000e+000) (0, 0, 0.00000000000000000000e+000) (0, 0, 0.00000000000000000000e+000) (0, 0, 0.00000000000000000000e+000) (0, 0, 0.00000000000000000000e+000) (0, 0, 0.00000000000000000000e+000) (0, 0, 0.00000000000000000000e+000) (0, 0, 0.00000000000000000000e+000) (0, 0, 0.00000000000000000000e+000) (0, 0, 0.00000000000000000000e+000) (0, 0, 0.00000000000000000000e+000) (0, 0, 0.00000000000000000000e+000) (0, 0, 0.00000000000000000000e+000) (0, 0, 0.00000000000000000000e+000) (0, 0, 0.00000000000000000000e+000) (0, 0, 0.00000000000000000000e+000) (0, 0, 0.00000000000000000000e+000) (0, 0, 0.00000000000000000000e+000) (0, 0, 0.00000000000000000000e+000) (0, 0, 0.00000000000000000000e+000) (0, 0, 0.00000000000000000000e+000) (0, 0, 0.00000000000000000000e+000) (0, 0, 0.00000000000000000000e+000) (0, 0, 0.00000000000000000000e+000) (0, 0, 0.00000000000000000000e+000) (0, 0, 0.00000000000000000000e+000) (0, 0, 0.00000000000000000000e+000) (0, 0, 0.00000000000000000000e+000) (0, 0, 0.00000000000000000000e+000) (0, 0, 0.00000000000000000000e+000) (0, 0, 0.00000000000000000000e+000) (0, 0, 0.00000000000000000000e+000) (0, 0, 0.00000000000000000000e+000) (0, 0, 0.00000000000000000000e+000) (0, 0, 0.00000000000000000000e+000) (0, 0, 0.00000000000000000000e+000) (0, 0, 0.00000000000000000000e+000) (0, 0, 0.00000000000000000000e+000) (0, 0, 0.00000000000000000000e+000) (0, 0, 0.00000000000000000000e+000) (0, 0, 0.00000000000000000000e+000) (0, 0, 0.00000000000000000000e+000) (0, 0, 0.00000000000000000000e+000) (0, 0, 0.00000000000000000000e+000) (0, 0, 0.00000000000000000000e+000) (0, 0, 0.00000000000000000000e+000) (0, 0, 0.00000000000000000000e+000) (0, 0, 0.00000000000000000000e+000) (0, 0, 0.00000000000000000000e+000) (0, 0, 0.00000000000000000000e+000) (0, 0, 0.00000000000000000000e+000) (0, 0, 0.00000000000000000000e+000) (0, 0, 0.00000000000000000000e+000) (0, 0, 0.00000000000000000000e+000) (0, 0, 0.00000000000000000000e+000) (0, 0, 0.00000000000000000000e+000) (0, 0, 0.00000000000000000000e+000) (0, 0, 0.00000000000000000000e+000) (0, 0, 0.00000000000000000000e+000) (0, 0, 0.00000000000000000000e+000) (0, 0, 0.00000000000000000000e+000) (0, 0, 0.00000000000000000000e+000) (0, 0, 0.00000000000000000000e+000) (0, 0, 0.00000000000000000000e+000) (0, 0, 0.00000000000000000000e+000) (0, 0, 0.00000000000000000000e+000) (0, 0, 0.00000000000000000000e+000) (0, 0, 0.00000000000000000000e+000) (97, 4, 5.00000000000000000000e-001) (97, 4, 5.00000000000000000000e-001) (97, 4, 5.00000000000000000000e-001) (97, 4, 5.00000000000000000000e-001) (97, 4, 5.00000000000000000000e-001) (97, 4, 5.00000000000000000000e-001) (97, 4, 5.00000000000000000000e-001) (97, 4, 5.00000000000000000000e-001) (97, 4, 5.00000000000000000000e-001) (97, 4, 5.00000000000000000000e-001) (97, 4, 5.00000000000000000000e-001) (97, 4, 5.00000000000000000000e-001) (97, 4, 5.00000000000000000000e-001) (97, 4, 5.00000000000000000000e-001) (97, 4, 5.00000000000000000000e-001) (97, 4, 5.00000000000000000000e-001) (97, 4, 5.00000000000000000000e-001) (97, 4, 5.00000000000000000000e-001) (97, 4, 5.00000000000000000000e-001) (97, 4, 5.00000000000000000000e-001) (97, 4, 5.00000000000000000000e-001) (97, 4, 5.00000000000000000000e-001) (97, 4, 5.00000000000000000000e-001) (97, 4, 5.00000000000000000000e-001) (97, 4, 5.00000000000000000000e-001) (97, 4, 5.00000000000000000000e-001) (97, 4, 5.00000000000000000000e-001) (97, 4, 5.00000000000000000000e-001) (97, 4, 5.00000000000000000000e-001) (97, 4, 5.00000000000000000000e-001) (97, 4, 5.00000000000000000000e-001) (97, 4, 5.00000000000000000000e-001) (97, 4, 5.00000000000000000000e-001) (97, 4, 5.00000000000000000000e-001) (97, 4, 5.00000000000000000000e-001) (97, 4, 5.00000000000000000000e-001) (97, 4, 5.00000000000000000000e-001) (97, 4, 5.00000000000000000000e-001) (97, 4, 5.00000000000000000000e-001) (97, 4, 5.00000000000000000000e-001) (97, 4, 5.00000000000000000000e-001) (97, 4, 5.00000000000000000000e-001) (97, 4, 5.00000000000000000000e-001) (97, 4, 5.00000000000000000000e-001) (97, 4, 5.00000000000000000000e-001) (97, 4, 5.00000000000000000000e-001) (97, 4, 5.00000000000000000000e-001) (97, 4, 5.00000000000000000000e-001) (97, 4, 5.00000000000000000000e-001) (97, 4, 5.00000000000000000000e-001) (97, 4, 5.00000000000000000000e-001) (97, 4, 5.00000000000000000000e-001) (97, 4, 5.00000000000000000000e-001) (97, 4, 5.00000000000000000000e-001) (97, 4, 5.00000000000000000000e-001) (97, 4, 5.00000000000000000000e-001) (97, 4, 5.00000000000000000000e-001) (97, 4, 5.00000000000000000000e-001) (97, 4, 5.00000000000000000000e-001) (97, 4, 5.00000000000000000000e-001) (97, 4, 5.00000000000000000000e-001) (97, 4, 5.00000000000000000000e-001) (97, 4, 5.00000000000000000000e-001) (97, 4, 5.00000000000000000000e-001) (97, 4, 5.00000000000000000000e-001) (97, 4, 5.00000000000000000000e-001) (97, 4, 5.00000000000000000000e-001) (97, 4, 5.00000000000000000000e-001) (97, 4, 5.00000000000000000000e-001) (97, 4, 5.00000000000000000000e-001) (97, 4, 5.00000000000000000000e-001) (97, 4, 5.00000000000000000000e-001) (97, 4, 5.00000000000000000000e-001) (97, 4, 5.00000000000000000000e-001) (97, 4, 5.00000000000000000000e-001) (97, 4, 5.00000000000000000000e-001) (97, 4, 5.00000000000000000000e-001) (97, 4, 5.00000000000000000000e-001) (97, 4, 5.00000000000000000000e-001) (97, 4, 5.00000000000000000000e-001) (97, 4, 5.00000000000000000000e-001) (97, 4, 5.00000000000000000000e-001) (97, 4, 5.00000000000000000000e-001) (97, 4, 5.00000000000000000000e-001) (97, 4, 5.00000000000000000000e-001) (97, 4, 5.00000000000000000000e-001) (97, 4, 5.00000000000000000000e-001) (97, 4, 5.00000000000000000000e-001) (97, 4, 5.00000000000000000000e-001) (97, 4, 5.00000000000000000000e-001) (97, 4, 5.00000000000000000000e-001) (97, 4, 5.00000000000000000000e-001) (97, 4, 5.00000000000000000000e-001) (97, 4, 5.00000000000000000000e-001) (97, 4, 5.00000000000000000000e-001) (97, 4, 5.00000000000000000000e-001) (97, 4, 5.00000000000000000000e-001) (97, 4, 5.00000000000000000000e-001) (97, 4, 5.00000000000000000000e-001) (97, 4, 5.00000000000000000000e-001) (97, 4, 5.00000000000000000000e-001) (97, 4, 5.00000000000000000000e-001) (97, 4, 5.00000000000000000000e-001) (97, 4, 5.00000000000000000000e-001) (97, 4, 5.00000000000000000000e-001) (97, 4, 5.00000000000000000000e-001) (97, 4, 5.00000000000000000000e-001) (97, 4, 5.00000000000000000000e-001) (97, 4, 5.00000000000000000000e-001) (97, 4, 5.00000000000000000000e-001) (97, 4, 5.00000000000000000000e-001) (97, 4, 5.00000000000000000000e-001) (97, 4, 5.00000000000000000000e-001) (97, 4, 5.00000000000000000000e-001) (97, 4, 5.00000000000000000000e-001) (97, 4, 5.00000000000000000000e-001) (97, 4, 5.00000000000000000000e-001) (97, 4, 5.00000000000000000000e-001) (97, 4, 5.00000000000000000000e-001) (97, 4, 5.00000000000000000000e-001) (97, 4, 5.00000000000000000000e-001) (97, 4, 5.00000000000000000000e-001) (97, 4, 5.00000000000000000000e-001) (97, 4, 5.00000000000000000000e-001) (97, 4, 5.00000000000000000000e-001) (97, 4, 5.00000000000000000000e-001) (97, 4, 5.00000000000000000000e-001) (97, 4, 5.00000000000000000000e-001) (97, 4, 5.00000000000000000000e-001) (97, 4, 5.00000000000000000000e-001) (97, 4, 5.00000000000000000000e-001) (97, 4, 5.00000000000000000000e-001) (97, 4, 5.00000000000000000000e-001) (97, 4, 5.00000000000000000000e-001) (97, 4, 5.00000000000000000000e-001) (97, 4, 5.00000000000000000000e-001) (97, 4, 5.00000000000000000000e-001) (97, 4, 5.00000000000000000000e-001) (97, 4, 5.00000000000000000000e-001) (97, 4, 5.00000000000000000000e-001) (97, 4, 5.00000000000000000000e-001) (97, 4, 5.00000000000000000000e-001) (97, 4, 5.00000000000000000000e-001) (97, 4, 5.00000000000000000000e-001) (97, 4, 5.00000000000000000000e-001) (97, 4, 5.00000000000000000000e-001) (97, 4, 5.00000000000000000000e-001) (97, 4, 5.00000000000000000000e-001) (97, 4, 5.00000000000000000000e-001) (97, 4, 5.00000000000000000000e-001) (97, 4, 5.00000000000000000000e-001) (97, 4, 5.00000000000000000000e-001) (97, 4, 5.00000000000000000000e-001) (97, 4, 5.00000000000000000000e-001) (97, 4, 5.00000000000000000000e-001) (97, 4, 5.00000000000000000000e-001) (97, 4, 5.00000000000000000000e-001) (97, 4, 5.00000000000000000000e-001) (97, 4, 5.00000000000000000000e-001) (97, 4, 5.00000000000000000000e-001) (97, 4, 5.00000000000000000000e-001) (97, 4, 5.00000000000000000000e-001) (97, 4, 5.00000000000000000000e-001) (97, 4, 5.00000000000000000000e-001) (97, 4, 5.00000000000000000000e-001) (97, 4, 5.00000000000000000000e-001) (97, 4, 5.00000000000000000000e-001) (97, 4, 5.00000000000000000000e-001) (97, 4, 5.00000000000000000000e-001) (97, 4, 5.00000000000000000000e-001) (97, 4, 5.00000000000000000000e-001) (97, 4, 5.00000000000000000000e-001) (97, 4, 5.00000000000000000000e-001) (97, 4, 5.00000000000000000000e-001) (97, 4, 5.00000000000000000000e-001) (97, 4, 5.00000000000000000000e-001) (97, 4, 5.00000000000000000000e-001) (97, 4, 5.00000000000000000000e-001) (97, 4, 5.00000000000000000000e-001) (97, 4, 5.00000000000000000000e-001) (97, 4, 5.00000000000000000000e-001) (97, 4, 5.00000000000000000000e-001) (97, 4, 5.00000000000000000000e-001) (97, 4, 5.00000000000000000000e-001) (97, 4, 5.00000000000000000000e-001) (97, 4, 5.00000000000000000000e-001) (97, 4, 5.00000000000000000000e-001) (97, 4, 5.00000000000000000000e-001) (97, 4, 5.00000000000000000000e-001) (97, 4, 5.00000000000000000000e-001) (97, 4, 5.00000000000000000000e-001) (97, 4, 5.00000000000000000000e-001) (97, 4, 5.00000000000000000000e-001) (97, 4, 5.00000000000000000000e-001) (97, 4, 5.00000000000000000000e-001) (97, 4, 5.00000000000000000000e-001) (97, 4, 5.00000000000000000000e-001) (97, 4, 5.00000000000000000000e-001) (97, 4, 5.00000000000000000000e-001) (97, 4, 5.00000000000000000000e-001) (97, 4, 5.00000000000000000000e-001) (97, 4, 5.00000000000000000000e-001) (97, 4, 5.00000000000000000000e-001) (97, 4, 5.00000000000000000000e-001) (97, 4, 5.00000000000000000000e-001) (97, 4, 5.00000000000000000000e-001) (97, 4, 5.00000000000000000000e-001) (97, 4, 5.00000000000000000000e-001) (97, 4, 5.00000000000000000000e-001) (97, 4, 5.00000000000000000000e-001) (97, 4, 5.00000000000000000000e-001) (97, 4, 5.00000000000000000000e-001) (97, 4, 5.00000000000000000000e-001) (97, 4, 5.00000000000000000000e-001) (97, 4, 5.00000000000000000000e-001) (97, 4, 5.00000000000000000000e-001) (97, 4, 5.00000000000000000000e-001) (97, 4, 5.00000000000000000000e-001) (97, 4, 5.00000000000000000000e-001) (97, 4, 5.00000000000000000000e-001) (97, 4, 5.00000000000000000000e-001) (97, 4, 5.00000000000000000000e-001) (97, 4, 5.00000000000000000000e-001) (97, 4, 5.00000000000000000000e-001) (97, 4, 5.00000000000000000000e-001) (97, 4, 5.00000000000000000000e-001) (97, 4, 5.00000000000000000000e-001) (97, 4, 5.00000000000000000000e-001) (97, 4, 5.00000000000000000000e-001) (97, 4, 5.00000000000000000000e-001) (97, 4, 5.00000000000000000000e-001) (97, 4, 5.00000000000000000000e-001) (97, 4, 5.00000000000000000000e-001) (97, 4, 5.00000000000000000000e-001) (97, 4, 5.00000000000000000000e-001) (97, 4, 5.00000000000000000000e-001) (97, 4, 5.00000000000000000000e-001) (97, 4, 5.00000000000000000000e-001) (97, 4, 5.00000000000000000000e-001) (97, 4, 5.00000000000000000000e-001) (97, 4, 5.00000000000000000000e-001) (97, 4, 5.00000000000000000000e-001) (97, 4, 5.00000000000000000000e-001) (97, 4, 5.00000000000000000000e-001) (97, 4, 5.00000000000000000000e-001) (97, 4, 5.00000000000000000000e-001) (97, 4, 5.00000000000000000000e-001) (97, 4, 5.00000000000000000000e-001) (97, 4, 5.00000000000000000000e-001) (97, 4, 5.00000000000000000000e-001) (97, 4, 5.00000000000000000000e-001) (97, 4, 5.00000000000000000000e-001) (97, 4, 5.00000000000000000000e-001) (97, 4, 5.00000000000000000000e-001) (97, 4, 5.00000000000000000000e-001) (97, 4, 5.00000000000000000000e-001) (97, 4, 5.00000000000000000000e-001) (97, 4, 5.00000000000000000000e-001) (97, 4, 5.00000000000000000000e-001) (97, 4, 5.00000000000000000000e-001) (97, 4, 5.00000000000000000000e-001) (97, 4, 5.00000000000000000000e-001) (97, 4, 5.00000000000000000000e-001) (97, 4, 5.00000000000000000000e-001) (97, 4, 5.00000000000000000000e-001) (97, 4, 5.00000000000000000000e-001) (97, 4, 5.00000000000000000000e-001) (97, 4, 5.00000000000000000000e-001) (97, 4, 5.00000000000000000000e-001) (97, 4, 5.00000000000000000000e-001) (97, 4, 5.00000000000000000000e-001) (97, 4, 5.00000000000000000000e-001) (97, 4, 5.00000000000000000000e-001) (97, 4, 5.00000000000000000000e-001) (97, 4, 5.00000000000000000000e-001) (97, 4, 5.00000000000000000000e-001) (97, 4, 5.00000000000000000000e-001) (97, 4, 5.00000000000000000000e-001) (97, 4, 5.00000000000000000000e-001) (97, 4, 5.00000000000000000000e-001) (97, 4, 5.00000000000000000000e-001) (97, 4, 5.00000000000000000000e-001) (97, 4, 5.00000000000000000000e-001) (97, 4, 5.00000000000000000000e-001) (97, 4, 5.00000000000000000000e-001) (97, 4, 5.00000000000000000000e-001) (97, 4, 5.00000000000000000000e-001) (97, 4, 5.00000000000000000000e-001) (97, 4, 5.00000000000000000000e-001) (97, 4, 5.00000000000000000000e-001) (97, 4, 5.00000000000000000000e-001) (97, 4, 5.00000000000000000000e-001) (97, 4, 5.00000000000000000000e-001) (97, 4, 5.00000000000000000000e-001) (97, 4, 5.00000000000000000000e-001) (97, 4, 5.00000000000000000000e-001) (97, 4, 5.00000000000000000000e-001) (97, 4, 5.00000000000000000000e-001) (97, 4, 5.00000000000000000000e-001) (97, 4, 5.00000000000000000000e-001) (0, 0, 0.00000000000000000000e+000) (301, 4, 5.00000000000000000000e-001) (301, 4, 5.00000000000000000000e-001) (301, 4, 5.00000000000000000000e-001) (301, 4, 5.00000000000000000000e-001) (301, 4, 5.00000000000000000000e-001) (301, 4, 5.00000000000000000000e-001) (301, 4, 5.00000000000000000000e-001) (301, 4, 5.00000000000000000000e-001) (301, 4, 5.00000000000000000000e-001) (301, 4, 5.00000000000000000000e-001) (301, 4, 5.00000000000000000000e-001) (301, 4, 5.00000000000000000000e-001) (301, 4, 5.00000000000000000000e-001) (301, 4, 5.00000000000000000000e-001) (301, 4, 5.00000000000000000000e-001) (301, 4, 5.00000000000000000000e-001) (301, 4, 5.00000000000000000000e-001) (301, 4, 5.00000000000000000000e-001) (301, 4, 5.00000000000000000000e-001) (301, 4, 5.00000000000000000000e-001) (301, 4, 5.00000000000000000000e-001) (301, 4, 5.00000000000000000000e-001) (301, 4, 5.00000000000000000000e-001) (301, 4, 5.00000000000000000000e-001) (301, 4, 5.00000000000000000000e-001) (301, 4, 5.00000000000000000000e-001) (301, 4, 5.00000000000000000000e-001) (301, 4, 5.00000000000000000000e-001) (301, 4, 5.00000000000000000000e-001) (301, 4, 5.00000000000000000000e-001) (301, 4, 5.00000000000000000000e-001) (301, 4, 5.00000000000000000000e-001) (301, 4, 5.00000000000000000000e-001) (301, 4, 5.00000000000000000000e-001) (301, 4, 5.00000000000000000000e-001) (301, 4, 5.00000000000000000000e-001) (0, 0, 0.00000000000000000000e+000) 
connections (connected_to_neuron, weight)=(0, -1.43106572795659300000e-003) (1, -5.80832026898860930000e-002) (2, -3.01126595586538310000e-002) (3, 1.91036686301231380000e-002) (4, -5.26045933365821840000e-002) (5, -1.02191127836704250000e-001) (6, -1.62371233105659480000e-001) (7, 4.71570640802383420000e-002) (8, -9.33154821395874020000e-002) (9, 1.41047343611717220000e-001) (10, -3.47458105534315110000e-003) (11, 1.80288925766944890000e-002) (12, -1.25203788280487060000e-001) (13, -2.29094013571739200000e-001) (14, -1.28301501274108890000e-001) (15, 1.25260185450315480000e-002) (16, -3.89562733471393590000e-002) (17, -9.96071659028530120000e-003) (18, -1.12410541623830800000e-003) (19, -2.55287885665893550000e-002) (20, -2.37444788217544560000e-001) (21, -1.42373457551002500000e-001) (22, -1.88597276806831360000e-001) (23, 8.65843594074249270000e-002) (24, 1.98342382907867430000e-001) (25, -7.44167789816856380000e-002) (26, 1.75198182463645940000e-001) (27, 8.05164948105812070000e-002) (28, -6.96156844496726990000e-002) (29, -1.60724714398384090000e-001) (30, 4.28123734891414640000e-002) (31, 1.24925263226032260000e-002) (32, 3.24772577732801440000e-003) (33, -2.42509469389915470000e-002) (34, -8.80406945943832400000e-002) (35, -2.19769459217786790000e-002) (36, -5.06305843591690060000e-002) (37, -1.14791817963123320000e-001) (38, 9.00300964713096620000e-002) (39, -9.63868945837020870000e-002) (40, -1.07068426907062530000e-001) (41, -1.58383607864379880000e-001) (42, -2.43436936289072040000e-002) (43, -3.73283922672271730000e-002) (44, -3.31746079027652740000e-002) (45, -2.34649255871772770000e-002) (46, -5.08527830243110660000e-002) (47, -6.16964139044284820000e-002) (48, 3.37889119982719420000e-002) (49, -3.14997971057891850000e-001) (50, -1.19354277849197390000e-001) (51, -2.21696376800537110000e-001) (52, 4.95341941714286800000e-002) (53, -8.71665775775909420000e-002) (54, 1.03553056716918950000e-001) (55, -3.52969281375408170000e-002) (56, 4.12378367036581040000e-003) (57, -3.85367244482040410000e-001) (58, -1.16328611969947810000e-001) (59, -1.51769101619720460000e-001) (60, -4.36469586566090580000e-003) (61, 6.07963977381587030000e-003) (62, 1.87914013862609860000e-001) (63, 7.19887297600507740000e-003) (64, -1.57376900315284730000e-001) (65, -3.72707098722457890000e-001) (66, 1.73542350530624390000e-002) (67, -9.03590470552444460000e-002) (68, -2.23455280065536500000e-001) (69, -1.13113269209861760000e-001) (70, 1.81460931897163390000e-001) (71, 1.49882555007934570000e-001) (72, -7.79139772057533260000e-002) (73, -2.59993642568588260000e-001) (74, -8.53863582015037540000e-002) (75, -1.88838735222816470000e-001) (76, -1.26043587923049930000e-001) (77, -1.52960494160652160000e-001) (78, 4.86542209982872010000e-002) (79, 7.97760486602783200000e-002) (80, -3.26473340392112730000e-002) (81, -8.96595269441604610000e-002) (82, -8.25667008757591250000e-002) (83, -1.35043382644653320000e-001) (84, 8.66271778941154480000e-002) (85, 1.22811183333396910000e-001) (86, -5.14585673809051510000e-002) (87, -5.40901310741901400000e-002) (88, -2.73226890712976460000e-002) (89, 4.10005524754524230000e-002) (90, -1.20286136865615840000e-001) (91, 3.02954949438571930000e-002) (92, 1.70072868466377260000e-001) (93, -8.99112690240144730000e-003) (94, -1.47766277194023130000e-001) (95, 1.42259020358324050000e-002) (96, -3.26593309640884400000e-001) (0, -5.47083839774131770000e-002) (1, -1.33895486593246460000e-001) (2, -1.18724703788757320000e-001) (3, -7.23281055688858030000e-002) (4, -1.03739621117711070000e-002) (5, -1.01206906139850620000e-001) (6, -1.52898162603378300000e-001) (7, -1.05920098721981050000e-001) (8, -3.29148792661726470000e-003) (9, 1.89649593085050580000e-002) (10, -1.70101806521415710000e-001) (11, -9.46990251541137700000e-002) (12, -2.72226154804229740000e-001) (13, -1.89626812934875490000e-001) (14, -1.84584513306617740000e-001) (15, 1.23710157349705700000e-002) (16, 5.30372560024261470000e-002) (17, -1.23662091791629790000e-001) (18, -1.39717921614646910000e-001) (19, -2.00339369475841520000e-002) (20, -4.64679747819900510000e-002) (21, 9.20340884476900100000e-003) (22, -9.73229706287384030000e-002) (23, -1.67416915297508240000e-001) (24, 6.14174921065568920000e-003) (25, -1.28631800413131710000e-001) (26, -3.80110703408718110000e-002) (27, 4.39838059246540070000e-002) (28, -5.90354911983013150000e-002) (29, -8.84704664349555970000e-002) (30, 8.07971879839897160000e-002) (31, -1.00770238786935810000e-002) (32, -8.86221379041671750000e-002) (33, -1.33456349372863770000e-001) (34, 2.23188064992427830000e-002) (35, -6.32473304867744450000e-002) (36, 7.64807406812906270000e-003) (37, -1.46970972418785100000e-001) (38, 1.27598745748400690000e-002) (39, 5.82206062972545620000e-002) (40, -6.98196813464164730000e-002) (41, -1.66967704892158510000e-001) (42, -1.25980481505393980000e-001) (43, -1.47725522518157960000e-001) (44, -1.23046733438968660000e-001) (45, 7.15949907898902890000e-002) (46, -3.35130691528320310000e-002) (47, -2.14507523924112320000e-002) (48, -6.11204095184803010000e-002) (49, -8.80978703498840330000e-002) (50, -1.83417767286300660000e-001) (51, -8.84765237569808960000e-002) (52, 2.13458146899938580000e-002) (53, 5.91413490474224090000e-002) (54, -1.48293867707252500000e-001) (55, -1.15793399512767790000e-001) (56, 4.69786627218127250000e-003) (57, -1.54007092118263240000e-001) (58, -7.72722959518432620000e-002) (59, -5.75594305992126460000e-002) (60, -1.01361647248268130000e-001) (61, -5.71834156289696690000e-003) (62, 1.01327635347843170000e-001) (63, -3.99212129414081570000e-002) (64, 1.95123720914125440000e-002) (65, -1.97024513036012650000e-002) (66, -1.39559298753738400000e-001) (67, -1.14851608872413640000e-001) (68, -9.80492383241653440000e-002) (69, 5.76666509732604030000e-003) (70, 7.71658569574356080000e-002) (71, 2.06366237252950670000e-002) (72, -1.07906274497509000000e-001) (73, -7.95952230691909790000e-002) (74, -1.56524866819381710000e-001) (75, -2.61349737644195560000e-001) (76, -1.34235799312591550000e-001) (77, -6.39597252011299130000e-002) (78, 1.22315630316734310000e-001) (79, -1.00321650505065920000e-001) (80, 7.52391442656517030000e-002) (81, -1.56993746757507320000e-001) (82, -2.05183058977127080000e-001) (83, -1.28582760691642760000e-001) (84, -4.79558855295181270000e-002) (85, 8.57307985424995420000e-002) (86, 5.41048012673854830000e-002) (87, -3.03000137209892270000e-002) (88, -3.14016863703727720000e-002) (89, -2.02286660671234130000e-001) (90, -1.81876420974731450000e-001) (91, -1.02081611752510070000e-001) (92, -8.06080624461174010000e-002) (93, 9.90162603557109830000e-003) (94, -2.25469693541526790000e-001) (95, -1.61069378256797790000e-001) (96, -2.07210749387741090000e-001) (0, 7.41318007931113240000e-003) (1, -4.76834058761596680000e-001) (2, -5.02892881631851200000e-002) (3, -1.87809869647026060000e-001) (4, -7.48291015625000000000e-002) (5, -1.25669404864311220000e-001) (6, -2.44876176118850710000e-001) (7, -1.61144167184829710000e-001) (8, 1.64387077093124390000e-001) (9, -1.03100873529911040000e-001) (10, -5.26889026165008540000e-001) (11, -2.11705472320318220000e-002) (12, -4.65823151171207430000e-002) (13, -1.22631900012493130000e-001) (14, -4.23065304756164550000e-001) (15, -2.62136734090745450000e-003) (16, -1.38631492853164670000e-001) (17, -3.25495034456253050000e-001) (18, -4.89728957414627080000e-001) (19, 1.07169616967439650000e-002) (20, 1.70390784740448000000e-001) (21, 1.25282794237136840000e-001) (22, -2.61445552110672000000e-001) (23, 4.23586592078208920000e-002) (24, 4.05214168131351470000e-003) (25, -1.22327476739883420000e-001) (26, -3.86366099119186400000e-001) (27, -1.73296362161636350000e-001) (28, 2.21559271216392520000e-001) (29, 3.02940160036087040000e-001) (30, -3.39711690321564670000e-003) (31, 3.27963717281818390000e-002) (32, -8.53063613176345830000e-002) (33, -1.65494933724403380000e-001) (34, -2.48496845364570620000e-001) (35, -2.07998175173997880000e-002) (36, 3.55153739452362060000e-001) (37, 3.03641140460968020000e-001) (38, -9.20563042163848880000e-002) (39, 1.94776281714439390000e-002) (40, 1.41611341387033460000e-002) (41, -1.80979713797569270000e-001) (42, -5.65915219485759740000e-002) (43, 9.45996716618537900000e-002) (44, -2.60403066873550420000e-001) (45, 3.62881004810333250000e-001) (46, 1.73393219709396360000e-001) (47, -2.56275646388530730000e-002) (48, -3.57618555426597600000e-002) (49, -2.10726365447044370000e-001) (50, 2.02319234609603880000e-001) (51, 2.07571193575859070000e-001) (52, -4.23761457204818730000e-001) (53, 2.26359054446220400000e-001) (54, 1.79710119962692260000e-001) (55, 1.11184172332286830000e-001) (56, 1.64769589900970460000e-002) (57, -2.92579293251037600000e-001) (58, 5.62816262245178220000e-001) (59, 4.19755846261978150000e-001) (60, -2.53970354795455930000e-001) (61, 6.49071931838989260000e-002) (62, 2.69810527563095090000e-001) (63, 1.83250784873962400000e-001) (64, -2.49007970094680790000e-001) (65, -2.88859661668539050000e-002) (66, 5.21192908287048340000e-001) (67, 2.35243186354637150000e-001) (68, -1.88092499971389770000e-001) (69, 2.45185986161231990000e-001) (70, 2.08112061023712160000e-001) (71, 2.17336177825927730000e-001) (72, -3.21507126092910770000e-001) (73, -4.36740294098854060000e-002) (74, 3.11371684074401860000e-001) (75, 4.60630208253860470000e-001) (76, -1.34426616132259370000e-002) (77, -1.53228333219885830000e-002) (78, 1.81425645947456360000e-001) (79, 1.37948229908943180000e-001) (80, -1.33254796266555790000e-001) (81, -9.44802239537239070000e-002) (82, 2.72148817777633670000e-001) (83, 9.11006703972816470000e-003) (84, -1.95324972271919250000e-001) (85, 1.77929271012544630000e-002) (86, -1.70215666294097900000e-001) (87, 1.68655633926391600000e-001) (88, -1.26789420843124390000e-001) (89, 1.80431604385375980000e-001) (90, -1.50622740387916560000e-001) (91, -6.17773473262786870000e-001) (92, -7.34648823738098140000e-001) (93, -5.43674409389495850000e-001) (94, -1.75920024514198300000e-001) (95, -5.38710057735443120000e-002) (96, -3.89106065034866330000e-001) (0, 3.27890589833259580000e-002) (1, 9.11955609917640690000e-002) (2, 1.16240046918392180000e-002) (3, -1.30552858114242550000e-001) (4, -1.47896623238921170000e-002) (5, 7.28830099105834960000e-002) (6, -1.11675061285495760000e-001) (7, 4.05167788267135620000e-002) (8, -6.71081244945526120000e-002) (9, -7.37880021333694460000e-002) (10, -2.62931078672409060000e-001) (11, -2.89428889751434330000e-001) (12, -2.08133906126022340000e-001) (13, -9.57010388374328610000e-002) (14, -1.88374802470207210000e-001) (15, -1.05174355208873750000e-001) (16, 4.11203317344188690000e-002) (17, -2.54754573106765750000e-001) (18, -2.19028875231742860000e-001) (19, 3.31805599853396420000e-003) (20, 1.75930559635162350000e-001) (21, 3.50201725959777830000e-002) (22, -2.99587756395339970000e-001) (23, -1.69047564268112180000e-001) (24, 2.35202908515930180000e-002) (25, -2.06300705671310420000e-001) (26, 1.14462114870548250000e-001) (27, 2.40889504551887510000e-001) (28, 9.05267000198364260000e-002) (29, 7.98173919320106510000e-002) (30, -2.68834471702575680000e-001) (31, -6.02561794221401210000e-002) (32, -1.03299871087074280000e-001) (33, -1.60728633403778080000e-001) (34, -6.92671760916709900000e-002) (35, -4.53068688511848450000e-003) (36, -1.57525092363357540000e-002) (37, -1.98210328817367550000e-002) (38, -9.53629165887832640000e-002) (39, 7.42116719484329220000e-002) (40, -7.22316876053810120000e-002) (41, -1.68678820133209230000e-001) (42, -6.36373385787010190000e-002) (43, 3.62288057804107670000e-002) (44, 5.81397376954555510000e-002) (45, -5.31782060861587520000e-002) (46, -3.40495980344712730000e-003) (47, -1.10595703125000000000e-001) (48, 1.02404527366161350000e-001) (49, -2.07720920443534850000e-002) (50, -1.47722095251083370000e-001) (51, -5.18800541758537290000e-002) (52, -6.83485418558120730000e-002) (53, -8.75995457172393800000e-002) (54, -1.75535663962364200000e-001) (55, 3.63475605845451350000e-002) (56, 6.05208277702331540000e-002) (57, -7.40940570831298830000e-002) (58, -4.91031706333160400000e-002) (59, -8.08534249663352970000e-002) (60, 8.84365662932395940000e-003) (61, -7.71442130208015440000e-002) (62, -4.92903366684913640000e-002) (63, -1.34294286370277400000e-001) (64, 2.55709653720259670000e-003) (65, -4.32267487049102780000e-002) (66, -1.02780826389789580000e-001) (67, -6.40472099184989930000e-002) (68, -1.51609137654304500000e-001) (69, 5.78024201095104220000e-002) (70, 2.63502318412065510000e-002) (71, -1.10157042741775510000e-001) (72, 4.71017695963382720000e-002) (73, 3.27869951725006100000e-002) (74, -5.39025142788887020000e-002) (75, -1.16288736462593080000e-001) (76, 3.18619632162153720000e-003) (77, 1.13171432167291640000e-002) (78, 1.11068307887762780000e-003) (79, 5.93366883695125580000e-002) (80, -1.28931980580091480000e-002) (81, 3.26912552118301390000e-002) (82, -7.28168040513992310000e-002) (83, -7.02478587627410890000e-002) (84, -6.44943639636039730000e-002) (85, 4.59144040942192080000e-002) (86, -8.15203785896301270000e-002) (87, 2.41448450833559040000e-002) (88, 2.80439690686762330000e-003) (89, -1.27327933907508850000e-001) (90, -1.68534472584724430000e-001) (91, -1.13668762147426610000e-001) (92, -9.41154584288597110000e-002) (93, -6.11927406862378120000e-003) (94, -1.97237789630889890000e-001) (95, 5.84358423948287960000e-002) (96, -1.53302982449531560000e-001) (0, 2.63154376298189160000e-002) (1, -1.53777211904525760000e-001) (2, -2.54955627024173740000e-002) (3, -1.19887106120586400000e-001) (4, -3.15821558237075810000e-001) (5, -6.66616708040237430000e-002) (6, -1.66629403829574580000e-001) (7, -1.07777073979377750000e-001) (8, 1.40610054135322570000e-001) (9, 2.89804875850677490000e-001) (10, -5.20124316215515140000e-001) (11, -4.24875855445861820000e-001) (12, -2.98309594392776490000e-001) (13, -4.84413951635360720000e-001) (14, -8.67509320378303530000e-002) (15, 6.66626542806625370000e-002) (16, -2.61044085025787350000e-001) (17, 1.79537758231163020000e-002) (18, -3.57745945453643800000e-001) (19, -8.67741331458091740000e-002) (20, 3.74544113874435420000e-002) (21, -9.65324342250823970000e-002) (22, -2.28770300745964050000e-001) (23, 7.01826736330986020000e-002) (24, 1.07102863490581510000e-001) (25, 3.72535675764083860000e-001) (26, -2.15536668896675110000e-001) (27, -9.18212458491325380000e-002) (28, 8.16464871168136600000e-002) (29, 1.45632987841963770000e-002) (30, -3.45561593770980830000e-001) (31, -1.88589110970497130000e-001) (32, -1.36337503790855410000e-002) (33, 3.79258871078491210000e-001) (34, -2.05182865262031560000e-001) (35, 5.06558753550052640000e-002) (36, 1.41421735286712650000e-001) (37, -7.24594220519065860000e-002) (38, -1.79335534572601320000e-001) (39, -1.25383496284484860000e-001) (40, -7.70458951592445370000e-002) (41, 2.31564670801162720000e-001) (42, 1.80736020207405090000e-001) (43, -1.53138741850852970000e-001) (44, -2.71527439355850220000e-001) (45, -5.12406453490257260000e-002) (46, -3.19730222225189210000e-001) (47, 2.97658774070441720000e-003) (48, 7.47715458273887630000e-002) (49, 1.55289992690086360000e-001) (50, 3.61793935298919680000e-001) (51, 3.89090329408645630000e-001) (52, -2.12455034255981450000e-001) (53, 1.42707169055938720000e-001) (54, 1.86417624354362490000e-001) (55, 1.95222645998001100000e-001) (56, -5.51440007984638210000e-002) (57, -4.04954440891742710000e-002) (58, 1.24576732516288760000e-001) (59, 3.55802297592163090000e-001) (60, -4.97871637344360350000e-002) (61, 1.80303696542978290000e-002) (62, 1.38017773628234860000e-001) (63, 2.19171047210693360000e-001) (64, -1.03131368756294250000e-001) (65, -2.00297862291336060000e-001) (66, 2.02455788850784300000e-001) (67, 1.40343219041824340000e-001) (68, -1.62284359335899350000e-001) (69, -1.12825669348239900000e-001) (70, -4.79259714484214780000e-002) (71, 2.33790650963783260000e-001) (72, -1.94469884037971500000e-001) (73, -2.24910259246826170000e-001) (74, -2.29629710316658020000e-001) (75, -4.74028512835502620000e-002) (76, 5.46822659671306610000e-002) (77, -8.36864672601222990000e-003) (78, -2.49897241592407230000e-001) (79, 2.02987655997276310000e-001) (80, -8.91016498208045960000e-002) (81, -1.22361563146114350000e-001) (82, -1.17154292762279510000e-001) (83, 1.21831536293029790000e-001) (84, 5.42144589126110080000e-002) (85, 1.80976912379264830000e-001) (86, -2.57752865552902220000e-001) (87, -7.78601877391338350000e-003) (88, 4.35293465852737430000e-002) (89, 2.79812756925821300000e-002) (90, -2.07204520702362060000e-002) (91, -7.17522129416465760000e-002) (92, -9.48158949613571170000e-002) (93, -1.34596258401870730000e-001) (94, 7.01495185494422910000e-002) (95, 1.17692880332469940000e-001) (96, -2.46214315295219420000e-001) (0, 2.49509215354919430000e-002) (1, -1.81493937969207760000e-001) (2, -2.28136666119098660000e-002) (3, 6.35781288146972660000e-002) (4, -1.82066455483436580000e-001) (5, -8.68886709213256840000e-003) (6, -1.47973239421844480000e-001) (7, -1.10959056764841080000e-002) (8, 4.99917604029178620000e-002) (9, 3.71952075511217120000e-003) (10, -3.09682153165340420000e-002) (11, -4.12839353084564210000e-002) (12, 1.32620945572853090000e-001) (13, 1.56756937503814700000e-001) (14, -6.79636672139167790000e-002) (15, -1.45301818847656250000e-001) (16, -1.01291678845882420000e-001) (17, -2.54999369382858280000e-001) (18, -2.87378542125225070000e-002) (19, 5.30184805393218990000e-002) (20, -1.16206116974353790000e-001) (21, 2.68745899200439450000e-001) (22, 1.57078847289085390000e-001) (23, -7.30866342782974240000e-002) (24, 5.39999455213546750000e-002) (25, -1.46084621548652650000e-001) (26, 1.59085802733898160000e-002) (27, -1.01649917662143710000e-001) (28, -2.81122550368309020000e-002) (29, 3.16652953624725340000e-001) (30, 2.27722480893135070000e-001) (31, 5.46760335564613340000e-002) (32, -4.55295704305171970000e-002) (33, -1.58423885703086850000e-001) (34, -2.96292733401060100000e-002) (35, 9.47921201586723330000e-002) (36, 1.30149260163307190000e-001) (37, 1.69680103659629820000e-001) (38, -1.38084426522254940000e-001) (39, 2.54659540951251980000e-002) (40, 1.89747642725706100000e-002) (41, -3.15750725567340850000e-002) (42, -2.44387369602918620000e-002) (43, -1.22605971992015840000e-001) (44, 1.11701712012290950000e-001) (45, 4.18884865939617160000e-002) (46, -9.89826023578643800000e-003) (47, 2.25815158337354660000e-002) (48, -1.08781658113002780000e-001) (49, -7.34163075685501100000e-002) (50, -1.04820102453231810000e-001) (51, 9.99206900596618650000e-002) (52, -1.81659266352653500000e-001) (53, -1.46214412525296210000e-002) (54, 6.21035806834697720000e-002) (55, -7.28857591748237610000e-002) (56, 3.82733494043350220000e-002) (57, -2.78134341351687910000e-003) (58, -7.26603418588638310000e-002) (59, 1.24357350170612340000e-001) (60, -3.57768274843692780000e-002) (61, -6.43774941563606260000e-002) (62, -2.04402327537536620000e-001) (63, -4.73114028573036190000e-002) (64, 1.04846738278865810000e-001) (65, -9.38466042280197140000e-002) (66, -1.08006820082664490000e-001) (67, 2.50623524188995360000e-001) (68, 1.09179861843585970000e-001) (69, 7.08294063806533810000e-002) (70, -1.91907659173011780000e-001) (71, 3.35681810975074770000e-002) (72, -9.44520533084869380000e-002) (73, -1.47785425186157230000e-001) (74, 3.21761131286621090000e-001) (75, 3.38910579681396480000e-001) (76, -1.79409623146057130000e-001) (77, -1.77992461249232290000e-003) (78, -8.56470391154289250000e-002) (79, -8.17564874887466430000e-002) (80, 1.62632167339324950000e-002) (81, -2.73761183023452760000e-001) (82, 2.31529951095581050000e-001) (83, -2.62170918285846710000e-002) (84, -2.47167229652404790000e-001) (85, -6.95275440812110900000e-002) (86, -2.20873236656188960000e-001) (87, -7.84140974283218380000e-002) (88, -6.11600689589977260000e-002) (89, 1.94011360406875610000e-001) (90, -1.54846766963601110000e-002) (91, -4.92531776428222660000e-001) (92, -7.41468131542205810000e-001) (93, -4.86136138439178470000e-001) (94, -4.08643931150436400000e-001) (95, -2.52709716558456420000e-001) (96, -1.43115118145942690000e-001) (0, 1.40799909830093380000e-001) (1, -3.81339341402053830000e-002) (2, -7.08215087652206420000e-002) (3, 3.65310102701187130000e-001) (4, 3.22221606969833370000e-001) (5, -4.64274846017360690000e-002) (6, 1.18361143395304680000e-002) (7, -4.63784448802471160000e-002) (8, 1.78882583975791930000e-001) (9, -1.05339169502258300000e-001) (10, -2.51109451055526730000e-001) (11, 1.40750929713249210000e-001) (12, 1.46380349993705750000e-001) (13, -1.72134652733802800000e-001) (14, -1.70346856117248540000e-001) (15, 2.80977129936218260000e-001) (16, -1.36937126517295840000e-001) (17, -4.58026289939880370000e-001) (18, -1.56743168830871580000e-001) (19, 4.38107103109359740000e-002) (20, 1.81240826845169070000e-001) (21, -1.74263060092926030000e-001) (22, -3.18535357713699340000e-001) (23, 1.05488263070583340000e-001) (24, 8.18589851260185240000e-002) (25, -1.45674273371696470000e-001) (26, -3.61574351787567140000e-001) (27, -1.99111960828304290000e-002) (28, 3.07366251945495610000e-001) (29, -3.21259260177612300000e-001) (30, -3.27552378177642820000e-001) (31, -3.37219089269638060000e-001) (32, 1.08309730887413020000e-001) (33, -5.29354773461818700000e-002) (34, -2.29912206530570980000e-001) (35, 1.08901850879192350000e-001) (36, 1.63930997252464290000e-001) (37, 6.05348013341426850000e-002) (38, -7.79324695467948910000e-002) (39, -2.06939831376075740000e-001) (40, 8.52508470416069030000e-002) (41, -4.70794402062892910000e-002) (42, 2.01123192906379700000e-001) (43, 2.22921371459960940000e-002) (44, -8.79714265465736390000e-002) (45, -9.84060093760490420000e-002) (46, -3.45680177211761470000e-001) (47, -2.22572386264801030000e-002) (48, 2.47787758708000180000e-001) (49, -2.06244632601737980000e-001) (50, 2.45427533984184270000e-001) (51, 4.28887873888015750000e-001) (52, 1.15304067730903630000e-001) (53, -1.65302917361259460000e-001) (54, 6.36368021368980410000e-002) (55, 1.58894225955009460000e-001) (56, -2.14723706245422360000e-001) (57, -3.54947954416275020000e-001) (58, 1.46083042025566100000e-001) (59, 4.82112586498260500000e-001) (60, 1.77519265562295910000e-002) (61, -3.23597222566604610000e-001) (62, 7.11741223931312560000e-002) (63, 2.41440549492836000000e-001) (64, -5.79759418964385990000e-001) (65, -2.40190163254737850000e-001) (66, 5.30317962169647220000e-001) (67, 1.85031667351722720000e-001) (68, -1.74210593104362490000e-001) (69, -1.73484668135643010000e-001) (70, -6.94977641105651860000e-002) (71, 2.41803988814353940000e-001) (72, -8.93901586532592770000e-002) (73, -9.58082154393196110000e-002) (74, 4.93828862905502320000e-001) (75, -4.78993766009807590000e-002) (76, 1.21394604444503780000e-001) (77, -1.35438377037644390000e-002) (78, -3.43216150999069210000e-001) (79, 2.56776928901672360000e-001) (80, -1.12225711345672610000e-001) (81, 1.58949509263038640000e-001) (82, 9.88456383347511290000e-002) (83, -2.56320208311080930000e-001) (84, -9.96876582503318790000e-002) (85, -4.09014910459518430000e-001) (86, -1.14924758672714230000e-001) (87, 1.18641234934329990000e-001) (88, -6.38510808348655700000e-002) (89, 6.91157281398773190000e-002) (90, -2.11028888821601870000e-001) (91, 5.15725649893283840000e-002) (92, 1.08985789120197300000e-001) (93, -9.84989404678344730000e-002) (94, 2.50772595405578610000e-001) (95, 7.24811792373657230000e-001) (96, -2.66223132610321040000e-001) (0, 6.30042776465415950000e-002) (1, -4.19980846345424650000e-002) (2, 5.34820370376110080000e-002) (3, 9.37594845890998840000e-003) (4, 4.23545017838478090000e-002) (5, 1.57651409506797790000e-001) (6, -1.53809890151023860000e-001) (7, -7.02743092551827430000e-003) (8, 1.34793212637305260000e-002) (9, -1.06982193887233730000e-001) (10, 7.09001049399375920000e-002) (11, 1.05809234082698820000e-001) (12, 9.94098782539367680000e-002) (13, -6.48178458213806150000e-002) (14, -4.90506924688816070000e-002) (15, -1.02372437715530400000e-001) (16, 7.01574981212615970000e-002) (17, -1.26063272356987000000e-001) (18, -3.45557592809200290000e-002) (19, 1.89683325588703160000e-002) (20, 1.18574500083923340000e-002) (21, 2.94321067631244660000e-002) (22, -2.23291754722595210000e-001) (23, -9.08579826354980470000e-002) (24, 1.68836101889610290000e-001) (25, -3.95733937621116640000e-002) (26, 9.86315608024597170000e-002) (27, -8.74656140804290770000e-002) (28, -1.51284351944923400000e-001) (29, -1.15761809051036830000e-001) (30, -7.39678740501403810000e-002) (31, -2.54539370536804200000e-001) (32, 1.55013781040906910000e-002) (33, 8.36927890777587890000e-002) (34, 4.02723662555217740000e-002) (35, -1.16385571658611300000e-001) (36, -1.65197148919105530000e-001) (37, 3.53266345337033270000e-003) (38, -4.93277423083782200000e-002) (39, -4.18239831924438480000e-002) (40, 8.76936241984367370000e-002) (41, 4.98266667127609250000e-002) (42, -1.44349455833435060000e-001) (43, -1.93361520767211910000e-001) (44, -1.99046120047569270000e-001) (45, 6.97607221081852910000e-003) (46, -7.50757604837417600000e-002) (47, -2.14004427194595340000e-001) (48, 6.72978982329368590000e-002) (49, -1.14362165331840520000e-002) (50, -1.23791553080081940000e-001) (51, -2.10337266325950620000e-002) (52, -1.83205619454383850000e-001) (53, 4.10419479012489320000e-002) (54, -4.17045801877975460000e-002) (55, -3.03910762071609500000e-001) (56, 4.65385913848876950000e-002) (57, -1.53817981481552120000e-001) (58, -2.75721848011016850000e-002) (59, -9.77927297353744510000e-002) (60, -1.80292636156082150000e-001) (61, -2.72106919437646870000e-002) (62, 4.88282367587089540000e-002) (63, -1.33439913392066960000e-001) (64, 2.54894103854894640000e-002) (65, -4.98618781566619870000e-002) (66, -1.01987361907958980000e-001) (67, -2.43450418114662170000e-001) (68, -2.18803361058235170000e-001) (69, 1.24733760952949520000e-001) (70, -4.00652177631855010000e-002) (71, -2.94711083173751830000e-001) (72, 2.69419979304075240000e-002) (73, -8.38487669825553890000e-002) (74, -1.31201744079589840000e-001) (75, -2.51682549715042110000e-001) (76, -1.84509262442588810000e-001) (77, 3.07401432655751710000e-003) (78, 6.21578507125377660000e-002) (79, -1.12672381103038790000e-001) (80, 2.91819218546152110000e-002) (81, -6.52670115232467650000e-002) (82, -7.83767849206924440000e-002) (83, -4.11265864968299870000e-002) (84, 5.26326661929488180000e-003) (85, 1.50325536727905270000e-001) (86, -1.56162381172180180000e-001) (87, -7.41667002439498900000e-002) (88, -1.37472629547119140000e-001) (89, -1.26086696982383730000e-001) (90, -1.48150712251663210000e-001) (91, -8.82776305079460140000e-002) (92, -1.17597438395023350000e-001) (93, -5.40116988122463230000e-002) (94, -3.29686433076858520000e-001) (95, 7.64297917485237120000e-002) (96, -1.31987005472183230000e-001) (0, 3.24309915304183960000e-002) (1, -1.10928058624267580000e-001) (2, 4.94793930556625130000e-004) (3, -1.27710938453674320000e-001) (4, -1.27237960696220400000e-001) (5, 8.19055214524269100000e-002) (6, -6.14585205912590030000e-002) (7, -1.19270525872707370000e-001) (8, -8.18772017955780030000e-002) (9, -2.08491966128349300000e-001) (10, -3.22985678911209110000e-001) (11, -2.08520486950874330000e-001) (12, -1.05431631207466130000e-001) (13, -9.26132947206497190000e-002) (14, -2.90410578250885010000e-001) (15, 1.69492624700069430000e-002) (16, -3.52901481091976170000e-002) (17, -9.97252836823463440000e-002) (18, -1.47926673293113710000e-001) (19, -1.06297016143798830000e-001) (20, 2.09527790546417240000e-001) (21, 8.99565443396568300000e-002) (22, -2.32082396745681760000e-001) (23, -6.88179060816764830000e-002) (24, 1.33721604943275450000e-001) (25, -7.13831782341003420000e-002) (26, 1.70742794871330260000e-002) (27, 2.21719890832901000000e-001) (28, 1.85192391276359560000e-001) (29, -1.46025732159614560000e-001) (30, -2.33899459242820740000e-001) (31, -1.28239661455154420000e-001) (32, 1.87372006475925450000e-002) (33, 4.32596653699874880000e-002) (34, 1.17894550785422330000e-002) (35, 1.39382883906364440000e-001) (36, 5.66297695040702820000e-002) (37, -7.24589377641677860000e-002) (38, -8.22347030043601990000e-002) (39, 1.65579784661531450000e-002) (40, 6.89064711332321170000e-002) (41, 3.64639423787593840000e-002) (42, -3.42052057385444640000e-002) (43, 3.42885740101337430000e-002) (44, 2.22668647766113280000e-001) (45, 1.32989048957824710000e-001) (46, -4.43723239004611970000e-002) (47, 1.92384980618953700000e-002) (48, -6.39571473002433780000e-002) (49, 2.61246711015701290000e-001) (50, 1.20820745825767520000e-001) (51, 2.39255428314208980000e-001) (52, 4.75502200424671170000e-002) (53, 4.14525531232357030000e-002) (54, 1.52601525187492370000e-001) (55, -2.20156721770763400000e-002) (56, 6.04009442031383510000e-002) (57, 1.82358205318450930000e-001) (58, -1.02488614618778230000e-001) (59, 1.02137718349695210000e-002) (60, -2.54862755537033080000e-003) (61, -8.95147994160652160000e-002) (62, -7.93918222188949580000e-002) (63, -1.65858730673789980000e-001) (64, 1.09247662127017970000e-001) (65, 2.58205048739910130000e-002) (66, -3.89353409409523010000e-002) (67, -5.98851554095745090000e-002) (68, -5.14486506581306460000e-002) (69, -7.56368041038513180000e-002) (70, 8.09650197625160220000e-002) (71, -5.15124984085559840000e-002) (72, 3.28567594289779660000e-001) (73, 1.06058038771152500000e-001) (74, -2.04668506979942320000e-001) (75, -1.86501353979110720000e-001) (76, -2.20149084925651550000e-001) (77, -2.42728009819984440000e-001) (78, -1.50664031505584720000e-001) (79, -1.03138878941535950000e-001) (80, -3.20152640342712400000e-002) (81, -1.52169942855834960000e-001) (82, -6.60872533917427060000e-002) (83, 4.83193201944231990000e-003) (84, 1.87160567293176430000e-005) (85, -4.28975746035575870000e-002) (86, -2.41367772221565250000e-001) (87, -1.73715025186538700000e-001) (88, -7.43236690759658810000e-002) (89, -1.77852418273687360000e-002) (90, 4.56597544252872470000e-002) (91, 2.29861475527286530000e-002) (92, -6.35926723480224610000e-002) (93, -8.29839259386062620000e-002) (94, -3.20462167263031010000e-001) (95, -2.41379141807556150000e-001) (96, -1.13411456346511840000e-001) (0, -8.55220332741737370000e-002) (1, -7.34616369009017940000e-002) (2, -2.47787050902843480000e-002) (3, -1.16071160882711410000e-002) (4, -9.63136181235313420000e-002) (5, -1.52322068810462950000e-001) (6, -1.12882502377033230000e-001) (7, -6.06204457581043240000e-002) (8, -2.99573061056435110000e-003) (9, 8.23712944984436040000e-002) (10, 6.86203688383102420000e-002) (11, 4.05997596681118010000e-002) (12, 1.87399834394454960000e-002) (13, 5.19360341131687160000e-002) (14, -4.47818636894226070000e-001) (15, -1.89417675137519840000e-001) (16, 2.81603801995515820000e-002) (17, -1.80049985647201540000e-001) (18, -4.41714003682136540000e-002) (19, -1.35106116533279420000e-001) (20, -1.13640002906322480000e-001) (21, 1.17249071598052980000e-001) (22, 7.92508199810981750000e-002) (23, -1.69865772128105160000e-001) (24, -1.45893648266792300000e-001) (25, -4.40061241388320920000e-001) (26, 7.86862447857856750000e-002) (27, -7.16703012585639950000e-002) (28, -1.81466013193130490000e-001) (29, -9.44433733820915220000e-002) (30, 1.58162638545036320000e-001) (31, -7.57607519626617430000e-002) (32, -1.34221687912940980000e-001) (33, -2.16391190886497500000e-001) (34, -2.38640923053026200000e-002) (35, -2.93630659580230710000e-001) (36, -1.51533871889114380000e-001) (37, 6.14877268671989440000e-002) (38, 1.78135737776756290000e-001) (39, 7.49189592897892000000e-003) (40, -4.13919985294342040000e-003) (41, -2.82108664512634280000e-001) (42, -2.62902766466140750000e-001) (43, -1.32877990603446960000e-001) (44, -2.02174291014671330000e-001) (45, 3.10554683208465580000e-001) (46, 2.28279024362564090000e-001) (47, -6.88761323690414430000e-002) (48, -6.64899647235870360000e-002) (49, -2.64817416667938230000e-001) (50, -2.08986178040504460000e-001) (51, -1.97627112269401550000e-001) (52, 1.72796323895454410000e-001) (53, 1.58663406968116760000e-001) (54, -3.35823208093643190000e-001) (55, -7.62402266263961790000e-002) (56, 1.53370685875415800000e-002) (57, -2.53661572933197020000e-001) (58, -2.26452261209487920000e-001) (59, -9.42076742649078370000e-002) (60, -3.12339626252651210000e-002) (61, 9.33854356408119200000e-002) (62, 1.52585491538047790000e-001) (63, -7.07171484827995300000e-002) (64, -3.92770692706108090000e-002) (65, -1.94325268268585210000e-001) (66, -1.28231287002563480000e-001) (67, -9.80317145586013790000e-002) (68, -1.77444964647293090000e-001) (69, -1.66982024908065800000e-001) (70, 1.12778671085834500000e-001) (71, -1.40773966908454900000e-001) (72, 3.31895872950553890000e-002) (73, -8.63394886255264280000e-002) (74, 7.13804140686988830000e-002) (75, -1.61203265190124510000e-001) (76, -3.55568885803222660000e-001) (77, -2.26962305605411530000e-002) (78, 1.26060873270034790000e-001) (79, -1.71814054250717160000e-001) (80, 1.09518185257911680000e-001) (81, -1.54959894716739650000e-002) (82, 3.11915259808301930000e-002) (83, -1.90509974956512450000e-001) (84, -1.49300679564476010000e-001) (85, 2.26428881287574770000e-001) (86, -1.26574620604515080000e-001) (87, -2.23643824458122250000e-001) (88, 9.04445424675941470000e-002) (89, 2.20770299434661870000e-001) (90, 1.73429325222969060000e-001) (91, 9.52320322394371030000e-002) (92, 7.95742403715848920000e-003) (93, 1.04177966713905330000e-001) (94, -1.65230497717857360000e-001) (95, -1.22712261974811550000e-001) (96, -8.85762348771095280000e-002) (0, -9.74631309509277340000e-002) (1, -1.88128501176834110000e-001) (2, -1.34074464440345760000e-001) (3, 9.04141813516616820000e-002) (4, 8.86090025305747990000e-002) (5, -9.41288918256759640000e-002) (6, -1.46923214197158810000e-001) (7, -1.61908809095621110000e-002) (8, -2.12420001626014710000e-001) (9, -1.46929398179054260000e-001) (10, -9.07080769538879390000e-002) (11, -8.34916755557060240000e-002) (12, 4.52838763594627380000e-002) (13, 1.09427303075790410000e-001) (14, -2.94939339160919190000e-001) (15, -1.01548269391059880000e-001) (16, -4.96065467596054080000e-002) (17, -4.44635562598705290000e-002) (18, 6.10079988837242130000e-002) (19, 6.08614943921566010000e-002) (20, 1.22483640909194950000e-001) (21, 1.57812014222145080000e-001) (22, -6.83462843298912050000e-002) (23, -2.47270673513412480000e-001) (24, 9.99260991811752320000e-002) (25, -1.74998000264167790000e-001) (26, 4.53218929469585420000e-002) (27, 5.38214743137359620000e-002) (28, -7.48214423656463620000e-002) (29, 1.41450569033622740000e-001) (30, 2.01127469539642330000e-001) (31, -6.64685890078544620000e-002) (32, 8.94167050719261170000e-002) (33, -2.58711934089660640000e-001) (34, -1.05747625231742860000e-001) (35, 5.46236187219619750000e-002) (36, -1.31151944398880000000e-001) (37, -1.87678858637809750000e-002) (38, 2.49376058578491210000e-001) (39, 6.62923678755760190000e-002) (40, 1.35104924440383910000e-001) (41, -1.64280086755752560000e-001) (42, -3.12624007463455200000e-001) (43, -3.09580385684967040000e-001) (44, -3.53615969419479370000e-001) (45, 1.24677633866667750000e-002) (46, 2.91450053453445430000e-001) (47, 2.55888495594263080000e-002) (48, 5.30702956020832060000e-002) (49, -7.04203993082046510000e-002) (50, -1.83694928884506230000e-001) (51, -4.04710441827774050000e-001) (52, -2.98001259565353390000e-001) (53, -1.16733171045780180000e-001) (54, 1.55282750725746150000e-001) (55, -1.42965614795684810000e-001) (56, 2.88885653018951420000e-001) (57, -4.35328707098960880000e-002) (58, 1.48736918345093730000e-002) (59, -1.53325542807579040000e-001) (60, -1.31852775812149050000e-001) (61, 2.93482482433319090000e-001) (62, 1.66908875107765200000e-001) (63, -1.66639044880867000000e-001) (64, 1.23570576310157780000e-001) (65, -1.22270002961158750000e-001) (66, -8.12188982963562010000e-002) (67, -2.96815156936645510000e-001) (68, -7.21038058400154110000e-002) (69, 1.92246899008750920000e-001) (70, 2.68632799386978150000e-001) (71, -7.89387449622154240000e-002) (72, -4.39269766211509700000e-002) (73, -3.94171588122844700000e-002) (74, -1.38071790337562560000e-001) (75, -1.81126013398170470000e-001) (76, -3.08384541422128680000e-002) (77, 1.11391514539718630000e-001) (78, 2.58468598127365110000e-001) (79, -2.91652837768197060000e-003) (80, -2.22473174333572390000e-001) (81, -3.67531180381774900000e-002) (82, 2.78288543224334720000e-001) (83, 1.45553559064865110000e-001) (84, -1.21747963130474090000e-001) (85, 2.41162896156311040000e-001) (86, 2.49120518565177920000e-001) (87, -1.57922461628913880000e-001) (88, -3.37251752614974980000e-001) (89, -1.20866447687149050000e-001) (90, -9.91636589169502260000e-002) (91, -1.25667095184326170000e-001) (92, -1.66489034891128540000e-001) (93, -2.69291419535875320000e-002) (94, -1.48646369576454160000e-001) (95, -2.88207605481147770000e-002) (96, -2.05476686358451840000e-001) (0, 9.60177853703498840000e-002) (1, -3.19982618093490600000e-001) (2, -1.22168660163879390000e-001) (3, -1.65990777313709260000e-002) (4, 5.09496703743934630000e-002) (5, -6.62497654557228090000e-002) (6, -1.95595026016235350000e-001) (7, -2.24840626120567320000e-001) (8, 2.16049522161483760000e-001) (9, -4.48147803544998170000e-002) (10, -9.40134450793266300000e-002) (11, 1.72990068793296810000e-001) (12, 2.59390413761138920000e-001) (13, 1.27291912212967870000e-003) (14, -3.78262013196945190000e-001) (15, -2.76090323925018310000e-001) (16, 2.32434552162885670000e-002) (17, -2.04569712281227110000e-001) (18, -1.21278718113899230000e-001) (19, 4.40328605473041530000e-002) (20, 1.41583725810050960000e-001) (21, 1.87319070100784300000e-001) (22, -1.52756363153457640000e-001) (23, -1.80862501263618470000e-001) (24, -2.57665403187274930000e-002) (25, -3.08464407920837400000e-001) (26, -1.88047960400581360000e-001) (27, 2.87911272607743740000e-003) (28, 7.59433209896087650000e-002) (29, 3.56167703866958620000e-001) (30, 5.09856222197413440000e-003) (31, -1.52392480522394180000e-002) (32, 1.61452591419219970000e-001) (33, -6.69298022985458370000e-002) (34, -2.16620564460754390000e-001) (35, 2.50285100191831590000e-002) (36, 1.78613647818565370000e-001) (37, 5.16424775123596190000e-001) (38, -2.65172332525253300000e-001) (39, -1.38795793056488040000e-001) (40, 1.51115581393241880000e-001) (41, 3.37590985000133510000e-002) (42, -1.02323181927204130000e-001) (43, 9.50155556201934810000e-002) (44, 1.04014165699481960000e-001) (45, 5.32105028629302980000e-001) (46, -5.09373657405376430000e-002) (47, 9.48215369135141370000e-003) (48, 1.57166436314582820000e-001) (49, -4.85510490834712980000e-002) (50, -1.76230594515800480000e-001) (51, 1.51057481765747070000e-001) (52, -2.40991070866584780000e-001) (53, 1.49480730295181270000e-001) (54, 2.71289832890033720000e-002) (55, -9.84080284833908080000e-002) (56, -2.56103537976741790000e-002) (57, -2.89132714271545410000e-001) (58, 1.60721883177757260000e-001) (59, 5.99861979484558110000e-001) (60, 2.84602697938680650000e-002) (61, -3.21188606321811680000e-002) (62, -5.81593140959739690000e-002) (63, -3.43219214119017120000e-003) (64, -2.16025695204734800000e-001) (65, -2.22416386008262630000e-001) (66, 3.61202538013458250000e-001) (67, 4.57433462142944340000e-001) (68, -3.10092389583587650000e-001) (69, -4.14256267249584200000e-002) (70, 1.82401478290557860000e-001) (71, 6.58387541770935060000e-002) (72, -2.45294615626335140000e-001) (73, -2.88546495139598850000e-002) (74, 6.62233710289001460000e-001) (75, 3.57145547866821290000e-001) (76, -1.35615244507789610000e-001) (77, 2.42358356714248660000e-001) (78, -4.28218320012092590000e-002) (79, 6.86390921473503110000e-002) (80, -1.54768019914627080000e-001) (81, 2.25080266594886780000e-001) (82, 5.47464907169342040000e-001) (83, -1.48009091615676880000e-001) (84, -4.26240295171737670000e-001) (85, 1.61901384592056270000e-001) (86, -1.40137940645217900000e-001) (87, -1.20858944952487950000e-001) (88, 1.05632647871971130000e-001) (89, 5.62985837459564210000e-001) (90, 2.25538030266761780000e-001) (91, -4.69057291746139530000e-001) (92, -5.92016637325286870000e-001) (93, -1.82022497057914730000e-001) (94, -1.93740338087081910000e-001) (95, 2.14729234576225280000e-001) (96, -2.23005533218383790000e-001) (0, 3.53093333542346950000e-002) (1, -6.30258396267890930000e-002) (2, -6.21208436787128450000e-002) (3, -2.21127763390541080000e-001) (4, -8.20169374346733090000e-002) (5, 1.91731611266732220000e-003) (6, -1.57204970717430110000e-001) (7, -3.16759794950485230000e-002) (8, -1.28779457882046700000e-002) (9, -1.84272021055221560000e-001) (10, -3.06835681200027470000e-001) (11, -2.87350118160247800000e-001) (12, -1.36708959937095640000e-001) (13, -2.92928814888000490000e-001) (14, -1.78962320089340210000e-001) (15, -4.84855957329273220000e-002) (16, -8.57252851128578190000e-002) (17, -2.92108841240406040000e-002) (18, -1.95126339793205260000e-001) (19, -5.39173791185021400000e-003) (20, 1.00863099098205570000e-001) (21, -4.79684844613075260000e-002) (22, -2.14855372905731200000e-001) (23, 9.36309918761253360000e-002) (24, -5.50720915198326110000e-002) (25, 5.66093213856220250000e-002) (26, -1.76653623580932620000e-001) (27, 5.66213689744472500000e-002) (28, -6.29496052861213680000e-002) (29, -1.34699761867523190000e-001) (30, -1.56742051243782040000e-001) (31, -1.84900030493736270000e-001) (32, -1.10841140151023860000e-001) (33, 4.52281981706619260000e-002) (34, -5.97419738769531250000e-002) (35, -3.01110967993736270000e-002) (36, -9.41022634506225590000e-002) (37, 5.44663406908512120000e-002) (38, -2.52935677766799930000e-001) (39, -2.39359196275472640000e-002) (40, -5.24554494768381120000e-003) (41, -1.94564871490001680000e-002) (42, 1.79958734661340710000e-002) (43, -4.58009354770183560000e-002) (44, -2.27919369935989380000e-001) (45, -1.20175093412399290000e-001) (46, -6.97715654969215390000e-002) (47, 3.14405038952827450000e-002) (48, -4.50365282595157620000e-002) (49, 7.62573406100273130000e-002) (50, 1.00498095154762270000e-001) (51, -3.13852913677692410000e-002) (52, -5.43076284229755400000e-002) (53, 3.41000147163867950000e-002) (54, 5.14889284968376160000e-002) (55, 4.17606681585311890000e-002) (56, 5.68504109978675840000e-002) (57, -1.86280775815248490000e-002) (58, -3.02893258631229400000e-002) (59, -1.10654167830944060000e-001) (60, -1.09741292893886570000e-001) (61, -1.54886603355407710000e-001) (62, -6.44799098372459410000e-002) (63, -1.17351219058036800000e-001) (64, -1.32448688149452210000e-001) (65, 4.68817800283432010000e-002) (66, -3.64409163594245910000e-002) (67, -1.14851206541061400000e-001) (68, -1.14218465983867650000e-001) (69, -1.25487774610519410000e-001) (70, -1.69518440961837770000e-001) (71, -1.07411168515682220000e-001) (72, -1.19126671925187110000e-002) (73, -6.75347968935966490000e-002) (74, -5.57495467364788060000e-002) (75, -1.34740859270095830000e-001) (76, -1.52640745043754580000e-001) (77, -1.50310650467872620000e-001) (78, -1.60421311855316160000e-001) (79, 7.61255025863647460000e-002) (80, 9.63537171483039860000e-002) (81, -6.37494027614593510000e-002) (82, -1.03762120008468630000e-001) (83, -1.24385207891464230000e-001) (84, -7.85931572318077090000e-002) (85, -6.51011094450950620000e-002) (86, -4.82410937547683720000e-002) (87, 7.00565949082374570000e-002) (88, -6.50261193513870240000e-002) (89, -1.20989032089710240000e-001) (90, -4.31798659265041350000e-002) (91, -7.58890286087989810000e-002) (92, -1.64330556988716130000e-001) (93, -3.18122170865535740000e-002) (94, -6.57815337181091310000e-002) (95, 1.07139669358730320000e-001) (96, -1.74507111310958860000e-001) (0, -9.52501967549324040000e-002) (1, -1.90060734748840330000e-001) (2, -1.60575713962316510000e-002) (3, -2.02347803860902790000e-002) (4, -2.50310394912958150000e-002) (5, -9.18872356414794920000e-002) (6, -2.12328031659126280000e-001) (7, -3.76305021345615390000e-002) (8, -1.07094114646315570000e-002) (9, -1.55248790979385380000e-001) (10, -2.50977367162704470000e-001) (11, -5.53409680724143980000e-002) (12, -1.32860839366912840000e-001) (13, -1.84821665287017820000e-001) (14, -9.62385535240173340000e-002) (15, -3.10589484870433810000e-002) (16, -1.12917177379131320000e-001) (17, -1.72712281346321110000e-001) (18, 4.94868792593479160000e-002) (19, 1.84771925210952760000e-001) (20, 1.30735943093895910000e-002) (21, 7.91920125484466550000e-002) (22, -2.90282696485519410000e-001) (23, -1.86585113406181340000e-001) (24, 1.68022692203521730000e-001) (25, -1.61334902048110960000e-001) (26, -2.95131448656320570000e-002) (27, 9.74625051021575930000e-002) (28, -8.73322784900665280000e-002) (29, 8.02815631031990050000e-002) (30, -2.14133426547050480000e-001) (31, -1.97212234139442440000e-001) (32, -1.97780858725309370000e-002) (33, -3.46886701881885530000e-002) (34, 7.42068560793995860000e-003) (35, -2.63675879687070850000e-002) (36, -6.41609961166977880000e-003) (37, 7.35966265201568600000e-002) (38, -1.31795495748519900000e-001) (39, -1.21357254683971410000e-001) (40, -6.99907913804054260000e-002) (41, -6.15733489394187930000e-002) (42, 2.19710424542427060000e-001) (43, 5.59421395882964130000e-003) (44, -1.01346716284751890000e-001) (45, -3.03686177358031270000e-003) (46, -1.22773637995123860000e-002) (47, -1.21138222515583040000e-001) (48, -8.53711739182472230000e-002) (49, -2.55004554986953740000e-001) (50, 4.84836511313915250000e-002) (51, 4.46012392640113830000e-002) (52, -2.84998595714569090000e-001) (53, 2.04900413751602170000e-001) (54, 4.81303781270980830000e-002) (55, -6.14134371280670170000e-002) (56, 7.32400864362716670000e-002) (57, -2.05484107136726380000e-001) (58, -1.69073753058910370000e-002) (59, -1.29502698779106140000e-001) (60, -2.02379643917083740000e-001) (61, 9.22079384326934810000e-002) (62, 8.56723114848136900000e-002) (63, 4.79567237198352810000e-003) (64, 1.36147206649184230000e-002) (65, -1.93960279226303100000e-001) (66, -4.47143055498600010000e-002) (67, -1.71932503581047060000e-001) (68, -1.45601689815521240000e-001) (69, 9.35134887695312500000e-002) (70, 3.58461551368236540000e-002) (71, 8.96506831049919130000e-002) (72, 2.47107595205307010000e-002) (73, -4.29716520011425020000e-002) (74, 1.11857458949089050000e-001) (75, 1.19664460420608520000e-001) (76, -6.50781467556953430000e-002) (77, 8.77995565533638000000e-002) (78, 7.74519294500350950000e-002) (79, 3.58761884272098540000e-002) (80, -3.24669235851615670000e-004) (81, 1.47481756284832950000e-002) (82, 9.50695499777793880000e-002) (83, -1.25098481774330140000e-001) (84, -1.00431516766548160000e-002) (85, 8.67257490754127500000e-002) (86, -1.83016568422317500000e-001) (87, 8.32680985331535340000e-002) (88, -2.19093542546033860000e-002) (89, 1.12304300069808960000e-001) (90, -2.12629407644271850000e-001) (91, -9.27531197667121890000e-002) (92, -1.50123313069343570000e-001) (93, 9.50072985142469410000e-003) (94, -4.68755029141902920000e-002) (95, 5.90311884880065920000e-002) (96, -2.10683122277259830000e-001) (0, -9.92046073079109190000e-002) (1, -1.45526006817817690000e-001) (2, -1.41086354851722720000e-001) (3, 4.42473813891410830000e-002) (4, 1.81502867490053180000e-002) (5, -5.06987283006310460000e-003) (6, -1.83718085289001460000e-001) (7, 2.65767332166433330000e-002) (8, -1.62076473236083980000e-001) (9, 1.51117935776710510000e-001) (10, 1.46321319043636320000e-002) (11, 2.84197106957435610000e-002) (12, -3.24981324374675750000e-002) (13, -1.36535661295056340000e-002) (14, -1.44517064094543460000e-001) (15, 1.86420783400535580000e-001) (16, 3.41655537486076350000e-002) (17, 1.03588022291660310000e-001) (18, 1.33804365992546080000e-001) (19, -1.22248575091362000000e-001) (20, -2.22001582384109500000e-001) (21, 5.11430427432060240000e-002) (22, 2.85991672426462170000e-002) (23, 1.49907851591706280000e-002) (24, 1.29963964223861690000e-001) (25, -9.68730971217155460000e-002) (26, 1.97260621935129170000e-002) (27, -2.13641807436943050000e-001) (28, -2.77232199907302860000e-001) (29, -7.68764540553092960000e-002) (30, 5.66632077097892760000e-002) (31, -1.07639580965042110000e-001) (32, 6.87364414334297180000e-002) (33, -1.31046161055564880000e-001) (34, -1.21573403477668760000e-001) (35, -2.36681446433067320000e-001) (36, 4.92468615993857380000e-003) (37, 1.52296777814626690000e-002) (38, -6.20877109467983250000e-002) (39, -2.08591315895318980000e-002) (40, -1.60944402217864990000e-001) (41, 5.13050705194473270000e-003) (42, -9.62877050042152400000e-002) (43, -1.42911687493324280000e-001) (44, -4.89119738340377810000e-002) (45, 4.13181856274604800000e-002) (46, 2.29743704199790950000e-001) (47, -2.45239473879337310000e-002) (48, -5.30538856983184810000e-002) (49, -1.44234359264373780000e-001) (50, 1.11107215285301210000e-001) (51, 1.05981290340423580000e-001) (52, 5.30519932508468630000e-002) (53, 3.05456936359405520000e-001) (54, -4.72255833446979520000e-002) (55, -7.87550881505012510000e-002) (56, -9.27869379520416260000e-002) (57, -2.45330199599266050000e-001) (58, -1.09326979145407680000e-002) (59, 9.24416538327932360000e-003) (60, -6.35918527841567990000e-002) (61, -6.31656963378190990000e-003) (62, -7.49998390674591060000e-002) (63, 2.27572880685329440000e-002) (64, -1.93398706614971160000e-002) (65, -3.16086530685424800000e-001) (66, -1.12386628985404970000e-001) (67, -3.47533039748668670000e-002) (68, 5.19785806536674500000e-002) (69, -1.82454213500022890000e-001) (70, -8.92562419176101680000e-002) (71, -3.01983598619699480000e-002) (72, -1.22232578694820400000e-001) (73, -2.77908831834793090000e-001) (74, -3.11849005520343780000e-002) (75, 5.97664825618267060000e-002) (76, -9.53368991613388060000e-002) (77, -2.03246399760246280000e-001) (78, -1.01023405790328980000e-001) (79, -1.67555809020996090000e-002) (80, 7.39450892433524130000e-003) (81, -9.26403552293777470000e-002) (82, 2.56707966327667240000e-001) (83, 8.83413925766944890000e-002) (84, -1.18032053112983700000e-001) (85, -1.93959087133407590000e-001) (86, -8.71124118566513060000e-002) (87, 2.50456854701042180000e-002) (88, -1.75982136279344560000e-002) (89, 5.04952743649482730000e-002) (90, -8.56384169310331340000e-003) (91, -3.44623059034347530000e-001) (92, -2.82622635364532470000e-001) (93, -3.08364659547805790000e-001) (94, -2.64980912208557130000e-001) (95, -3.03370922803878780000e-001) (96, -9.76386368274688720000e-002) (0, -1.00518986582756040000e-001) (1, -8.27142223715782170000e-002) (2, -4.53148856759071350000e-002) (3, 1.89274754375219350000e-002) (4, -4.63265664875507350000e-002) (5, 4.07725051045417790000e-002) (6, -1.16398811340332030000e-001) (7, -1.23374298214912410000e-001) (8, -5.92727251350879670000e-002) (9, -4.65112328529357910000e-002) (10, -7.54445940256118770000e-002) (11, -8.02752003073692320000e-002) (12, -7.91694968938827510000e-002) (13, -2.05259352922439580000e-001) (14, -2.09724992513656620000e-001) (15, -7.55101293325424190000e-002) (16, -2.42370553314685820000e-003) (17, -2.09643051028251650000e-001) (18, -5.20652942359447480000e-002) (19, -6.93368315696716310000e-002) (20, -7.87178874015808110000e-002) (21, -5.22334277629852290000e-002) (22, -1.17457002401351930000e-001) (23, 1.08470339328050610000e-002) (24, -3.89806292951107030000e-002) (25, -8.42080637812614440000e-002) (26, -6.81058913469314580000e-002) (27, -1.01675473153591160000e-001) (28, -1.01331882178783420000e-001) (29, -9.41226780414581300000e-002) (30, -1.91223137080669400000e-002) (31, -1.80457755923271180000e-002) (32, -6.41832500696182250000e-003) (33, -1.15349933505058290000e-001) (34, -8.25676918029785160000e-002) (35, 8.46799742430448530000e-003) (36, 2.71900999359786510000e-003) (37, -4.67816106975078580000e-002) (38, -1.55285209417343140000e-001) (39, -6.47028982639312740000e-002) (40, 5.18977381289005280000e-002) (41, -1.75728872418403630000e-002) (42, -2.07612186670303340000e-001) (43, -2.41303518414497380000e-001) (44, -1.27865955233573910000e-001) (45, -3.74062657356262210000e-002) (46, -6.53039440512657170000e-002) (47, -7.05680698156356810000e-002) (48, -1.24560967087745670000e-001) (49, -1.82693019509315490000e-001) (50, -1.08589544892311100000e-001) (51, 3.58078368008136750000e-002) (52, -1.17631092667579650000e-001) (53, 9.17818546295166020000e-002) (54, 4.09932248294353490000e-002) (55, -3.09683643281459810000e-002) (56, -1.14926062524318700000e-001) (57, -1.03577770292758940000e-001) (58, 2.79123913496732710000e-002) (59, -1.97596829384565350000e-002) (60, -1.26919433474540710000e-001) (61, 1.08856633305549620000e-001) (62, -2.24754571914672850000e-001) (63, -8.04341882467269900000e-002) (64, -1.48692384362220760000e-001) (65, -1.34220480918884280000e-001) (66, 3.23329679667949680000e-002) (67, 4.12336066365242000000e-002) (68, -1.61052733659744260000e-001) (69, -3.23938839137554170000e-002) (70, -4.14308160543441770000e-002) (71, 5.62393590807914730000e-002) (72, -1.70021858066320420000e-002) (73, -8.86905565857887270000e-002) (74, 9.79385152459144590000e-003) (75, -3.95903848111629490000e-002) (76, -1.55742466449737550000e-001) (77, 1.13078709691762920000e-002) (78, -2.00416848063468930000e-001) (79, -3.00786830484867100000e-002) (80, 4.16327379643917080000e-002) (81, -1.15457154810428620000e-001) (82, 5.20155690610408780000e-002) (83, -1.34218260645866390000e-001) (84, -1.58052161335945130000e-001) (85, -7.55079761147499080000e-002) (86, -2.11604014039039610000e-001) (87, -7.20733851194381710000e-002) (88, -3.66898514330387120000e-002) (89, -1.17969498038291930000e-001) (90, -1.67010739445686340000e-001) (91, -2.62760668992996220000e-001) (92, -2.84993261098861690000e-001) (93, -4.76941354572772980000e-002) (94, -1.00271634757518770000e-001) (95, -6.79524317383766170000e-002) (96, -2.98590660095214840000e-001) (0, -7.87701085209846500000e-003) (1, -4.93152678012847900000e-001) (2, -2.60915309190750120000e-001) (3, -2.38867327570915220000e-002) (4, 4.81928810477256770000e-002) (5, 1.23895099386572840000e-002) (6, -1.66935667395591740000e-001) (7, -1.87984123826026920000e-001) (8, -1.35984420776367190000e-001) (9, -2.55695223808288570000e-001) (10, 1.65370017290115360000e-001) (11, 1.65682718157768250000e-001) (12, 1.12726308405399320000e-001) (13, 5.15418797731399540000e-002) (14, -2.83292263746261600000e-001) (15, 6.21930323541164400000e-002) (16, -4.21850681304931640000e-002) (17, 1.59677058458328250000e-001) (18, 4.14922207593917850000e-001) (19, 7.46436370536684990000e-003) (20, -2.01344415545463560000e-001) (21, 2.05559283494949340000e-001) (22, 1.71053722500801090000e-001) (23, -3.47011536359786990000e-002) (24, 2.01512768864631650000e-001) (25, 1.65846705436706540000e-001) (26, 3.24995994567871090000e-001) (27, -6.95238858461380000000e-002) (28, -3.01264733076095580000e-001) (29, -2.00296938419342040000e-002) (30, 1.36180266737937930000e-001) (31, -4.09556955099105830000e-001) (32, -8.18738713860511780000e-002) (33, 2.40371271967887880000e-001) (34, 2.26751089096069340000e-001) (35, -1.65874734520912170000e-001) (36, -2.13940054178237920000e-001) (37, -1.95015016943216320000e-002) (38, 7.72375017404556270000e-002) (39, -3.29240083694458010000e-001) (40, -3.00747305154800420000e-001) (41, 1.35264545679092410000e-002) (42, 3.47483783960342410000e-001) (43, 3.25680784881114960000e-002) (44, -2.13052764534950260000e-001) (45, 9.17524769902229310000e-002) (46, 1.16430938243865970000e-001) (47, -4.01715278625488280000e-001) (48, -2.39185765385627750000e-001) (49, -1.42544746398925780000e-001) (50, 1.71838477253913880000e-001) (51, 2.20495089888572690000e-002) (52, -1.44577398896217350000e-001) (53, 2.65431255102157590000e-001) (54, 2.95296370983123780000e-001) (55, -5.30354678630828860000e-001) (56, -1.75988793373107910000e-001) (57, -3.56743276119232180000e-001) (58, 1.20519675314426420000e-001) (59, -2.18594729900360110000e-001) (60, -2.11099788546562190000e-001) (61, 2.24310696125030520000e-001) (62, 2.44398444890975950000e-001) (63, -1.17171935737133030000e-001) (64, -8.01579270046204330000e-004) (65, -2.49196216464042660000e-001) (66, -1.38424575328826900000e-001) (67, -2.40728989243507390000e-001) (68, -1.57016247510910030000e-001) (69, 2.23162565380334850000e-002) (70, 4.19078469276428220000e-002) (71, -4.22168187797069550000e-002) (72, 1.52973920106887820000e-001) (73, -2.11997985839843750000e-001) (74, -2.24716216325759890000e-001) (75, 8.29789713025093080000e-002) (76, -2.26283371448516850000e-002) (77, -6.02741613984107970000e-002) (78, -3.53682003915309910000e-002) (79, -6.80666640400886540000e-002) (80, -2.42464587092399600000e-001) (81, -1.60377666354179380000e-001) (82, 7.74347558617591860000e-002) (83, -3.99936325848102570000e-002) (84, 2.71085798740386960000e-002) (85, 1.99150979518890380000e-001) (86, -2.25841268897056580000e-001) (87, 7.44840055704116820000e-002) (88, -3.26820582151412960000e-001) (89, -2.25817978382110600000e-001) (90, 1.41644580289721490000e-002) (91, 1.46947145462036130000e-001) (92, -2.95794405974447730000e-003) (93, 1.21124498546123500000e-001) (94, -2.81783521175384520000e-001) (95, -9.46871861815452580000e-002) (96, -2.60929942131042480000e-001) (0, 1.59199893474578860000e-001) (1, 2.53581345081329350000e-001) (2, -8.07407349348068240000e-002) (3, -5.27308136224746700000e-002) (4, -6.57512247562408450000e-002) (5, -6.12400323152542110000e-002) (6, -7.87731334567070010000e-002) (7, 7.80065134167671200000e-002) (8, 3.00906091928482060000e-001) (9, 3.69487376883625980000e-003) (10, -1.36590972542762760000e-001) (11, -1.27448797225952150000e-001) (12, -1.32451161742210390000e-001) (13, -1.92865565419197080000e-001) (14, -4.88754548132419590000e-002) (15, 4.80041950941085820000e-002) (16, -4.18187864124774930000e-002) (17, -1.77080273628234860000e-001) (18, -1.44373506307601930000e-001) (19, -6.96634873747825620000e-002) (20, -1.22999496757984160000e-001) (21, -1.79525688290596010000e-001) (22, -6.06467574834823610000e-003) (23, 1.73453107476234440000e-001) (24, 8.71954113245010380000e-002) (25, -1.36235371232032780000e-001) (26, 3.65654602646827700000e-002) (27, 3.66208925843238830000e-002) (28, -3.04325688630342480000e-002) (29, 1.93985812366008760000e-002) (30, 1.94303169846534730000e-001) (31, -2.04632375389337540000e-002) (32, 1.16516418755054470000e-001) (33, -1.38014972209930420000e-001) (34, -6.49301186203956600000e-002) (35, 1.08312673866748810000e-001) (36, -9.31033045053482060000e-002) (37, 1.33085981011390690000e-001) (38, 1.05583570897579190000e-001) (39, -1.68315991759300230000e-001) (40, 1.44237980246543880000e-001) (41, -8.05265977978706360000e-002) (42, -1.85414001345634460000e-001) (43, -1.19058765470981600000e-001) (44, 2.30765596032142640000e-001) (45, 1.09036453068256380000e-001) (46, -3.59349489212036130000e-001) (47, -1.18516281247138980000e-001) (48, 2.32387352734804150000e-002) (49, -8.31548720598220830000e-002) (50, -1.75681039690971370000e-001) (51, -2.26148031651973720000e-002) (52, 7.18760192394256590000e-002) (53, -4.25837039947509770000e-001) (54, -1.85753181576728820000e-001) (55, -9.57664325833320620000e-002) (56, -3.92536036670207980000e-002) (57, -6.17471523582935330000e-002) (58, -6.22519813477993010000e-002) (59, 1.80255010724067690000e-001) (60, 8.28680992126464840000e-002) (61, -2.52070754766464230000e-001) (62, -6.94876313209533690000e-002) (63, -1.48765116930007930000e-001) (64, -1.61823958158493040000e-001) (65, -4.28227474913001060000e-003) (66, 3.40489983558654790000e-001) (67, 6.86509087681770320000e-002) (68, -3.07630628347396850000e-001) (69, -6.49099498987197880000e-002) (70, -1.92772880196571350000e-001) (71, -4.08881381154060360000e-002) (72, 1.89679451286792760000e-002) (73, -1.06081105768680570000e-001) (74, 2.68613457679748540000e-001) (75, -1.24321617186069490000e-001) (76, -2.38468974828720090000e-001) (77, 1.09301637858152390000e-002) (78, -1.91463083028793330000e-001) (79, -1.83593496680259700000e-001) (80, -5.72878718376159670000e-002) (81, -9.35771986842155460000e-002) (82, -1.45581409335136410000e-001) (83, 5.64255844801664350000e-003) (84, -9.66400727629661560000e-002) (85, -7.32384100556373600000e-002) (86, -3.32272529602050780000e-001) (87, -1.71251371502876280000e-001) (88, -1.17816720157861710000e-002) (89, -6.21095448732376100000e-002) (90, 6.71968385577201840000e-002) (91, 4.21244092285633090000e-003) (92, 9.55126360058784480000e-002) (93, 1.34790942072868350000e-001) (94, 1.34784683585166930000e-001) (95, 4.24089610576629640000e-001) (96, -2.58553683757781980000e-001) (0, 2.19288114458322530000e-002) (1, -3.25363487005233760000e-001) (2, -9.58328694105148320000e-002) (3, 2.84145940095186230000e-002) (4, 3.29875275492668150000e-002) (5, -1.08730465173721310000e-001) (6, -2.47458875179290770000e-001) (7, -1.29070341587066650000e-001) (8, -6.26788809895515440000e-002) (9, -2.26253852248191830000e-001) (10, 5.55483028292655940000e-002) (11, 1.77406087517738340000e-001) (12, 2.34118416905403140000e-001) (13, 1.83250904083251950000e-001) (14, -3.78557771444320680000e-001) (15, -1.99517562985420230000e-001) (16, 3.96239086985588070000e-002) (17, -6.38558566570281980000e-002) (18, 6.26796111464500430000e-002) (19, -2.82992869615554810000e-002) (20, -9.13187190890312190000e-002) (21, 1.82229548692703250000e-001) (22, -7.75883644819259640000e-002) (23, -1.96973547339439390000e-001) (24, -7.27955698966979980000e-002) (25, -2.71031290292739870000e-001) (26, -1.34147673845291140000e-001) (27, 1.85773186385631560000e-002) (28, -1.61879539489746090000e-001) (29, -1.46874338388442990000e-002) (30, -1.44361108541488650000e-002) (31, -8.14539715647697450000e-002) (32, -1.49906560778617860000e-001) (33, -2.34376817941665650000e-001) (34, -8.72137621045112610000e-002) (35, -1.85441091656684880000e-001) (36, -2.15930223464965820000e-001) (37, 2.31022357940673830000e-001) (38, 1.36086553335189820000e-001) (39, -6.87381178140640260000e-002) (40, -1.40502363443374630000e-001) (41, -2.56639629602432250000e-001) (42, 1.00787967443466190000e-001) (43, -1.45709455013275150000e-001) (44, -1.98746487498283390000e-001) (45, 4.42498683929443360000e-001) (46, 4.01933223009109500000e-001) (47, -1.24226883053779600000e-001) (48, -1.85835435986518860000e-001) (49, -2.08015769720077510000e-001) (50, 1.67326971888542180000e-001) (51, 2.36229762434959410000e-001) (52, 1.66556313633918760000e-001) (53, 3.88463675975799560000e-001) (54, -1.41522020101547240000e-001) (55, -1.74847334623336790000e-001) (56, -8.64088758826255800000e-002) (57, -1.78179755806922910000e-001) (58, 5.89024312794208530000e-002) (59, -1.40095025300979610000e-001) (60, -2.09149748086929320000e-001) (61, 2.40302398800849910000e-001) (62, 3.01584720611572270000e-001) (63, -1.14447526633739470000e-001) (64, -1.06731593608856200000e-001) (65, -1.65496274828910830000e-001) (66, 1.44366443157196040000e-001) (67, -2.29068264365196230000e-001) (68, -4.06389802694320680000e-001) (69, 7.55448192358016970000e-002) (70, 3.44643086194992070000e-001) (71, -1.59481957554817200000e-001) (72, 5.89046664535999300000e-002) (73, 4.49440740048885350000e-002) (74, -1.30542386323213580000e-002) (75, -1.01628750562667850000e-001) (76, -3.98212783038616180000e-002) (77, 6.91320896148681640000e-002) (78, 3.13211083412170410000e-001) (79, -2.11426354944705960000e-002) (80, 1.04892030358314510000e-002) (81, 5.77020868659019470000e-002) (82, -9.86187160015106200000e-002) (83, -2.13087707757949830000e-001) (84, -2.65021443367004390000e-001) (85, -3.56215648353099820000e-002) (86, 2.27579757571220400000e-001) (87, -4.87686134874820710000e-002) (88, 8.73045325279235840000e-002) (89, 1.36225327849388120000e-001) (90, -7.75482878088951110000e-002) (91, -1.82128429412841800000e-001) (92, -2.34348818659782410000e-001) (93, -3.15188430249691010000e-002) (94, -6.58144503831863400000e-002) (95, 6.13836459815502170000e-002) (96, -2.59090274572372440000e-001) (0, -3.48624102771282200000e-002) (1, -2.16347604990005490000e-001) (2, 4.93010208010673520000e-002) (3, 5.72086237370967860000e-002) (4, -7.51811563968658450000e-002) (5, 4.67839270830154420000e-001) (6, 7.31672197580337520000e-002) (7, 3.81062999367713930000e-002) (8, -1.21008276939392090000e-001) (9, -6.97560608386993410000e-002) (10, -6.53211772441864010000e-002) (11, -1.06464378535747530000e-001) (12, -5.27665438130497930000e-003) (13, 1.02090485394001010000e-001) (14, 1.91085949540138240000e-001) (15, 1.75465077161788940000e-001) (16, -9.17418226599693300000e-002) (17, 3.25612500309944150000e-002) (18, 9.39985737204551700000e-002) (19, 1.65195956826210020000e-001) (20, 1.05774186551570890000e-001) (21, -3.91925573348999020000e-002) (22, -2.76144742965698240000e-001) (23, 1.07854746282100680000e-001) (24, 1.66319102048873900000e-001) (25, 2.59901553392410280000e-001) (26, -1.52656972408294680000e-001) (27, 4.12568151950836180000e-002) (28, -4.60118465125560760000e-002) (29, -1.62064015865325930000e-001) (30, -5.15345752239227290000e-001) (31, -4.21174049377441410000e-001) (32, 2.77697183191776280000e-002) (33, 1.46465256810188290000e-001) (34, -2.49292328953742980000e-003) (35, -4.21676114201545720000e-002) (36, -5.21155931055545810000e-002) (37, -2.13946551084518430000e-001) (38, -4.52012121677398680000e-001) (39, -3.04024785757064820000e-001) (40, -1.36084482073783870000e-001) (41, 2.95391604304313660000e-002) (42, 1.49929702281951900000e-001) (43, -2.72198021411895750000e-001) (44, -3.31710875034332280000e-002) (45, -3.49655091762542720000e-001) (46, -3.13513278961181640000e-001) (47, -2.23239019513130190000e-001) (48, -3.73062580823898320000e-001) (49, 3.49184847436845300000e-005) (50, 1.63257375359535220000e-001) (51, 2.20961511135101320000e-001) (52, 2.15220004320144650000e-002) (53, 1.11745893955230710000e-001) (54, 2.07669854164123540000e-001) (55, -1.95869326591491700000e-001) (56, -1.45978983491659160000e-002) (57, -1.04650147259235380000e-001) (58, -2.52038359642028810000e-001) (59, -9.70477685332298280000e-002) (60, -1.29507467150688170000e-001) (61, -1.49914264678955080000e-001) (62, -1.28773301839828490000e-001) (63, -3.66172380745410920000e-002) (64, 5.80118261277675630000e-002) (65, -2.60882258415222170000e-001) (66, -1.99053883552551270000e-002) (67, -3.10371696949005130000e-001) (68, -3.10109525918960570000e-001) (69, 1.08306007459759710000e-002) (70, -1.28139629960060120000e-001) (71, -1.69475838541984560000e-001) (72, -1.17804724723100660000e-002) (73, -2.25249782204627990000e-001) (74, -4.13570523262023930000e-001) (75, -1.74190267920494080000e-001) (76, -1.68110832571983340000e-001) (77, -1.01987503468990330000e-001) (78, -1.85902908444404600000e-001) (79, -6.52279853820800780000e-002) (80, -3.44479572959244250000e-003) (81, -1.09467513859272000000e-001) (82, -8.30551162362098690000e-002) (83, 4.85062226653099060000e-002) (84, 1.89918163232505320000e-003) (85, -8.85561034083366390000e-002) (86, -3.00564374774694440000e-002) (87, 1.83696612715721130000e-001) (88, -3.32707554101943970000e-001) (89, -3.67124140262603760000e-001) (90, 1.00608998909592630000e-002) (91, -4.56553623080253600000e-002) (92, 4.74689453840255740000e-002) (93, 1.08512043952941890000e-001) (94, -4.44013960659503940000e-002) (95, 2.65024811029434200000e-001) (96, -1.12614110112190250000e-001) (0, -1.46171882748603820000e-001) (1, -1.17074511945247650000e-001) (2, -3.45633439719676970000e-002) (3, 8.59728232026100160000e-002) (4, -8.62808302044868470000e-002) (5, -1.96185305714607240000e-001) (6, -1.61617428064346310000e-001) (7, -1.32525548338890080000e-001) (8, -1.45247951149940490000e-001) (9, -6.22247382998466490000e-002) (10, -4.23283986747264860000e-002) (11, -4.16984334588050840000e-002) (12, -3.49371246993541720000e-002) (13, -7.01235653832554820000e-003) (14, -2.90642052888870240000e-001) (15, -1.67367562651634220000e-001) (16, -3.62568758428096770000e-002) (17, -8.82104933261871340000e-002) (18, 6.84917122125625610000e-002) (19, -2.83857285976409910000e-002) (20, -9.76136028766632080000e-002) (21, 1.12117119133472440000e-001) (22, -6.31747022271156310000e-002) (23, -8.70078131556510930000e-002) (24, -2.37789303064346310000e-002) (25, -2.42644414305686950000e-001) (26, -6.07465617358684540000e-002) (27, -1.91439136862754820000e-001) (28, -2.16102436184883120000e-001) (29, 5.65262436866760250000e-002) (30, 2.07215696573257450000e-001) (31, -1.00380666553974150000e-001) (32, 4.86709140241146090000e-002) (33, -2.66023278236389160000e-001) (34, -1.30810737609863280000e-001) (35, -1.25071465969085690000e-001) (36, -2.43782177567481990000e-002) (37, -1.79600864648818970000e-001) (38, 9.49977710843086240000e-002) (39, 9.21713039278984070000e-002) (40, 8.87661415617913010000e-004) (41, -1.27188652753829960000e-001) (42, -1.30118265748023990000e-001) (43, -1.45429000258445740000e-001) (44, -9.50876846909523010000e-002) (45, 6.63113817572593690000e-002) (46, 3.19319576025009160000e-001) (47, -1.05331353843212130000e-001) (48, 4.80561442673206330000e-002) (49, -1.21936939656734470000e-001) (50, -1.16106979548931120000e-001) (51, -1.32650554180145260000e-001) (52, -2.16351952403783800000e-002) (53, 1.25085189938545230000e-001) (54, 5.21772094070911410000e-002) (55, 3.86272626928985120000e-003) (56, 3.89122627675533290000e-002) (57, -5.75801730155944820000e-002) (58, 7.31065943837165830000e-002) (59, -8.42508226633071900000e-002) (60, -6.71909004449844360000e-002) (61, 6.83559700846672060000e-002) (62, -1.47924512624740600000e-001) (63, -1.45075604319572450000e-001) (64, -6.43329024314880370000e-002) (65, -1.70912533998489380000e-001) (66, -1.10274292528629300000e-001) (67, 2.97303516417741780000e-002) (68, 1.10523980110883710000e-002) (69, -6.25565601512789730000e-003) (70, -9.14710462093353270000e-002) (71, -1.12489029765129090000e-001) (72, -8.47824513912200930000e-002) (73, -1.66633695363998410000e-001) (74, -1.33360261097550390000e-002) (75, -2.60656494647264480000e-002) (76, -2.40840334445238110000e-002) (77, -7.60522931814193730000e-002) (78, -5.44217340648174290000e-002) (79, -1.32611110806465150000e-001) (80, 1.10410945490002630000e-002) (81, -2.11955398321151730000e-001) (82, 1.80139333009719850000e-001) (83, -1.28219008445739750000e-001) (84, -2.28427812457084660000e-001) (85, -1.56392827630043030000e-002) (86, -1.28811493515968320000e-001) (87, -4.51926961541175840000e-002) (88, -8.24533402919769290000e-002) (89, 4.89083491265773770000e-002) (90, 8.75188112258911130000e-002) (91, -1.85120418667793270000e-001) (92, -1.74727931618690490000e-001) (93, -6.95814415812492370000e-002) (94, -7.41479843854904170000e-002) (95, -1.83048993349075320000e-001) (96, -1.53064832091331480000e-001) (0, -1.22406482696533200000e-002) (1, 7.24656283855438230000e-002) (2, -7.64786750078201290000e-002) (3, -3.71668152511119840000e-002) (4, -1.46247446537017820000e-001) (5, 3.34541462361812590000e-002) (6, -2.16625794768333440000e-001) (7, -4.14796061813831330000e-002) (8, 1.51739241555333140000e-002) (9, -1.31203353404998780000e-001) (10, -2.49918580055236820000e-001) (11, -1.52275830507278440000e-001) (12, -1.00615970790386200000e-001) (13, -2.56083220243453980000e-001) (14, -1.39817982912063600000e-001) (15, -1.20080513879656790000e-002) (16, 6.06265068054199220000e-002) (17, -1.64005607366561890000e-001) (18, -1.60475626587867740000e-001) (19, 7.80657008290290830000e-002) (20, 8.06650668382644650000e-002) (21, -1.33973062038421630000e-001) (22, -1.88804149627685550000e-001) (23, -1.18999645113945010000e-001) (24, 1.84185400605201720000e-001) (25, -1.15616567432880400000e-001) (26, -4.12001945078372960000e-002) (27, 1.05153903365135190000e-001) (28, -3.99420335888862610000e-002) (29, -1.26805126667022710000e-001) (30, -1.85727253556251530000e-001) (31, -1.26805335283279420000e-001) (32, -2.50312071293592450000e-002) (33, -3.49147804081439970000e-002) (34, -2.03645452857017520000e-002) (35, -8.79367962479591370000e-002) (36, -1.33658841252326970000e-001) (37, -7.52921728417277340000e-003) (38, -2.13736090809106830000e-002) (39, -1.36621400713920590000e-001) (40, 1.49240028113126750000e-002) (41, 4.55712787806987760000e-002) (42, -5.13259135186672210000e-002) (43, -1.01561807096004490000e-001) (44, 4.52075665816664700000e-003) (45, -1.33871063590049740000e-001) (46, -1.11932516098022460000e-001) (47, -1.47787928581237790000e-001) (48, 6.34294189512729640000e-003) (49, 3.49239110946655270000e-002) (50, -1.87962517142295840000e-001) (51, -1.03048913180828090000e-001) (52, -4.41304482519626620000e-002) (53, -8.97668898105621340000e-002) (54, -1.40362650156021120000e-001) (55, -1.68391183018684390000e-001) (56, 3.32553833723068240000e-002) (57, -3.28192152082920070000e-002) (58, -2.62415166944265370000e-002) (59, -2.19027940183877940000e-002) (60, -2.18535903841257100000e-002) (61, -6.96330666542053220000e-002) (62, -3.16050231456756590000e-001) (63, 3.08719649910926820000e-002) (64, -1.26115167513489720000e-002) (65, -1.69504567980766300000e-001) (66, -9.47334989905357360000e-002) (67, -7.79304876923561100000e-002) (68, 7.76878744363784790000e-002) (69, -7.01915398240089420000e-002) (70, -2.79060661792755130000e-001) (71, -3.36713343858718870000e-002) (72, 9.90118160843849180000e-002) (73, -1.17845192551612850000e-001) (74, -1.11456476151943210000e-001) (75, 4.97318543493747710000e-002) (76, -3.97074408829212190000e-003) (77, -1.45860746502876280000e-001) (78, -2.56896555423736570000e-001) (79, -1.58722940832376480000e-002) (80, 5.37020107731223110000e-003) (81, -1.76169380545616150000e-001) (82, -6.41096159815788270000e-002) (83, 1.26269906759262080000e-001) (84, -3.41901765204966070000e-003) (85, -3.57909331796690820000e-004) (86, -3.71588438749313350000e-001) (87, -1.79833367466926570000e-001) (88, 1.21801741421222690000e-001) (89, 2.81734811142086980000e-003) (90, -4.17812056839466090000e-002) (91, -3.73428910970687870000e-002) (92, -1.59179233014583590000e-002) (93, 5.00230081379413600000e-002) (94, -1.52712568640708920000e-001) (95, -3.27321104705333710000e-002) (96, -1.25347778201103210000e-001) (0, 7.22723379731178280000e-002) (1, -1.91648080945014950000e-002) (2, 3.53012941777706150000e-002) (3, -9.98311489820480350000e-002) (4, -3.32706421613693240000e-002) (5, 2.87005007266998290000e-002) (6, -1.55515521764755250000e-001) (7, -7.29261264204978940000e-002) (8, -1.30929341539740560000e-002) (9, -1.36855363845825200000e-001) (10, -4.76041510701179500000e-002) (11, -1.37626767158508300000e-001) (12, -1.90981507301330570000e-001) (13, -1.15016475319862370000e-001) (14, -3.72002162039279940000e-002) (15, -1.53687193989753720000e-001) (16, -2.20303442329168320000e-002) (17, -1.09001271426677700000e-001) (18, -1.03507712483406070000e-001) (19, -5.89635744690895080000e-002) (20, -2.75046601891517640000e-002) (21, -1.64991706609725950000e-001) (22, -8.71819555759429930000e-002) (23, -1.16831958293914790000e-001) (24, 1.16637721657752990000e-003) (25, -1.07017487287521360000e-001) (26, -7.13696554303169250000e-002) (27, -9.08464267849922180000e-002) (28, -1.95188954472541810000e-001) (29, -5.86930699646472930000e-002) (30, -1.10082486644387250000e-002) (31, -3.76428887248039250000e-002) (32, -2.53322646021842960000e-002) (33, -8.63768830895423890000e-002) (34, -1.29886299371719360000e-001) (35, -1.28220185637474060000e-001) (36, -5.68091087043285370000e-002) (37, -5.13422228395938870000e-002) (38, -1.71429067850112920000e-001) (39, 7.55110904574394230000e-002) (40, 2.63619013130664830000e-002) (41, -4.73870225250720980000e-002) (42, -1.88815280795097350000e-001) (43, -2.16306954622268680000e-001) (44, 4.45849783718585970000e-002) (45, -8.55213701725006100000e-002) (46, -6.28153011202812190000e-002) (47, 6.98440521955490110000e-002) (48, 6.13877438008785250000e-002) (49, -3.21499258279800420000e-002) (50, -2.26774752140045170000e-001) (51, -3.46694029867649080000e-002) (52, -5.59254549443721770000e-002) (53, -6.70391321182250980000e-002) (54, -1.38976022601127620000e-001) (55, 1.71647779643535610000e-002) (56, -4.41083684563636780000e-002) (57, -6.68811500072479250000e-002) (58, -8.71323868632316590000e-002) (59, 7.50865638256073000000e-002) (60, -1.30535393953323360000e-001) (61, -2.15039387345314030000e-001) (62, -2.09891468286514280000e-001) (63, 4.81836386024951930000e-002) (64, -1.70377979520708320000e-003) (65, -1.18403814733028410000e-001) (66, 4.31286729872226720000e-002) (67, 5.41421286761760710000e-002) (68, -1.41200214624404910000e-001) (69, -1.51441851630806920000e-002) (70, -4.59479875862598420000e-002) (71, 1.60510465502738950000e-002) (72, 2.98891738057136540000e-002) (73, -7.18040019273757930000e-002) (74, 4.74877618253231050000e-002) (75, 1.08648948371410370000e-002) (76, -1.84301510453224180000e-001) (77, -8.08285474777221680000e-002) (78, -2.24106907844543460000e-001) (79, -4.43022847175598140000e-002) (80, 6.00517261773347850000e-003) (81, -7.44787603616714480000e-002) (82, -1.65545597672462460000e-001) (83, 6.06243349611759190000e-002) (84, -4.30545769631862640000e-002) (85, -7.93592259287834170000e-002) (86, -1.25322163105010990000e-001) (87, -5.21111674606800080000e-002) (88, -8.78356248140335080000e-002) (89, -1.30427271127700810000e-001) (90, -6.80438280105590820000e-002) (91, -2.34996780753135680000e-001) (92, -1.73099204897880550000e-001) (93, -2.20876812934875490000e-001) (94, -1.15138128399848940000e-001) (95, -1.43529340624809270000e-001) (96, -2.88445591926574710000e-001) (0, -3.21361003443598750000e-003) (1, -3.60477596521377560000e-001) (2, -1.07721559703350070000e-001) (3, 1.54240923002362250000e-002) (4, 1.61751136183738710000e-001) (5, -1.16776920855045320000e-001) (6, -1.26541227102279660000e-001) (7, -1.34676441550254820000e-001) (8, 4.88955676555633540000e-002) (9, -3.16084444522857670000e-001) (10, -1.26873657107353210000e-001) (11, 2.54185516387224200000e-002) (12, -8.32171179354190830000e-003) (13, -5.23788593709468840000e-002) (14, -2.46411725878715520000e-001) (15, -2.32741847634315490000e-001) (16, 1.10890530049800870000e-001) (17, -2.32172042131423950000e-001) (18, 9.81156751513481140000e-002) (19, 5.21816462278366090000e-002) (20, -5.06448820233345030000e-002) (21, 2.31628790497779850000e-001) (22, -1.97801724076271060000e-001) (23, -6.09565712511539460000e-002) (24, -3.42531464993953700000e-002) (25, -5.65647661685943600000e-001) (26, 2.30441629886627200000e-001) (27, 2.43213117122650150000e-001) (28, 9.54801365733146670000e-002) (29, 1.69640854001045230000e-001) (30, 1.72217518091201780000e-001) (31, 8.11765808612108230000e-003) (32, -6.11483454704284670000e-002) (33, -4.20039504766464230000e-001) (34, 1.39373512938618660000e-002) (35, 1.86866417527198790000e-001) (36, -1.03048257529735570000e-001) (37, 1.98595002293586730000e-001) (38, 2.70340204238891600000e-001) (39, -1.65345981717109680000e-001) (40, -1.31432367488741870000e-002) (41, -4.56694781780242920000e-001) (42, 2.98900336027145390000e-001) (43, 3.43844503164291380000e-001) (44, 1.88691522926092150000e-002) (45, 3.76704066991806030000e-001) (46, 2.39378765225410460000e-001) (47, -8.10130089521408080000e-002) (48, 1.07380859553813930000e-001) (49, -3.24556171894073490000e-001) (50, -7.61892925947904590000e-003) (51, -4.40650656819343570000e-002) (52, -1.50266602635383610000e-001) (53, 1.51870042085647580000e-001) (54, 4.87018786370754240000e-002) (55, -1.99139013886451720000e-001) (56, 3.96099314093589780000e-002) (57, -3.71112287044525150000e-001) (58, 2.14636579155921940000e-001) (59, -2.69007176160812380000e-001) (60, -3.72033685445785520000e-001) (61, 2.24865719676017760000e-001) (62, 3.90916824340820310000e-001) (63, -2.04171866178512570000e-001) (64, 2.18425765633583070000e-001) (65, -1.96766734123229980000e-001) (66, 1.80766314268112180000e-001) (67, -2.98596918582916260000e-001) (68, -2.06054419279098510000e-001) (69, 1.74064021557569500000e-002) (70, 4.86257165670394900000e-001) (71, -6.04225806891918180000e-002) (72, -1.41098931431770320000e-001) (73, -1.64177954196929930000e-001) (74, -6.62013962864875790000e-002) (75, -6.67100995779037480000e-002) (76, 2.01892226934432980000e-001) (77, 2.68513232469558720000e-001) (78, 5.35542309284210210000e-001) (79, -3.40389572083950040000e-002) (80, -1.03453606367111210000e-001) (81, -1.52145087718963620000e-001) (82, 7.62868598103523250000e-002) (83, -7.51260891556739810000e-002) (84, -9.40654613077640530000e-003) (85, 6.78290799260139470000e-002) (86, 3.03986251354217530000e-001) (87, 7.91185572743415830000e-002) (88, -1.37872770428657530000e-001) (89, 5.43453451246023180000e-003) (90, -1.52438849210739140000e-001) (91, -3.56093272566795350000e-002) (92, 8.22379067540168760000e-002) (93, 9.48035046458244320000e-002) (94, -1.42417162656784060000e-001) (95, 9.79158505797386170000e-002) (96, -1.88998669385910030000e-001) (0, -4.68278629705309870000e-003) (1, -1.22796587646007540000e-001) (2, 3.40399853885173800000e-002) (3, -5.25433905422687530000e-002) (4, -1.97911664843559270000e-001) (5, 6.27813786268234250000e-002) (6, -3.23040932416915890000e-002) (7, 3.04763019084930420000e-002) (8, -8.90530496835708620000e-002) (9, -4.61035817861557010000e-002) (10, -1.26672565937042240000e-001) (11, -1.15498207509517670000e-001) (12, -2.09906056523323060000e-001) (13, -1.43916964530944820000e-001) (14, -2.50990837812423710000e-001) (15, -2.14214622974395750000e-001) (16, -1.36788822710514070000e-002) (17, -7.03637301921844480000e-002) (18, 1.25002712011337280000e-002) (19, 2.23591513931751250000e-002) (20, 1.86761468648910520000e-002) (21, -7.14352121576666830000e-003) (22, -1.05482578277587890000e-001) (23, -8.38358923792839050000e-002) (24, -2.53633242100477220000e-002) (25, -1.21936216950416560000e-001) (26, 1.27376481890678410000e-001) (27, 9.89687740802764890000e-002) (28, -1.85458898544311520000e-001) (29, -4.69620972871780400000e-002) (30, -1.26895561814308170000e-001) (31, 8.31079296767711640000e-003) (32, 5.88609278202056880000e-002) (33, -6.52212873101234440000e-002) (34, 1.19372852146625520000e-001) (35, -1.59550100564956670000e-001) (36, -1.17189452052116390000e-001) (37, 6.73284679651260380000e-002) (38, -1.18015110492706300000e-001) (39, -4.52585145831108090000e-002) (40, -1.06574460864067080000e-001) (41, -3.89114506542682650000e-002) (42, -5.90160749852657320000e-002) (43, -1.60800382494926450000e-001) (44, -9.90547239780426030000e-002) (45, 8.46220478415489200000e-002) (46, -9.26477685570716860000e-002) (47, 6.28416091203689580000e-002) (48, -1.28749990835785870000e-002) (49, -1.04029029607772830000e-001) (50, -4.71308752894401550000e-002) (51, -6.89454823732376100000e-002) (52, -2.32398167252540590000e-001) (53, 3.74640673398971560000e-002) (54, -4.98307533562183380000e-002) (55, 3.39011326432228090000e-002) (56, -7.61672705411911010000e-002) (57, -2.87508312612771990000e-002) (58, -1.30338156595826150000e-002) (59, -1.01733513176441190000e-001) (60, -1.19997069239616390000e-001) (61, 4.00918498635292050000e-002) (62, -1.77719026803970340000e-001) (63, 5.85422897711396220000e-003) (64, -1.57697468996047970000e-001) (65, -1.32413893938064580000e-001) (66, 