FANN_FLO_2.1
num_layers=3
learning_rate=0.700000
connection_rate=1.000000
network_type=0
learning_momentum=0.400000
training_algorithm=0
train_error_function=1
train_stop_function=0
cascade_output_change_fraction=0.010000
quickprop_decay=-0.000100
quickprop_mu=1.750000
rprop_increase_factor=1.200000
rprop_decrease_factor=0.500000
rprop_delta_min=0.000000
rprop_delta_max=50.000000
rprop_delta_zero=0.100000
cascade_output_stagnation_epochs=12
cascade_candidate_change_fraction=0.010000
cascade_candidate_stagnation_epochs=12
cascade_max_out_epochs=150
cascade_min_out_epochs=50
cascade_max_cand_epochs=150
cascade_min_cand_epochs=50
cascade_num_candidate_groups=2
bit_fail_limit=3.49999994039535520000e-001
cascade_candidate_limit=1.00000000000000000000e+003
cascade_weight_multiplier=4.00000005960464480000e-001
cascade_activation_functions_count=10
cascade_activation_functions=3 5 7 8 10 11 14 15 16 17 
cascade_activation_steepnesses_count=4
cascade_activation_steepnesses=2.50000000000000000000e-001 5.00000000000000000000e-001 7.50000000000000000000e-001 1.00000000000000000000e+000 
layer_sizes=97 51 37 
scale_included=0
neurons (num_inputs, activation_function, activation_steepness)=(0, 0, 0.00000000000000000000e+000) (0, 0, 0.00000000000000000000e+000) (0, 0, 0.00000000000000000000e+000) (0, 0, 0.00000000000000000000e+000) (0, 0, 0.00000000000000000000e+000) (0, 0, 0.00000000000000000000e+000) (0, 0, 0.00000000000000000000e+000) (0, 0, 0.00000000000000000000e+000) (0, 0, 0.00000000000000000000e+000) (0, 0, 0.00000000000000000000e+000) (0, 0, 0.00000000000000000000e+000) (0, 0, 0.00000000000000000000e+000) (0, 0, 0.00000000000000000000e+000) (0, 0, 0.00000000000000000000e+000) (0, 0, 0.00000000000000000000e+000) (0, 0, 0.00000000000000000000e+000) (0, 0, 0.00000000000000000000e+000) (0, 0, 0.00000000000000000000e+000) (0, 0, 0.00000000000000000000e+000) (0, 0, 0.00000000000000000000e+000) (0, 0, 0.00000000000000000000e+000) (0, 0, 0.00000000000000000000e+000) (0, 0, 0.00000000000000000000e+000) (0, 0, 0.00000000000000000000e+000) (0, 0, 0.00000000000000000000e+000) (0, 0, 0.00000000000000000000e+000) (0, 0, 0.00000000000000000000e+000) (0, 0, 0.00000000000000000000e+000) (0, 0, 0.00000000000000000000e+000) (0, 0, 0.00000000000000000000e+000) (0, 0, 0.00000000000000000000e+000) (0, 0, 0.00000000000000000000e+000) (0, 0, 0.00000000000000000000e+000) (0, 0, 0.00000000000000000000e+000) (0, 0, 0.00000000000000000000e+000) (0, 0, 0.00000000000000000000e+000) (0, 0, 0.00000000000000000000e+000) (0, 0, 0.00000000000000000000e+000) (0, 0, 0.00000000000000000000e+000) (0, 0, 0.00000000000000000000e+000) (0, 0, 0.00000000000000000000e+000) (0, 0, 0.00000000000000000000e+000) (0, 0, 0.00000000000000000000e+000) (0, 0, 0.00000000000000000000e+000) (0, 0, 0.00000000000000000000e+000) (0, 0, 0.00000000000000000000e+000) (0, 0, 0.00000000000000000000e+000) (0, 0, 0.00000000000000000000e+000) (0, 0, 0.00000000000000000000e+000) (0, 0, 0.00000000000000000000e+000) (0, 0, 0.00000000000000000000e+000) (0, 0, 0.00000000000000000000e+000) (0, 0, 0.00000000000000000000e+000) (0, 0, 0.00000000000000000000e+000) (0, 0, 0.00000000000000000000e+000) (0, 0, 0.00000000000000000000e+000) (0, 0, 0.00000000000000000000e+000) (0, 0, 0.00000000000000000000e+000) (0, 0, 0.00000000000000000000e+000) (0, 0, 0.00000000000000000000e+000) (0, 0, 0.00000000000000000000e+000) (0, 0, 0.00000000000000000000e+000) (0, 0, 0.00000000000000000000e+000) (0, 0, 0.00000000000000000000e+000) (0, 0, 0.00000000000000000000e+000) (0, 0, 0.00000000000000000000e+000) (0, 0, 0.00000000000000000000e+000) (0, 0, 0.00000000000000000000e+000) (0, 0, 0.00000000000000000000e+000) (0, 0, 0.00000000000000000000e+000) (0, 0, 0.00000000000000000000e+000) (0, 0, 0.00000000000000000000e+000) (0, 0, 0.00000000000000000000e+000) (0, 0, 0.00000000000000000000e+000) (0, 0, 0.00000000000000000000e+000) (0, 0, 0.00000000000000000000e+000) (0, 0, 0.00000000000000000000e+000) (0, 0, 0.00000000000000000000e+000) (0, 0, 0.00000000000000000000e+000) (0, 0, 0.00000000000000000000e+000) (0, 0, 0.00000000000000000000e+000) (0, 0, 0.00000000000000000000e+000) (0, 0, 0.00000000000000000000e+000) (0, 0, 0.00000000000000000000e+000) (0, 0, 0.00000000000000000000e+000) (0, 0, 0.00000000000000000000e+000) (0, 0, 0.00000000000000000000e+000) (0, 0, 0.00000000000000000000e+000) (0, 0, 0.00000000000000000000e+000) (0, 0, 0.00000000000000000000e+000) (0, 0, 0.00000000000000000000e+000) (0, 0, 0.00000000000000000000e+000) (0, 0, 0.00000000000000000000e+000) (0, 0, 0.00000000000000000000e+000) (0, 0, 0.00000000000000000000e+000) (0, 0, 0.00000000000000000000e+000) (0, 0, 0.00000000000000000000e+000) (97, 4, 5.00000000000000000000e-001) (97, 4, 5.00000000000000000000e-001) (97, 4, 5.00000000000000000000e-001) (97, 4, 5.00000000000000000000e-001) (97, 4, 5.00000000000000000000e-001) (97, 4, 5.00000000000000000000e-001) (97, 4, 5.00000000000000000000e-001) (97, 4, 5.00000000000000000000e-001) (97, 4, 5.00000000000000000000e-001) (97, 4, 5.00000000000000000000e-001) (97, 4, 5.00000000000000000000e-001) (97, 4, 5.00000000000000000000e-001) (97, 4, 5.00000000000000000000e-001) (97, 4, 5.00000000000000000000e-001) (97, 4, 5.00000000000000000000e-001) (97, 4, 5.00000000000000000000e-001) (97, 4, 5.00000000000000000000e-001) (97, 4, 5.00000000000000000000e-001) (97, 4, 5.00000000000000000000e-001) (97, 4, 5.00000000000000000000e-001) (97, 4, 5.00000000000000000000e-001) (97, 4, 5.00000000000000000000e-001) (97, 4, 5.00000000000000000000e-001) (97, 4, 5.00000000000000000000e-001) (97, 4, 5.00000000000000000000e-001) (97, 4, 5.00000000000000000000e-001) (97, 4, 5.00000000000000000000e-001) (97, 4, 5.00000000000000000000e-001) (97, 4, 5.00000000000000000000e-001) (97, 4, 5.00000000000000000000e-001) (97, 4, 5.00000000000000000000e-001) (97, 4, 5.00000000000000000000e-001) (97, 4, 5.00000000000000000000e-001) (97, 4, 5.00000000000000000000e-001) (97, 4, 5.00000000000000000000e-001) (97, 4, 5.00000000000000000000e-001) (97, 4, 5.00000000000000000000e-001) (97, 4, 5.00000000000000000000e-001) (97, 4, 5.00000000000000000000e-001) (97, 4, 5.00000000000000000000e-001) (97, 4, 5.00000000000000000000e-001) (97, 4, 5.00000000000000000000e-001) (97, 4, 5.00000000000000000000e-001) (97, 4, 5.00000000000000000000e-001) (97, 4, 5.00000000000000000000e-001) (97, 4, 5.00000000000000000000e-001) (97, 4, 5.00000000000000000000e-001) (97, 4, 5.00000000000000000000e-001) (97, 4, 5.00000000000000000000e-001) (97, 4, 5.00000000000000000000e-001) (0, 0, 0.00000000000000000000e+000) (51, 4, 5.00000000000000000000e-001) (51, 4, 5.00000000000000000000e-001) (51, 4, 5.00000000000000000000e-001) (51, 4, 5.00000000000000000000e-001) (51, 4, 5.00000000000000000000e-001) (51, 4, 5.00000000000000000000e-001) (51, 4, 5.00000000000000000000e-001) (51, 4, 5.00000000000000000000e-001) (51, 4, 5.00000000000000000000e-001) (51, 4, 5.00000000000000000000e-001) (51, 4, 5.00000000000000000000e-001) (51, 4, 5.00000000000000000000e-001) (51, 4, 5.00000000000000000000e-001) (51, 4, 5.00000000000000000000e-001) (51, 4, 5.00000000000000000000e-001) (51, 4, 5.00000000000000000000e-001) (51, 4, 5.00000000000000000000e-001) (51, 4, 5.00000000000000000000e-001) (51, 4, 5.00000000000000000000e-001) (51, 4, 5.00000000000000000000e-001) (51, 4, 5.00000000000000000000e-001) (51, 4, 5.00000000000000000000e-001) (51, 4, 5.00000000000000000000e-001) (51, 4, 5.00000000000000000000e-001) (51, 4, 5.00000000000000000000e-001) (51, 4, 5.00000000000000000000e-001) (51, 4, 5.00000000000000000000e-001) (51, 4, 5.00000000000000000000e-001) (51, 4, 5.00000000000000000000e-001) (51, 4, 5.00000000000000000000e-001) (51, 4, 5.00000000000000000000e-001) (51, 4, 5.00000000000000000000e-001) (51, 4, 5.00000000000000000000e-001) (51, 4, 5.00000000000000000000e-001) (51, 4, 5.00000000000000000000e-001) (51, 4, 5.00000000000000000000e-001) (0, 0, 0.00000000000000000000e+000) 
connections (connected_to_neuron, weight)=(0, 1.24293081462383270000e-001) (1, -1.82878822088241580000e-001) (2, -2.69732624292373660000e-001) (3, 4.87805813550949100000e-001) (4, -2.29605630040168760000e-001) (5, -5.49727022647857670000e-001) (6, 1.23754560947418210000e-001) (7, -1.16728320717811580000e-001) (8, -3.05280566215515140000e-001) (9, 7.38047584891319270000e-002) (10, -2.63134330511093140000e-001) (11, -1.16894401609897610000e-001) (12, -5.86898148059844970000e-001) (13, -6.99355304241180420000e-002) (14, 4.55224923789501190000e-002) (15, -4.02188338339328770000e-002) (16, -1.91654503345489500000e-001) (17, -9.75730270147323610000e-002) (18, 1.12109139561653140000e-001) (19, -1.21084511280059810000e-001) (20, -5.11690437793731690000e-001) (21, 9.76701438426971440000e-001) (22, 3.19608002901077270000e-001) (23, -2.16600507497787480000e-001) (24, 5.59513449668884280000e-001) (25, 1.70502096414566040000e-001) (26, -2.68475655466318130000e-002) (27, 9.98383760452270510000e-003) (28, -1.68382987380027770000e-001) (29, -1.25338613986968990000e-001) (30, 4.09595936536788940000e-001) (31, 8.85078385472297670000e-002) (32, 1.69027134776115420000e-001) (33, 1.44859164953231810000e-001) (34, 1.01376973092556000000e-001) (35, 2.10221976041793820000e-001) (36, 2.09419697523117070000e-001) (37, -7.00083673000335690000e-001) (38, 2.00273320078849790000e-001) (39, 1.60484477877616880000e-001) (40, 1.69335097074508670000e-001) (41, 3.69760096073150630000e-001) (42, 2.44060292840003970000e-001) (43, 6.25818252563476560000e-001) (44, -1.21092237532138820000e-001) (45, -6.63328111171722410000e-001) (46, 5.34571468830108640000e-001) (47, 6.32772371172904970000e-002) (48, 2.77097284793853760000e-001) (49, 9.59570348262786870000e-001) (50, 6.42775356769561770000e-001) (51, -2.69842803478240970000e-001) (52, -4.78574216365814210000e-001) (53, -6.61789894104003910000e-001) (54, 5.93030273914337160000e-001) (55, -1.50749847292900090000e-001) (56, 5.99082887172698970000e-001) (57, 6.80418550968170170000e-001) (58, 6.52861177921295170000e-001) (59, -9.28756520152091980000e-002) (60, -3.89289051294326780000e-001) (61, -9.96044993400573730000e-001) (62, 1.92886218428611760000e-001) (63, -2.42625102400779720000e-001) (64, 9.39690589904785160000e-001) (65, 7.21851229667663570000e-001) (66, 3.95292462781071660000e-003) (67, 3.24714295566082000000e-002) (68, 6.09864830970764160000e-001) (69, -6.11887454986572270000e-001) (70, 3.66559326648712160000e-001) (71, -1.83757767081260680000e-001) (72, 1.18022966384887700000e+000) (73, 4.13321554660797120000e-001) (74, -1.88480883836746220000e-001) (75, -2.93399095535278320000e-001) (76, -1.42334625124931340000e-002) (77, -1.00172138214111330000e+000) (78, -2.03202992677688600000e-001) (79, -1.88381984829902650000e-001) (80, -8.93941372632980350000e-002) (81, 1.79415696766227480000e-003) (82, 5.27246631681919100000e-002) (83, 8.04797708988189700000e-002) (84, -2.72726237773895260000e-001) (85, -5.84159977734088900000e-003) (86, -4.09247159957885740000e-001) (87, -2.38992914557456970000e-001) (88, -3.04184079170227050000e-001) (89, 7.95403495430946350000e-002) (90, -4.68018054962158200000e-001) (91, -5.52486479282379150000e-001) (92, -5.94058692455291750000e-001) (93, -4.13094401359558110000e-001) (94, -7.83625960350036620000e-001) (95, -6.68685257434844970000e-001) (96, -3.69548797607421880000e-001) (0, -1.74322679638862610000e-001) (1, 2.00052093714475630000e-002) (2, -1.47673889994621280000e-001) (3, -3.28600853681564330000e-001) (4, -5.34430742263793950000e-001) (5, -1.72012254595756530000e-001) (6, 4.16495531797409060000e-001) (7, 1.85117989778518680000e-001) (8, -1.54638648033142090000e-001) (9, -1.83540150523185730000e-001) (10, -3.81843209266662600000e-001) (11, -7.41816639900207520000e-001) (12, -8.33665549755096440000e-001) (13, -1.88604772090911870000e-001) (14, -3.89818623661994930000e-002) (15, 3.82760226726531980000e-001) (16, 9.99170616269111630000e-002) (17, -4.72775459289550780000e-001) (18, -3.87071818113327030000e-001) (19, -2.24680870771408080000e-001) (20, 1.32926940917968750000e-001) (21, 2.97795891761779790000e-001) (22, -9.99302864074707030000e-002) (23, 2.24876664578914640000e-002) (24, 2.01139878481626510000e-002) (25, -3.86799901723861690000e-001) (26, -5.64781390130519870000e-002) (27, 5.93001060187816620000e-002) (28, 1.15571960806846620000e-001) (29, -2.46195092797279360000e-001) (30, -1.20407104492187500000e-001) (31, 1.94751992821693420000e-001) (32, -4.15223091840744020000e-003) (33, -3.09280604124069210000e-001) (34, 1.06785155832767490000e-001) (35, 2.76901215314865110000e-001) (36, 2.74566449224948880000e-002) (37, -4.98602658510208130000e-001) (38, -1.73266425728797910000e-001) (39, 8.39623957872390750000e-002) (40, 2.51456558704376220000e-001) (41, -3.11941355466842650000e-001) (42, -1.98585331439971920000e-001) (43, 1.24985814094543460000e-001) (44, 1.56542092561721800000e-001) (45, -1.86637356877326970000e-001) (46, 3.38186323642730710000e-002) (47, 1.27607420086860660000e-001) (48, 2.19136267900466920000e-001) (49, 3.22240263223648070000e-001) (50, 1.01907923817634580000e-001) (51, -4.46916967630386350000e-001) (52, -2.40788504481315610000e-001) (53, -2.65630483627319340000e-001) (54, 1.26925304532051090000e-001) (55, 9.36200171709060670000e-002) (56, 5.72150833904743190000e-002) (57, 5.38158833980560300000e-001) (58, -6.87772035598754880000e-002) (59, -5.34420728683471680000e-001) (60, -7.87974670529365540000e-002) (61, -1.98979869484901430000e-001) (62, -1.43033191561698910000e-002) (63, 2.08115158602595330000e-003) (64, 4.61950272321701050000e-001) (65, 5.43376624584198000000e-001) (66, -8.18514637649059300000e-003) (67, -2.52992138266563420000e-002) (68, 2.03543245792388920000e-001) (69, 1.75927430391311650000e-001) (70, 2.65199214220047000000e-001) (71, 7.80856460332870480000e-002) (72, 3.49791079759597780000e-001) (73, 3.21179777383804320000e-001) (74, -3.21146696805953980000e-001) (75, -3.94690066576004030000e-001) (76, -2.07802832126617430000e-001) (77, -1.47782891988754270000e-001) (78, 9.58730205893516540000e-002) (79, -4.47383895516395570000e-002) (80, -1.37728080153465270000e-001) (81, 6.30412809550762180000e-003) (82, -1.65823042392730710000e-001) (83, -1.99118494987487790000e-001) (84, 2.69048754125833510000e-002) (85, -7.88420885801315310000e-002) (86, -2.49088779091835020000e-002) (87, -3.71676981449127200000e-002) (88, -1.47764876484870910000e-001) (89, -2.21214100718498230000e-001) (90, -1.23056508600711820000e-001) (91, 1.40835613012313840000e-001) (92, 1.33463457226753230000e-001) (93, 9.07140001654624940000e-002) (94, -2.12687999010086060000e-001) (95, -1.94981113076210020000e-001) (96, -1.45716130733489990000e-001) (0, 1.00792363286018370000e-001) (1, -4.35362458229064940000e-001) (2, -1.81117326021194460000e-001) (3, 3.78232598304748540000e-001) (4, 1.19189165532588960000e-001) (5, 2.27092057466506960000e-002) (6, 2.98609230667352680000e-002) (7, -5.29262423515319820000e-001) (8, -3.31556409597396850000e-001) (9, -5.40509641170501710000e-001) (10, 2.11797967553138730000e-001) (11, 5.93206763267517090000e-001) (12, 9.30626392364501950000e-002) (13, 5.88290572166442870000e-001) (14, 5.22143840789794920000e-001) (15, -1.43765166401863100000e-001) (16, -2.58403390645980830000e-001) (17, -5.60523942112922670000e-002) (18, 3.72171163558959960000e-001) (19, 1.87354236841201780000e-001) (20, -5.27643084526062010000e-001) (21, 6.20549321174621580000e-001) (22, 5.60969233512878420000e-001) (23, 8.48898217082023620000e-002) (24, 2.28407338261604310000e-001) (25, -1.36747322976589200000e-002) (26, 1.32703874260187150000e-002) (27, 2.56040375679731370000e-002) (28, -4.20339584350585940000e-001) (29, -1.36611938476562500000e-001) (30, 2.78113055974245070000e-002) (31, 4.75572854280471800000e-001) (32, -1.38903129845857620000e-003) (33, -3.06479092687368390000e-002) (34, 1.13923110067844390000e-001) (35, 3.37008595466613770000e-001) (36, -1.47728146985173230000e-002) (37, -7.23318397998809810000e-001) (38, 3.99766787886619570000e-002) (39, 6.24939918518066410000e-001) (40, -3.96128892898559570000e-002) (41, 5.75429320335388180000e-001) (42, -2.73278713226318360000e-001) (43, -1.85875892639160160000e-001) (44, -7.94158697128295900000e-001) (45, -1.32238173484802250000e+000) (46, 5.43092072010040280000e-001) (47, 6.25787675380706790000e-001) (48, 2.23745554685592650000e-001) (49, 1.12095940113067630000e+000) (50, 3.04798960685729980000e-001) (51, -6.71493828296661380000e-001) (52, -8.32931220531463620000e-001) (53, -9.86623823642730710000e-001) (54, 1.30938842892646790000e-001) (55, 4.93211410939693450000e-002) (56, 1.11837267875671390000e-001) (57, 3.82577508687973020000e-001) (58, 3.56326639652252200000e-001) (59, -1.72272816300392150000e-001) (60, 5.66741883754730220000e-001) (61, -3.44006478786468510000e-001) (62, -5.47847032546997070000e-001) (63, -1.44505277276039120000e-001) (64, 3.49585682153701780000e-001) (65, 4.97072041034698490000e-001) (66, 2.59648829698562620000e-001) (67, 6.96680396795272830000e-002) (68, 6.53836131095886230000e-001) (69, 1.75146684050560000000e-001) (70, -1.73824504017829900000e-001) (71, -2.48886004090309140000e-001) (72, 2.74592369794845580000e-001) (73, 5.26803284883499150000e-002) (74, 3.17107290029525760000e-001) (75, -1.45175337791442870000e-001) (76, -1.63739845156669620000e-001) (77, -1.82447209954261780000e-001) (78, -4.72265519201755520000e-002) (79, -2.29766666889190670000e-001) (80, -2.26782083511352540000e-001) (81, -1.57220363616943360000e-001) (82, 9.31790471076965330000e-002) (83, 2.91768789291381840000e-001) (84, -2.50905662775039670000e-001) (85, -3.97595800459384920000e-002) (86, 9.66653749346733090000e-002) (87, -2.54384547472000120000e-001) (88, -1.82628288865089420000e-001) (89, -7.59462714195251460000e-002) (90, -9.64134871959686280000e-001) (91, -8.04386496543884280000e-001) (92, -1.00823354721069340000e+000) (93, -4.26598131656646730000e-001) (94, -3.11335384845733640000e-001) (95, -3.07381212711334230000e-001) (96, -2.63202309608459470000e-001) (0, -1.94648891687393190000e-001) (1, -2.51720011234283450000e-001) (2, 1.13795476499944930000e-003) (3, -2.26001843810081480000e-001) (4, 1.13827772438526150000e-001) (5, 1.50973886251449580000e-001) (6, -8.52950811386108400000e-002) (7, -3.48088443279266360000e-001) (8, 4.59611043334007260000e-002) (9, -4.67872232198715210000e-001) (10, -1.31412193179130550000e-001) (11, 1.74992591142654420000e-001) (12, 2.77114689350128170000e-001) (13, 1.63034200668334960000e-001) (14, -3.74566465616226200000e-001) (15, -4.18492704629898070000e-001) (16, -1.15986496210098270000e-001) (17, -2.73834079504013060000e-001) (18, -5.38437813520431520000e-002) (19, 3.01486432552337650000e-001) (20, -8.28092843294143680000e-002) (21, 4.13578480482101440000e-001) (22, 2.98967435956001280000e-002) (23, -1.60522967576980590000e-001) (24, 4.00451198220252990000e-002) (25, -7.10006654262542720000e-002) (26, -1.41469404101371770000e-001) (27, 4.51348647475242610000e-002) (28, -5.19886538386344910000e-002) (29, 3.61238509416580200000e-001) (30, 3.70157808065414430000e-002) (31, 1.85884296894073490000e-001) (32, 2.12322518229484560000e-001) (33, 1.19075097143650050000e-001) (34, -2.96153843402862550000e-001) (35, 5.68956993520259860000e-002) (36, 5.47310523688793180000e-002) (37, 3.71440589427948000000e-001) (38, -6.44358545541763310000e-002) (39, -4.38167862594127660000e-002) (40, 2.39204540848731990000e-001) (41, 2.98679769039154050000e-001) (42, -2.64546006917953490000e-001) (43, -1.16702713072299960000e-001) (44, 5.11199515312910080000e-003) (45, 1.21683381497859950000e-001) (46, 6.39304816722869870000e-002) (47, 7.45052918791770940000e-002) (48, 1.58345565199851990000e-001) (49, 2.96608805656433110000e-001) (50, -2.29396209120750430000e-001) (51, 1.88592463731765750000e-001) (52, -1.83922648429870610000e-001) (53, 1.17495521903038020000e-001) (54, -1.30059029906988140000e-002) (55, 1.93997696042060850000e-001) (56, 6.42977133393287660000e-002) (57, -1.38080954551696780000e-001) (58, 4.95284229516983030000e-001) (59, 5.73781311511993410000e-001) (60, 1.67832657694816590000e-001) (61, 2.92054057121276860000e-001) (62, 1.61310493946075440000e-001) (63, -1.15769971162080760000e-002) (64, -6.78726658225059510000e-002) (65, -1.36586382985115050000e-001) (66, 1.49060323834419250000e-001) (67, 2.24149487912654880000e-002) (68, -7.16662406921386720000e-002) (69, -1.23053528368473050000e-001) (70, 1.53899669647216800000e-001) (71, 1.23768366873264310000e-001) (72, -2.02221423387527470000e-001) (73, -1.39935076236724850000e-001) (74, 6.60686552524566650000e-001) (75, 4.50756877660751340000e-001) (76, 1.04075007140636440000e-001) (77, -1.40851885080337520000e-001) (78, -1.31601974368095400000e-001) (79, 6.50308877229690550000e-002) (80, -1.70254498720169070000e-001) (81, -3.37002545595169070000e-001) (82, 9.09519791603088380000e-001) (83, 2.17976048588752750000e-002) (84, -4.28369402885437010000e-001) (85, -1.41750663518905640000e-001) (86, -2.75146692991256710000e-001) (87, 2.03290686011314390000e-001) (88, -2.31033027172088620000e-001) (89, 3.22370141744613650000e-001) (90, 1.72813013195991520000e-001) (91, -8.43483567237854000000e-001) (92, -9.75100159645080570000e-001) (93, -5.58473467826843260000e-001) (94, -4.68100786209106450000e-001) (95, -4.97605232521891590000e-003) (96, -1.65952995419502260000e-001) (0, 3.11269424855709080000e-002) (1, 3.98452222347259520000e-001) (2, 1.39327734708786010000e-001) (3, -2.61659801006317140000e-001) (4, -6.18732690811157230000e-001) (5, 1.49564832448959350000e-001) (6, 2.37984165549278260000e-001) (7, 2.94161707162857060000e-001) (8, -1.09255820512771610000e-001) (9, 6.34888708591461180000e-002) (10, 1.53192535042762760000e-001) (11, -7.30987191200256350000e-001) (12, -6.10567271709442140000e-001) (13, -8.01906734704971310000e-002) (14, 2.91124194860458370000e-001) (15, 1.10387884080410000000e-001) (16, -4.26612347364425660000e-002) (17, -1.69200092554092410000e-001) (18, 1.01081646978855130000e-001) (19, -7.17411488294601440000e-002) (20, 2.14752376079559330000e-001) (21, 2.85872727632522580000e-001) (22, -7.29702636599540710000e-002) (23, -2.68703073263168330000e-001) (24, -2.25336775183677670000e-001) (25, -1.73394024372100830000e-001) (26, 5.28983771800994870000e-001) (27, 3.82758647203445430000e-001) (28, 2.73390382528305050000e-001) (29, 2.90477424860000610000e-001) (30, -4.04075771570205690000e-001) (31, -1.29513338208198550000e-001) (32, -1.91707625985145570000e-001) (33, -1.26807659864425660000e-001) (34, 2.61457830667495730000e-001) (35, 6.64770185947418210000e-001) (36, 9.02214273810386660000e-002) (37, 2.35466118901968000000e-002) (38, -8.20947945117950440000e-001) (39, -2.93141931295394900000e-001) (40, 7.63181503862142560000e-003) (41, -8.87878015637397770000e-002) (42, 2.07387395203113560000e-002) (43, 3.79470974206924440000e-001) (44, 7.32902646064758300000e-001) (45, 2.94288039207458500000e-001) (46, -5.11569559574127200000e-001) (47, -1.87492832541465760000e-001) (48, -8.16141813993453980000e-002) (49, 2.18630865216255190000e-001) (50, -2.22560316324234010000e-001) (51, -1.40681445598602290000e-001) (52, 7.60983973741531370000e-002) (53, -4.19658535975031550000e-005) (54, -9.15094092488288880000e-002) (55, -2.77389377355575560000e-001) (56, -3.05259693413972850000e-002) (57, 3.75854372978210450000e-001) (58, -3.57380002737045290000e-001) (59, -1.27340212464332580000e-001) (60, 2.19187755137681960000e-002) (61, -1.95774242281913760000e-001) (62, -1.74113586544990540000e-001) (63, -1.00586138665676120000e-001) (64, 1.81723177433013920000e-001) (65, 3.36480915546417240000e-001) (66, -5.08240580558776860000e-001) (67, -1.23587362468242650000e-001) (68, -1.62311885505914690000e-002) (69, -1.22760199010372160000e-001) (70, -1.68008059263229370000e-001) (71, -1.59338623285293580000e-001) (72, 1.47894188761711120000e-001) (73, 2.29023792780935760000e-003) (74, -6.54824256896972660000e-001) (75, -5.21866500377655030000e-001) (76, -3.05086731910705570000e-001) (77, -4.35287654399871830000e-002) (78, -1.81769818067550660000e-001) (79, -1.14417038857936860000e-001) (80, 9.44662373512983320000e-004) (81, -2.48954981565475460000e-001) (82, -4.32099848985672000000e-001) (83, -3.15589874982833860000e-001) (84, -4.78237904608249660000e-002) (85, 3.23728054761886600000e-001) (86, -1.64158970117568970000e-001) (87, -3.27240586280822750000e-001) (88, 3.40017825365066530000e-002) (89, -1.72063678503036500000e-001) (90, -3.31049300730228420000e-002) (91, 3.30209322273731230000e-002) (92, -1.61686539649963380000e-002) (93, 1.59875810146331790000e-001) (94, -6.34598195552825930000e-001) (95, -2.96498864889144900000e-001) (96, 1.03008002042770390000e-001) (0, 7.24286437034606930000e-002) (1, 5.88224306702613830000e-002) (2, 1.26096308231353760000e-001) (3, -1.23295940458774570000e-001) (4, 1.51413083076477050000e-001) (5, 6.27858191728591920000e-002) (6, -3.77782732248306270000e-001) (7, -7.18890845775604250000e-001) (8, -2.30336889624595640000e-001) (9, -3.54415059089660640000e-001) (10, -1.10705539584159850000e-001) (11, -9.49004963040351870000e-002) (12, 2.87941880524158480000e-002) (13, -2.47118487954139710000e-001) (14, -3.03029298782348630000e-001) (15, -6.97420358657836910000e-001) (16, 4.99135293066501620000e-002) (17, 4.01007652282714840000e-001) (18, 3.23679894208908080000e-002) (19, -1.47596538066864010000e-001) (20, -1.40878200531005860000e-001) (21, -1.16507016122341160000e-001) (22, -4.07736092805862430000e-001) (23, 2.05890253186225890000e-001) (24, 1.49109125137329100000e-001) (25, 6.09236001968383790000e-001) (26, 6.88573837280273440000e-001) (27, -1.67748600244522090000e-001) (28, -6.28979682922363280000e-001) (29, -4.62594665586948390000e-002) (30, -5.14193117618560790000e-001) (31, -1.05527780950069430000e-001) (32, 7.05612599849700930000e-002) (33, 8.78254115581512450000e-001) (34, 3.97022157907485960000e-001) (35, -6.93669259548187260000e-001) (36, -5.97126722335815430000e-001) (37, 1.06625305488705640000e-002) (38, -4.01327818632125850000e-001) (39, -3.13711166381835940000e-002) (40, -1.34896606206893920000e-001) (41, 3.42632085084915160000e-001) (42, 1.13351619243621830000e+000) (43, 1.19892455637454990000e-001) (44, 2.27441772818565370000e-001) (45, 3.33980917930603030000e-001) (46, -1.09751466661691670000e-002) (47, -6.45906925201416020000e-002) (48, -2.53050833940505980000e-001) (49, -3.24688792228698730000e-001) (50, 1.15637731552124020000e+000) (51, 9.84486222267150880000e-001) (52, 3.07006716728210450000e-001) (53, 1.52145576477050780000e+000) (54, 8.17454814910888670000e-001) (55, -4.24375236034393310000e-001) (56, -1.18260957300662990000e-001) (57, -4.51213926076889040000e-001) (58, -7.88468196988105770000e-002) (59, -1.09367296099662780000e-001) (60, 3.29773798584938050000e-002) (61, 6.01169347763061520000e-001) (62, 8.66512283682823180000e-002) (63, 1.11869901418685910000e-001) (64, -1.05185963213443760000e-001) (65, -5.00664651393890380000e-001) (66, -7.28719770908355710000e-001) (67, -7.18503534793853760000e-001) (68, 2.12325956672430040000e-002) (69, 3.44953596591949460000e-001) (70, -3.48549395799636840000e-001) (71, -2.72388085722923280000e-002) (72, 2.06620935350656510000e-002) (73, -3.18641215562820430000e-001) (74, -5.68368554115295410000e-001) (75, -1.34230190888047220000e-002) (76, 1.11028559505939480000e-001) (77, 1.80087357759475710000e-001) (78, -6.59257993102073670000e-002) (79, 6.79825991392135620000e-002) (80, 1.95125237107276920000e-001) (81, -4.05492991209030150000e-001) (82, -5.32061636447906490000e-001) (83, 4.37266454100608830000e-002) (84, 5.39878867566585540000e-002) (85, 5.68568035960197450000e-002) (86, -6.33272230625152590000e-001) (87, 1.89564049243927000000e-001) (88, 2.38275572657585140000e-001) (89, -2.82882042229175570000e-002) (90, -3.90078693628311160000e-001) (91, -3.72413814067840580000e-001) (92, -4.28463160991668700000e-001) (93, -6.56185626983642580000e-001) (94, -8.68651509284973140000e-001) (95, -2.25760772824287410000e-001) (96, -3.04798066616058350000e-001) (0, 9.25160050392150880000e-002) (1, -2.11369827389717100000e-001) (2, -2.72943556308746340000e-001) (3, -5.01095950603485110000e-001) (4, -6.61351561546325680000e-001) (5, -8.27867165207862850000e-003) (6, -6.36617839336395260000e-002) (7, 2.31990382075309750000e-001) (8, 1.96303665637969970000e-001) (9, -3.25020728632807730000e-003) (10, -7.99521207809448240000e-001) (11, -1.07375490665435790000e+000) (12, -6.31995916366577150000e-001) (13, -5.32474398612976070000e-001) (14, -2.30580255389213560000e-001) (15, 2.57938534021377560000e-001) (16, 5.58133199810981750000e-002) (17, -7.49027729034423830000e-002) (18, -6.97637856006622310000e-001) (19, -2.27629527449607850000e-001) (20, 4.13594961166381840000e-001) (21, 3.19577991962432860000e-001) (22, -3.67774754762649540000e-001) (23, 2.85439342260360720000e-001) (24, 2.93840795755386350000e-001) (25, -1.67866766452789310000e-001) (26, -4.51493859291076660000e-001) (27, -5.33418320119380950000e-002) (28, 1.01983320713043210000e+000) (29, 2.47441083192825320000e-001) (30, -5.47364354133605960000e-001) (31, -4.23584520816802980000e-001) (32, 2.60008990764617920000e-001) (33, 3.55102382600307460000e-002) (34, -6.21068656444549560000e-001) (35, 3.93616497516632080000e-001) (36, 6.03071272373199460000e-001) (37, 4.33637090027332310000e-002) (38, -5.65119922161102290000e-001) (39, -2.55917072296142580000e-001) (40, 4.61931340396404270000e-003) (41, 6.13875649869441990000e-002) (42, 3.47451508045196530000e-001) (43, -2.24077254533767700000e-001) (44, -3.13984960317611690000e-001) (45, 5.74554949998855590000e-002) (46, -7.43606090545654300000e-001) (47, -1.60429313778877260000e-001) (48, -5.36043904721736910000e-002) (49, -3.66821706295013430000e-001) (50, 4.11108970642089840000e-001) (51, 5.83546578884124760000e-001) (52, 5.63871599733829500000e-002) (53, 6.24453186988830570000e-001) (54, 2.72764295339584350000e-001) (55, -3.02438229322433470000e-001) (56, 4.67131622135639190000e-002) (57, -1.81540809571743010000e-002) (58, 1.37225966900587080000e-002) (59, 1.75719052553176880000e-001) (60, -5.42722404003143310000e-001) (61, -2.06059202551841740000e-001) (62, 5.88021695613861080000e-001) (63, 6.74048066139221190000e-001) (64, -4.51708324253559110000e-002) (65, -1.71082407236099240000e-001) (66, -1.38568550348281860000e-001) (67, 2.32617542147636410000e-001) (68, -5.99882425740361210000e-003) (69, -3.86989489197731020000e-002) (70, -2.34945565462112430000e-001) (71, 4.28762465715408330000e-001) (72, 2.38267987966537480000e-001) (73, 9.16395522654056550000e-003) (74, -2.30600938200950620000e-001) (75, -2.49851658940315250000e-001) (76, 1.74568232614547010000e-003) (77, -1.44119530916213990000e-001) (78, -3.46174150705337520000e-001) (79, 4.40815389156341550000e-001) (80, 1.08967080712318420000e-001) (81, 1.23876392841339110000e-001) (82, 7.90815800428390500000e-002) (83, -3.96047323942184450000e-001) (84, -5.70992492139339450000e-002) (85, 2.19749957323074340000e-001) (86, -2.94827401638031010000e-001) (87, 4.86600786447525020000e-001) (88, -2.41529271006584170000e-001) (89, -2.50403404235839840000e-001) (90, 6.34021878242492680000e-001) (91, 5.26506938040256500000e-002) (92, 1.82255104184150700000e-001) (93, 3.60094249248504640000e-001) (94, 2.55387753248214720000e-001) (95, 2.37128347158432010000e-001) (96, 1.34304668754339220000e-002) (0, -5.31115084886550900000e-002) (1, -5.01451730728149410000e-001) (2, -3.36331278085708620000e-001) (3, 8.34708213806152340000e-001) (4, 3.76530885696411130000e-001) (5, -7.20807462930679320000e-002) (6, -2.41914331912994380000e-001) (7, -3.41096848249435420000e-001) (8, -2.91026353836059570000e-001) (9, 3.68831872940063480000e-001) (10, 2.26658239960670470000e-001) (11, 4.14381951093673710000e-001) (12, 7.08684921264648440000e-002) (13, 1.50471076369285580000e-001) (14, -1.53897504787892100000e-003) (15, -1.97799414396286010000e-001) (16, -3.64093899726867680000e-001) (17, 2.05395877361297610000e-001) (18, 4.85456258058547970000e-001) (19, -4.39114347100257870000e-002) (20, -5.33667623996734620000e-001) (21, 5.07553890347480770000e-002) (22, 4.55910235643386840000e-001) (23, -7.19098746776580810000e-002) (24, 6.48556292057037350000e-001) (25, 3.20223689079284670000e-001) (26, -2.70117610692977910000e-001) (27, -1.87945663928985600000e-001) (28, -4.50541585683822630000e-001) (29, -2.74459034204483030000e-001) (30, 4.32823270559310910000e-001) (31, -2.33155280351638790000e-001) (32, -3.12453899532556530000e-002) (33, 7.96332731842994690000e-002) (34, -8.87766405940055850000e-002) (35, -1.99609696865081790000e-001) (36, -3.87126833200454710000e-001) (37, -3.96875530481338500000e-001) (38, 5.82179605960845950000e-001) (39, -1.92920491099357600000e-001) (40, -1.48799151182174680000e-001) (41, -7.80467987060546880000e-002) (42, -2.03052967786788940000e-001) (43, 9.79829281568527220000e-002) (44, 6.87182992696762080000e-002) (45, -9.29522700607776640000e-003) (46, 7.04862296581268310000e-001) (47, -3.70027571916580200000e-001) (48, 4.79677282273769380000e-002) (49, 2.66042143106460570000e-001) (50, -3.07378023862838750000e-001) (51, -2.80877441167831420000e-001) (52, -1.10645420849323270000e-001) (53, -5.61588227748870850000e-001) (54, 1.91111057996749880000e-001) (55, -7.33452379703521730000e-001) (56, 6.41781985759735110000e-001) (57, 3.38841259479522710000e-001) (58, -1.13762542605400090000e-002) (59, -3.85607779026031490000e-001) (60, -3.41645240783691410000e-001) (61, -2.51861274242401120000e-001) (62, 4.56328421831130980000e-001) (63, -5.76059341430664060000e-001) (64, 6.49050772190093990000e-001) (65, 4.26286816596984860000e-001) (66, -8.09879675507545470000e-002) (67, -4.04596060514450070000e-001) (68, -1.94377839565277100000e-001) (69, -2.45359390974044800000e-001) (70, 3.84038448333740230000e-001) (71, -6.50955259799957280000e-001) (72, 8.07783246040344240000e-001) (73, 2.37607568502426150000e-001) (74, -1.84438005089759830000e-001) (75, -4.08807277679443360000e-001) (76, -3.54709297418594360000e-001) (77, -3.70372325181961060000e-001) (78, 3.66536289453506470000e-001) (79, -6.17982447147369380000e-001) (80, -1.71037763357162480000e-001) (81, 1.34234681725502010000e-001) (82, -1.23847603797912600000e-001) (83, -1.90887659788131710000e-001) (84, -2.13561654090881350000e-001) (85, 2.62398608028888700000e-002) (86, 3.01544576883316040000e-001) (87, -2.33649373054504390000e-001) (88, -2.56032377481460570000e-001) (89, -3.98405492305755620000e-001) (90, -1.90051436424255370000e-001) (91, -2.39107429981231690000e-001) (92, -2.47555494308471680000e-001) (93, 6.59794509410858150000e-002) (94, -1.72281622886657710000e-001) (95, -1.72369211912155150000e-001) (96, -5.42562305927276610000e-001) (0, 1.59234017133712770000e-001) (1, 2.47809275984764100000e-001) (2, -2.11990579962730410000e-001) (3, -5.27353405952453610000e-001) (4, -3.42886596918106080000e-001) (5, -3.30033190548419950000e-002) (6, -3.83556962013244630000e-001) (7, -7.93669819831848140000e-002) (8, -1.29043385386466980000e-001) (9, -1.40307411551475520000e-001) (10, -1.65679872035980220000e-001) (11, -5.35883128643035890000e-001) (12, -7.58529976010322570000e-002) (13, -2.05219164490699770000e-001) (14, -1.21801666915416720000e-001) (15, -1.06592267751693730000e-001) (16, 8.87171924114227290000e-002) (17, 4.81596529483795170000e-001) (18, 5.60013175010681150000e-001) (19, 2.03085228800773620000e-001) (20, 2.94660218060016630000e-002) (21, 1.38289839029312130000e-001) (22, 4.91748690605163570000e-001) (23, -1.00682042539119720000e-001) (24, -2.34195381402969360000e-001) (25, 5.92330634593963620000e-001) (26, 7.62559831142425540000e-001) (27, 3.75541925430297850000e-001) (28, -1.28043070435523990000e-001) (29, 4.65565204620361330000e-001) (30, 1.01507425308227540000e-001) (31, -1.51057183742523190000e-001) (32, 9.22848284244537350000e-002) (33, 5.48648893833160400000e-001) (34, 2.47802753001451490000e-002) (35, 3.24747532606124880000e-001) (36, -3.29095929861068730000e-001) (37, 2.89251863956451420000e-001) (38, -2.48683840036392210000e-001) (39, -4.04707342386245730000e-001) (40, 6.03945814073085780000e-002) (41, 3.19090157747268680000e-001) (42, -1.77055954933166500000e-001) (43, -2.50183343887329100000e-001) (44, -4.29210066795349120000e-001) (45, 1.98822781443595890000e-001) (46, -9.65606942772865300000e-002) (47, -2.39022955298423770000e-001) (48, 2.38969117403030400000e-001) (49, 3.21400642395019530000e-001) (50, -9.06558930873870850000e-002) (51, -3.93857136368751530000e-002) (52, -3.45966726541519170000e-001) (53, 2.36108079552650450000e-001) (54, -3.89881938695907590000e-001) (55, -2.51411914825439450000e-001) (56, 3.41068238019943240000e-001) (57, -6.08454160392284390000e-002) (58, 3.56457568705081940000e-002) (59, 5.04753172397613530000e-001) (60, -1.44965760409832000000e-003) (61, 5.47699570655822750000e-001) (62, -5.42526364326477050000e-001) (63, -3.22451919317245480000e-001) (64, 4.06945357099175450000e-003) (65, -7.93321505188941960000e-002) (66, -4.13985967636108400000e-001) (67, 2.59100168943405150000e-001) (68, 3.20762366056442260000e-001) (69, 2.12094113230705260000e-001) (70, -8.52661609649658200000e-001) (71, -3.65961849689483640000e-001) (72, -6.05439022183418270000e-002) (73, -3.10737848281860350000e-001) (74, -4.77047890424728390000e-001) (75, 5.23135364055633540000e-002) (76, 1.26240365207195280000e-002) (77, 2.62889504432678220000e-001) (78, -9.14942622184753420000e-001) (79, -3.33600699901580810000e-001) (80, 1.48849263787269590000e-001) (81, -2.64396935701370240000e-001) (82, -1.60816758871078490000e-001) (83, 1.54005050659179690000e-001) (84, -8.56944918632507320000e-002) (85, 6.01988017559051510000e-001) (86, -5.69836616516113280000e-001) (87, -2.50817388296127320000e-001) (88, 1.23410008847713470000e-001) (89, -3.52228999137878420000e-001) (90, -1.70185372233390810000e-001) (91, -2.95809000730514530000e-001) (92, -3.73221367597579960000e-001) (93, 6.32122904062271120000e-002) (94, -4.93291288614273070000e-001) (95, -6.98728635907173160000e-002) (96, 1.77168101072311400000e-001) (0, -1.41019925475120540000e-001) (1, 2.00754001736640930000e-001) (2, 3.27697694301605220000e-001) (3, -2.54351198673248290000e-001) (4, -3.26535142958164220000e-002) (5, 1.40577808022499080000e-001) (6, 5.11413931846618650000e-001) (7, -1.73941388726234440000e-001) (8, 4.07321274280548100000e-001) (9, -3.07491242885589600000e-001) (10, -1.10517911612987520000e-001) (11, 2.58380681276321410000e-001) (12, 1.71810016036033630000e-001) (13, 3.47875654697418210000e-001) (14, 4.15056526660919190000e-001) (15, -2.22384870052337650000e-001) (16, 2.30998069047927860000e-001) (17, -4.72373872995376590000e-001) (18, -8.00327539443969730000e-001) (19, -1.50522306561470030000e-001) (20, -3.86835932731628420000e-001) (21, 1.49347051978111270000e-001) (22, 2.10751160979270940000e-001) (23, 7.60606154799461360000e-002) (24, -5.11692583560943600000e-001) (25, -4.55999314785003660000e-001) (26, -7.91314125061035160000e-001) (27, -2.96536624431610110000e-001) (28, -2.80876100063323970000e-001) (29, -1.87705047428607940000e-002) (30, 2.00194194912910460000e-001) (31, 1.46796271204948430000e-001) (32, 7.87622630596160890000e-002) (33, -3.79947781562805180000e-001) (34, -5.62807559967041020000e-001) (35, -4.81518477201461790000e-001) (36, -3.45442980527877810000e-001) (37, 8.67768675088882450000e-002) (38, 4.46116365492343900000e-002) (39, 2.61971443891525270000e-001) (40, 1.86873078346252440000e-001) (41, -4.03276234865188600000e-001) (42, -6.54937565326690670000e-001) (43, -4.05060768127441410000e-001) (44, -2.09659218788146970000e-001) (45, 1.27043485641479490000e-001) (46, 3.77450929954648020000e-003) (47, 9.81651842594146730000e-002) (48, -5.12237966060638430000e-001) (49, -4.24468368291854860000e-001) (50, -4.57438945770263670000e-001) (51, -2.17438131570816040000e-001) (52, -2.07841992378234860000e-001) (53, -1.58107757568359380000e-001) (54, -5.59283792972564700000e-001) (55, -9.15036052465438840000e-002) (56, -4.60032641887664790000e-001) (57, 3.13263759016990660000e-002) (58, -2.59083122014999390000e-001) (59, 5.07531650364398960000e-002) (60, 7.06480145454406740000e-001) (61, 3.54459166526794430000e-001) (62, -5.28170645236968990000e-001) (63, -2.85804539918899540000e-001) (64, -4.24723803997039790000e-001) (65, 3.33765447139739990000e-001) (66, 3.60269606113433840000e-001) (67, 7.81240820884704590000e-001) (68, -1.26522257924079900000e-001) (69, 8.43802571296691890000e-001) (70, -4.11939769983291630000e-001) (71, -2.75538712739944460000e-001) (72, -5.32622456550598140000e-001) (73, 2.46668569743633270000e-002) (74, 3.89152050018310550000e-001) (75, 6.64824843406677250000e-002) (76, -5.12531340122222900000e-001) (77, 4.96756762266159060000e-001) (78, 1.61468237638473510000e-001) (79, -1.97811082005500790000e-001) (80, -2.54760682582855220000e-001) (81, 8.53061825037002560000e-002) (82, 1.33819699287414550000e-001) (83, -5.92050313949584960000e-001) (84, -5.08995354175567630000e-001) (85, -4.42863345146179200000e-001) (86, 1.60099133849143980000e-001) (87, -2.47382089495658870000e-001) (88, 1.23564720153808590000e-001) (89, 2.57567465305328370000e-001) (90, -2.87139862775802610000e-001) (91, -4.45133686065673830000e-001) (92, -6.25866949558258060000e-001) (93, -1.17741174995899200000e-001) (94, 6.88095033168792720000e-001) (95, 4.96081918478012080000e-001) (96, -3.83880674839019780000e-001) (0, 8.38631764054298400000e-002) (1, -8.78203213214874270000e-002) (2, -1.94202005863189700000e-001) (3, -4.33742403984069820000e-001) (4, -5.66271066665649410000e-001) (5, -3.30384746193885800000e-002) (6, 9.99571681022644040000e-002) (7, 2.48841971158981320000e-001) (8, -4.92570623755455020000e-002) (9, 9.83112677931785580000e-002) (10, -3.94724644720554350000e-002) (11, -5.62966823577880860000e-001) (12, -2.87551999092102050000e-001) (13, 2.67950147390365600000e-001) (14, 3.91211688518524170000e-001) (15, 4.48202878236770630000e-001) (16, 2.15125873684883120000e-001) (17, 5.83063736557960510000e-002) (18, 1.69330969452857970000e-001) (19, 3.56580652296543120000e-002) (20, 3.12377452850341800000e-001) (21, 4.14746403694152830000e-001) (22, 2.29938015341758730000e-001) (23, 2.35336478799581530000e-002) (24, 2.82268315553665160000e-001) (25, 1.37135416269302370000e-001) (26, 1.83926537632942200000e-001) (27, 3.91583472490310670000e-001) (28, 5.42858898639678960000e-001) (29, 5.07575452327728270000e-001) (30, -2.20670655369758610000e-001) (31, -3.49329650402069090000e-001) (32, 9.37669798731803890000e-002) (33, -4.32766750454902650000e-002) (34, -8.30279439687728880000e-002) (35, 6.97534084320068360000e-001) (36, 1.76517382264137270000e-001) (37, -2.13398307561874390000e-001) (38, -2.82030552625656130000e-001) (39, -3.41904312372207640000e-001) (40, -6.51160329580307010000e-002) (41, -2.14505232870578770000e-002) (42, -8.28400626778602600000e-002) (43, -4.33142855763435360000e-003) (44, -3.47169071435928340000e-001) (45, -3.29766631126403810000e-001) (46, -4.82340678572654720000e-002) (47, -2.38134622573852540000e-001) (48, 2.20757961273193360000e-001) (49, 7.58591294288635250000e-002) (50, -2.28927773423492910000e-003) (51, -2.50193893909454350000e-001) (52, -1.53174340724945070000e-001) (53, -2.37956240773200990000e-001) (54, -1.69426798820495610000e-001) (55, -5.23949861526489260000e-001) (56, 5.03946781158447270000e-001) (57, 3.68226110935211180000e-001) (58, -5.05371205508708950000e-002) (59, -2.25488603115081790000e-001) (60, -1.37823387980461120000e-001) (61, -3.10837775468826290000e-001) (62, -1.45845502614974980000e-001) (63, -1.69074460864067080000e-001) (64, 6.13707244396209720000e-001) (65, 1.86521947383880620000e-001) (66, -3.03600549697875980000e-001) (67, 8.33256393671035770000e-002) (68, 3.86497646570205690000e-001) (69, 2.13784560561180110000e-001) (70, -3.13694149255752560000e-001) (71, -1.76989287137985230000e-001) (72, 2.77785956859588620000e-001) (73, -1.19197897613048550000e-001) (74, -6.06559872627258300000e-001) (75, -4.92731899023056030000e-001) (76, -1.91412851214408870000e-001) (77, 1.61932967603206630000e-002) (78, -5.56213498115539550000e-001) (79, -2.48445868492126460000e-001) (80, 1.54010623693466190000e-001) (81, -9.49687734246253970000e-002) (82, -6.48485541343688960000e-001) (83, -2.33160972595214840000e-001) (84, -2.76125967502593990000e-002) (85, 5.07840394973754880000e-001) (86, -1.60252809524536130000e-001) (87, -5.51905483007431030000e-002) (88, -2.35535262618213890000e-004) (89, -5.11719286441802980000e-001) (90, -1.55573546886444090000e-001) (91, -2.43011340498924260000e-001) (92, -2.40275099873542790000e-001) (93, 4.51436758041381840000e-001) (94, -1.88689053058624270000e-001) (95, -1.01854223757982250000e-002) (96, 3.61535698175430300000e-001) (0, -2.39324942231178280000e-002) (1, 1.10950917005538940000e-001) (2, 8.02146494388580320000e-002) (3, -1.71159952878952030000e-001) (4, 5.54243884980678560000e-002) (5, -2.04829201102256770000e-001) (6, -1.06965079903602600000e-001) (7, -3.02972421050071720000e-002) (8, 1.02797545492649080000e-001) (9, 1.30599871277809140000e-001) (10, -2.44804888963699340000e-001) (11, -2.80769824981689450000e-001) (12, -3.00257772207260130000e-001) (13, -6.16546452045440670000e-001) (14, -2.83574312925338750000e-001) (15, 1.79112583398818970000e-001) (16, -2.54150450229644780000e-001) (17, 8.06384757161140440000e-002) (18, -2.97272443771362300000e-001) (19, -4.00602161884307860000e-001) (20, -4.52780485153198240000e-001) (21, -6.21430337429046630000e-001) (22, -5.14274656772613530000e-001) (23, -3.19369020871818070000e-003) (24, -3.74414980411529540000e-001) (25, 4.26545500755310060000e-001) (26, 1.80187568068504330000e-001) (27, -5.53573548793792720000e-001) (28, -5.95892012119293210000e-001) (29, -4.25329744815826420000e-001) (30, -1.02797439321875570000e-002) (31, -5.41998147964477540000e-001) (32, -2.22206518054008480000e-001) (33, 5.25687038898468020000e-001) (34, 3.73962104320526120000e-001) (35, -8.68963658809661870000e-001) (36, -6.33394420146942140000e-001) (37, 4.46241140365600590000e-001) (38, 2.10837185382843020000e-001) (39, -4.49602097272872920000e-001) (40, -2.43088558316230770000e-001) (41, -1.25193715095520020000e-001) (42, 1.16137361526489260000e+000) (43, 3.71390461921691890000e-001) (44, 5.98429501056671140000e-001) (45, 1.00564515590667720000e+000) (46, -4.81139242649078370000e-001) (47, -5.13120114803314210000e-001) (48, -3.03485125303268430000e-001) (49, -7.97651708126068120000e-001) (50, 8.06914150714874270000e-001) (51, 9.29572165012359620000e-001) (52, 7.10020065307617190000e-001) (53, 1.00638854503631590000e+000) (54, 5.21481335163116460000e-001) (55, 1.01991474628448490000e-001) (56, -3.45441669225692750000e-001) (57, -4.01614099740982060000e-001) (58, 1.45255580544471740000e-001) (59, -1.17889508605003360000e-001) (60, -6.26137495040893550000e-001) (61, 1.17147050797939300000e-001) (62, 1.62522673606872560000e-001) (63, 2.56250679492950440000e-001) (64, -7.57761299610137940000e-002) (65, -3.69574725627899170000e-001) (66, -9.26825031638145450000e-002) (67, -3.05540770292282100000e-001) (68, -5.34154653549194340000e-001) (69, -2.10167631506919860000e-001) (70, -6.50178268551826480000e-002) (71, 9.97551828622817990000e-002) (72, -9.78504717350006100000e-002) (73, 1.07240788638591770000e-002) (74, -2.35137388110160830000e-001) (75, -2.84595757722854610000e-001) (76, -2.07479968667030330000e-001) (77, -9.98610630631446840000e-002) (78, -1.08896784484386440000e-001) (79, 1.36447176337242130000e-001) (80, 8.98699760437011720000e-002) (81, 5.24507053196430210000e-002) (82, -3.30918192863464360000e-001) (83, -2.50409126281738280000e-001) (84, 8.44614878296852110000e-002) (85, 9.64512377977371220000e-002) (86, -3.53629499673843380000e-001) (87, 1.95342764258384700000e-001) (88, 1.12022601068019870000e-001) (89, -2.86880612373352050000e-001) (90, 3.26100081205368040000e-001) (91, 4.04187709093093870000e-001) (92, 5.52315771579742430000e-001) (93, 1.20385549962520600000e-001) (94, -2.57376849651336670000e-001) (95, 4.56499099731445310000e-001) (96, -7.25771188735961910000e-001) (0, -6.69292062520980830000e-002) (1, -3.12634706497192380000e-001) (2, -8.37462171912193300000e-002) (3, 3.04283976554870610000e-001) (4, -2.13650912046432500000e-001) (5, 3.50757330656051640000e-001) (6, -3.68144869804382320000e-001) (7, -2.85359084606170650000e-001) (8, -1.31804913282394410000e-001) (9, -1.70008018612861630000e-001) (10, -1.23910292983055110000e-001) (11, 5.83143010735511780000e-002) (12, 5.35638749599456790000e-001) (13, 2.15918749570846560000e-001) (14, -5.79127311706542970000e-001) (15, -6.33255839347839360000e-002) (16, -4.71400246024131770000e-002) (17, 8.00424292683601380000e-002) (18, 1.56964197754859920000e-001) (19, 6.48055374622344970000e-001) (20, 2.52578318119049070000e-001) (21, 5.93552350997924800000e-001) (22, -2.72275835275650020000e-001) (23, -1.66095569729804990000e-001) (24, 3.51866334676742550000e-001) (25, -5.00685982406139370000e-002) (26, 3.22595328092575070000e-001) (27, 4.83465284109115600000e-001) (28, 2.96166446059942250000e-002) (29, -7.89816603064537050000e-002) (30, 2.76706945151090620000e-002) (31, -7.46797844767570500000e-002) (32, 8.31160172820091250000e-002) (33, 1.55660718679428100000e-001) (34, -1.80196136236190800000e-001) (35, 2.65315145254135130000e-001) (36, -3.57913076877593990000e-001) (37, -2.49698996543884280000e-001) (38, 3.03247451782226560000e-001) (39, -9.26183611154556270000e-002) (40, 5.20472079515457150000e-002) (41, 5.37950277328491210000e-001) (42, -2.53551512956619260000e-001) (43, -3.22019308805465700000e-001) (44, -6.90584540367126460000e-001) (45, -1.37121304869651790000e-001) (46, 5.14353930950164790000e-001) (47, -1.80013626813888550000e-001) (48, -5.53435832262039180000e-002) (49, 6.98625072836875920000e-002) (50, -1.98911622166633610000e-001) (51, -2.52934992313385010000e-001) (52, -4.06764268875122070000e-001) (53, 3.24986279010772710000e-001) (54, 3.13787102699279790000e-001) (55, -2.15271100401878360000e-001) (56, 3.53685244917869570000e-002) (57, -4.96121764183044430000e-001) (58, 1.79255291819572450000e-001) (59, 2.58360266685485840000e-001) (60, 1.23520374298095700000e-001) (61, 5.39947390556335450000e-001) (62, 3.98511081933975220000e-001) (63, -6.93244636058807370000e-002) (64, -4.71708983182907100000e-001) (65, -4.06472206115722660000e-001) (66, -2.77506262063980100000e-002) (67, -1.49550944566726680000e-001) (68, 1.57310962677001950000e-002) (69, 3.59130501747131350000e-001) (70, 1.67745441198349000000e-001) (71, -1.14802494645118710000e-001) (72, -5.63095547258853910000e-002) (73, -4.09696072340011600000e-001) (74, 2.95026712119579320000e-002) (75, -6.65886178612709050000e-002) (76, 2.19553010538220410000e-003) (77, 3.26078832149505620000e-001) (78, 4.04109299182891850000e-001) (79, -2.48957183212041850000e-002) (80, 1.12428767606616020000e-002) (81, -2.08535566926002500000e-001) (82, 2.25784197449684140000e-001) (83, -7.39117115736007690000e-002) (84, -2.96661347150802610000e-001) (85, 3.76835972070693970000e-001) (86, 1.71626374125480650000e-001) (87, -3.49941197782754900000e-003) (88, 2.15349420905113220000e-001) (89, 2.07936152815818790000e-001) (90, -8.63254070281982420000e-002) (91, -3.42726379632949830000e-001) (92, -3.34498316049575810000e-001) (93, 1.10213629901409150000e-001) (94, 1.47327050566673280000e-001) (95, 2.85780400037765500000e-001) (96, -1.38048991560935970000e-001) (0, -2.06773534417152400000e-001) (1, 9.15217846632003780000e-002) (2, 3.47125411033630370000e-001) (3, -6.83313384652137760000e-002) (4, -2.82328993082046510000e-001) (5, 1.06742568314075470000e-001) (6, 6.80702745914459230000e-001) (7, -2.25495189428329470000e-001) (8, 2.75769621133804320000e-001) (9, -1.17393910884857180000e-001) (10, -1.02164559066295620000e-002) (11, -6.40159612521529200000e-003) (12, 1.42440974712371830000e-001) (13, 4.24478024244308470000e-001) (14, 5.02428054809570310000e-001) (15, -2.24093496799468990000e-001) (16, -5.31824827194213870000e-002) (17, -4.34751272201538090000e-001) (18, -2.86120295524597170000e-001) (19, -3.80471013486385350000e-002) (20, 1.07111983001232150000e-001) (21, 3.95546704530715940000e-001) (22, 2.40304023027420040000e-001) (23, -5.37403821945190430000e-002) (24, -2.53668040037155150000e-001) (25, -3.62166702747344970000e-001) (26, -2.36784517765045170000e-002) (27, 5.19517809152603150000e-002) (28, 2.28535562753677370000e-001) (29, 2.42984294891357420000e-001) (30, -3.44575583934783940000e-001) (31, 2.07425713539123540000e-001) (32, -6.41122236847877500000e-002) (33, -2.86465078592300420000e-001) (34, -2.61081964708864690000e-003) (35, 9.78414267301559450000e-002) (36, 2.11410298943519590000e-002) (37, -2.16557443141937260000e-001) (38, -5.03215849399566650000e-001) (39, 1.34815707802772520000e-001) (40, -6.47149048745632170000e-003) (41, -1.52820333838462830000e-001) (42, -8.84727686643600460000e-002) (43, -1.09443679451942440000e-001) (44, 3.67411822080612180000e-001) (45, 1.87032878398895260000e-001) (46, 2.62816306203603740000e-002) (47, 2.25157320499420170000e-001) (48, 1.28360584378242490000e-001) (49, 2.40432634949684140000e-001) (50, 1.73875495791435240000e-001) (51, -1.63593992590904240000e-001) (52, 4.46094460785388950000e-002) (53, 3.01788508892059330000e-001) (54, 1.73275470733642580000e-001) (55, -2.29155961424112320000e-002) (56, 1.58718913793563840000e-001) (57, 3.67181032896041870000e-001) (58, -8.96691307425498960000e-002) (59, -1.07083685696125030000e-001) (60, -1.95704877376556400000e-001) (61, -3.06042373180389400000e-001) (62, -1.09753280878067020000e-001) (63, -1.37724965810775760000e-001) (64, 4.19496655464172360000e-001) (65, 1.71145975589752200000e-001) (66, -4.79887910187244420000e-002) (67, 1.98665410280227660000e-002) (68, 1.95157766342163090000e-001) (69, -1.34955000248737630000e-004) (70, -1.75952523946762080000e-001) (71, -2.34445128589868550000e-002) (72, 2.53476649522781370000e-001) (73, -1.33869452401995660000e-002) (74, -3.51544432342052460000e-002) (75, -8.05289745330810550000e-002) (76, -3.77618521451950070000e-001) (77, -4.20276552438735960000e-001) (78, -4.53381597995758060000e-001) (79, -9.84690338373184200000e-002) (80, -1.46164614707231520000e-002) (81, -2.78356909751892090000e-001) (82, 3.05886492133140560000e-002) (83, -2.24499717354774480000e-001) (84, -4.79977242648601530000e-002) (85, -2.09666904993355270000e-003) (86, -4.91403132677078250000e-001) (87, -3.05981636047363280000e-001) (88, -1.60420745611190800000e-001) (89, 1.32510915398597720000e-001) (90, -7.70699307322502140000e-002) (91, -5.09204745292663570000e-001) (92, -5.30576765537261960000e-001) (93, -1.73950821161270140000e-001) (94, -9.10659432411193850000e-001) (95, -4.68216001987457280000e-001) (96, 2.33149260282516480000e-001) (0, 1.43955245614051820000e-001) (1, -9.89760756492614750000e-002) (2, -3.01928579807281490000e-001) (3, -5.42708456516265870000e-001) (4, -1.39021500945091250000e-001) (5, 8.99523869156837460000e-002) (6, -2.67015516757965090000e-001) (7, 3.99963945150375370000e-001) (8, -1.42727494239807130000e-001) (9, -6.31032645702362060000e-001) (10, 7.03262761235237120000e-002) (11, 6.57713189721107480000e-002) (12, 1.57680541276931760000e-001) (13, 2.83066093921661380000e-001) (14, -2.03727588057518010000e-001) (15, 1.04504369199275970000e-001) (16, 1.58464666455984120000e-002) (17, 2.52085238695144650000e-001) (18, 1.21352851390838620000e-001) (19, 1.45794868469238280000e-001) (20, 3.43713685870170590000e-002) (21, -1.98340684175491330000e-001) (22, 3.61827969551086430000e-001) (23, 3.63554418087005620000e-001) (24, -5.74889957904815670000e-001) (25, -3.59680950641632080000e-001) (26, -3.74511271715164180000e-001) (27, 3.22075694799423220000e-001) (28, -1.98670342564582820000e-001) (29, -9.15509581565856930000e-001) (30, 1.57453507184982300000e-001) (31, -5.34167662262916560000e-002) (32, 1.00656069815158840000e-001) (33, -2.45381280779838560000e-001) (34, -3.10163289308547970000e-001) (35, 3.25828827917575840000e-002) (36, -8.08346033096313480000e-001) (37, -2.42108821868896480000e-001) (38, 6.86994612216949460000e-001) (39, -1.10329873859882350000e-001) (40, 3.36579442024230960000e-001) (41, -2.78697013854980470000e-001) (42, -8.32636415958404540000e-001) (43, -4.68834668397903440000e-001) (44, -6.54652237892150880000e-001) (45, 1.75385400652885440000e-001) (46, 1.31456807255744930000e-001) (47, 8.49121497594751420000e-005) (48, -5.76601207256317140000e-001) (49, -2.17877566814422610000e-001) (50, -1.10110580921173100000e+000) (51, -9.73681569099426270000e-001) (52, -3.75526607036590580000e-001) (53, -3.16923558712005620000e-001) (54, -7.15325951576232910000e-001) (55, -3.16435307264328000000e-001) (56, -3.99563699960708620000e-001) (57, -2.50479847192764280000e-001) (58, -5.19902467727661130000e-001) (59, 2.14188784360885620000e-001) (60, 1.69874444603919980000e-001) (61, 3.11163246631622310000e-001) (62, -3.35493713617324830000e-001) (63, -2.19722181558609010000e-001) (64, -5.70925474166870120000e-001) (65, 2.82769910991191860000e-002) (66, 2.13839903473854060000e-001) (67, 3.35650324821472170000e-001) (68, -5.06466805934906010000e-001) (69, 1.97549968957901000000e-001) (70, -2.84695833921432500000e-001) (71, -1.33786633610725400000e-001) (72, -4.46865320205688480000e-001) (73, -5.08962199091911320000e-002) (74, -1.22970886528491970000e-001) (75, -5.41341006755828860000e-001) (76, -4.30578827857971190000e-001) (77, 2.38681375980377200000e-001) (78, -1.50801151990890500000e-001) (79, -1.66199102997779850000e-001) (80, -1.90637439489364620000e-001) (81, 7.81556904315948490000e-001) (82, -4.44520354270935060000e-001) (83, -4.33100610971450810000e-001) (84, -2.79181718826293950000e-001) (85, 3.07523477822542190000e-002) (86, -5.68053126335144040000e-002) (87, -2.99566328525543210000e-001) (88, 4.43201661109924320000e-001) (89, 6.84473961591720580000e-002) (90, 9.22384113073349000000e-002) (91, 5.16119837760925290000e-001) (92, 4.91956532001495360000e-001) (93, 6.96251988410949710000e-001) (94, 4.02228295803070070000e-001) (95, 3.19231659173965450000e-001) (96, -1.49417728185653690000e-001) (0, -1.93715952336788180000e-002) (1, -1.53626753017306330000e-002) (2, -8.71959254145622250000e-002) (3, -2.16306164860725400000e-001) (4, -7.41109773516654970000e-002) (5, -5.75172424316406250000e-001) (6, 5.79208172857761380000e-002) (7, 1.03345148265361790000e-001) (8, -3.44721168279647830000e-001) (9, -2.70127505064010620000e-001) (10, -5.29691353440284730000e-002) (11, -3.44119280576705930000e-001) (12, -5.83104491233825680000e-001) (13, -2.44642212986946110000e-001) (14, 1.91340669989585880000e-001) (15, -1.01118318736553190000e-001) (16, -7.58493542671203610000e-002) (17, 1.09326489269733430000e-001) (18, 5.72218060493469240000e-001) (19, -1.29971280694007870000e-001) (20, -5.55169463157653810000e-001) (21, 1.67198151350021360000e-001) (22, 8.16764295101165770000e-001) (23, 9.85066518187522890000e-002) (24, -1.24495655298233030000e-001) (25, -2.19223588705062870000e-001) (26, 2.46184185147285460000e-001) (27, -3.22537481784820560000e-001) (28, -3.01907747983932500000e-001) (29, 7.23779723048210140000e-002) (30, 5.32307207584381100000e-001) (31, 2.11804673075675960000e-001) (32, -7.55186229944229130000e-002) (33, -2.89771378040313720000e-001) (34, 1.49977520108222960000e-001) (35, -5.80237694084644320000e-002) (36, -6.90080747008323670000e-002) (37, -3.79831761121749880000e-001) (38, 4.75861996412277220000e-001) (39, 1.43105491995811460000e-001) (40, 1.32162734866142270000e-001) (41, -2.94558823108673100000e-001) (42, 1.47625565528869630000e-001) (43, 1.61342039704322810000e-001) (44, -5.49108207225799560000e-001) (45, -2.41743475198745730000e-001) (46, 4.30628269910812380000e-001) (47, 2.24732130765914920000e-001) (48, 2.15072646737098690000e-001) (49, 1.18812611326575280000e-002) (50, 4.63048130273818970000e-001) (51, -2.91191637516021730000e-001) (52, -4.85453724861145020000e-001) (53, 7.41892382502555850000e-002) (54, 1.46909698843955990000e-001) (55, 6.75210058689117430000e-002) (56, 2.82108075916767120000e-002) (57, 5.38566559553146360000e-002) (58, 6.08557701110839840000e-001) (59, -4.42168377339839940000e-002) (60, 3.00954103469848630000e-001) (61, 5.42942248284816740000e-002) (62, -3.20795804262161250000e-001) (63, 6.32703602313995360000e-002) (64, 2.87648707628250120000e-001) (65, -2.24290683865547180000e-001) (66, 4.61999505758285520000e-001) (67, 4.60919409990310670000e-001) (68, 8.09478521347045900000e-001) (69, 4.76480275392532350000e-001) (70, -2.85860538482666020000e-001) (71, 4.85536009073257450000e-002) (72, 1.22711015865206720000e-002) (73, -4.80109065771102910000e-001) (74, 1.47534370422363280000e-001) (75, 4.55981522798538210000e-001) (76, 8.74788165092468260000e-002) (77, -3.06313842535018920000e-001) (78, -5.28738021850585940000e-001) (79, 5.65196573734283450000e-002) (80, -1.37634530663490300000e-001) (81, -7.02436923980712890000e-001) (82, -1.81244537234306340000e-001) (83, 2.74409204721450810000e-001) (84, 1.28536179661750790000e-001) (85, -1.01018473505973820000e-001) (86, -7.68976390361785890000e-001) (87, 7.39387944340705870000e-002) (88, 9.56284701824188230000e-002) (89, -3.77055346965789790000e-001) (90, -2.89861708879470830000e-001) (91, -1.79114952683448790000e-001) (92, -1.41543701291084290000e-001) (93, -1.63874953985214230000e-001) (94, -2.72953480482101440000e-001) (95, -2.49028921127319340000e-001) (96, -2.14044353924691680000e-003) (0, -3.32769989967346190000e-001) (1, -5.70124566555023190000e-001) (2, -4.72380191087722780000e-001) (3, 4.37500536441802980000e-001) (4, -7.81735405325889590000e-002) (5, -1.52748703956604000000e-001) (6, -3.07485371828079220000e-001) (7, -4.51752573251724240000e-001) (8, -4.02992844581604000000e-001) (9, -1.73087209463119510000e-001) (10, 1.31919980049133300000e-001) (11, 1.22842162847518920000e-001) (12, 3.32468748092651370000e-001) (13, -3.20618826663121580000e-004) (14, -1.22314882278442380000e+000) (15, -6.04851424694061280000e-001) (16, 2.16504320502281190000e-001) (17, 4.70096766948699950000e-001) (18, 5.51819324493408200000e-001) (19, 2.70046442747116090000e-001) (20, -3.04746210575103760000e-001) (21, 7.68413066864013670000e-001) (22, 1.58471599221229550000e-001) (23, -6.89628660678863530000e-001) (24, 1.15455292165279390000e-001) (25, -3.37727665901184080000e-001) (26, -1.98000222444534300000e-001) (27, 3.16134802997112270000e-002) (28, -5.76065778732299800000e-001) (29, -2.09124922752380370000e-001) (30, 5.91621041297912600000e-001) (31, -2.03106001019477840000e-001) (32, -2.39755347371101380000e-001) (33, -1.02772489190101620000e-001) (34, -9.37535390257835390000e-002) (35, -2.64717221260070800000e-001) (36, -3.40075880289077760000e-001) (37, -7.51156032085418700000e-001) (38, 1.04891073703765870000e+000) (39, 2.13857486844062810000e-001) (40, 3.39627787470817570000e-002) (41, -7.72240906953811650000e-002) (42, -7.00847029685974120000e-001) (43, -5.96328139305114750000e-001) (44, -9.02587950229644780000e-001) (45, -3.55132907629013060000e-001) (46, 1.39481878280639650000e+000) (47, 9.92523133754730220000e-002) (48, -4.66853566467761990000e-002) (49, -1.61380738019943240000e-001) (50, -7.68486320972442630000e-001) (51, -7.52046704292297360000e-001) (52, -4.07916963100433350000e-001) (53, 6.05932414531707760000e-001) (54, 3.70928913354873660000e-001) (55, -1.99903801083564760000e-001) (56, 9.93735790252685550000e-002) (57, -3.05650740861892700000e-001) (58, -1.28774657845497130000e-001) (59, -3.51253896951675420000e-001) (60, 4.98245060443878170000e-001) (61, 5.40926039218902590000e-001) (62, 2.78592616319656370000e-001) (63, -4.08470571041107180000e-001) (64, -3.81747454404830930000e-001) (65, -4.45024877786636350000e-001) (66, -5.48997879028320310000e-001) (67, -1.86653077602386470000e-001) (68, 2.74410218000411990000e-001) (69, -1.00333154201507570000e-001) (70, 2.98346310853958130000e-001) (71, -2.91040569543838500000e-001) (72, 1.68806612491607670000e-002) (73, -4.87042814493179320000e-001) (74, 9.13954004645347600000e-002) (75, 2.39516943693161010000e-001) (76, -1.56472668051719670000e-001) (77, -2.86408990621566770000e-001) (78, 1.47920459508895870000e-001) (79, -2.48522996902465820000e-001) (80, -9.82981026172637940000e-002) (81, -2.55604565143585210000e-001) (82, 5.63340187072753910000e-001) (83, -4.83469851315021510000e-003) (84, -1.10423654317855830000e-001) (85, 4.77426171302795410000e-001) (86, -5.59264361858367920000e-001) (87, -2.63052314519882200000e-001) (88, 2.34373182058334350000e-001) (89, 6.05043530464172360000e-001) (90, 5.08389025926589970000e-002) (91, -8.93344134092330930000e-002) (92, -6.97426050901412960000e-002) (93, -2.25115865468978880000e-002) (94, -3.30675214529037480000e-001) (95, -6.93795382976531980000e-001) (96, -5.04346072673797610000e-001) (0, -1.79415330290794370000e-001) (1, -1.68085053563117980000e-001) (2, 1.39533787965774540000e-001) (3, 9.02884677052497860000e-002) (4, 2.86647796630859380000e-001) (5, -5.73754273355007170000e-002) (6, -1.21954627335071560000e-001) (7, -3.70524019002914430000e-001) (8, -3.78678250126540660000e-003) (9, -3.01440566778182980000e-001) (10, -1.01263664662837980000e-001) (11, 2.78156727552413940000e-001) (12, 3.63886117935180660000e-001) (13, 1.50741353631019590000e-001) (14, -6.13707639276981350000e-002) (15, -3.89489531517028810000e-001) (16, 1.06407918035984040000e-001) (17, -3.85792553424835210000e-001) (18, -5.63912503421306610000e-002) (19, 9.91217978298664090000e-003) (20, 9.29420813918113710000e-002) (21, 1.73206001520156860000e-001) (22, 4.99167174100875850000e-001) (23, 1.42392650246620180000e-001) (24, -2.52157628536224370000e-001) (25, -5.56099355220794680000e-001) (26, -1.48853152990341190000e-001) (27, 4.67191897332668300000e-002) (28, 4.91509884595870970000e-002) (29, 2.41447538137435910000e-001) (30, 3.30672323703765870000e-001) (31, 2.60015040636062620000e-001) (32, -1.79173368960618970000e-002) (33, -4.78191822767257690000e-001) (34, -2.05146074295043950000e-001) (35, -2.62765824794769290000e-001) (36, -6.98830410838127140000e-002) (37, 2.07259625196456910000e-001) (38, 1.75202175974845890000e-001) (39, 4.95955273509025570000e-002) (40, 1.11731782555580140000e-001) (41, -5.90133011341094970000e-001) (42, -2.75969296693801880000e-001) (43, -9.06000509858131410000e-002) (44, -2.66888678073883060000e-001) (45, 9.76969972252845760000e-002) (46, 5.89103519916534420000e-001) (47, -2.18250826001167300000e-002) (48, 1.39113172888755800000e-001) (49, -3.28754335641860960000e-001) (50, 2.84469686448574070000e-002) (51, 4.80929650366306300000e-002) (52, 4.51805368065834050000e-002) (53, 1.47605910897254940000e-001) (54, -2.03299373388290410000e-001) (55, -1.57323405146598820000e-001) (56, 8.01679864525794980000e-003) (57, -3.05282627232372760000e-003) (58, 3.33897113800048830000e-001) (59, -2.11991602554917340000e-004) (60, 1.02193884551525120000e-001) (61, 2.81089097261428830000e-001) (62, 2.34558895230293270000e-001) (63, -1.66721388697624210000e-001) (64, 6.56619295477867130000e-002) (65, -2.95292329974472520000e-003) (66, 3.63979786634445190000e-001) (67, 2.56842553615570070000e-001) (68, -4.17449846863746640000e-002) (69, 5.13544201850891110000e-001) (70, 1.49316400289535520000e-001) (71, -1.96390785276889800000e-002) (72, -3.56252700090408330000e-001) (73, -5.30187971889972690000e-002) (74, 4.43654686212539670000e-001) (75, 4.00481909513473510000e-001) (76, 1.01633936166763310000e-001) (77, 2.82330423593521120000e-001) (78, 3.52519303560256960000e-001) (79, 9.38159897923469540000e-002) (80, 7.03021464869380000000e-003) (81, -3.08607637882232670000e-001) (82, 3.35131764411926270000e-001) (83, -2.94311881065368650000e-001) (84, -1.21924899518489840000e-001) (85, -2.57925838232040410000e-001) (86, 1.66864648461341860000e-001) (87, 2.02430505305528640000e-002) (88, -9.17382463812828060000e-002) (89, -9.52001754194498060000e-003) (90, -2.88607507944107060000e-001) (91, -2.87105828523635860000e-001) (92, -4.60804343223571780000e-001) (93, -3.60062032938003540000e-001) (94, 1.65857687592506410000e-001) (95, -1.71692762523889540000e-002) (96, 2.68737990409135820000e-002) (0, 5.13207055628299710000e-002) (1, 2.62037932872772220000e-001) (2, -2.17706151306629180000e-002) (3, -3.05342823266983030000e-001) (4, -2.76507884263992310000e-001) (5, 1.93492379039525990000e-002) (6, 1.68931826949119570000e-001) (7, 7.05585479736328130000e-002) (8, 1.15068815648555760000e-001) (9, -1.44250914454460140000e-001) (10, -1.09588861465454100000e-001) (11, -4.09483045339584350000e-001) (12, -2.04070493578910830000e-001) (13, 7.81590044498443600000e-002) (14, 2.33915418386459350000e-001) (15, -9.27600115537643430000e-002) (16, -6.92351460456848140000e-002) (17, -5.25485575199127200000e-002) (18, -1.24055646359920500000e-001) (19, 4.14101332426071170000e-002) (20, -1.41008153557777400000e-001) (21, 1.32499098777771000000e-001) (22, 4.64983046054840090000e-001) (23, 1.56021445989608760000e-001) (24, -3.46973001956939700000e-001) (25, -5.97950145602226260000e-002) (26, -9.03389416635036470000e-003) (27, 3.69350433349609380000e-001) (28, 2.20601707696914670000e-002) (29, 3.68335336446762080000e-001) (30, -8.90721455216407780000e-002) (31, 2.00559332966804500000e-001) (32, -1.71733081340789790000e-001) (33, -1.34692519903182980000e-001) (34, -8.79915729165077210000e-002) (35, 3.14389884471893310000e-001) (36, 1.78296849131584170000e-001) (37, 1.93405792117118840000e-001) (38, -4.92131769657135010000e-001) (39, -7.89174810051918030000e-003) (40, -7.48579129576683040000e-002) (41, -1.96316018700599670000e-001) (42, -5.11461555957794190000e-001) (43, 2.02616527676582340000e-001) (44, 3.47230613231658940000e-001) (45, 2.44566902518272400000e-001) (46, -1.05619139969348910000e-001) (47, 3.12172360718250270000e-002) (48, 9.96278747916221620000e-002) (49, -1.72013626433908940000e-003) (50, -2.13376030325889590000e-001) (51, 1.09939806163311000000e-001) (52, 2.29263052344322200000e-001) (53, 1.11931554973125460000e-001) (54, -1.55442342162132260000e-001) (55, -8.04333984851837160000e-002) (56, 3.17092865705490110000e-001) (57, 4.05221760272979740000e-001) (58, -1.37002930045127870000e-001) (59, -6.22975341975688930000e-002) (60, -2.91960150934755800000e-003) (61, -2.86396197043359280000e-003) (62, -1.08286730945110320000e-001) (63, -1.14097863435745240000e-001) (64, 5.56522309780120850000e-001) (65, 2.36361354589462280000e-001) (66, 1.43252059817314150000e-001) (67, 3.78226131200790410000e-001) (68, 1.40869423747062680000e-001) (69, 2.91566520929336550000e-001) (70, -1.14626865833997730000e-002) (71, -1.06021896004676820000e-001) (72, 2.60081589221954350000e-001) (73, -5.18212728202342990000e-002) (74, -2.72112414240837100000e-002) (75, 1.61775603890419010000e-001) (76, -5.96122920513153080000e-001) (77, -1.52690187096595760000e-001) (78, -1.19202114641666410000e-001) (79, -3.11070442199707030000e-001) (80, -4.97254319489002230000e-002) (81, -3.70714545249938960000e-001) (82, -1.70488268136978150000e-001) (83, -1.64356976747512820000e-001) (84, -3.19958366453647610000e-002) (85, -6.87153115868568420000e-002) (86, -2.16253995895385740000e-001) (87, -1.86230942606925960000e-001) (88, -2.62379556894302370000e-001) (89, -4.10508036613464360000e-001) (90, -1.13980315625667570000e-001) (91, -3.89655530452728270000e-001) (92, -4.92945611476898190000e-001) (93, -6.89162388443946840000e-002) (94, -7.25407361984252930000e-001) (95, -3.41794312000274660000e-001) (96, 8.39835032820701600000e-002) (0, 4.37373444437980650000e-002) (1, 3.46800804138183590000e-001) (2, 1.26335382461547850000e-001) (3, -8.56298744678497310000e-001) (4, -1.39960154891014100000e-001) (5, 1.06019929051399230000e-001) (6, -1.90353896468877790000e-002) (7, 5.65742492675781250000e-001) (8, 1.27173602581024170000e-001) (9, -4.19202089309692380000e-001) (10, 4.12566334009170530000e-001) (11, 1.29814505577087400000e-001) (12, 1.54533103108406070000e-001) (13, 2.31916248798370360000e-001) (14, 3.41187536716461180000e-001) (15, 5.14220595359802250000e-001) (16, -1.04300014674663540000e-001) (17, 6.79275393486022950000e-002) (18, 7.54750370979309080000e-002) (19, 1.20819896459579470000e-001) (20, 1.78992778062820430000e-001) (21, -3.39909970760345460000e-001) (22, -1.96953698992729190000e-001) (23, 1.82223066687583920000e-001) (24, -4.02163952589035030000e-001) (25, 3.47978770732879640000e-001) (26, 1.64329946041107180000e-001) (27, 3.32855015993118290000e-001) (28, -1.58499851822853090000e-001) (29, -2.14467346668243410000e-001) (30, -1.95578187704086300000e-001) (31, -3.21894824504852290000e-001) (32, 1.69046193361282350000e-001) (33, 1.36924371123313900000e-001) (34, 1.53730541467666630000e-001) (35, 2.08759263157844540000e-001) (36, -3.38235825300216670000e-001) (37, 5.07956147193908690000e-001) (38, -3.32033008337020870000e-001) (39, -5.05272567272186280000e-001) (40, 1.70518472790718080000e-001) (41, 6.22226148843765260000e-002) (42, -4.39739882946014400000e-001) (43, -1.40201285481452940000e-001) (44, 3.51976305246353150000e-001) (45, 2.84119814634323120000e-001) (46, -8.63354623317718510000e-001) (47, -3.86884272098541260000e-001) (48, -3.01071733236312870000e-001) (49, -1.05590604245662690000e-001) (50, -8.20437669754028320000e-001) (51, -4.39863145351409910000e-001) (52, -5.27959577739238740000e-002) (53, -6.59211099147796630000e-001) (54, -4.25531148910522460000e-001) (55, -2.28756368160247800000e-001) (56, -1.79163157939910890000e-001) (57, -9.40108075737953190000e-002) (58, -5.79057216644287110000e-001) (59, 2.60185092687606810000e-001) (60, 4.67136166989803310000e-002) (61, -7.24757239222526550000e-002) (62, -4.13637131452560420000e-001) (63, -4.79541599750518800000e-001) (64, -3.54731380939483640000e-001) (65, 3.67277450859546660000e-002) (66, -2.18313828110694890000e-001) (67, -1.40199169516563420000e-001) (68, -4.91499751806259160000e-001) (69, 1.09556876122951510000e-002) (70, -4.23408776521682740000e-001) (71, -3.71450781822204590000e-001) (72, -4.70799624919891360000e-001) (73, -1.06987006962299350000e-001) (74, -3.00069987773895260000e-001) (75, -5.87055146694183350000e-001) (76, -3.59827637672424320000e-001) (77, 1.08119338750839230000e-001) (78, -4.00311857461929320000e-001) (79, -4.39656734466552730000e-001) (80, -1.72332808375358580000e-001) (81, 2.35659599304199220000e-001) (82, -4.30669277906417850000e-001) (83, -1.77171319723129270000e-001) (84, -1.38764572329819200000e-003) (85, 1.54971837997436520000e-001) (86, 3.76991890370845790000e-002) (87, -4.26141917705535890000e-001) (88, -1.45794451236724850000e-001) (89, -3.66765111684799190000e-001) (90, 2.25130274891853330000e-001) (91, 2.84639924764633180000e-001) (92, 4.69570383429527280000e-002) (93, 5.19092321395874020000e-001) (94, -2.37621843814849850000e-001) (95, 2.59452283382415770000e-001) (96, 8.92681777477264400000e-002) (0, 1.33967384696006770000e-001) (1, 1.44559890031814580000e-001) (2, 3.23489964008331300000e-001) (3, -1.84833452105522160000e-001) (4, 1.03947103023529050000e-001) (5, -2.28619396686553960000e-001) (6, 4.14313852787017820000e-001) (7, 1.03717319667339320000e-001) (8, 1.62453606724739070000e-001) (9, -1.50679513812065120000e-001) (10, 3.70918303728103640000e-001) (11, 3.92647475004196170000e-001) (12, 1.74352973699569700000e-002) (13, 3.23059827089309690000e-001) (14, 4.92471307516098020000e-001) (15, -3.16313616931438450000e-002) (16, 2.08163917064666750000e-001) (17, -3.82444679737091060000e-001) (18, -2.65145927667617800000e-001) (19, -2.93858319520950320000e-001) (20, -5.83077251911163330000e-001) (21, 3.06846737861633300000e-001) (22, 6.56600296497344970000e-001) (23, 2.91049301624298100000e-001) (24, -4.68957513570785520000e-001) (25, -5.82151114940643310000e-001) (26, -2.42403671145439150000e-001) (27, -2.16718405485153200000e-001) (28, -3.37927073240280150000e-001) (29, -1.54479026794433590000e-001) (30, 4.81233090162277220000e-001) (31, 4.34818089008331300000e-001) (32, -5.40574267506599430000e-002) (33, -3.93517136573791500000e-001) (34, -1.17575854063034060000e-001) (35, -3.07441115379333500000e-001) (36, 1.57904122024774550000e-002) (37, -9.84742045402526860000e-002) (38, 2.34727501869201660000e-001) (39, 4.36054766178131100000e-001) (40, -2.92407125234603880000e-002) (41, -5.01536369323730470000e-001) (42, -2.68156975507736210000e-001) (43, -1.16873078048229220000e-001) (44, 5.92132993042469020000e-002) (45, -1.13892562687397000000e-001) (46, 3.74404639005661010000e-001) (47, 3.28677535057067870000e-001) (48, -1.88990935683250430000e-001) (49, -1.81381106376647950000e-001) (50, 3.14192861318588260000e-001) (51, 1.34315416216850280000e-001) (52, 1.96914359927177430000e-001) (53, -1.02772228419780730000e-001) (54, -3.86376380920410160000e-002) (55, -3.35332192480564120000e-002) (56, -1.68724223971366880000e-001) (57, 1.46835178136825560000e-001) (58, 1.89484670758247380000e-001) (59, 1.31989657878875730000e-001) (60, 4.88697975873947140000e-001) (61, -5.43845713138580320000e-001) (62, -4.24041122198104860000e-001) (63, -2.46205538511276250000e-001) (64, 1.70112356543540950000e-001) (65, 2.94713377952575680000e-001) (66, 5.74254155158996580000e-001) (67, 7.34522223472595210000e-001) (68, 3.46581488847732540000e-001) (69, 6.48298114538192750000e-002) (70, -3.01921576261520390000e-001) (71, -1.93771317601203920000e-001) (72, -1.71182692050933840000e-001) (73, -1.28579344600439070000e-002) (74, 8.88289630413055420000e-001) (75, 3.63007336854934690000e-001) (76, -1.60977855324745180000e-001) (77, -4.01428431272506710000e-001) (78, -5.24590969085693360000e-001) (79, -8.58978182077407840000e-002) (80, -7.85707458853721620000e-002) (81, -1.65548995137214660000e-001) (82, 1.88252180814743040000e-001) (83, -3.15743833780288700000e-001) (84, -2.88619726896286010000e-001) (85, -6.28774881362915040000e-001) (86, -9.59066331386566160000e-001) (87, -2.80483633279800420000e-001) (88, 1.67818501591682430000e-001) (89, 2.95968711376190190000e-001) (90, -3.24984014034271240000e-001) (91, -4.74322885274887080000e-001) (92, -5.43810486793518070000e-001) (93, -5.43285310268402100000e-001) (94, -2.21387311816215520000e-001) (95, -3.21583718061447140000e-001) (96, -2.99154311418533330000e-001) (0, -7.34859481453895570000e-002) (1, -5.12937843799591060000e-001) (2, -3.39625298976898190000e-001) (3, -6.43488705158233640000e-001) (4, 2.47774943709373470000e-001) (5, 4.47084039449691770000e-001) (6, -1.68380096554756160000e-001) (7, -3.13397616147995000000e-001) (8, -2.01423779129981990000e-001) (9, -4.36681866645812990000e-001) (10, -6.94056600332260130000e-002) (11, -1.26438677310943600000e-001) (12, 1.91897377371788020000e-002) (13, -1.21732383966445920000e-001) (14, -3.72226864099502560000e-001) (15, -2.14520379900932310000e-001) (16, -2.56435245275497440000e-001) (17, -2.07651898264884950000e-001) (18, -4.05849695205688480000e-001) (19, -8.32308977842330930000e-002) (20, -1.84207558631896970000e-002) (21, 4.20365668833255770000e-002) (22, -1.57469939440488820000e-002) (23, 4.00579839944839480000e-001) (24, -2.47869621962308880000e-002) (25, -1.90156802535057070000e-001) (26, -8.20556759834289550000e-001) (27, -4.83686625957489010000e-002) (28, 1.52512550354003910000e-001) (29, 2.96797573566436770000e-001) (30, 4.24511790275573730000e-001) (31, -6.76757454872131350000e-001) (32, 2.73102551698684690000e-001) (33, -1.41313180327415470000e-001) (34, -6.22706592082977290000e-001) (35, 1.68402418494224550000e-002) (36, 1.44790902733802800000e-001) (37, 6.73881590366363530000e-001) (38, 3.28108817338943480000e-001) (39, -4.43181306123733520000e-001) (40, 2.35739067196846010000e-001) (41, -7.70593360066413880000e-002) (42, 1.34382978081703190000e-001) (43, -4.74485397338867190000e-001) (44, -3.04567068815231320000e-001) (45, -1.09134577214717860000e-002) (46, -3.86701703071594240000e-001) (47, -2.92363494634628300000e-001) (48, -5.72779357433319090000e-001) (49, -1.09893846511840820000e+000) (50, -2.64609232544898990000e-002) (51, 4.23536062240600590000e-001) (52, 3.73302288353443150000e-002) (53, 3.70462052524089810000e-002) (54, -1.17997720837593080000e-001) (55, -3.70359271764755250000e-001) (56, -9.69411283731460570000e-002) (57, -8.93593013286590580000e-001) (58, -2.78929859399795530000e-001) (59, 5.93725025653839110000e-001) (60, 1.16214394569396970000e-001) (61, -7.98304900527000430000e-002) (62, -9.34288743883371350000e-003) (63, 5.32221555709838870000e-001) (64, -5.01760303974151610000e-001) (65, -5.73638677597045900000e-001) (66, 1.43735766410827640000e-001) (67, 3.19906711578369140000e-001) (68, -3.17815065383911130000e-001) (69, -1.67302653193473820000e-001) (70, -3.20567637681961060000e-001) (71, 3.01690429449081420000e-001) (72, -4.63698238134384160000e-001) (73, 9.95650812983512880000e-002) (74, 1.05551697313785550000e-001) (75, 2.94293105602264400000e-001) (76, 1.33455544710159300000e-001) (77, 2.16908335685729980000e-001) (78, -3.52914512157440190000e-001) (79, 4.32691752910614010000e-001) (80, -4.08330783247947690000e-002) (81, 7.07726776599884030000e-001) (82, 3.38574469089508060000e-001) (83, -3.81082683801651000000e-001) (84, -4.93622094392776490000e-001) (85, -1.43731161952018740000e-001) (86, -1.80946722626686100000e-001) (87, 5.79709947109222410000e-001) (88, 8.62779691815376280000e-002) (89, 2.97017395496368410000e-001) (90, 4.21518921852111820000e-001) (91, -1.34156281128525730000e-002) (92, -3.10118570923805240000e-002) (93, -5.66308479756116870000e-003) (94, 5.65198719501495360000e-001) (95, 6.54424965381622310000e-001) (96, -2.37673744559288020000e-001) (0, 6.84128925204277040000e-002) (1, 5.92921555042266850000e-001) (2, 2.52561718225479130000e-001) (3, -5.34952521324157710000e-001) (4, -3.91671597957611080000e-001) (5, -3.49227726459503170000e-001) (6, 1.88984990119934080000e-001) (7, 7.58912265300750730000e-001) (8, 6.99744760990142820000e-001) (9, -8.01107212901115420000e-002) (10, -2.05071061849594120000e-001) (11, -3.41641068458557130000e-001) (12, -5.47980129718780520000e-001) (13, -3.65246355533599850000e-001) (14, 2.60368853807449340000e-001) (15, 6.71974420547485350000e-001) (16, 7.22551196813583370000e-002) (17, -3.06250423192977910000e-001) (18, -5.43364882469177250000e-001) (19, -1.46754622459411620000e-001) (20, -4.34960812330245970000e-001) (21, -8.06168764829635620000e-002) (22, 1.21771283447742460000e-001) (23, 4.48923259973526000000e-001) (24, -1.64712250232696530000e-001) (25, -2.30058766901493070000e-002) (26, -2.37482309341430660000e-001) (27, -6.80103152990341190000e-002) (28, -1.52121469378471370000e-001) (29, -1.92653406411409380000e-002) (30, 4.04831841588020320000e-002) (31, 3.16265314817428590000e-001) (32, 2.42551773786544800000e-001) (33, -3.95119041204452510000e-002) (34, -2.10440114140510560000e-001) (35, -2.93038133531808850000e-002) (36, 2.79191344976425170000e-001) (37, 3.70360255241394040000e-001) (38, -3.13486278057098390000e-001) (39, -1.10539190471172330000e-001) (40, 2.93013513088226320000e-001) (41, -6.52014315128326420000e-002) (42, -4.14132803678512570000e-001) (43, 3.64183545112609860000e-001) (44, 4.66109842061996460000e-001) (45, 4.52299624681472780000e-001) (46, -5.94065129756927490000e-001) (47, -1.06197305023670200000e-001) (48, 2.05367021262645720000e-002) (49, 2.54332751035690310000e-001) (50, -4.77575510740280150000e-001) (51, -1.51973649859428410000e-001) (52, 2.79657766222953800000e-002) (53, -9.54683363437652590000e-001) (54, -3.94090801477432250000e-001) (55, -3.75699363648891450000e-002) (56, -1.04273252189159390000e-001) (57, 2.36494898796081540000e-001) (58, 1.26607716083526610000e-001) (59, 8.06887030601501460000e-001) (60, -5.24617694318294530000e-002) (61, -1.81665450334548950000e-001) (62, 6.64874315261840820000e-002) (63, -2.55464285612106320000e-001) (64, -1.16920128464698790000e-001) (65, 3.23480963706970210000e-001) (66, 5.46780765056610110000e-001) (67, 6.07608437538146970000e-001) (68, -1.03741005063056950000e-001) (69, -9.67003032565116880000e-002) (70, 2.04597800970077510000e-001) (71, -1.52304843068122860000e-001) (72, -4.89970669150352480000e-002) (73, 1.77368268370628360000e-001) (74, 2.83909380435943600000e-001) (75, -2.68710732460021970000e-001) (76, -1.43491804599761960000e-001) (77, -1.51878342032432560000e-001) (78, 1.02017141878604890000e-001) (79, -2.00701087713241580000e-001) (80, -3.89365851879119870000e-001) (81, -6.17696642875671390000e-002) (82, -3.93186360597610470000e-002) (83, -1.90407454967498780000e-001) (84, -1.78968623280525210000e-001) (85, -2.20994293689727780000e-001) (86, 5.72368651628494260000e-002) (87, -3.38347196578979490000e-001) (88, -4.46801304817199710000e-001) (89, -7.12420791387557980000e-002) (90, -2.25957185029983520000e-002) (91, -3.34035098552703860000e-001) (92, -3.34478825330734250000e-001) (93, -1.89286887645721440000e-001) (94, 8.14526751637458800000e-002) (95, 3.80128026008605960000e-001) (96, -4.86487030982971190000e-001) (0, -2.45195757597684860000e-002) (1, 1.00897872447967530000e+000) (2, 7.56938219070434570000e-001) (3, -2.16843485832214360000e-002) (4, -3.80843877792358400000e-001) (5, 1.40421628952026370000e-001) (6, 6.59101605415344240000e-001) (7, 4.81104224920272830000e-001) (8, 8.67304861545562740000e-001) (9, 5.12301802635192870000e-001) (10, 1.95943370461463930000e-001) (11, -1.06680482625961300000e-001) (12, -1.05958409607410430000e-001) (13, -1.96648940443992610000e-001) (14, 5.15818297863006590000e-001) (15, 5.21641612052917480000e-001) (16, 2.81041562557220460000e-001) (17, -3.79276335239410400000e-001) (18, -6.92679166793823240000e-001) (19, -3.43553811311721800000e-001) (20, -4.86813455820083620000e-001) (21, -3.16979289054870610000e-001) (22, -7.23378837108612060000e-001) (23, 1.14533342421054840000e-001) (24, -3.74119132757186890000e-001) (25, -1.01687833666801450000e-001) (26, -5.85396401584148410000e-002) (27, -3.72451275587081910000e-001) (28, -3.10099750757217410000e-001) (29, 3.17143313586711880000e-002) (30, -5.93435049057006840000e-001) (31, 1.11993871629238130000e-001) (32, -2.50443041324615480000e-001) (33, 7.78359100222587590000e-002) (34, 1.00349180400371550000e-001) (35, -1.63770571351051330000e-001) (36, 2.12361291050910950000e-001) (37, 1.44066482782363890000e-001) (38, -7.70051181316375730000e-001) (39, 1.79297197610139850000e-002) (40, -9.82389971613883970000e-003) (41, 9.09566283226013180000e-002) (42, -3.78702223300933840000e-001) (43, 5.12397706508636470000e-001) (44, 8.04128170013427730000e-001) (45, 3.99950504302978520000e-001) (46, -1.00075030326843260000e+000) (47, 3.23239490389823910000e-002) (48, -7.88943767547607420000e-002) (49, -9.54916924238204960000e-002) (50, -4.95553880929946900000e-001) (51, 6.16738945245742800000e-002) (52, 3.82384598255157470000e-001) (53, -3.25597196817398070000e-001) (54, -1.96634218096733090000e-001) (55, 2.56732732057571410000e-001) (56, -5.02871453762054440000e-001) (57, -8.97526368498802190000e-002) (58, -1.79542928934097290000e-001) (59, 3.94144952297210690000e-001) (60, 7.37901329994201660000e-001) (61, 3.68838310241699220000e-001) (62, -1.50148179382085800000e-002) (63, -3.37315410375595090000e-001) (64, -6.06052219867706300000e-001) (65, 6.99347630143165590000e-002) (66, -1.12955078482627870000e-001) (67, 3.44726979732513430000e-001) (68, -1.08125559985637660000e-001) (69, 1.79092735052108760000e-001) (70, 4.53188568353652950000e-002) (71, -3.67167085409164430000e-001) (72, -3.79287719726562500000e-001) (73, -2.57551241666078570000e-002) (74, 1.80044025182724000000e-001) (75, -2.31372117996215820000e-001) (76, -5.64781308174133300000e-001) (77, 2.86928832530975340000e-001) (78, 8.53878259658813480000e-001) (79, -4.03571546077728270000e-001) (80, -4.08457934856414790000e-001) (81, -2.76496678590774540000e-001) (82, -1.18584141135215760000e-001) (83, -3.66962313652038570000e-001) (84, -3.03745362907648090000e-002) (85, 1.77048042416572570000e-001) (86, 5.26962697505950930000e-001) (87, -5.34422695636749270000e-001) (88, -1.30934685468673710000e-001) (89, 3.43378603458404540000e-001) (90, -2.42180377244949340000e-002) (91, -3.08514595031738280000e-001) (92, -4.28841352462768550000e-001) (93, -7.12506353855133060000e-001) (94, 2.57461369037628170000e-001) (95, 7.43928849697113040000e-001) (96, -7.47398436069488530000e-001) (0, -4.52684551477432250000e-001) (1, -4.95253950357437130000e-001) (2, -1.80260494351387020000e-001) (3, 1.66623145341873170000e-001) (4, 8.26762497425079350000e-001) (5, 4.23501312732696530000e-001) (6, -1.79644972085952760000e-001) (7, -6.03065252304077150000e-001) (8, -2.51516550779342650000e-001) (9, -1.81303501129150390000e-001) (10, 4.39244627952575680000e-001) (11, 7.76588678359985350000e-001) (12, 5.26093482971191410000e-001) (13, 5.33187329769134520000e-001) (14, 2.57360786199569700000e-001) (15, -1.46584436297416690000e-001) (16, -8.63980352878570560000e-002) (17, 4.03402507305145260000e-001) (18, 3.22106420993804930000e-001) (19, 3.73904295265674590000e-002) (20, -6.77839219570159910000e-001) (21, -1.40997782349586490000e-001) (22, -2.00347714126110080000e-002) (23, -5.59447109699249270000e-001) (24, 1.57425895333290100000e-001) (25, 3.74076038599014280000e-001) (26, -1.81167080998420720000e-001) (27, -3.41930896043777470000e-001) (28, -7.21208751201629640000e-001) (29, -9.01269912719726560000e-002) (30, -3.50419789552688600000e-001) (31, -7.59659051895141600000e-001) (32, -4.41726073622703550000e-002) (33, 3.95550489425659180000e-001) (34, 6.88286945223808290000e-002) (35, -5.50824403762817380000e-001) (36, -3.41022342443466190000e-001) (37, -4.58679527044296260000e-001) (38, -2.15835437178611760000e-001) (39, -6.40035510063171390000e-001) (40, -3.90118181705474850000e-001) (41, 2.20886096358299260000e-001) (42, 3.47663700580596920000e-001) (43, 1.16824120283126830000e-001) (44, 2.19068229198455810000e-001) (45, 1.41520977020263670000e-001) (46, -8.73114615678787230000e-002) (47, -7.56508290767669680000e-001) (48, 1.80648267269134520000e-001) (49, -5.73447883129119870000e-001) (50, 1.04719378054142000000e-001) (51, 2.67423838376998900000e-001) (52, 8.86378586292266850000e-002) (53, 9.02503371238708500000e-001) (54, 3.37888300418853760000e-001) (55, -5.07942736148834230000e-001) (56, 5.00396370887756350000e-001) (57, -7.65038788318634030000e-001) (58, 1.45208910107612610000e-001) (59, -2.05235004425048830000e-001) (60, -2.06714645028114320000e-001) (61, 1.79428875446319580000e-001) (62, 2.81718283891677860000e-001) (63, -3.21686446666717530000e-001) (64, 2.80666649341583250000e-001) (65, -5.94897449016571040000e-001) (66, -4.50465142726898190000e-001) (67, -3.19396883249282840000e-001) (68, -1.47012695670127870000e-001) (69, -3.36826115846633910000e-001) (70, -2.60014057159423830000e-001) (71, -5.11850476264953610000e-001) (72, 1.84275973588228230000e-002) (73, -7.19650328159332280000e-001) (74, -1.05123355984687810000e-001) (75, 6.51953443884849550000e-002) (76, -3.17162513732910160000e-001) (77, -5.09356975555419920000e-001) (78, -5.31637728214263920000e-001) (79, -4.74089384078979490000e-001) (80, -2.65788853168487550000e-001) (81, -3.14914792776107790000e-001) (82, 2.88325339555740360000e-001) (83, -3.35560031235218050000e-002) (84, -4.01399642229080200000e-001) (85, 2.98155516386032100000e-001) (86, 2.62462291866540910000e-002) (87, -7.83989951014518740000e-002) (88, -1.17369078099727630000e-001) (89, -7.95564875006675720000e-002) (90, 3.99228632450103760000e-001) (91, -8.61104428768157960000e-002) (92, -1.32937818765640260000e-001) (93, 2.74802893400192260000e-001) (94, -4.74131852388381960000e-001) (95, -1.51518851518630980000e-001) (96, -3.15265685319900510000e-001) (0, 1.19785711169242860000e-001) (1, -5.32735064625740050000e-002) (2, 9.42457988858222960000e-002) (3, -5.63417188823223110000e-002) (4, -4.39271152019500730000e-001) (5, -1.51770599186420440000e-002) (6, 2.90956050157547000000e-001) (7, 4.17580276727676390000e-001) (8, 3.79973590373992920000e-001) (9, 2.52062588930130000000e-001) (10, -1.03352675214409830000e-002) (11, -1.20658725500106810000e-001) (12, 3.35159927606582640000e-001) (13, 1.73981815576553340000e-001) (14, -6.29546046257019040000e-002) (15, 1.97929799556732180000e-001) (16, 5.79650588333606720000e-002) (17, -1.30167743191123010000e-002) (18, -2.50087589025497440000e-001) (19, -1.17232695221900940000e-001) (20, 2.07651332020759580000e-001) (21, -2.26467698812484740000e-001) (22, -2.03397288918495180000e-001) (23, 2.58202940225601200000e-001) (24, -3.31556200981140140000e-001) (25, -6.24777436256408690000e-001) (26, -4.26959484815597530000e-001) (27, -1.94583371281623840000e-001) (28, 1.49119362235069270000e-001) (29, -5.21638929843902590000e-001) (30, -3.53763371706008910000e-001) (31, -3.90416651964187620000e-001) (32, -3.32439631223678590000e-001) (33, -3.71600419282913210000e-001) (34, -1.57017201185226440000e-001) (35, -1.96791991591453550000e-001) (36, -3.43266189098358150000e-001) (37, -2.84006655216217040000e-001) (38, 2.39963784813880920000e-001) (39, -1.20030805468559270000e-001) (40, -5.06181940436363220000e-002) (41, -4.57236856222152710000e-001) (42, -6.13129138946533200000e-003) (43, -4.07631486654281620000e-001) (44, -1.34815290570259090000e-001) (45, 5.01128315925598140000e-001) (46, -2.58097022771835330000e-001) (47, -1.27102851867675780000e-001) (48, -4.44552659988403320000e-001) (49, -1.05528092384338380000e+000) (50, -5.63092350959777830000e-001) (51, -3.60591351985931400000e-001) (52, 3.31597805023193360000e-001) (53, 6.73417747020721440000e-001) (54, -2.42952018976211550000e-001) (55, -1.67655706405639650000e-001) (56, -3.22454035282135010000e-001) (57, -7.83340573310852050000e-001) (58, -4.23812538385391240000e-001) (59, 8.51008594036102290000e-002) (60, -1.37547448277473450000e-001) (61, 5.82663834095001220000e-001) (62, 5.75611174106597900000e-001) (63, 3.24156761169433590000e-001) (64, -4.85952943563461300000e-001) (65, -7.16003894805908200000e-001) (66, -8.42176452279090880000e-002) (67, 1.90166477113962170000e-002) (68, -2.02275738120079040000e-001) (69, 1.51800394058227540000e-001) (70, -1.13935545086860660000e-001) (71, 2.85698711872100830000e-001) (72, -4.70036268234252930000e-001) (73, -5.81423997879028320000e-001) (74, -5.57392716407775880000e-001) (75, -5.98856449127197270000e-001) (76, -2.43500694632530210000e-001) (77, 1.59060791134834290000e-001) (78, -3.19100469350814820000e-002) (79, 3.22619289159774780000e-001) (80, -7.62760937213897710000e-002) (81, 1.43013864755630490000e-001) (82, -4.54326719045639040000e-001) (83, -3.07593286037445070000e-001) (84, 6.19832985103130340000e-002) (85, 4.71339404582977290000e-001) (86, -2.82427016645669940000e-003) (87, 2.18200832605361940000e-001) (88, 2.21263825893402100000e-001) (89, 6.00405670702457430000e-002) (90, 3.91493320465087890000e-001) (91, 6.93854451179504390000e-001) (92, 8.63196492195129390000e-001) (93, 5.75022518634796140000e-001) (94, 8.80140438675880430000e-002) (95, 2.56850242614746090000e-001) (96, -1.38187527656555180000e-001) (0, -1.81698471307754520000e-001) (1, -5.57773590087890630000e-001) (2, -2.47397214174270630000e-001) (3, 6.95519626140594480000e-001) (4, -1.43232956528663640000e-001) (5, 4.23093378543853760000e-001) (6, -2.28635862469673160000e-001) (7, -1.17953442037105560000e-001) (8, -5.40807992219924930000e-002) (9, -1.45955190062522890000e-001) (10, -2.96166658401489260000e-001) (11, 1.09224945306777950000e-001) (12, 8.38377848267555240000e-002) (13, -1.93517580628395080000e-001) (14, -6.96943700313568120000e-001) (15, -3.87388557195663450000e-001) (16, -9.87458899617195130000e-002) (17, -6.61652743816375730000e-001) (18, -1.65491029620170590000e-001) (19, 1.70950844883918760000e-001) (20, 1.81273906491696830000e-003) (21, 1.17227993905544280000e-001) (22, -4.89232212305068970000e-001) (23, -1.20647682342678310000e-003) (24, 3.08268129825592040000e-001) (25, -5.40277302265167240000e-001) (26, -1.97282999753952030000e-001) (27, 9.18886810541152950000e-003) (28, -1.97985708713531490000e-001) (29, -1.42519801855087280000e-001) (30, 8.25371369719505310000e-002) (31, -1.11779190599918370000e-001) (32, -2.44344606995582580000e-001) (33, -1.08519224449992180000e-002) (34, 2.08191260695457460000e-001) (35, 8.18451633676886560000e-004) (36, -3.38515033945441250000e-003) (37, 2.79886186122894290000e-001) (38, 2.27014988660812380000e-001) (39, 2.20542699098587040000e-002) (40, -4.64692944660782810000e-003) (41, -1.42214030027389530000e-001) (42, 5.18163442611694340000e-001) (43, 3.15371096134185790000e-001) (44, 4.80890482664108280000e-001) (45, 6.95463061332702640000e-001) (46, 4.19704318046569820000e-002) (47, -2.12395206093788150000e-001) (48, 2.07045897841453550000e-001) (49, -6.67633861303329470000e-002) (50, 1.84460505843162540000e-001) (51, 2.07458600401878360000e-001) (52, 2.30990469455718990000e-001) (53, 9.20396074652671810000e-002) (54, 3.06180715560913090000e-001) (55, 1.40003427863121030000e-001) (56, 1.34951591491699220000e-001) (57, -3.02821755409240720000e-001) (58, 1.98594421148300170000e-001) (59, -5.35884127020835880000e-002) (60, -6.86329960823059080000e-001) (61, 1.46278336644172670000e-001) (62, 1.03024709224700930000e+000) (63, 5.42968153953552250000e-001) (64, 2.38126829266548160000e-001) (65, -3.41605663299560550000e-001) (66, 1.26607134938240050000e-001) (67, -8.81378233432769780000e-001) (68, -7.40319967269897460000e-001) (69, -4.74710673093795780000e-001) (70, 9.56350564956665040000e-001) (71, 6.34389877319335940000e-001) (72, 4.19493436813354490000e-001) (73, 1.75370555371046070000e-002) (74, 1.72644466161727910000e-001) (75, -2.64071375131607060000e-001) (76, -1.63197606801986690000e-001) (77, -1.55574455857276920000e-001) (78, 8.66514146327972410000e-001) (79, 5.55509507656097410000e-001) (80, -1.11837469041347500000e-001) (81, -4.99493069946765900000e-002) (82, 6.01136744022369380000e-001) (83, -1.66207224130630490000e-001) (84, -4.00915026664733890000e-001) (85, 5.04107698798179630000e-002) (86, 3.52801203727722170000e-001) (87, 4.86136615276336670000e-001) (88, -4.13212537765502930000e-001) (89, -1.24866291880607600000e-001) (90, 3.01662951707839970000e-001) (91, 1.83814913034439090000e-001) (92, 2.47318655252456670000e-001) (93, 2.58375741541385650000e-002) (94, -1.43284657970070840000e-002) (95, -1.61184877157211300000e-001) (96, -8.74728679656982420000e-001) (0, 1.44778609275817870000e-001) (1, 4.38599921762943270000e-002) (2, 1.92648932337760930000e-001) (3, -2.36238017678260800000e-002) (4, 1.10527664422988890000e-001) (5, 3.59647385776042940000e-002) (6, 1.89871132373809810000e-001) (7, -2.01990269124507900000e-002) (8, -6.34136870503425600000e-002) (9, -2.83885776996612550000e-001) (10, -4.12026584148406980000e-001) (11, -3.46878021955490110000e-001) (12, -6.54776692390441890000e-001) (13, -2.03070521354675290000e-001) (14, 9.02481824159622190000e-002) (15, 6.65960088372230530000e-002) (16, 9.68070849776268010000e-002) (17, -2.56625831127166750000e-001) (18, -5.20230710506439210000e-001) (19, -3.50306838750839230000e-001) (20, -1.24041631817817690000e-001) (21, 3.90193122439086440000e-003) (22, -3.39946359395980830000e-001) (23, -2.85330861806869510000e-001) (24, -2.38083720207214360000e-001) (25, -8.53505209088325500000e-002) (26, -5.16238391399383540000e-001) (27, -1.98825478553771970000e-001) (28, 1.81706205010414120000e-001) (29, -5.14861680567264560000e-002) (30, -5.12419879436492920000e-001) (31, -2.07760304212570190000e-001) (32, -1.86917886137962340000e-001) (33, 1.60944014787673950000e-001) (34, 3.36935259401798250000e-002) (35, 8.52271541953086850000e-003) (36, 3.91250908374786380000e-001) (37, -7.71038308739662170000e-002) (38, -4.70750778913497920000e-001) (39, -2.09711909294128420000e-001) (40, -3.87293249368667600000e-001) (41, -2.01235800981521610000e-001) (42, 5.39258658885955810000e-001) (43, 7.39917159080505370000e-001) (44, 4.35801059007644650000e-001) (45, 5.05932569503784180000e-001) (46, -4.15209680795669560000e-001) (47, -2.29205802083015440000e-001) (48, -1.80297829210758210000e-002) (49, 1.71646326780319210000e-001) (50, 7.67211735248565670000e-001) (51, 