FANN_FLO_2.1
num_layers=3
learning_rate=0.700000
connection_rate=1.000000
network_type=0
learning_momentum=0.400000
training_algorithm=0
train_error_function=1
train_stop_function=0
cascade_output_change_fraction=0.010000
quickprop_decay=-0.000100
quickprop_mu=1.750000
rprop_increase_factor=1.200000
rprop_decrease_factor=0.500000
rprop_delta_min=0.000000
rprop_delta_max=50.000000
rprop_delta_zero=0.100000
cascade_output_stagnation_epochs=12
cascade_candidate_change_fraction=0.010000
cascade_candidate_stagnation_epochs=12
cascade_max_out_epochs=150
cascade_min_out_epochs=50
cascade_max_cand_epochs=150
cascade_min_cand_epochs=50
cascade_num_candidate_groups=2
bit_fail_limit=3.49999994039535520000e-001
cascade_candidate_limit=1.00000000000000000000e+003
cascade_weight_multiplier=4.00000005960464480000e-001
cascade_activation_functions_count=10
cascade_activation_functions=3 5 7 8 10 11 14 15 16 17 
cascade_activation_steepnesses_count=4
cascade_activation_steepnesses=2.50000000000000000000e-001 5.00000000000000000000e-001 7.50000000000000000000e-001 1.00000000000000000000e+000 
layer_sizes=97 97 37 
scale_included=0
neurons (num_inputs, activation_function, activation_steepness)=(0, 0, 0.00000000000000000000e+000) (0, 0, 0.00000000000000000000e+000) (0, 0, 0.00000000000000000000e+000) (0, 0, 0.00000000000000000000e+000) (0, 0, 0.00000000000000000000e+000) (0, 0, 0.00000000000000000000e+000) (0, 0, 0.00000000000000000000e+000) (0, 0, 0.00000000000000000000e+000) (0, 0, 0.00000000000000000000e+000) (0, 0, 0.00000000000000000000e+000) (0, 0, 0.00000000000000000000e+000) (0, 0, 0.00000000000000000000e+000) (0, 0, 0.00000000000000000000e+000) (0, 0, 0.00000000000000000000e+000) (0, 0, 0.00000000000000000000e+000) (0, 0, 0.00000000000000000000e+000) (0, 0, 0.00000000000000000000e+000) (0, 0, 0.00000000000000000000e+000) (0, 0, 0.00000000000000000000e+000) (0, 0, 0.00000000000000000000e+000) (0, 0, 0.00000000000000000000e+000) (0, 0, 0.00000000000000000000e+000) (0, 0, 0.00000000000000000000e+000) (0, 0, 0.00000000000000000000e+000) (0, 0, 0.00000000000000000000e+000) (0, 0, 0.00000000000000000000e+000) (0, 0, 0.00000000000000000000e+000) (0, 0, 0.00000000000000000000e+000) (0, 0, 0.00000000000000000000e+000) (0, 0, 0.00000000000000000000e+000) (0, 0, 0.00000000000000000000e+000) (0, 0, 0.00000000000000000000e+000) (0, 0, 0.00000000000000000000e+000) (0, 0, 0.00000000000000000000e+000) (0, 0, 0.00000000000000000000e+000) (0, 0, 0.00000000000000000000e+000) (0, 0, 0.00000000000000000000e+000) (0, 0, 0.00000000000000000000e+000) (0, 0, 0.00000000000000000000e+000) (0, 0, 0.00000000000000000000e+000) (0, 0, 0.00000000000000000000e+000) (0, 0, 0.00000000000000000000e+000) (0, 0, 0.00000000000000000000e+000) (0, 0, 0.00000000000000000000e+000) (0, 0, 0.00000000000000000000e+000) (0, 0, 0.00000000000000000000e+000) (0, 0, 0.00000000000000000000e+000) (0, 0, 0.00000000000000000000e+000) (0, 0, 0.00000000000000000000e+000) (0, 0, 0.00000000000000000000e+000) (0, 0, 0.00000000000000000000e+000) (0, 0, 0.00000000000000000000e+000) (0, 0, 0.00000000000000000000e+000) (0, 0, 0.00000000000000000000e+000) (0, 0, 0.00000000000000000000e+000) (0, 0, 0.00000000000000000000e+000) (0, 0, 0.00000000000000000000e+000) (0, 0, 0.00000000000000000000e+000) (0, 0, 0.00000000000000000000e+000) (0, 0, 0.00000000000000000000e+000) (0, 0, 0.00000000000000000000e+000) (0, 0, 0.00000000000000000000e+000) (0, 0, 0.00000000000000000000e+000) (0, 0, 0.00000000000000000000e+000) (0, 0, 0.00000000000000000000e+000) (0, 0, 0.00000000000000000000e+000) (0, 0, 0.00000000000000000000e+000) (0, 0, 0.00000000000000000000e+000) (0, 0, 0.00000000000000000000e+000) (0, 0, 0.00000000000000000000e+000) (0, 0, 0.00000000000000000000e+000) (0, 0, 0.00000000000000000000e+000) (0, 0, 0.00000000000000000000e+000) (0, 0, 0.00000000000000000000e+000) (0, 0, 0.00000000000000000000e+000) (0, 0, 0.00000000000000000000e+000) (0, 0, 0.00000000000000000000e+000) (0, 0, 0.00000000000000000000e+000) (0, 0, 0.00000000000000000000e+000) (0, 0, 0.00000000000000000000e+000) (0, 0, 0.00000000000000000000e+000) (0, 0, 0.00000000000000000000e+000) (0, 0, 0.00000000000000000000e+000) (0, 0, 0.00000000000000000000e+000) (0, 0, 0.00000000000000000000e+000) (0, 0, 0.00000000000000000000e+000) (0, 0, 0.00000000000000000000e+000) (0, 0, 0.00000000000000000000e+000) (0, 0, 0.00000000000000000000e+000) (0, 0, 0.00000000000000000000e+000) (0, 0, 0.00000000000000000000e+000) (0, 0, 0.00000000000000000000e+000) (0, 0, 0.00000000000000000000e+000) (0, 0, 0.00000000000000000000e+000) (0, 0, 0.00000000000000000000e+000) (0, 0, 0.00000000000000000000e+000) (0, 0, 0.00000000000000000000e+000) (97, 4, 5.00000000000000000000e-001) (97, 4, 5.00000000000000000000e-001) (97, 4, 5.00000000000000000000e-001) (97, 4, 5.00000000000000000000e-001) (97, 4, 5.00000000000000000000e-001) (97, 4, 5.00000000000000000000e-001) (97, 4, 5.00000000000000000000e-001) (97, 4, 5.00000000000000000000e-001) (97, 4, 5.00000000000000000000e-001) (97, 4, 5.00000000000000000000e-001) (97, 4, 5.00000000000000000000e-001) (97, 4, 5.00000000000000000000e-001) (97, 4, 5.00000000000000000000e-001) (97, 4, 5.00000000000000000000e-001) (97, 4, 5.00000000000000000000e-001) (97, 4, 5.00000000000000000000e-001) (97, 4, 5.00000000000000000000e-001) (97, 4, 5.00000000000000000000e-001) (97, 4, 5.00000000000000000000e-001) (97, 4, 5.00000000000000000000e-001) (97, 4, 5.00000000000000000000e-001) (97, 4, 5.00000000000000000000e-001) (97, 4, 5.00000000000000000000e-001) (97, 4, 5.00000000000000000000e-001) (97, 4, 5.00000000000000000000e-001) (97, 4, 5.00000000000000000000e-001) (97, 4, 5.00000000000000000000e-001) (97, 4, 5.00000000000000000000e-001) (97, 4, 5.00000000000000000000e-001) (97, 4, 5.00000000000000000000e-001) (97, 4, 5.00000000000000000000e-001) (97, 4, 5.00000000000000000000e-001) (97, 4, 5.00000000000000000000e-001) (97, 4, 5.00000000000000000000e-001) (97, 4, 5.00000000000000000000e-001) (97, 4, 5.00000000000000000000e-001) (97, 4, 5.00000000000000000000e-001) (97, 4, 5.00000000000000000000e-001) (97, 4, 5.00000000000000000000e-001) (97, 4, 5.00000000000000000000e-001) (97, 4, 5.00000000000000000000e-001) (97, 4, 5.00000000000000000000e-001) (97, 4, 5.00000000000000000000e-001) (97, 4, 5.00000000000000000000e-001) (97, 4, 5.00000000000000000000e-001) (97, 4, 5.00000000000000000000e-001) (97, 4, 5.00000000000000000000e-001) (97, 4, 5.00000000000000000000e-001) (97, 4, 5.00000000000000000000e-001) (97, 4, 5.00000000000000000000e-001) (97, 4, 5.00000000000000000000e-001) (97, 4, 5.00000000000000000000e-001) (97, 4, 5.00000000000000000000e-001) (97, 4, 5.00000000000000000000e-001) (97, 4, 5.00000000000000000000e-001) (97, 4, 5.00000000000000000000e-001) (97, 4, 5.00000000000000000000e-001) (97, 4, 5.00000000000000000000e-001) (97, 4, 5.00000000000000000000e-001) (97, 4, 5.00000000000000000000e-001) (97, 4, 5.00000000000000000000e-001) (97, 4, 5.00000000000000000000e-001) (97, 4, 5.00000000000000000000e-001) (97, 4, 5.00000000000000000000e-001) (97, 4, 5.00000000000000000000e-001) (97, 4, 5.00000000000000000000e-001) (97, 4, 5.00000000000000000000e-001) (97, 4, 5.00000000000000000000e-001) (97, 4, 5.00000000000000000000e-001) (97, 4, 5.00000000000000000000e-001) (97, 4, 5.00000000000000000000e-001) (97, 4, 5.00000000000000000000e-001) (97, 4, 5.00000000000000000000e-001) (97, 4, 5.00000000000000000000e-001) (97, 4, 5.00000000000000000000e-001) (97, 4, 5.00000000000000000000e-001) (97, 4, 5.00000000000000000000e-001) (97, 4, 5.00000000000000000000e-001) (97, 4, 5.00000000000000000000e-001) (97, 4, 5.00000000000000000000e-001) (97, 4, 5.00000000000000000000e-001) (97, 4, 5.00000000000000000000e-001) (97, 4, 5.00000000000000000000e-001) (97, 4, 5.00000000000000000000e-001) (97, 4, 5.00000000000000000000e-001) (97, 4, 5.00000000000000000000e-001) (97, 4, 5.00000000000000000000e-001) (97, 4, 5.00000000000000000000e-001) (97, 4, 5.00000000000000000000e-001) (97, 4, 5.00000000000000000000e-001) (97, 4, 5.00000000000000000000e-001) (97, 4, 5.00000000000000000000e-001) (97, 4, 5.00000000000000000000e-001) (97, 4, 5.00000000000000000000e-001) (97, 4, 5.00000000000000000000e-001) (97, 4, 5.00000000000000000000e-001) (0, 0, 0.00000000000000000000e+000) (97, 4, 5.00000000000000000000e-001) (97, 4, 5.00000000000000000000e-001) (97, 4, 5.00000000000000000000e-001) (97, 4, 5.00000000000000000000e-001) (97, 4, 5.00000000000000000000e-001) (97, 4, 5.00000000000000000000e-001) (97, 4, 5.00000000000000000000e-001) (97, 4, 5.00000000000000000000e-001) (97, 4, 5.00000000000000000000e-001) (97, 4, 5.00000000000000000000e-001) (97, 4, 5.00000000000000000000e-001) (97, 4, 5.00000000000000000000e-001) (97, 4, 5.00000000000000000000e-001) (97, 4, 5.00000000000000000000e-001) (97, 4, 5.00000000000000000000e-001) (97, 4, 5.00000000000000000000e-001) (97, 4, 5.00000000000000000000e-001) (97, 4, 5.00000000000000000000e-001) (97, 4, 5.00000000000000000000e-001) (97, 4, 5.00000000000000000000e-001) (97, 4, 5.00000000000000000000e-001) (97, 4, 5.00000000000000000000e-001) (97, 4, 5.00000000000000000000e-001) (97, 4, 5.00000000000000000000e-001) (97, 4, 5.00000000000000000000e-001) (97, 4, 5.00000000000000000000e-001) (97, 4, 5.00000000000000000000e-001) (97, 4, 5.00000000000000000000e-001) (97, 4, 5.00000000000000000000e-001) (97, 4, 5.00000000000000000000e-001) (97, 4, 5.00000000000000000000e-001) (97, 4, 5.00000000000000000000e-001) (97, 4, 5.00000000000000000000e-001) (97, 4, 5.00000000000000000000e-001) (97, 4, 5.00000000000000000000e-001) (97, 4, 5.00000000000000000000e-001) (0, 0, 0.00000000000000000000e+000) 
connections (connected_to_neuron, weight)=(0, -6.05562254786491390000e-002) (1, -2.12164714932441710000e-001) (2, 1.79140884429216380000e-002) (3, 1.42940387129783630000e-001) (4, 9.22766327857971190000e-002) (5, 4.65427964925765990000e-001) (6, -5.15083253383636470000e-001) (7, 2.74231843650341030000e-002) (8, 1.59193947911262510000e-001) (9, -4.35086607933044430000e-001) (10, 2.03213557600975040000e-001) (11, 5.06126582622528080000e-001) (12, 3.26853871345520020000e-001) (13, -9.97672602534294130000e-003) (14, -1.64515137672424320000e-001) (15, 2.40453869104385380000e-001) (16, 4.81680870056152340000e-001) (17, -3.22190165519714360000e-001) (18, 4.90867257118225100000e-001) (19, -1.69355779886245730000e-001) (20, -5.81475079059600830000e-001) (21, -8.22304069995880130000e-001) (22, -2.20127865672111510000e-001) (23, 2.14896142482757570000e-001) (24, -5.29586434364318850000e-001) (25, -2.20819845795631410000e-001) (26, -2.30798780918121340000e-001) (27, -3.23315203189849850000e-001) (28, -6.50301516056060790000e-001) (29, -4.67741578817367550000e-001) (30, 4.76712673902511600000e-001) (31, 3.74692648649215700000e-001) (32, -2.67732918262481690000e-001) (33, 7.46324062347412110000e-002) (34, 8.38550806045532230000e-001) (35, -2.39843100309371950000e-001) (36, -7.50156581401824950000e-001) (37, 9.47395384311676030000e-001) (38, 5.35512506961822510000e-001) (39, 1.54979571700096130000e-001) (40, -7.87529423832893370000e-002) (41, 1.12123675644397740000e-002) (42, 6.36013746261596680000e-001) (43, 6.70874178409576420000e-001) (44, 1.78704607486724850000e+000) (45, 9.84517574310302730000e-001) (46, -7.53769934177398680000e-001) (47, 5.73293454945087430000e-002) (48, -1.63930580019950870000e-001) (49, -1.18501804769039150000e-001) (50, 3.11555474996566770000e-001) (51, 3.84541988372802730000e-001) (52, 9.35930907726287840000e-001) (53, 1.34081944823265080000e-001) (54, -2.32498466968536380000e-001) (55, -4.92061600089073180000e-002) (56, -4.41126704216003420000e-001) (57, 1.45009383559226990000e-001) (58, -3.52263629436492920000e-001) (59, 1.82312980294227600000e-001) (60, -6.34691864252090450000e-002) (61, -3.20992499589920040000e-001) (62, -2.10404336452484130000e-001) (63, -2.11325794458389280000e-001) (64, -2.43489056825637820000e-001) (65, 2.05724939703941350000e-001) (66, -4.48808044195175170000e-001) (67, -1.12649537622928620000e-001) (68, -1.94557771086692810000e-001) (69, -1.03258061408996580000e+000) (70, 9.90424454212188720000e-002) (71, -2.77377307415008540000e-001) (72, 3.90506436815485360000e-004) (73, 1.25831991434097290000e-001) (74, 5.85739277303218840000e-002) (75, -9.43852961063385010000e-001) (76, -2.96988815069198610000e-001) (77, -6.85727179050445560000e-001) (78, 2.22028672695159910000e-001) (79, -3.96944493055343630000e-001) (80, -2.10141807794570920000e-001) (81, 1.32196754217147830000e-001) (82, -1.62331247329711910000e+000) (83, 2.49456278979778290000e-002) (84, 5.90555846691131590000e-001) (85, -4.05233055353164670000e-001) (86, -7.23652839660644530000e-001) (87, -5.12557983398437500000e-001) (88, -5.89795336127281190000e-002) (89, -8.72886419296264650000e-001) (90, -3.48012864589691160000e-001) (91, 2.09944874048233030000e-001) (92, 1.79296419024467470000e-001) (93, 2.20758235082030300000e-003) (94, -2.12523877620697020000e-001) (95, 1.40401393175125120000e-001) (96, -6.89179420471191410000e-001) (0, -6.68661817908287050000e-002) (1, -1.34146958589553830000e-001) (2, 8.92358794808387760000e-002) (3, -2.20964759588241580000e-001) (4, -7.43800699710845950000e-002) (5, 9.33571100234985350000e-001) (6, 7.49218687415122990000e-002) (7, -1.12076457589864730000e-002) (8, -9.32237207889556880000e-002) (9, -1.23639702796936040000e-002) (10, -5.86230866611003880000e-002) (11, 4.30784076452255250000e-002) (12, -9.30363126099109650000e-003) (13, -1.31987005472183230000e-001) (14, 1.15610644221305850000e-001) (15, 6.48357868194580080000e-002) (16, -9.78429317474365230000e-002) (17, -2.37908035516738890000e-001) (18, 5.77656365931034090000e-002) (19, -2.16980427503585820000e-002) (20, 1.20929395779967310000e-002) (21, 4.87079769372940060000e-002) (22, 5.82033060491085050000e-002) (23, 3.09052050113677980000e-001) (24, -2.93672502040863040000e-001) (25, -9.25299301743507390000e-002) (26, -1.03715486824512480000e-001) (27, 1.03956973180174830000e-002) (28, -2.27194920182228090000e-001) (29, 1.20179086923599240000e-001) (30, 2.15898919850587840000e-002) (31, 2.69373685121536250000e-001) (32, -1.63214191794395450000e-001) (33, -1.56024590134620670000e-001) (34, 7.79379829764366150000e-002) (35, -3.35146307945251460000e-001) (36, -2.11655348539352420000e-001) (37, -1.16279758512973790000e-001) (38, 4.43183220922946930000e-002) (39, 2.64156103134155270000e-001) (40, 2.08046799525618550000e-003) (41, -2.89563126862049100000e-002) (42, 1.40028279274702070000e-002) (43, 1.05797760188579560000e-002) (44, 1.52137458324432370000e-001) (45, -1.13841071724891660000e-001) (46, 4.55743186175823210000e-002) (47, 2.61007964611053470000e-001) (48, 1.58623829483985900000e-001) (49, 3.27540397644042970000e-001) (50, 5.00303395092487340000e-002) (51, -1.41539216041564940000e-001) (52, 1.98185473680496220000e-001) (53, -9.26404297351837160000e-002) (54, 9.24909934401512150000e-002) (55, 5.64596541225910190000e-002) (56, 8.52660238742828370000e-002) (57, 2.30015069246292110000e-001) (58, -2.79302839189767840000e-002) (59, 1.59738615155220030000e-001) (60, -3.37771177291870120000e-001) (61, -3.25814992189407350000e-001) (62, -2.10567817091941830000e-001) (63, -5.51007203757762910000e-002) (64, 2.41326197981834410000e-001) (65, 1.67156592011451720000e-001) (66, -1.52003273367881770000e-001) (67, -7.43498420342803000000e-003) (68, -2.25886195898056030000e-001) (69, -3.50303500890731810000e-002) (70, -1.09234496951103210000e-001) (71, 8.62750262022018430000e-002) (72, 3.63714456558227540000e-001) (73, 6.75675123929977420000e-002) (74, 1.86592295765876770000e-001) (75, 2.63636503368616100000e-002) (76, -3.04318457841873170000e-001) (77, -2.82925814390182500000e-001) (78, -9.17116776108741760000e-002) (79, -3.71599532663822170000e-002) (80, -1.78812325000762940000e-001) (81, -5.07609486579895020000e-001) (82, 1.82928398251533510000e-001) (83, 2.09340304136276250000e-002) (84, -2.29186117649078370000e-001) (85, -3.43255639076232910000e-001) (86, -1.29249021410942080000e-001) (87, 1.75540428608655930000e-002) (88, -2.65420079231262210000e-001) (89, -8.93684402108192440000e-002) (90, -1.44492104649543760000e-001) (91, -1.93186864256858830000e-001) (92, -2.24903300404548650000e-001) (93, -2.88914710283279420000e-001) (94, -2.43182316422462460000e-001) (95, -1.44753709435462950000e-001) (96, -1.95375442504882810000e-001) (0, -1.76071166992187500000e-001) (1, -2.32748359441757200000e-001) (2, -5.71218848228454590000e-001) (3, 2.02666211128234860000e+000) (4, 2.82926142215728760000e-001) (5, -3.16062831878662110000e+000) (6, -1.97473227977752690000e-001) (7, -8.07965993881225590000e-002) (8, 7.45370760560035710000e-002) (9, -8.24070930480957030000e-001) (10, -6.82789504528045650000e-001) (11, -3.35665524005889890000e-001) (12, -7.31146693229675290000e-001) (13, -4.91277098655700680000e-001) (14, -4.53734546899795530000e-001) (15, 4.50095593929290770000e-001) (16, -4.08652812242507930000e-001) (17, -2.82777726650238040000e-001) (18, -5.89006662368774410000e-001) (19, -3.35517793893814090000e-001) (20, -6.42814993858337400000e-001) (21, -6.23990178108215330000e-001) (22, -2.48995155096054080000e-001) (23, 5.26314020156860350000e-001) (24, 5.59998095035552980000e-001) (25, 3.72603331925347450000e-004) (26, -3.28183829784393310000e-001) (27, -5.02387106418609620000e-001) (28, -3.05752694606781010000e-001) (29, -6.67787909507751460000e-001) (30, -7.19355821609497070000e-001) (31, -2.66185790300369260000e-001) (32, 4.49059009552001950000e-001) (33, -2.02618628740310670000e-001) (34, -2.46453106403350830000e-001) (35, -1.56420424580574040000e-001) (36, -5.14700472354888920000e-001) (37, -1.45046874880790710000e-001) (38, -3.20369213819503780000e-001) (39, -2.20659837126731870000e-001) (40, -6.37467876076698300000e-002) (41, -3.07790607213974000000e-001) (42, 2.08638474345207210000e-001) (43, -3.01927417516708370000e-001) (44, -7.22775876522064210000e-001) (45, -4.93152379989624020000e-001) (46, -5.02123117446899410000e-001) (47, -2.58139558136463170000e-002) (48, 1.43648833036422730000e-001) (49, -9.70959961414337160000e-001) (50, 2.65843063592910770000e-001) (51, 1.56489968299865720000e+000) (52, 6.70313239097595210000e-002) (53, -2.28730067610740660000e-001) (54, -4.12368804216384890000e-001) (55, -3.91089059412479400000e-002) (56, -1.05176591873168950000e+000) (57, -1.02889096736907960000e+000) (58, -4.10381436347961430000e-001) (59, -1.34315520524978640000e-001) (60, 9.63296890258789060000e-001) (61, -4.23151671886444090000e-001) (62, -6.58111810684204100000e-001) (63, 5.50776779651641850000e-001) (64, -1.26230180263519290000e+000) (65, -9.55158412456512450000e-001) (66, 9.32342886924743650000e-001) (67, 3.85466009378433230000e-001) (68, -7.58612930774688720000e-001) (69, -4.03837561607360840000e-002) (70, -6.84448361396789550000e-001) (71, 5.88807284832000730000e-001) (72, -4.67399775981903080000e-001) (73, -8.44615817070007320000e-001) (74, 9.25670981407165530000e-001) (75, -8.09690713882446290000e-001) (76, -4.19287055730819700000e-001) (77, -3.75608235597610470000e-001) (78, -1.71016824245452880000e+000) (79, 2.65929996967315670000e-001) (80, -7.64716342091560360000e-002) (81, 3.16952466964721680000e+000) (82, 6.41985356807708740000e-001) (83, -4.27636802196502690000e-001) (84, 8.20877328515052800000e-002) (85, -7.79971063137054440000e-001) (86, -3.48588109016418460000e-001) (87, 1.07633218169212340000e-001) (88, 5.61444461345672610000e-001) (89, -4.25172597169876100000e-001) (90, 6.03333294391632080000e-001) (91, 2.15406641364097600000e-001) (92, 8.58791470527648930000e-002) (93, 1.81251466274261470000e-001) (94, 7.56258130073547360000e-001) (95, 4.79007869958877560000e-001) (96, -1.04860901832580570000e+000) (0, -1.74108847975730900000e-001) (1, 1.08322553336620330000e-001) (2, -3.11766546219587330000e-002) (3, -1.79591208696365360000e-001) (4, 3.59097421169281010000e-002) (5, 2.74869769811630250000e-001) (6, -5.17861068248748780000e-001) (7, 1.84700250625610350000e-001) (8, -1.12918838858604430000e-001) (9, 1.27250300720334050000e-002) (10, -1.81696891784667970000e-001) (11, -2.46519938111305240000e-001) (12, -2.01792731881141660000e-001) (13, -3.03352713584899900000e-001) (14, -4.56993818283081050000e-001) (15, -1.93865373730659480000e-002) (16, 2.12704226374626160000e-001) (17, 2.17826455831527710000e-001) (18, 1.15432538092136380000e-001) (19, 2.09274098277091980000e-001) (20, -2.22832635045051570000e-001) (21, 2.61814504861831670000e-001) (22, -4.57151442766189580000e-001) (23, -2.46602118015289310000e-001) (24, -2.36702799797058110000e-001) (25, 1.37096852064132690000e-001) (26, 1.95935130119323730000e-001) (27, 3.77289354801177980000e-002) (28, -1.43016785383224490000e-001) (29, 8.18334594368934630000e-002) (30, 8.68359506130218510000e-002) (31, -2.00481146574020390000e-001) (32, -2.51669287681579590000e-001) (33, 1.01171895861625670000e-001) (34, -1.55822351574897770000e-001) (35, -1.21564127504825590000e-001) (36, 2.11954891681671140000e-001) (37, 2.28388383984565730000e-001) (38, 1.92519381642341610000e-001) (39, -1.41965419054031370000e-001) (40, 6.60523474216461180000e-002) (41, 6.31233081221580510000e-002) (42, 1.94704048335552220000e-002) (43, 3.22723090648651120000e-001) (44, -3.83710145950317380000e-001) (45, -1.84627026319503780000e-001) (46, 1.66423946619033810000e-001) (47, -1.39997884631156920000e-001) (48, 2.82569348812103270000e-001) (49, 5.26710450649261470000e-002) (50, 2.54152834415435790000e-001) (51, 6.49869590997695920000e-002) (52, -4.55815345048904420000e-001) (53, 9.46489125490188600000e-002) (54, -1.29912704229354860000e-001) (55, -5.99189810454845430000e-002) (56, -3.85837256908416750000e-001) (57, -5.39350472390651700000e-002) (58, 2.37515479326248170000e-001) (59, 4.31843250989913940000e-002) (60, -8.63480925559997560000e-001) (61, -6.73644602298736570000e-001) (62, 3.85330505669116970000e-002) (63, 5.53423687815666200000e-002) (64, -4.21302706003189090000e-001) (65, 2.51526951789855960000e-001) (66, 6.87318965792655940000e-002) (67, -3.91919642686843870000e-001) (68, -7.19290137290954590000e-001) (69, -2.58125841617584230000e-001) (70, 2.43721723556518550000e-001) (71, 1.84034854173660280000e-001) (72, 2.90270745754241940000e-001) (73, 5.59722363948822020000e-001) (74, 4.72913146018981930000e-001) (75, -1.65183112025260930000e-001) (76, 1.23909167945384980000e-001) (77, 4.30028051137924190000e-001) (78, -5.40826609358191490000e-003) (79, 1.81019380688667300000e-001) (80, 2.32541024684906010000e-001) (81, 4.53272759914398190000e-001) (82, -2.72866412997245790000e-002) (83, -3.62945675849914550000e-001) (84, -5.09023070335388180000e-001) (85, -2.65030056238174440000e-001) (86, -3.03616136312484740000e-001) (87, 1.02460667490959170000e-001) (88, 5.00034809112548830000e-001) (89, 8.51142227649688720000e-001) (90, -5.76672255992889400000e-001) (91, -4.12787646055221560000e-001) (92, -6.37860894203186040000e-001) (93, -5.03024816513061520000e-001) (94, -7.79787600040435790000e-002) (95, -1.84564534574747090000e-002) (96, -1.60625249147415160000e-001) (0, 9.28824171423912050000e-002) (1, -4.47555571794509890000e-001) (2, -2.90991127490997310000e-001) (3, 1.42569983005523680000e+000) (4, -4.04209852218627930000e-001) (5, -1.40841364860534670000e+000) (6, -5.13978064060211180000e-001) (7, -4.68770600855350490000e-002) (8, 6.90051391720771790000e-002) (9, 9.63304221630096440000e-001) (10, 6.53047114610672000000e-003) (11, -1.67446613311767580000e-001) (12, -1.82918250560760500000e-001) (13, -5.48616886138916020000e-001) (14, -1.64363253116607670000e+000) (15, -2.32107400894165040000e-001) (16, 3.56511414051055910000e-001) (17, -1.39299824833869930000e-001) (18, -3.15830169711261990000e-004) (19, 8.44111382961273190000e-001) (20, 1.31281122565269470000e-001) (21, 9.19088721275329590000e-002) (22, -3.18968086503446100000e-003) (23, -1.35676100850105290000e-001) (24, 5.28466701507568360000e-001) (25, -9.73744630813598630000e-001) (26, 3.14156889915466310000e-001) (27, 2.00201459228992460000e-002) (28, -7.37917959690093990000e-001) (29, -3.46524417400360110000e-001) (30, 7.08738863468170170000e-001) (31, 2.51498937606811520000e-001) (32, -5.29563911259174350000e-002) (33, -8.16639900207519530000e-001) (34, -3.17006617784500120000e-001) (35, -4.38263773918151860000e-001) (36, -4.70993757247924800000e-001) (37, 9.20617505908012390000e-002) (38, 9.03147220611572270000e-001) (39, 7.27807700634002690000e-001) (40, 1.37074947357177730000e-001) (41, -6.15473568439483640000e-001) (42, -8.95560443401336670000e-001) (43, -3.20954591035842900000e-001) (44, -4.03052300214767460000e-001) (45, 3.61586719751358030000e-001) (46, 9.35920715332031250000e-001) (47, 7.42193281650543210000e-001) (48, 4.84620928764343260000e-001) (49, -1.00490279495716090000e-001) (50, -1.13512659072875980000e+000) (51, -5.47793388366699220000e-001) (52, -1.23634859919548030000e-001) (53, -4.68762457370758060000e-001) (54, -6.23443305492401120000e-001) (55, 3.03681582212448120000e-001) (56, 1.55993592739105220000e+000) (57, -1.19863741099834440000e-001) (58, -1.39472588896751400000e-001) (59, 1.90770789980888370000e-001) (60, 7.71887302398681640000e-001) (61, -9.31703984737396240000e-001) (62, -4.76731926202774050000e-001) (63, -2.47691661119461060000e-001) (64, 1.14260876178741460000e+000) (65, -2.35800489783287050000e-001) (66, -2.39593908190727230000e-002) (67, 8.02914574742317200000e-002) (68, -6.84885740280151370000e-001) (69, -7.20152556896209720000e-001) (70, 2.11541056632995610000e-001) (71, -3.63963246345520020000e-001) (72, -1.87573228031396870000e-002) (73, -3.54360729455947880000e-001) (74, 4.50367659330368040000e-001) (75, -1.22047412395477290000e+000) (76, -7.99767673015594480000e-001) (77, -6.42932951450347900000e-001) (78, 6.76587641239166260000e-001) (79, -1.12904869019985200000e-001) (80, -1.55698001384735110000e-001) (81, 1.15705251693725590000e+000) (82, 6.29339575767517090000e-001) (83, -1.90946996212005620000e-001) (84, -2.36835286021232600000e-001) (85, 7.58090078830718990000e-001) (86, 7.39016473293304440000e-001) (87, -5.40758550167083740000e-001) (88, 3.79508554935455320000e-001) (89, -3.66942763328552250000e-001) (90, 4.20685946941375730000e-001) (91, 5.78781008720397950000e-001) (92, 6.80216312408447270000e-001) (93, 4.71255809068679810000e-001) (94, -2.59454715996980670000e-002) (95, 1.74895882606506350000e-001) (96, -7.65585660934448240000e-001) (0, -2.17740431427955630000e-001) (1, 4.85260933637619020000e-001) (2, 4.49068248271942140000e-001) (3, -3.44275802373886110000e-001) (4, -4.02302503585815430000e-001) (5, 8.18953514099121090000e-001) (6, -3.30277830362319950000e-001) (7, -3.32313142716884610000e-002) (8, -2.74759232997894290000e-001) (9, 1.05242505669593810000e-001) (10, -1.51302531361579900000e-001) (11, -4.67003166675567630000e-001) (12, -1.71621695160865780000e-001) (13, 5.74620440602302550000e-002) (14, -5.18141150474548340000e-001) (15, -2.38599464297294620000e-001) (16, -1.84131577610969540000e-001) (17, 6.31803199648857120000e-002) (18, 4.11275714635849000000e-001) (19, 4.18281972408294680000e-001) (20, 4.33482140302658080000e-001) (21, 2.74463862180709840000e-001) (22, -4.97926592826843260000e-001) (23, -2.78780370950698850000e-001) (24, -2.37871676683425900000e-001) (25, 3.62240701913833620000e-001) (26, 9.35351490974426270000e-001) (27, 6.19177818298339840000e-001) (28, 2.71650403738021850000e-001) (29, 3.56677085161209110000e-001) (30, -4.29006576538085940000e-001) (31, -1.39692440629005430000e-001) (32, -2.36422583460807800000e-001) (33, 1.31075263023376460000e-001) (34, -1.53178763389587400000e+000) (35, -1.75815415382385250000e+000) (36, -3.11477184295654300000e-001) (37, 3.84385228157043460000e-001) (38, -3.17118495702743530000e-001) (39, -9.76090505719184880000e-002) (40, -2.33463004231452940000e-001) (41, 1.72155216336250310000e-001) (42, 1.59423947334289550000e-001) (43, -3.11319559812545780000e-001) (44, -5.93447208404541020000e-001) (45, 1.04832634329795840000e-001) (46, -3.28828006982803340000e-001) (47, -1.56428873538970950000e-001) (48, -2.28355959057807920000e-001) (49, 1.26107484102249150000e-001) (50, 2.80475556850433350000e-001) (51, -3.33281487226486210000e-001) (52, -6.20157122611999510000e-001) (53, 3.23405086994171140000e-001) (54, -4.57486271858215330000e-001) (55, -1.38369396328926090000e-001) (56, -2.10875421762466430000e-001) (57, -1.31998425349593160000e-002) (58, 4.09459322690963750000e-001) (59, -1.95824533700942990000e-001) (60, -1.97954982519149780000e-001) (61, 3.40033680200576780000e-001) (62, -5.93636929988861080000e-001) (63, -1.69845655560493470000e-001) (64, -3.64892303943634030000e-001) (65, -8.04455503821372990000e-002) (66, -2.39561036229133610000e-001) (67, -1.47809296846389770000e-001) (68, -2.41740122437477110000e-001) (69, 4.29022282361984250000e-001) (70, -5.92367947101593020000e-001) (71, -8.26990827918052670000e-002) (72, -3.03557574748992920000e-001) (73, -6.16782233119010930000e-002) (74, -3.94300490617752080000e-001) (75, -3.08103859424591060000e-001) (76, -1.16397941112518310000e+000) (77, 4.68236476182937620000e-001) (78, -5.61885535717010500000e-001) (79, -2.25085660815238950000e-001) (80, -5.92436566948890690000e-002) (81, -2.02582567930221560000e-001) (82, -3.82552891969680790000e-001) (83, -1.73931360244750980000e-001) (84, -1.10234808921813960000e+000) (85, 2.01666429638862610000e-001) (86, -6.05420112609863280000e-001) (87, -1.61724835634231570000e-001) (88, -4.47482854127883910000e-001) (89, 4.47932556271553040000e-002) (90, 1.59460597205907110000e-003) (91, 2.91538238525390630000e-002) (92, -9.62995350360870360000e-001) (93, 5.34090995788574220000e-001) (94, 1.17433950304985050000e-001) (95, 8.74184891581535340000e-002) (96, 3.03522109985351560000e-001) (0, -2.85614188760519030000e-002) (1, -2.84868836402893070000e-001) (2, 6.13305456936359410000e-002) (3, -3.00040226429700850000e-002) (4, -3.67043524980545040000e-001) (5, -8.83405730128288270000e-002) (6, -2.70347297191619870000e-001) (7, 2.02916022390127180000e-002) (8, 5.21316705271601680000e-003) (9, -1.58645629882812500000e-001) (10, 3.59483398497104640000e-002) (11, 2.95172274112701420000e-001) (12, 5.95407374203205110000e-002) (13, -1.20283350348472600000e-001) (14, -5.01060128211975100000e-001) (15, 6.27201050519943240000e-002) (16, 2.68966462463140490000e-002) (17, -2.60420382022857670000e-001) (18, 7.45902210474014280000e-002) (19, -6.71757459640502930000e-002) (20, -5.34200489521026610000e-001) (21, -1.95529296994209290000e-001) (22, -5.57855606079101560000e-001) (23, -4.65971201658248900000e-001) (24, -1.73113301396369930000e-001) (25, -6.64752647280693050000e-002) (26, -1.40710100531578060000e-001) (27, -3.93077701330184940000e-001) (28, -5.09902775287628170000e-001) (29, -3.02670568227767940000e-001) (30, 1.19482263922691350000e-001) (31, -8.72748345136642460000e-002) (32, -1.85717239975929260000e-001) (33, 1.62325948476791380000e-001) (34, 1.03997862339019780000e+000) (35, -6.18247054517269130000e-002) (36, -7.68478631973266600000e-001) (37, 6.48991584777832030000e-001) (38, 2.57015287876129150000e-001) (39, -2.99451828002929690000e-001) (40, -1.32867619395256040000e-001) (41, -1.38974366709589960000e-002) (42, 6.19845271110534670000e-001) (43, 2.61876314878463750000e-001) (44, 1.39999639987945560000e+000) (45, 7.22976028919219970000e-001) (46, -8.10756742954254150000e-001) (47, -2.14208006858825680000e-001) (48, -7.86497443914413450000e-002) (49, -1.45513251423835750000e-001) (50, 1.07028231024742130000e-001) (51, 3.44119042158126830000e-001) (52, 7.95829176902771000000e-001) (53, -4.92760166525840760000e-002) (54, 7.11712017655372620000e-002) (55, -9.49920639395713810000e-002) (56, -3.58433514833450320000e-001) (57, -1.30035365000367160000e-002) (58, -6.57187104225158690000e-002) (59, 2.40068212151527400000e-002) (60, 4.47559244930744170000e-002) (61, 5.02003505825996400000e-002) (62, -5.82512021064758300000e-002) (63, -3.23108941316604610000e-001) (64, -2.70451039075851440000e-001) (65, -1.61147862672805790000e-001) (66, -1.67149156332015990000e-001) (67, -7.18047916889190670000e-002) (68, -1.54940053820610050000e-001) (69, -7.88610458374023440000e-001) (70, 2.73275524377822880000e-001) (71, -2.69221216440200810000e-001) (72, 8.45067203044891360000e-002) (73, 2.09216233342885970000e-002) (74, -7.90447071194648740000e-002) (75, -7.02490925788879390000e-001) (76, -3.42168331146240230000e-001) (77, -4.59705084562301640000e-001) (78, 3.44100952148437500000e-001) (79, -4.26398158073425290000e-001) (80, -1.02922141551971440000e-001) (81, 2.72667020559310910000e-001) (82, -7.36985743045806880000e-001) (83, -2.23774701356887820000e-001) (84, 5.59611141681671140000e-001) (85, 8.56158733367919920000e-002) (86, -5.88760375976562500000e-001) (87, -5.67215144634246830000e-001) (88, -6.03375993669033050000e-002) (89, -9.13957893848419190000e-001) (90, 1.35222598910331730000e-001) (91, 5.70452548563480380000e-002) (92, -4.09922637045383450000e-002) (93, 1.70109599828720090000e-001) (94, -2.33757928013801570000e-001) (95, 6.08093068003654480000e-002) (96, -7.33188986778259280000e-001) (0, -2.79233437031507490000e-002) (1, -4.52356524765491490000e-002) (2, 1.66549503803253170000e-001) (3, -8.58599245548248290000e-001) (4, 9.32693853974342350000e-002) (5, 4.67900067567825320000e-001) (6, 2.72685855627059940000e-001) (7, 2.41776898503303530000e-001) (8, 1.58501163125038150000e-001) (9, 3.59642028808593750000e-001) (10, -1.72379061579704280000e-001) (11, 3.73088568449020390000e-002) (12, -1.10831394791603090000e-001) (13, -6.77171647548675540000e-002) (14, 8.35369601845741270000e-002) (15, 1.58686563372612000000e-001) (16, 8.50682258605957030000e-002) (17, -1.20545834302902220000e-001) (18, 3.97764891386032100000e-002) (19, -4.18668806552886960000e-001) (20, 9.35236737132072450000e-002) (21, 2.50678956508636470000e-001) (22, -2.40941509604454040000e-001) (23, 7.37923150882124900000e-003) (24, 3.62195640802383420000e-001) (25, 4.29580174386501310000e-003) (26, -9.01614353060722350000e-002) (27, 2.13294133543968200000e-001) (28, 6.38118991628289220000e-003) (29, 3.28391820192337040000e-001) (30, -2.58155822753906250000e-001) (31, 9.19152796268463130000e-003) (32, 3.04828405380249020000e-001) (33, -6.12081252038478850000e-002) (34, -5.44810950756073000000e-001) (35, -5.38390874862670900000e-001) (36, 1.14176049828529360000e-001) (37, -2.16055437922477720000e-002) (38, -2.23564714193344120000e-001) (39, -3.51575851440429690000e-001) (40, 3.59044998884201050000e-001) (41, -8.96077230572700500000e-002) (42, 4.67095226049423220000e-002) (43, -2.25761026144027710000e-001) (44, -3.50106567144393920000e-001) (45, 6.27394914627075200000e-002) (46, -3.20994377136230470000e-001) (47, -3.44253897666931150000e-001) (48, 2.22216889262199400000e-001) (49, 8.62898826599121090000e-002) (50, 1.14829421043396000000e-001) (51, -5.35753406584262850000e-002) (52, -2.27803736925125120000e-001) (53, 2.91438519954681400000e-001) (54, -9.02035757899284360000e-002) (55, -5.80632984638214110000e-002) (56, 1.47048845887184140000e-001) (57, -6.00828835740685460000e-003) (58, 7.30830878019332890000e-002) (59, 6.05557411909103390000e-002) (60, -6.18841648101806640000e-001) (61, 3.68528425693511960000e-001) (62, 1.55683770775794980000e-001) (63, 1.79153755307197570000e-001) (64, 1.46029323339462280000e-001) (65, 7.97227248549461360000e-002) (66, -3.74748855829238890000e-002) (67, -3.63632410764694210000e-001) (68, -3.28708320856094360000e-001) (69, -9.40908789634704590000e-002) (70, -1.15689039230346680000e-001) (71, 1.60354986786842350000e-001) (72, 3.54284942150115970000e-001) (73, 1.45983323454856870000e-001) (74, -1.41683563590049740000e-001) (75, 4.96274888515472410000e-001) (76, 5.34134311601519580000e-003) (77, -9.54651099164038900000e-004) (78, -2.44165077805519100000e-001) (79, 7.79325291514396670000e-002) (80, 3.48061695694923400000e-002) (81, -6.70596420764923100000e-001) (82, 1.84323042631149290000e-001) (83, 5.42965717613697050000e-002) (84, -4.05084580183029170000e-001) (85, -1.49604648351669310000e-001) (86, -2.33750473707914350000e-002) (87, 5.20842745900154110000e-002) (88, -3.10945123434066770000e-001) (89, 1.35763585567474370000e-001) (90, -1.44741749390959740000e-002) (91, -1.71629652380943300000e-001) (92, -4.75969612598419190000e-001) (93, -8.03239345550537110000e-002) (94, -2.33828529715538020000e-001) (95, 7.31992572546005250000e-002) (96, -1.46451830863952640000e-001) (0, 3.46942171454429630000e-002) (1, -1.71778693795204160000e-001) (2, -1.15905284881591800000e-001) (3, 6.09679341316223140000e-001) (4, 3.96995216608047490000e-001) (5, -9.38493549823760990000e-001) (6, -1.16105549037456510000e-001) (7, 2.92603559792041780000e-002) (8, -4.60072197020053860000e-002) (9, -5.74356436729431150000e-001) (10, -5.66094934940338130000e-001) (11, -7.37624149769544600000e-003) (12, -2.42791414260864260000e-001) (13, -2.64196515083312990000e-001) (14, 5.27262277901172640000e-002) (15, -3.41602251864969730000e-003) (16, -9.33924987912178040000e-002) (17, -4.87443059682846070000e-001) (18, -7.27693378925323490000e-001) (19, -2.37931922078132630000e-001) (20, -3.43654155731201170000e-002) (21, -9.07146930694580080000e-001) (22, 4.97904159128665920000e-002) (23, 6.03541493415832520000e-001) (24, -5.15927553176879880000e-001) (25, -4.23790395259857180000e-001) (26, -5.45016527175903320000e-001) (27, -4.94087457656860350000e-001) (28, 4.68983739614486690000e-001) (29, -2.74921745061874390000e-001) (30, 1.35036706924438480000e-001) (31, 4.93863314390182500000e-001) (32, -5.58877408504486080000e-001) (33, 9.82894077897071840000e-002) (34, -5.47824561595916750000e-001) (35, 9.48499813675880430000e-002) (36, -9.46275070309638980000e-002) (37, -2.43970945477485660000e-001) (38, 3.62129747867584230000e-001) (39, 5.48146292567253110000e-002) (40, -4.71259891986846920000e-001) (41, -1.74713790416717530000e-001) (42, 3.51252406835556030000e-001) (43, 1.68965131044387820000e-001) (44, 1.18324063718318940000e-001) (45, -2.43936460465192790000e-002) (46, 2.30404302477836610000e-001) (47, -3.21145653724670410000e-001) (48, -1.02260425686836240000e-001) (49, -3.20173084735870360000e-001) (50, 2.25562632083892820000e-001) (51, 3.65824520587921140000e-001) (52, -8.77838358283042910000e-002) (53, -5.74610531330108640000e-001) (54, -1.00072406232357030000e-001) (55, -5.26513397693634030000e-001) (56, -7.19824373722076420000e-001) (57, -1.10383898019790650000e-001) (58, -2.12436039000749590000e-002) (59, -3.15850794315338130000e-001) (60, 2.66609638929367070000e-001) (61, 5.11680319905281070000e-002) (62, 3.67096513509750370000e-001) (63, 5.81564724445343020000e-001) (64, -6.92988097667694090000e-001) (65, 2.16120228171348570000e-001) (66, 5.58699905872344970000e-001) (67, 1.99527427554130550000e-001) (68, 2.14479461312294010000e-001) (69, 2.28409692645072940000e-001) (70, -1.57109826803207400000e-001) (71, 5.03835439682006840000e-001) (72, -3.47461551427841190000e-001) (73, 3.92877876758575440000e-001) (74, 3.84039819240570070000e-001) (75, 7.02454224228858950000e-002) (76, 5.59569358825683590000e-001) (77, 5.69999441504478450000e-002) (78, -5.47039389610290530000e-001) (79, 5.69058656692504880000e-001) (80, 1.47350039333105090000e-002) (81, 9.18652832508087160000e-001) (82, -3.40964376926422120000e-001) (83, -2.36841678619384770000e-001) (84, 2.29669913649559020000e-001) (85, -6.85854434967041020000e-001) (86, -1.30279004573822020000e-001) (87, 4.63924318552017210000e-001) (88, -3.93300093710422520000e-002) (89, -8.83577242493629460000e-002) (90, -1.72042518854141240000e-001) (91, 5.46976216137409210000e-002) (92, 1.22403740882873540000e-001) (93, -2.65103876590728760000e-001) (94, 5.22251963615417480000e-001) (95, 2.86665588617324830000e-001) (96, -2.37181156873703000000e-001) (0, -9.03754904866218570000e-002) (1, 7.72350206971168520000e-002) (2, 4.49963837862014770000e-001) (3, -7.68611311912536620000e-001) (4, -3.80289644002914430000e-001) (5, 2.29216766357421870000e+000) (6, 2.41060227155685420000e-001) (7, -1.03658229112625120000e-001) (8, 3.99593472480773930000e-001) (9, 8.85197103023529050000e-001) (10, 3.45908433198928830000e-001) (11, 1.29755884408950810000e-001) (12, 4.18694108724594120000e-001) (13, 2.93486684560775760000e-001) (14, 1.04072906076908110000e-001) (15, -3.21063324809074400000e-002) (16, -5.64757958054542540000e-002) (17, -1.54869511723518370000e-001) (18, 2.59837865829467770000e-001) (19, 2.15677544474601750000e-001) (20, -1.02327071130275730000e-001) (21, 5.10469555854797360000e-001) (22, 5.82478344440460210000e-002) (23, -1.75075113773345950000e-001) (24, 3.17835845053195950000e-002) (25, 6.44652694463729860000e-002) (26, 4.14200782775878910000e-001) (27, 1.18397481739521030000e-001) (28, -1.08929999172687530000e-001) (29, 4.17612463235855100000e-001) (30, 2.38634318113327030000e-001) (31, -1.44138991832733150000e-001) (32, -1.45942419767379760000e-002) (33, 3.33748012781143190000e-002) (34, -1.13662981986999510000e+000) (35, -1.10499262809753420000e+000) (36, -2.81400028616189960000e-002) (37, 5.64366757869720460000e-001) (38, 8.55485908687114720000e-003) (39, -6.88454657793045040000e-002) (40, 1.82587400078773500000e-001) (41, 1.10448278486728670000e-001) (42, 8.76037031412124630000e-002) (43, -1.51737779378890990000e-001) (44, 4.70684841275215150000e-002) (45, 2.23015740513801570000e-001) (46, -2.46486470103263850000e-001) (47, -2.92630232870578770000e-002) (48, -1.33288860321044920000e-001) (49, -2.23178882151842120000e-002) (50, -6.34738989174366000000e-003) (51, -8.62072765827178960000e-001) (52, -6.04719705879688260000e-002) (53, -1.84468537569046020000e-001) (54, -1.53505086898803710000e-001) (55, -8.14120378345251080000e-003) (56, -1.06521412730216980000e-001) (57, -5.60594275593757630000e-002) (58, 2.63017058372497560000e-001) (59, 4.05247479677200320000e-001) (60, -7.99530327320098880000e-001) (61, 3.45692932605743410000e-002) (62, -3.35378915071487430000e-001) (63, -1.79028391838073730000e-001) (64, -2.32816711068153380000e-001) (65, -1.66696056723594670000e-001) (66, -5.49827456474304200000e-001) (67, 4.84152399003505710000e-002) (68, -2.20607951283454900000e-001) (69, 1.24220497906208040000e-001) (70, -1.27385050058364870000e-001) (71, -1.09606400132179260000e-001) (72, -2.38589152693748470000e-001) (73, -2.40622878074646000000e-001) (74, 1.22748762369155880000e-001) (75, -3.03473249077796940000e-002) (76, -7.72542893886566160000e-001) (77, 4.60440814495086670000e-002) (78, -3.66709560155868530000e-001) (79, -1.84310555458068850000e-001) (80, -1.86381593346595760000e-001) (81, -1.31316924095153810000e+000) (82, 2.35272035002708440000e-001) (83, 1.83286353945732120000e-001) (84, -7.86308169364929200000e-001) (85, 5.47241754829883580000e-002) (86, -3.93200874328613280000e-001) (87, -2.27345049381256100000e-001) (88, -2.78458654880523680000e-001) (89, -1.74129053950309750000e-001) (90, -5.49196541309356690000e-001) (91, -2.65719413757324220000e-001) (92, -9.46508288383483890000e-001) (93, -7.02647678554058070000e-003) (94, -2.30381920933723450000e-001) (95, -8.97508934140205380000e-002) (96, 2.65777677297592160000e-001) (0, -1.05716414749622340000e-001) (1, 1.06193576357327400000e-004) (2, 1.47924944758415220000e-001) (3, -4.52930867671966550000e-001) (4, -3.28953444957733150000e-001) (5, 1.94336783885955810000e+000) (6, 3.53378951549530030000e-001) (7, 1.39239042997360230000e-001) (8, 6.11054778099060060000e-001) (9, 3.17874222993850710000e-001) (10, 4.08512413501739500000e-001) (11, 2.21028417348861690000e-001) (12, -2.99948751926422120000e-001) (13, 2.27597221732139590000e-001) (14, 8.09607982635498050000e-001) (15, 4.39469069242477420000e-001) (16, -2.88800030946731570000e-001) (17, -3.94184887409210210000e-001) (18, -3.66073518991470340000e-001) (19, -5.57533046230673790000e-003) (20, -2.37214669585227970000e-001) (21, -2.57175356149673460000e-001) (22, 7.63827323913574220000e-001) (23, 9.11691486835479740000e-001) (24, -2.27406039834022520000e-001) (25, 8.12540948390960690000e-003) (26, -5.62402196228504180000e-002) (27, -6.87546908855438230000e-001) (28, -2.02439248561859130000e-001) (29, 2.30008170008659360000e-001) (30, 7.16158509254455570000e-001) (31, 6.58653259277343750000e-001) (32, 3.26966643333435060000e-002) (33, -8.14675837755203250000e-002) (34, -2.31594130396842960000e-001) (35, -1.38461425900459290000e-001) (36, -1.38934105634689330000e-001) (37, 9.92771163582801820000e-002) (38, 5.97536563873291020000e-001) (39, 7.54691720008850100000e-001) (40, 1.71619549393653870000e-001) (41, -1.12973414361476900000e-001) (42, -1.06379650533199310000e-001) (43, -1.45966932177543640000e-001) (44, 8.82061664015054700000e-004) (45, -6.40413224697113040000e-001) (46, 5.53584396839141850000e-002) (47, 7.25570797920227050000e-001) (48, 5.12555778026580810000e-001) (49, -2.43745625019073490000e-001) (50, 1.33964091539382930000e-001) (51, -1.09211814403533940000e+000) (52, 2.47008383274078370000e-001) (53, -7.99841225147247310000e-001) (54, 2.03621640801429750000e-001) (55, 3.50734591484069820000e-001) (56, -2.12328359484672550000e-001) (57, 5.51529169082641600000e-001) (58, 6.34540542960166930000e-002) (59, -8.05153623223304750000e-002) (60, -9.61230397224426270000e-001) (61, -1.12015402317047120000e+000) (62, -3.43141555786132810000e-001) (63, 1.06451995670795440000e-001) (64, 1.95099517703056340000e-001) (65, 6.16002619266510010000e-001) (66, -1.10473409295082090000e-001) (67, 5.05320906639099120000e-001) (68, -8.94316732883453370000e-002) (69, 1.58140450716018680000e-001) (70, 7.43444859981536870000e-002) (71, 1.36371716856956480000e-001) (72, 1.39762237668037410000e-001) (73, 1.19243666529655460000e-001) (74, 8.19530904293060300000e-001) (75, -4.08242702484130860000e-001) (76, -2.38579556345939640000e-001) (77, -3.16474229097366330000e-001) (78, -6.12531825900077820000e-002) (79, 2.02670454978942870000e-001) (80, -1.35720521211624150000e-001) (81, -1.34179639816284180000e+000) (82, 3.11274826526641850000e-001) (83, 7.85293728113174440000e-002) (84, -3.11571717262268070000e-001) (85, -9.15938258171081540000e-001) (86, -2.84028977155685420000e-001) (87, -1.29920616745948790000e-001) (88, -2.49387566000223160000e-002) (89, -2.15582743287086490000e-001) (90, -1.13820159435272220000e+000) (91, -4.55442488193511960000e-001) (92, -6.20707511901855470000e-001) (93, -6.46888554096221920000e-001) (94, -3.39025333523750310000e-002) (95, -9.21818166971206670000e-002) (96, 5.88089935481548310000e-002) (0, -2.71366685628890990000e-002) (1, -2.55864441394805910000e-001) (2, -3.53664383292198180000e-002) (3, -2.82737642526626590000e-001) (4, 9.22115966677665710000e-002) (5, 2.73660749197006230000e-001) (6, 6.62764608860015870000e-002) (7, -6.94080293178558350000e-002) (8, 1.06376022100448610000e-001) (9, -1.23514816164970400000e-001) (10, -3.02467435598373410000e-001) (11, -8.81238505244255070000e-002) (12, -4.33301627635955810000e-002) (13, -2.96914428472518920000e-002) (14, -5.34624345600605010000e-002) (15, -9.68895736150443550000e-004) (16, -1.03072769939899440000e-001) (17, -3.18260759115219120000e-001) (18, -6.18912018835544590000e-002) (19, -2.24674642086029050000e-002) (20, -2.82058268785476680000e-001) (21, -2.23757311701774600000e-001) (22, -1.95673361420631410000e-001) (23, -6.52735009789466860000e-002) (24, -5.47666102647781370000e-002) (25, -1.71860978007316590000e-001) (26, -3.18749919533729550000e-002) (27, -3.28655868768692020000e-001) (28, -1.18458934593945740000e-003) (29, 6.42459616065025330000e-002) (30, 5.54227642714977260000e-002) (31, 2.61039026081562040000e-002) (32, -1.33455339819192890000e-002) (33, -2.50467866659164430000e-001) (34, -8.44832658767700200000e-002) (35, -9.71934571862220760000e-002) (36, 1.91665917634963990000e-001) (37, 1.68166175484657290000e-001) (38, 1.39279693365097050000e-001) (39, -1.42323225736618040000e-001) (40, -4.71674986183643340000e-002) (41, -2.80757427215576170000e-001) (42, 2.51740604639053340000e-001) (43, 2.27881133556365970000e-001) (44, -2.26256906986236570000e-001) (45, -5.94288073480129240000e-002) (46, 9.31190103292465210000e-002) (47, -7.27812573313713070000e-002) (48, -1.41809120774269100000e-001) (49, -5.12836813926696780000e-001) (50, 3.02102535963058470000e-001) (51, -5.36330528557300570000e-002) (52, -2.62911409139633180000e-001) (53, -1.93860113620758060000e-001) (54, 7.99209028482437130000e-002) (55, -1.09601289033889770000e-001) (56, -1.27174109220504760000e-001) (57, -2.42077112197875980000e-001) (58, 2.16944172978401180000e-001) (59, -4.17300239205360410000e-002) (60, -3.22648346424102780000e-001) (61, -2.41578161716461180000e-001) (62, 7.44658038020133970000e-002) (63, 1.43036201596260070000e-001) (64, -7.75045678019523620000e-002) (65, -5.25520704686641690000e-002) (66, 3.92405718564987180000e-001) (67, 4.60221432149410250000e-003) (68, -2.18198582530021670000e-001) (69, 6.69311061501502990000e-002) (70, 5.26208281517028810000e-002) (71, 1.52728393673896790000e-001) (72, -9.21295359730720520000e-002) (73, 4.04983125627040860000e-002) (74, 2.14340388774871830000e-001) (75, 5.42517781257629390000e-001) (76, 3.73756378889083860000e-001) (77, 1.32471770048141480000e-001) (78, 2.52948403358459470000e-001) (79, 1.57287314534187320000e-001) (80, -2.31050625443458560000e-002) (81, -4.99505966901779170000e-001) (82, -6.55953213572502140000e-002) (83, -4.91421669721603390000e-002) (84, -1.85439512133598330000e-001) (85, -4.63791459798812870000e-001) (86, 5.79905416816473010000e-003) (87, 1.55625015497207640000e-001) (88, -1.25527158379554750000e-001) (89, 8.75160768628120420000e-002) (90, -5.53824841976165770000e-001) (91, -2.86646544933319090000e-001) (92, -4.81373131275177000000e-001) (93, -5.39928972721099850000e-001) (94, -1.22004158794879910000e-001) (95, -1.06902299448847770000e-002) (96, -1.92166537046432500000e-001) (0, 1.19182042777538300000e-001) (1, 2.46678516268730160000e-001) (2, 7.61152207851409910000e-001) (3, -1.50645315647125240000e-001) (4, 3.13447654247283940000e-001) (5, 6.74012243747711180000e-001) (6, -2.05269470810890200000e-001) (7, -4.60897386074066160000e-001) (8, 1.74460440874099730000e-001) (9, 2.66611009836196900000e-001) (10, 2.43592172861099240000e-001) (11, 1.61640882492065430000e-001) (12, 1.86138957738876340000e-001) (13, 8.26461017131805420000e-002) (14, 2.26073727011680600000e-001) (15, -4.58077460527420040000e-001) (16, 4.31190907955169680000e-001) (17, -9.93121713399887080000e-002) (18, -1.91386878490448000000e-001) (19, -9.95504707098007200000e-002) (20, 8.87468829751014710000e-002) (21, -1.40128165483474730000e-001) (22, -1.42557829618453980000e-001) (23, 1.20172485709190370000e-001) (24, 2.70016789436340330000e-001) (25, 1.37284770607948300000e-001) (26, 5.02052046358585360000e-002) (27, -1.93517610430717470000e-001) (28, -2.21801325678825380000e-001) (29, -1.54316887259483340000e-001) (30, -2.26676031947135930000e-001) (31, 3.92035990953445430000e-001) (32, 2.99157917499542240000e-001) (33, 3.25586915016174320000e-001) (34, 5.84796786308288570000e-001) (35, 2.54568547010421750000e-001) (36, -2.81357258558273320000e-001) (37, -1.60542130470275880000e-002) (38, -4.56385731697082520000e-001) (39, 5.25150537490844730000e-001) (40, 2.32399761676788330000e-001) (41, 2.38122582435607910000e-001) (42, -1.19832772761583330000e-002) (43, 8.71013402938842770000e-002) (44, 2.37991407513618470000e-001) (45, 5.41170984506607060000e-002) (46, -7.97706469893455510000e-002) (47, 5.58206260204315190000e-001) (48, 6.17893524467945100000e-002) (49, -2.12164092808961870000e-002) (50, -1.15017183125019070000e-001) (51, -4.05949294567108150000e-001) (52, -1.09838716685771940000e-001) (53, -3.83315794169902800000e-002) (54, -2.68263667821884160000e-002) (55, -8.11279043555259700000e-002) (56, -6.01947009563446040000e-002) (57, -8.58512297272682190000e-002) (58, 2.53259032964706420000e-001) (59, -8.40765312314033510000e-002) (60, -7.73882716894149780000e-002) (61, -1.35680455714464190000e-002) (62, -3.54453533887863160000e-001) (63, -1.80663853883743290000e-001) (64, 4.87792352214455600000e-003) (65, -1.50739133358001710000e-001) (66, -5.98600566387176510000e-001) (67, -5.08178234100341800000e-001) (68, -9.65988785028457640000e-002) (69, -4.36827600002288820000e-001) (70, 1.63234576582908630000e-001) (71, -1.14226765930652620000e-001) (72, 2.63202488422393800000e-001) (73, -2.23310798406600950000e-001) (74, -3.64997953176498410000e-001) (75, -3.70540261268615720000e-001) (76, -5.07387667894363400000e-002) (77, 1.05398297309875490000e-002) (78, 3.20375204086303710000e-001) (79, -1.93446949124336240000e-001) (80, 3.38265895843505860000e-001) (81, -6.48732542991638180000e-001) (82, -6.84840261936187740000e-001) (83, 8.09885859489440920000e-002) (84, -1.30431912839412690000e-002) (85, 1.75742402672767640000e-001) (86, -2.73065567016601560000e-001) (87, -3.35926711559295650000e-001) (88, 3.01967173814773560000e-001) (89, 1.28838807344436650000e-001) (90, -5.35016536712646480000e-001) (91, -4.56905543804168700000e-001) (92, -7.12771236896514890000e-001) (93, -5.47601282596588130000e-001) (94, -1.03134989738464360000e+000) (95, -4.52269852161407470000e-001) (96, -5.24280965328216550000e-001) (0, 2.42543295025825500000e-001) (1, -1.03951930999755860000e-001) (2, 6.84490874409675600000e-002) (3, 5.41828811168670650000e-001) (4, 1.60941004753112790000e+000) (5, 1.68596118688583370000e-001) (6, -7.77958512306213380000e-001) (7, -1.19775302708148960000e-001) (8, -2.50545531511306760000e-001) (9, -1.21802234649658200000e+000) (10, -5.42039930820465090000e-001) (11, -2.00392395257949830000e-001) (12, 3.45885634422302250000e-001) (13, -1.09424464404582980000e-001) (14, 1.19667910039424900000e-001) (15, -2.87451565265655520000e-001) (16, 3.55526536703109740000e-001) (17, 3.78143817186355590000e-001) (18, 3.04536968469619750000e-001) (19, 4.47510294616222380000e-002) (20, 4.84790205955505370000e-002) (21, -9.98644888401031490000e-001) (22, -3.78720134496688840000e-001) (23, 1.03582717478275300000e-001) (24, -1.02785420417785640000e+000) (25, -8.20894300937652590000e-001) (26, 2.65803694725036620000e-001) (27, 1.41344740986824040000e-001) (28, -5.34076876938343050000e-002) (29, -4.08867606893181800000e-003) (30, -7.05007851123809810000e-001) (31, 2.81434386968612670000e-001) (32, 3.06654006242752080000e-001) (33, 1.11800581216812130000e-001) (34, -2.56701618432998660000e-001) (35, -7.34878838062286380000e-001) (36, -5.51505446434021000000e-001) (37, 4.04215216636657710000e-001) (38, 3.89293134212493900000e-002) (39, 3.49639713764190670000e-001) (40, -2.29297935962677000000e-001) (41, -1.14771328866481780000e-001) (42, 6.48998081684112550000e-001) (43, 2.23901048302650450000e-001) (44, -1.37281858921051030000e+000) (45, 6.04002296924591060000e-001) (46, 5.03664791584014890000e-001) (47, 2.64886319637298580000e-001) (48, -3.17579805850982670000e-001) (49, -3.83526265621185300000e-001) (50, 7.95027971267700200000e-001) (51, -7.54008814692497250000e-002) (52, -7.95860707759857180000e-001) (53, 1.05907690525054930000e+000) (54, -4.65327471494674680000e-001) (55, -2.39065200090408330000e-001) (56, -1.02597065269947050000e-001) (57, -3.26707333326339720000e-001) (58, 6.51906311511993410000e-001) (59, 3.57282489538192750000e-001) (60, -1.26079156994819640000e-001) (61, 7.02116668224334720000e-001) (62, -8.71136605739593510000e-001) (63, -3.52666914463043210000e-001) (64, -2.03993543982505800000e-001) (65, -3.12581598758697510000e-001) (66, -1.65422096848487850000e-001) (67, -1.44377470016479490000e-001) (68, -9.38344895839691160000e-001) (69, 5.80756187438964840000e-001) (70, -5.08655190467834470000e-001) (71, -3.27929556369781490000e-001) (72, -5.09270668029785160000e-001) (73, -3.19007486104965210000e-001) (74, -2.75268554687500000000e-002) (75, 1.38447165489196780000e-001) (76, 7.98168718814849850000e-001) (77, 8.07600557804107670000e-001) (78, -3.87226253747940060000e-001) (79, -3.06194305419921880000e-001) (80, -3.00860852003097530000e-001) (81, 1.03965580463409420000e-001) (82, -6.36108100414276120000e-001) (83, 3.62903028726577760000e-001) (84, -4.14940118789672850000e-001) (85, -2.90524423122406010000e-001) (86, -6.76869034767150880000e-001) (87, -2.32327170670032500000e-002) (88, 8.42275500297546390000e-001) (89, 1.71865904331207280000e+000) (90, -8.16942691802978520000e-001) (91, -4.45772051811218260000e-001) (92, -5.26111364364624020000e-001) (93, -3.83653432130813600000e-001) (94, 2.82495558261871340000e-001) (95, 5.53628921508789060000e-001) (96, -1.42793133854866030000e-001) (0, -1.84747371822595600000e-002) (1, -2.18007341027259830000e-001) (2, -2.73173630237579350000e-001) (3, -1.27036064863204960000e-001) (4, -1.48231133818626400000e-001) (5, -2.93204337358474730000e-001) (6, -3.48057597875595090000e-002) (7, 1.34253442287445070000e-001) (8, -2.00337901711463930000e-001) (9, 2.04143434762954710000e-001) (10, -1.28093734383583070000e-001) (11, 2.34790027141571040000e-001) (12, -1.55276715755462650000e-001) (13, 9.41014587879180910000e-002) (14, -6.22655510902404790000e-001) (15, 1.24143749475479130000e-001) (16, -3.03569048643112180000e-001) (17, 2.17319559305906300000e-003) (18, -5.28392255306243900000e-001) (19, 3.47642786800861360000e-002) (20, -1.56221598386764530000e-001) (21, 4.50065046548843380000e-001) (22, -1.46373316645622250000e-001) (23, -5.50986044108867650000e-002) (24, 1.09520757198333740000e+000) (25, 6.61155819892883300000e-001) (26, -1.95873394608497620000e-001) (27, -2.29265540838241580000e-001) (28, 9.28687583655118940000e-003) (29, -2.37857550382614140000e-001) (30, -2.32306182384490970000e-001) (31, -5.49821078777313230000e-001) (32, -4.01784628629684450000e-001) (33, -1.79930567741394040000e-001) (34, -4.04228061437606810000e-001) (35, -5.22703588008880620000e-001) (36, -3.94969969987869260000e-001) (37, -4.74125772714614870000e-001) (38, -1.11666560173034670000e-001) (39, -4.76637870073318480000e-001) (40, -3.89925390481948850000e-001) (41, -1.94406718015670780000e-001) (42, 3.67764383554458620000e-002) (43, -4.39943045377731320000e-001) (44, -5.54973959922790530000e-001) (45, -2.00956985354423520000e-001) (46, 6.85328170657157900000e-002) (47, -3.47105413675308230000e-001) (48, -3.34479421377182010000e-001) (49, -3.70282024145126340000e-001) (50, 1.52261152863502500000e-001) (51, 6.11404836177825930000e-001) (52, 6.80224895477294920000e-001) (53, 5.41038274765014650000e-001) (54, -9.39525514841079710000e-002) (55, -2.87321180105209350000e-001) (56, -7.39568248391151430000e-002) (57, -4.23412412405014040000e-001) (58, -3.97283166646957400000e-001) (59, -5.10851621627807620000e-001) (60, 1.13014869391918180000e-001) (61, -1.66996587067842480000e-002) (62, -1.79027337580919270000e-002) (63, -4.78659644722938540000e-002) (64, -8.99404510855674740000e-002) (65, -4.38950806856155400000e-001) (66, 7.76854828000068660000e-002) (67, -1.15609623491764070000e-001) (68, 4.03306782245635990000e-002) (69, -1.49173989892005920000e-001) (70, 1.50945112109184270000e-001) (71, -2.02646046876907350000e-001) (72, -1.44353583455085750000e-001) (73, 6.07043281197547910000e-002) (74, -4.74160090088844300000e-002) (75, 1.36616647243499760000e-001) (76, -3.66728425025939940000e-001) (77, -4.33137953281402590000e-001) (78, -1.81437984108924870000e-001) (79, -1.66811078786849980000e-001) (80, 1.27200707793235780000e-001) (81, -1.14010490477085110000e-001) (82, 1.57449066638946530000e-001) (83, 1.35671004652976990000e-001) (84, 2.84788876771926880000e-001) (85, 3.54133546352386470000e-001) (86, 4.00010645389556880000e-001) (87, 5.38422539830207820000e-002) (88, -7.92750269174575810000e-002) (89, -8.61598968505859380000e-001) (90, 8.99151414632797240000e-002) (91, 2.02424630522727970000e-001) (92, 1.00478164851665500000e-001) (93, 2.56547272205352780000e-001) (94, 2.72707462310791020000e-001) (95, -5.40532693266868590000e-002) (96, -5.27074396610260010000e-001) (0, -3.44462171196937560000e-002) (1, -1.35491579771041870000e-001) (2, -4.32246625423431400000e-002) (3, -7.35431551933288570000e-001) (4, -4.21922087669372560000e-001) (5, 8.42544734477996830000e-001) (6, 1.88006311655044560000e-001) (7, 1.36998668313026430000e-001) (8, 2.37579256296157840000e-001) (9, 3.63284587860107420000e-001) (10, -6.39338493347167970000e-002) (11, 2.61649694293737410000e-002) (12, -1.43125727772712710000e-001) (13, -8.96407812833786010000e-002) (14, 2.92973369359970090000e-001) (15, 3.33018243312835690000e-001) (16, -1.87804270535707470000e-002) (17, -2.83941775560379030000e-001) (18, -3.53996157646179200000e-001) (19, 3.80458077415823940000e-003) (20, -6.08111917972564700000e-002) (21, 2.28663757443428040000e-001) (22, 1.90897196531295780000e-001) (23, -7.62020330876111980000e-003) (24, -2.88949720561504360000e-002) (25, -9.93810817599296570000e-002) (26, -1.10031075775623320000e-001) (27, -1.40290111303329470000e-001) (28, 1.57093793153762820000e-001) (29, 6.94977585226297380000e-003) (30, 1.00174568593502040000e-001) (31, 1.12897887825965880000e-001) (32, -2.48527992516756060000e-002) (33, -3.66517417132854460000e-002) (34, -2.50645905733108520000e-001) (35, 1.84166636317968370000e-002) (36, 2.97829538583755490000e-001) (37, -9.74481552839279170000e-002) (38, 5.24673275649547580000e-002) (39, 5.39756305515766140000e-002) (40, 1.58083379268646240000e-001) (41, -9.67006012797355650000e-002) (42, 3.63930135965347290000e-001) (43, 4.18328702449798580000e-001) (44, 2.68117338418960570000e-001) (45, -4.30050641298294070000e-001) (46, -1.65398240089416500000e-001) (47, -8.03731381893157960000e-002) (48, -2.62882583774626260000e-003) (49, -1.01025670766830440000e-001) (50, 1.15601263940334320000e-001) (51, -4.44453448057174680000e-001) (52, -1.48841952905058860000e-002) (53, -5.03331303596496580000e-001) (54, -2.75929838418960570000e-001) (55, -1.73482432961463930000e-001) (56, -6.34344667196273800000e-002) (57, 1.89150333404541020000e-001) (58, 1.74361333250999450000e-001) (59, 4.27936881780624390000e-001) (60, -4.37815606594085690000e-001) (61, -5.49830675125122070000e-001) (62, -1.72067001461982730000e-001) (63, -5.09353615343570710000e-002) (64, 7.62308984994888310000e-002) (65, 2.25852951407432560000e-001) (66, -2.05954715609550480000e-001) (67, 4.09893929958343510000e-001) (68, 2.55751162767410280000e-001) (69, -2.38446563482284550000e-001) (70, -1.68669551610946660000e-001) (71, -9.00649726390838620000e-002) (72, 1.06744877994060520000e-001) (73, 8.81098359823226930000e-002) (74, 2.31410473585128780000e-001) (75, 1.15834437310695650000e-002) (76, 1.57789811491966250000e-001) (77, -5.63905872404575350000e-002) (78, -1.62446528673172000000e-001) (79, -9.26522240042686460000e-002) (80, -6.77942186594009400000e-002) (81, -8.48596096038818360000e-001) (82, -1.41979694366455080000e-001) (83, -3.04391235113143920000e-002) (84, -2.58431762456893920000e-001) (85, -1.51438191533088680000e-001) (86, 8.11639949679374690000e-002) (87, -1.59537687897682190000e-001) (88, 1.85167357325553890000e-001) (89, 1.45950973033905030000e-001) (90, -5.78190326690673830000e-001) (91, -1.33588790893554690000e-001) (92, -3.61330538988113400000e-001) (93, -4.24105256795883180000e-001) (94, -2.92033944278955460000e-002) (95, 6.30070939660072330000e-002) (96, 4.96556088328361510000e-002) (0, 1.47237941622734070000e-001) (1, -9.51366424560546880000e-002) (2, 9.66563299298286440000e-002) (3, -4.50112037360668180000e-002) (4, 1.94181054830551150000e-001) (5, -1.31135523319244380000e+000) (6, 2.64881610870361330000e-001) (7, -2.56381835788488390000e-002) (8, -2.30647306889295580000e-002) (9, -1.95502504706382750000e-001) (10, -5.01068592071533200000e-001) (11, -2.20010176301002500000e-001) (12, -6.92969799041748050000e-001) (13, -1.43170617520809170000e-002) (14, 4.29875433444976810000e-001) (15, -1.95895776152610780000e-001) (16, -1.88045367598533630000e-001) (17, -3.36198210716247560000e-001) (18, -4.10071969032287600000e-001) (19, -3.13204944133758540000e-001) (20, -3.48782241344451900000e-002) (21, -4.86119776964187620000e-001) (22, 3.40544842183589940000e-002) (23, 7.72888436913490300000e-002) (24, 1.95580452680587770000e-001) (25, -8.28191563487052920000e-002) (26, -6.59729987382888790000e-002) (27, -4.94189620018005370000e-001) (28, -1.75762269645929340000e-002) (29, 1.39031082391738890000e-001) (30, -1.00682735443115230000e-001) (31, 1.03616148233413700000e-001) (32, 5.02486596815288070000e-004) (33, -3.86650674045085910000e-003) (34, -1.78850352764129640000e-001) (35, -4.72095906734466550000e-001) (36, -3.44806849956512450000e-001) (37, -8.68654698133468630000e-002) (38, 1.10769838094711300000e-001) (39, -4.85599189996719360000e-002) (40, -2.24213853478431700000e-001) (41, -4.20914322137832640000e-001) (42, 6.28433465957641600000e-001) (43, -4.33005273342132570000e-001) (44, -6.53512001037597660000e-001) (45, -1.32670283317565920000e-001) (46, 4.66632008552551270000e-001) (47, -4.32442352175712590000e-002) (48, -2.78832793235778810000e-001) (49, -4.42947119474411010000e-001) (50, 3.92638474702835080000e-001) (51, 5.26230275630950930000e-001) (52, -5.12269020080566410000e-001) (53, -4.61287014186382290000e-002) (54, 1.53544291853904720000e-001) (55, -1.71988010406494140000e-001) (56, -2.03714206814765930000e-001) (57, -1.80577114224433900000e-001) (58, 3.18173587322235110000e-001) (59, -2.88278132677078250000e-001) (60, 2.24448978900909420000e-001) (61, 6.02239549160003660000e-001) (62, 9.32910069823265080000e-002) (63, -1.15244567394256590000e-001) (64, -1.30945742130279540000e-001) (65, -1.11194543540477750000e-001) (66, 1.22260320186614990000e+000) (67, 9.16093960404396060000e-003) (68, 3.38385671377182010000e-001) (69, 9.36073839664459230000e-001) (70, 2.25317418575286870000e-001) (71, -1.41080692410469060000e-001) (72, -1.82292908430099490000e-001) (73, -8.62426385283470150000e-002) (74, -3.96596640348434450000e-002) (75, 3.70586633682250980000e-001) (76, 2.87180960178375240000e-001) (77, 3.80488842725753780000e-001) (78, -2.00711227953433990000e-002) (79, 2.84514930099248890000e-002) (80, 9.52301621437072750000e-002) (81, -1.93392187356948850000e-001) (82, -2.99355179071426390000e-001) (83, 2.64915227890014650000e-001) (84, 2.01422810554504390000e-001) (85, 1.31678670644760130000e-001) (86, 6.72224629670381550000e-003) (87, 2.35545411705970760000e-002) (88, -3.57284903526306150000e-001) (89, -4.44686383008956910000e-001) (90, -1.73282474279403690000e-001) (91, -3.58728766441345210000e-001) (92, -2.84433990716934200000e-001) (93, -2.42775559425354000000e-001) (94, 5.72765283286571500000e-002) (95, 6.10231198370456700000e-002) (96, -3.97161304950714110000e-001) (0, -3.00334077328443530000e-002) (1, -8.70518833398818970000e-002) (2, 7.68804864492267370000e-004) (3, 1.02094423770904540000e+000) (4, -1.25112384557724000000e-001) (5, -1.13163006305694580000e+000) (6, -3.45227420330047610000e-001) (7, 9.06608551740646360000e-002) (8, -1.22730858623981480000e-001) (9, 3.70202362537384030000e-001) (10, -4.25100386142730710000e-001) (11, 6.67377188801765440000e-003) (12, -1.98775362223386760000e-002) (13, -3.32160174846649170000e-001) (14, -3.26032340526580810000e-001) (15, -1.97270661592483520000e-001) (16, -2.88471639156341550000e-001) (17, -4.32803988456726070000e-001) (18, -1.24269223213195800000e+000) (19, 6.19881689548492430000e-001) (20, 5.15543781220912930000e-002) (21, -8.48603487014770510000e-001) (22, -4.70955222845077510000e-001) (23, 3.96348595619201660000e-001) (24, -1.20108991861343380000e-001) (25, 8.47527459263801570000e-002) (26, 8.73625874519348140000e-002) (27, -4.06724601984024050000e-001) (28, -3.28743129968643190000e-001) (29, -3.02183926105499270000e-002) (30, -4.70180273056030270000e-001) (31, 2.68103390932083130000e-001) (32, -4.08847630023956300000e-001) (33, 3.26262228190898900000e-002) (34, -2.54992544651031490000e-001) (35, -2.63918012380599980000e-001) (36, -5.88505208492279050000e-001) (37, 1.23500488698482510000e-001) (38, 3.96016925573349000000e-001) (39, 4.02967900037765500000e-001) (40, -2.27676212787628170000e-001) (41, 4.62930835783481600000e-002) (42, 1.76784247159957890000e-001) (43, 5.62485933303833010000e-001) (44, -3.75416040420532230000e-001) (45, 2.36599624156951900000e-001) (46, 5.21886169910430910000e-001) (47, -1.84547126293182370000e-001) (48, -1.21078222990036010000e-001) (49, -4.99907344579696660000e-001) (50, 1.03389322757720950000e-001) (51, 7.85473942756652830000e-001) (52, -2.40864053368568420000e-001) (53, 9.66404750943183900000e-002) (54, -2.97716766595840450000e-001) (55, 4.03834553435444830000e-003) (56, -3.19295644760131840000e-001) (57, -8.37106704711914060000e-001) (58, -9.54950414597988130000e-003) (59, -3.51920276880264280000e-001) (60, -2.33156010508537290000e-002) (61, 3.57836514711380000000e-001) (62, 3.83256524801254270000e-002) (63, 5.58948040008544920000e-001) (64, -6.50461077690124510000e-001) (65, -5.28299450874328610000e-001) (66, 4.00391429662704470000e-001) (67, -5.55647969245910640000e-001) (68, -7.11020052433013920000e-001) (69, 4.21512186527252200000e-001) (70, 1.55843317508697510000e-001) (71, 4.94118124246597290000e-001) (72, -8.75382065773010250000e-001) (73, 1.71722531318664550000e-001) (74, 6.41722381114959720000e-001) (75, -9.43329036235809330000e-002) (76, -1.11864157021045680000e-001) (77, 4.73848938941955570000e-001) (78, 1.72715544700622560000e-001) (79, 5.47774970531463620000e-001) (80, -2.33579203486442570000e-001) (81, 1.04109919071197510000e+000) (82, 8.64082649350166320000e-002) (83, -7.69844129681587220000e-002) (84, -4.41245734691619870000e-001) (85, 1.85479149222373960000e-001) (86, 6.86968505382537840000e-001) (87, 4.18580025434494020000e-001) (88, 3.26821692287921910000e-002) (89, 7.79480040073394780000e-001) (90, 1.15314133465290070000e-001) (91, -3.47239583730697630000e-001) (92, -3.79140585660934450000e-001) (93, -2.68099308013916020000e-001) (94, 4.92408335208892820000e-001) (95, 4.58299338817596440000e-001) (96, -9.51784729957580570000e-001) (0, -3.12608569860458370000e-001) (1, -2.07200929522514340000e-001) (2, -2.18170985579490660000e-001) (3, -5.00505194067955020000e-002) (4, 1.05991017818450930000e+000) (5, 3.04855614900588990000e-001) (6, -2.64594823122024540000e-001) (7, -8.58445093035697940000e-002) (8, -1.73912316560745240000e-001) (9, -4.15125370025634770000e-001) (10, 2.66537755727767940000e-001) (11, 3.11639308929443360000e-002) (12, 1.74410820007324220000e-001) (13, -1.71398028731346130000e-001) (14, 1.15347601473331450000e-001) (15, -3.20291936397552490000e-001) (16, 2.71346241235733030000e-001) (17, -2.22734034061431880000e-001) (18, 9.23098742961883540000e-001) (19, 1.63996424525976180000e-002) (20, 1.45273700356483460000e-001) (21, 3.82043361663818360000e-001) (22, -3.53692732751369480000e-002) (23, -7.59803414344787600000e-001) (24, 1.71188503503799440000e-001) (25, 1.06646917760372160000e-001) (26, 2.25985124707221980000e-001) (27, -4.03116673231124880000e-001) (28, -5.39093196392059330000e-001) (29, 4.73111987113952640000e-001) (30, 7.19082832336425780000e-001) (31, -3.67866426706314090000e-001) (32, 5.62360107898712160000e-001) (33, 2.32561901211738590000e-001) (34, -2.54217147827148440000e-001) (35, -2.06885218620300290000e-001) (36, 2.33673974871635440000e-001) (37, 1.30113065242767330000e-001) (38, 6.97389364242553710000e-001) (39, -1.28380209207534790000e-001) (40, 2.86285191774368290000e-001) (41, 3.24350178241729740000e-001) (42, -3.11502993106842040000e-001) (43, 3.02317202091217040000e-001) (44, -4.28911775350570680000e-001) (45, -7.49067902565002440000e-001) (46, 7.34479308128356930000e-001) (47, -2.02282592654228210000e-001) (48, 1.88733875751495360000e-001) (49, 6.85673430562019350000e-002) (50, -2.57623028010129930000e-002) (51, -8.23718845844268800000e-001) (52, -5.92179894447326660000e-001) (53, -2.63605892658233640000e-001) (54, 4.45342272520065310000e-001) (55, -1.17914289236068730000e-001) (56, 2.72192001342773440000e-001) (57, -4.77625951170921330000e-002) (58, 4.24323678016662600000e-001) (59, 1.38536259531974790000e-001) (60, -4.21961665153503420000e-001) (61, -6.72194480895996090000e-001) (62, 3.57556462287902830000e-001) (63, -2.81766831874847410000e-001) (64, 2.77791112661361690000e-001) (65, 6.34197369217872620000e-002) (66, -6.65131449699401860000e-001) (67, -3.68257790803909300000e-001) (68, -4.12338674068450930000e-001) (69, -3.22487317025661470000e-002) (70, 6.61214590072631840000e-001) (71, -1.45792752504348750000e-001) (72, 3.76940280199050900000e-001) (73, -1.29280434921383860000e-002) (74, -4.68152046203613280000e-001) (75, 5.76559379696846010000e-002) (76, 6.53119623661041260000e-001) (77, 2.47416168451309200000e-001) (78, 6.06344997882843020000e-001) (79, -5.04709184169769290000e-002) (80, -2.03554540872573850000e-001) (81, -1.28063964843750000000e+000) (82, 8.72957468032836910000e-001) (83, -1.22847102582454680000e-001) (84, -5.82925438880920410000e-001) (85, -2.79548883438110350000e-001) (86, 4.19256865978240970000e-001) (87, -3.77225011587142940000e-001) (88, -4.29508179426193240000e-001) (89, 6.78197681903839110000e-001) (90, -3.28629463911056520000e-001) (91, -7.55750298500061040000e-001) (92, -7.51713871955871580000e-001) (93, -1.15678465366363530000e+000) (94, -9.56801116466522220000e-001) (95, -1.16067558526992800000e-001) (96, -4.78435903787612920000e-001) (0, -4.23033647239208220000e-002) (1, -1.42947867512702940000e-001) (2, 8.54414328932762150000e-002) (3, -1.03737466037273410000e-001) (4, 1.16429829597473140000e+000) (5, -2.50797271728515630000e-001) (6, -1.65279701352119450000e-001) (7, -6.84274584054946900000e-002) (8, -1.32640004158020020000e-001) (9, 3.73747617006301880000e-001) (10, -1.02169461548328400000e-001) (11, -1.18856258690357210000e-001) (12, 1.25050425529479980000e-001) (13, 1.13496884703636170000e-001) (14, 4.30102705955505370000e-001) (15, -6.12836927175521850000e-002) (16, 1.20643220841884610000e-001) (17, -2.22789466381073000000e-001) (18, 4.47375476360321040000e-001) (19, -3.37198525667190550000e-001) (20, -5.27246415615081790000e-001) (21, -1.34858345985412600000e+000) (22, -4.97014880180358890000e-001) (23, -1.59273698925971980000e-001) (24, 1.09719002246856690000e+000) (25, 2.83707171678543090000e-001) (26, 6.72104656696319580000e-002) (27, -3.63449424505233760000e-001) (28, -4.98956011142581700000e-004) (29, -2.12596774101257320000e-001) (30, -6.99793994426727290000e-002) (31, -3.75506103038787840000e-001) (32, -1.00383959710597990000e-001) (33, -1.11549243330955510000e-001) (34, 5.88483929634094240000e-001) (35, 8.40105235576629640000e-001) (36, -1.37457832694053650000e-001) (37, -5.23474574089050290000e-001) (38, 7.56194721907377240000e-003) (39, -2.03268736600875850000e-001) (40, -3.03795099258422850000e-001) (41, 1.39828816056251530000e-001) (42, -3.56658309698104860000e-001) (43, -1.37969166040420530000e-001) (44, -4.48675811290740970000e-001) (45, 5.49600459635257720000e-002) (46, 4.23340171575546260000e-001) (47, -1.50267943739891050000e-001) (48, -4.20657724142074580000e-001) (49, -3.90166401863098140000e-001) (50, -5.95461189746856690000e-001) (51, -3.49304288625717160000e-001) (52, -4.99910503625869750000e-001) (53, -1.27503141760826110000e-001) (54, -2.86963969469070430000e-001) (55, -2.65103965997695920000e-001) (56, 1.18288964033126830000e-001) (57, -6.11834287643432620000e-001) (58, -1.52768149971961980000e-001) (59, -3.46838206052780150000e-001) (60, 2.08049476146698000000e-001) (61, -4.92771305143833160000e-002) (62, 1.91186536103487010000e-002) (63, -2.57490575313568120000e-001) (64, -9.68287885189056400000e-003) (65, -5.94683587551116940000e-001) (66, 1.50947183370590210000e-001) (67, -2.52159059047698970000e-001) (68, -9.98407676815986630000e-002) (69, -7.81340673565864560000e-002) (70, 3.44322264194488530000e-001) (71, -2.28534996509552000000e-001) (72, -2.99160420894622800000e-001) (73, -4.89304959774017330000e-001) (74, -1.01249203085899350000e-001) (75, 2.19538614153862000000e-001) (76, 7.41785109043121340000e-001) (77, 1.66399359703063960000e-001) (78, 4.01867747306823730000e-001) (79, -1.30093947052955630000e-001) (80, 3.40193547308444980000e-002) (81, -8.85445103049278260000e-002) (82, 2.14624151587486270000e-001) (83, 7.42810130119323730000e-001) (84, 1.62861078977584840000e-001) (85, 2.51263767480850220000e-001) (86, 5.22062540054321290000e-001) (87, -6.69244071468710900000e-003) (88, 1.97925865650177000000e-001) (89, 3.91885101795196530000e-001) (90, -7.14653655886650090000e-002) (91, -5.14814592897892000000e-002) (92, 1.82993397116661070000e-001) (93, -5.21302856504917140000e-002) (94, -1.84454038739204410000e-001) (95, -3.87879550457000730000e-001) (96, -3.49379241466522220000e-001) (0, 3.14074158668518070000e-002) (1, -1.63375958800315860000e-001) (2, -1.80220544338226320000e-001) (3, 2.00755953788757320000e-001) (4, 1.59265029430389400000e+000) (5, -1.82460248470306400000e+000) (6, -2.10497468709945680000e-001) (7, -4.01943504810333250000e-001) (8, -9.79701131582260130000e-002) (9, -1.46985805034637450000e+000) (10, -2.39423915743827820000e-001) (11, 2.51944750547409060000e-001) (12, -1.20090037584304810000e-001) (13, 6.22170448303222660000e-001) (14, 6.92398130893707280000e-001) (15, -4.06957536935806270000e-001) (16, -5.75186172500252720000e-003) (17, -6.59505903720855710000e-001) (18, 6.83197304606437680000e-002) (19, -1.00333452224731450000e+000) (20, 3.63225519657135010000e-001) (21, -5.42917311191558840000e-001) (22, 2.54860758781433110000e-001) (23, 6.57966136932373050000e-001) (24, 1.55490338802337650000e-001) (25, -3.66590023040771480000e-001) (26, -1.03471815586090090000e+000) (27, -1.54216766357421880000e-001) (28, 8.83480310440063480000e-002) (29, 4.42693263292312620000e-001) (30, -6.55937492847442630000e-001) (31, 3.97831946611404420000e-001) (32, 6.75143122673034670000e-001) (33, -2.51883596181869510000e-001) (34, -7.97302603721618650000e-001) (35, -6.98456406593322750000e-001) (36, -1.79885588586330410000e-002) (37, 2.16043889522552490000e-001) (38, -3.83388698101043700000e-001) (39, -2.40676984190940860000e-001) (40, -5.58294773101806640000e-001) (41, -3.51187974214553830000e-001) (42, 5.48488438129425050000e-001) (43, -4.25224341452121730000e-002) (44, -1.05710601806640630000e+000) (45, 3.86263132095336910000e-001) (46, 3.56947898864746090000e-001) (47, 3.30039449036121370000e-002) (48, -3.35649847984313960000e-001) (49, -2.01521322131156920000e-001) (50, 7.91607022285461430000e-001) (51, 8.61567080020904540000e-001) (52, -3.53230476379394530000e-001) (53, 5.89681506156921390000e-001) (54, -3.72065514326095580000e-001) (55, -8.79868030548095700000e-001) (56, -4.81127530336380000000e-001) (57, -3.74791473150253300000e-001) (58, 3.55443894863128660000e-001) (59, -3.83093804121017460000e-001) (60, 1.12972021102905270000e-001) (61, 1.67783498764038090000e+000) (62, 2.11177229881286620000e-001) (63, 1.28953710198402400000e-001) (64, -2.18529421836137770000e-002) (65, -7.75033980607986450000e-002) (66, 3.24503242969512940000e-001) (67, -3.30117881298065190000e-001) (68, -7.49700546264648440000e-001) (69, 5.20428419113159180000e-001) (70, 2.52932041883468630000e-001) (71, 1.33543357253074650000e-001) (72, -2.16726824641227720000e-001) (73, 4.08871769905090330000e-001) (74, -1.36718228459358220000e-001) (75, 1.75065562129020690000e-001) (76, 1.34294521808624270000e+000) (77, 1.78750693798065190000e-001) (78, 5.71913979947566990000e-002) (79, 9.80597585439682010000e-002) (80, 2.60901600122451780000e-002) (81, 2.06393942236900330000e-001) (82, -3.97414386272430420000e-001) (83, 2.81967580318450930000e-001) (84, 2.18213021755218510000e-001) (85, -4.09554392099380490000e-002) (86, 2.70467977970838550000e-002) (87, 3.79162907600402830000e-001) (88, -2.54529803991317750000e-001) (89, 4.04344439506530760000e-001) (90, -1.39843150973320010000e-001) (91, -9.28240656852722170000e-001) (92, -4.40693855285644530000e-001) (93, -4.20156300067901610000e-001) (94, 3.68175655603408810000e-001) (95, 2.64405757188797000000e-001) (96, -5.03521442413330080000e-001) (0, 4.20582234859466550000e-001) (1, -9.22521352767944340000e-002) (2, -1.84484869241714480000e-001) (3, 8.45996916294097900000e-001) (4, 1.88978886604309080000e+000) (5, 9.34205390512943270000e-003) (6, -3.09704691171646120000e-001) (7, -1.70558735728263850000e-001) (8, 3.80310229957103730000e-002) (9, -1.20755982398986820000e+000) (10, -3.36906701326370240000e-001) (11, -1.52586802840232850000e-001) (12, -4.55129146575927730000e-002) (13, -4.00142103433609010000e-001) (14, 6.97353839874267580000e-001) (15, 2.41231873631477360000e-001) (16, 5.40038168430328370000e-001) (17, 1.14457435905933380000e-001) (18, -3.32993090152740480000e-001) (19, -2.50252455472946170000e-001) (20, -1.34920984506607060000e-001) (21, -1.22805893421173100000e+000) (22, -3.75049673020839690000e-002) (23, -1.15493580698966980000e-001) (24, -2.37076252698898320000e-001) (25, -3.14357906579971310000e-001) (26, -5.76909720897674560000e-001) (27, -1.72690570354461670000e-001) (28, -3.33741195499897000000e-002) (29, -4.06692534685134890000e-001) (30, 7.30024278163909910000e-002) (31, -2.93877601623535160000e-001) (32, 7.33209908008575440000e-001) (33, 1.23911671340465550000e-001) (34, -3.40664118528366090000e-001) (35, -1.30785927176475520000e-001) (36, -7.07108229398727420000e-002) (37, -3.01363915205001830000e-001) (38, -8.41645002365112300000e-002) (39, -1.34936481714248660000e-001) (40, -1.72141864895820620000e-001) (41, 2.07048822194337840000e-002) (42, -2.81233578920364380000e-001) (43, -2.97797679901123050000e-001) (44, -8.46394598484039310000e-002) (45, -4.48068410158157350000e-001) (46, 1.66446030139923100000e-001) (47, -1.06503956019878390000e-001) (48, -2.16396078467369080000e-001) (49, 3.39496999979019170000e-001) (50, 6.07075870037078860000e-001) (51, 5.38921058177948000000e-001) (52, 5.34103333950042720000e-001) (53, 3.89619827270507810000e-001) (54, 1.11862018704414370000e-001) (55, -4.79995720088481900000e-002) (56, -1.31813198328018190000e-001) (57, 1.72697022557258610000e-001) (58, -3.98244932293891910000e-002) (59, -3.47933292388916020000e-001) (60, -1.21545849833637480000e-003) (61, -2.32694283127784730000e-001) (62, -1.95310935378074650000e-001) (63, -3.99672150611877440000e-001) (64, 1.69086068868637080000e-001) (65, 2.14067935943603520000e-001) (66, -3.97657811641693120000e-001) (67, -1.80922949220985170000e-003) (68, 1.50608330965042110000e-001) (69, -5.60565948486328130000e-001) (70, -8.35762992501258850000e-002) (71, -2.51790642738342290000e-001) (72, 3.74902039766311650000e-001) (73, 6.64352029561996460000e-002) (74, -5.62808096408843990000e-001) (75, -1.37229517102241520000e-001) (76, 8.99590194225311280000e-001) (77, -7.52048850059509280000e-001) (78, -2.37761318683624270000e-001) (79, -4.35990393161773680000e-001) (80, 3.77218544483184810000e-001) (81, -1.88783451914787290000e-001) (82, -1.60149466991424560000e+000) (83, 9.07408833503723140000e-001) (84, -7.33023360371589660000e-002) (85, -4.89409357309341430000e-001) (86, -1.16557586193084720000e+000) (87, -4.58265483379364010000e-001) (88, -6.48045614361763000000e-002) (89, 1.03977358341217040000e+000) (90, -2.81490743160247800000e-001) (91, -2.92639881372451780000e-001) (92, -1.40258282423019410000e-001) (93, -3.75314414501190190000e-001) (94, -2.56813883781433110000e-001) (95, -2.33790710568428040000e-001) (96, -3.67261826992034910000e-001) (0, -9.20284315943717960000e-002) (1, -1.63578599691390990000e-001) (2, -3.15145328640937810000e-002) (3, -7.57786631584167480000e-001) (4, -1.50998264551162720000e-001) (5, 2.31050699949264530000e-001) (6, 3.99630755186080930000e-001) (7, 7.89366587996482850000e-002) (8, 1.03907436132431030000e-001) (9, -1.57178714871406560000e-001) (10, -2.02985748648643490000e-001) (11, 1.06224380433559420000e-002) (12, -3.55441570281982420000e-001) (13, -2.82845914363861080000e-001) (14, 2.88779646158218380000e-001) (15, 2.14946597814559940000e-001) (16, -6.43271720036864280000e-003) (17, -5.13800919055938720000e-001) (18, -4.18218940496444700000e-001) (19, -1.42609581351280210000e-001) (20, -9.23626869916915890000e-002) (21, -1.88393369317054750000e-001) (22, -1.06489524245262150000e-001) (23, -9.94201228022575380000e-002) (24, -1.77092224359512330000e-001) (25, -4.14215534925460820000e-001) (26, -3.43581080436706540000e-001) (27, -1.21717624366283420000e-001) (28, 1.27945810556411740000e-001) (29, 9.06465575098991390000e-002) (30, -3.59370298683643340000e-002) (31, 7.37462118268013000000e-002) (32, -3.81468906998634340000e-002) (33, -2.61619418859481810000e-001) (34, -3.13006103038787840000e-001) (35, -9.45392251014709470000e-002) (36, 2.02494800090789790000e-001) (37, 1.68257635086774830000e-002) (38, 1.13404527306556700000e-001) (39, -5.97535148262977600000e-002) (40, -1.31335005164146420000e-001) (41, -4.55102235078811650000e-001) (42, 1.49733334779739380000e-001) (43, 1.67980983853340150000e-001) (44, 3.18919241428375240000e-001) (45, -8.10488983988761900000e-002) (46, -2.73989677429199220000e-001) (47, -5.63270226120948790000e-002) (48, 2.90326718240976330000e-002) (49, -2.81304884701967240000e-002) (50, -1.04357399046421050000e-001) (51, -1.11143335700035100000e-001) (52, 6.25940272584557530000e-003) (53, -2.47126862406730650000e-001) (54, -1.84368327260017400000e-001) (55, -2.35500503331422810000e-002) (56, -1.69861420989036560000e-001) (57, 1.29322290420532230000e-001) (58, -1.24071031808853150000e-001) (59, -1.22805582359433170000e-002) (60, -4.15206402540206910000e-001) (61, -2.20044732093811040000e-001) (62, -3.40668670833110810000e-003) (63, -8.81036296486854550000e-002) (64, 2.97019660472869870000e-001) (65, 2.54272878170013430000e-001) (66, 7.84338191151618960000e-002) (67, 1.66914258152246480000e-002) (68, 4.28823344409465790000e-002) (69, -6.11372962594032290000e-002) (70, 1.82779207825660710000e-001) (71, -5.12810647487640380000e-002) (72, 3.15974690020084380000e-002) (73, 1.21643096208572390000e-001) (74, 1.89909785985946660000e-001) (75, 3.31284403800964360000e-001) (76, -1.65257170796394350000e-001) (77, -2.87923306226730350000e-001) (78, 7.65898600220680240000e-002) (79, -8.33145529031753540000e-002) (80, -8.44141095876693730000e-002) (81, -7.50360786914825440000e-001) (82, -1.82081967592239380000e-001) (83, 2.25380044430494310000e-002) (84, -2.25687026977539060000e-001) (85, -8.81975218653678890000e-002) (86, 3.81673201918601990000e-002) (87, -9.46692004799842830000e-002) (88, -1.09613060951232910000e-001) (89, 1.86109200119972230000e-001) (90, -4.39031541347503660000e-001) (91, -2.01856359839439390000e-001) (92, -4.38420474529266360000e-001) (93, -3.66423219442367550000e-001) (94, -1.42366230487823490000e-001) (95, -5.30630815774202350000e-003) (96, -2.48110085725784300000e-001) (0, -1.09167493879795070000e-001) (1, -8.60797166824340820000e-002) (2, -6.44398778676986690000e-002) (3, 2.43233833461999890000e-002) (4, 1.25444546341896060000e-001) (5, -1.53957724571228030000e-001) (6, 7.17268437147140500000e-002) (7, 9.64822247624397280000e-003) (8, -1.24897822737693790000e-001) (9, -2.42596492171287540000e-001) (10, -2.60950863361358640000e-001) (11, -1.32516533136367800000e-001) (12, -1.21694073081016540000e-001) (13, -1.90131321549415590000e-001) (14, 1.55854165554046630000e-001) (15, -4.40061790868639950000e-003) (16, -5.22416047751903530000e-002) (17, -9.04584228992462160000e-002) (18, 1.32674202322959900000e-001) (19, 4.45974953472614290000e-002) (20, -3.46574723720550540000e-001) (21, -2.25189551711082460000e-001) (22, 2.06276979297399520000e-002) (23, -1.31760146468877790000e-002) (24, -1.30306541919708250000e-001) (25, -1.79906219244003300000e-001) (26, -4.37785498797893520000e-002) (27, -5.13731896877288820000e-001) (28, 1.95284873247146610000e-001) (29, -5.50850927829742430000e-002) (30, 2.08564549684524540000e-001) (31, 4.51352111995220180000e-002) (32, -2.31893032789230350000e-001) (33, -8.80369767546653750000e-002) (34, -8.46696496009826660000e-002) (35, -2.03964263200759890000e-002) (36, 2.75789648294448850000e-001) (37, -4.82099831104278560000e-001) (38, 1.45780771970748900000e-001) (39, 6.11108057200908660000e-002) (40, -1.03791795670986180000e-001) (41, -5.67186363041400910000e-002) (42, 1.29646137356758120000e-001) (43, 1.39257222414016720000e-001) (44, -4.03186053037643430000e-001) (45, -7.06754207611083980000e-001) (46, 3.36269110441207890000e-001) (47, 1.68709158897399900000e-001) (48, -4.32286113500595090000e-002) (49, -6.05311214923858640000e-001) (50, 1.41934916377067570000e-001) (51, -4.20138657093048100000e-001) (52, 2.96229738742113110000e-002) (53, -5.24645626544952390000e-001) (54, 2.20940381288528440000e-001) (55, 2.54077821969985960000e-001) (56, -1.71066388487815860000e-001) (57, 1.39224752783775330000e-001) (58, 2.02400237321853640000e-001) (59, -1.60492569208145140000e-001) (60, 5.95474010333418850000e-003) (61, -7.93119966983795170000e-001) (62, 3.46771150827407840000e-001) (63, -2.97793047502636910000e-003) (64, 9.61586609482765200000e-002) (65, 3.57753366231918330000e-001) (66, 2.41100281476974490000e-001) (67, 5.68817146122455600000e-002) (68, 1.68815672397613530000e-001) (69, 2.06321805715560910000e-001) (70, 3.56301516294479370000e-001) (71, 1.28467202186584470000e-001) (72, 3.62497508525848390000e-001) (73, -1.60340502858161930000e-001) (74, -4.25844416022300720000e-002) (75, -8.76477267593145370000e-003) (76, 4.67621564865112300000e-001) (77, 8.49884748458862300000e-002) (78, 4.11056816577911380000e-001) (79, 6.81024715304374690000e-002) (80, -6.80067613720893860000e-002) (81, -1.40869244933128360000e-001) (82, -3.27031016349792480000e-001) (83, -1.36957332491874690000e-001) (84, -2.58452780544757840000e-002) (85, -6.59664273262023930000e-001) (86, -7.66638759523630140000e-003) (87, 1.53214842081069950000e-001) (88, 9.10731479525566100000e-002) (89, 9.75095331668853760000e-002) (90, -2.61951059103012080000e-001) (91, -1.90335318446159360000e-001) (92, -1.47419050335884090000e-001) (93, -7.53943741321563720000e-001) (94, -1.27519678790122270000e-003) (95, -4.47104405611753460000e-003) (96, 2.44998466223478320000e-002) (0, 3.54381322860717770000e-001) (1, -4.92251604795455930000e-001) (2, -3.26250582933425900000e-001) (3, 1.06727731227874760000e+000) (4, 5.72017073631286620000e-001) (5, -1.25423157215118410000e+000) (6, -3.12705010175704960000e-001) (7, -1.08028888702392580000e-001) (8, 2.98791944980621340000e-001) (9, -5.21062798798084260000e-002) (10, -4.00102198123931880000e-001) (11, 5.28461158275604250000e-001) (12, 2.59001553058624270000e-001) (13, 1.85898840427398680000e-001) (14, 1.01057970523834230000e+000) (15, 1.08494794368743900000e+000) (16, 9.90628898143768310000e-002) (17, -1.59769207239151000000e-001) (18, -6.54017806053161620000e-001) (19, -2.18556433916091920000e-001) (20, -4.88460123538970950000e-001) (21, -1.22950148582458500000e+000) (22, 1.90843299031257630000e-001) (23, 1.01048076152801510000e+000) (24, 7.28963494300842290000e-001) (25, 3.72742831707000730000e-001) (26, -7.81785964965820310000e-001) (27, -6.21405541896820070000e-001) (28, 3.73260537162423130000e-003) (29, -4.21968966722488400000e-001) (30, -1.13064670562744140000e+000) (31, -2.16621756553649900000e-001) (32, -1.77561864256858830000e-002) (33, 1.75190016627311710000e-001) (34, -3.94706338644027710000e-001) (35, -4.99690100550651550000e-002) (36, -1.76282778382301330000e-001) (37, -3.88336628675460820000e-001) (38, -1.00634288787841800000e+000) (39, -2.58783221244812010000e-001) (40, -2.77827948331832890000e-001) (41, 1.38141736388206480000e-001) (42, -2.42422893643379210000e-001) (43, -2.68470138311386110000e-001) (44, -5.10327398777008060000e-001) (45, -6.03705585002899170000e-001) (46, -8.77518594264984130000e-001) (47, -2.82442510128021240000e-001) (48, -4.42738890647888180000e-001) (49, -1.93654730916023250000e-001) (50, -3.55249226093292240000e-001) (51, 7.85550951957702640000e-001) (52, 5.98741620779037480000e-002) (53, -3.70598882436752320000e-001) (54, -6.88872873783111570000e-001) (55, -1.09674982726573940000e-001) (56, 4.17082220315933230000e-001) (57, -3.02404493093490600000e-001) (58, -3.65666449069976810000e-001) (59, -1.58934906125068660000e-001) (60, 4.23105478286743160000e-001) (61, -3.54883670806884770000e-001) (62, -6.66447460651397710000e-001) (63, -6.12014792859554290000e-002) (64, 2.15676799416542050000e-001) (65, -6.69756308197975160000e-002) (66, 4.53611254692077640000e-001) (67, -2.53158539533615110000e-001) (68, -1.98242291808128360000e-001) (69, -2.39609122276306150000e-001) (70, -5.30281484127044680000e-001) (71, -1.70460164546966550000e-001) (72, -2.04481482505798340000e-001) (73, 2.24501520395278930000e-001) (74, -1.05091026052832600000e-002) (75, -5.28720915317535400000e-001) (76, 1.32783263921737670000e-001) (77, -2.08376884460449220000e-001) (78, -4.22484159469604490000e-001) (79, -2.76185125112533570000e-001) (80, 2.88237035274505620000e-001) (81, 1.33301854133605960000e+000) (82, -8.59193921089172360000e-001) (83, 4.36942785978317260000e-001) (84, -5.89270191267132760000e-003) (85, 4.26787376403808590000e-001) (86, 3.87944877147674560000e-001) (87, 6.40423476696014400000e-001) (88, 5.23509345948696140000e-002) (89, 8.62961784005165100000e-002) (90, 4.25238698720932010000e-001) (91, 1.83399677276611330000e-001) (92, 3.00256740301847460000e-002) (93, 5.36880791187286380000e-002) (94, 4.96199429035186770000e-001) (95, 6.92687332630157470000e-001) (96, -7.78576135635375980000e-001) (0, -4.09558504819870000000e-001) (1, -6.68794989585876460000e-001) (2, -3.06498408317565920000e-001) (3, -1.00119388103485110000e+000) (4, -2.05457925796508790000e+000) (5, -5.70134282112121580000e-001) (6, 8.40550124645233150000e-001) (7, -8.55288505554199220000e-002) (8, -4.97966647148132320000e-001) (9, -1.01530456542968750000e+000) (10, -5.41619420051574710000e-001) (11, -8.72220158576965330000e-001) (12, -1.41695761680603030000e+000) (13, -5.61286985874176030000e-001) (14, -4.96266484260559080000e-001) (15, -4.25617337226867680000e-001) (16, -5.19299387931823730000e-001) (17, -6.31128787994384770000e-001) (18, -2.96161174774169920000e-001) (19, 1.13125908374786380000e+000) (20, 1.42869842052459720000e+000) (21, 1.85032153129577640000e+000) (22, 1.53059780597686770000e-001) (23, 2.41071283817291260000e-002) (24, -6.79414570331573490000e-001) (25, -7.21742153167724610000e-001) (26, 4.41758155822753910000e-001) (27, 6.61903321743011470000e-001) (28, -1.50550693273544310000e-001) (29, 8.58136489987373350000e-002) (30, -3.95279049873352050000e-001) (31, 3.87009352445602420000e-001) (32, 8.11636745929718020000e-001) (33, -8.21838796138763430000e-001) (34, -4.43048357963562010000e-001) (35, 1.77035197615623470000e-001) (36, -3.29824835062026980000e-002) (37, -1.20557630062103270000e+000) (38, -4.55328434705734250000e-001) (39, 1.56800121068954470000e-001) (40, 1.22086775302886960000e+000) (41, -3.25302928686141970000e-001) (42, -2.65261054039001460000e-001) (43, -5.49061074852943420000e-002) (44, -5.21102726459503170000e-001) (45, -1.29722559452056880000e+000) (46, 5.33400774002075200000e-001) (47, 1.35614842176437380000e-001) (48, 1.56156253814697270000e+000) (49, 4.45956319570541380000e-001) (50, -3.39986622333526610000e-001) (51, -8.47906649112701420000e-001) (52, -1.04861176013946530000e+000) (53, -9.52404618263244630000e-001) (54, 8.55482280254364010000e-001) (55, 1.88693746924400330000e-001) (56, 1.79485976696014400000e+000) (57, 5.83314657211303710000e-001) (58, 2.09771022200584410000e-001) (59, 1.41906142234802250000e-001) (60, -1.69433802366256710000e-001) (61, 2.32637271285057070000e-001) (62, 7.36611545085906980000e-001) (63, 2.80118823051452640000e-001) (64, 1.66427171230316160000e+000) (65, 1.93971261382102970000e-001) (66, 4.16026622056961060000e-001) (67, 5.64080774784088130000e-001) (68, 2.09166616201400760000e-001) (69, 4.72596675157547000000e-001) (70, 3.32569092512130740000e-001) (71, 1.37303248047828670000e-001) (72, 8.16518485546112060000e-001) (73, 5.91515377163887020000e-002) (74, -2.24975064396858220000e-001) (75, 1.58065721392631530000e-001) (76, -1.33033967018127440000e+000) (77, 1.91058963537216190000e-001) (78, 3.17668110132217410000e-001) (79, 2.97741442918777470000e-001) (80, -6.55303716659545900000e-001) (81, -3.85356754064559940000e-001) (82, 2.11061358451843260000e+000) (83, -4.84114140272140500000e-001) (84, -9.12291705608367920000e-002) (85, -1.35106846690177920000e-001) (86, 8.78822624683380130000e-001) (87, -4.03285324573516850000e-002) (88, -5.85494995117187500000e-001) (89, -6.39150559902191160000e-001) (90, 5.45269697904586790000e-002) (91, 1.99323400855064390000e-001) (92, -7.23859369754791260000e-002) (93, -4.79196220636367800000e-001) (94, -1.90968960523605350000e-001) (95, -2.75109678506851200000e-001) (96, -7.35793173313140870000e-001) (0, 2.61338651180267330000e-001) (1, -5.21560192108154300000e-001) (2, -9.75327938795089720000e-002) (3, -7.23977804183959960000e-001) (4, -2.02684298157691960000e-001) (5, -3.02840024232864380000e-001) (6, -1.63047388195991520000e-001) (7, 4.66295517981052400000e-002) (8, 9.12362057715654370000e-003) (9, -6.66750311851501460000e-001) (10, -1.75291851162910460000e-001) (11, 2.18641921877861020000e-001) (12, 3.47852557897567750000e-002) (13, -1.49699628353118900000e-001) (14, 1.51583373546600340000e-001) (15, -4.11359295248985290000e-002) (16, 1.76509425044059750000e-001) (17, 1.11892804503440860000e-001) (18, 3.73218387365341190000e-001) (19, -5.39624214172363280000e-001) (20, -6.36039972305297850000e-001) (21, -7.47819989919662480000e-002) (22, 3.08154612779617310000e-001) (23, -2.47125238180160520000e-001) (24, 1.08270406723022460000e-001) (25, 5.71773834526538850000e-002) (26, -6.14509999752044680000e-001) (27, -6.51695311069488530000e-001) (28, -9.84537303447723390000e-002) (29, -3.28697174787521360000e-001) (30, 7.05002665519714360000e-001) (31, -9.71448048949241640000e-002) (32, -1.85227274894714360000e-001) (33, 5.00133991241455080000e-001) (34, 1.90864309668540950000e-001) (35, -5.96516668796539310000e-001) (36, -1.52519449591636660000e-001) (37, 2.74865835905075070000e-001) (38, 5.54312109947204590000e-001) (39, -2.01511278748512270000e-001) (40, -4.84478235244750980000e-001) (41, -1.20850987732410430000e-001) (42, 7.79254078865051270000e-001) (43, -9.49888467788696290000e-001) (44, 3.35018783807754520000e-001) (45, 2.07675442099571230000e-001) (46, -1.94193124771118160000e-001) (47, 5.18682263791561130000e-002) (48, -3.20356041193008420000e-001) (49, -3.08078199625015260000e-001) (50, 8.87953639030456540000e-001) (51, 6.87990367412567140000e-001) (52, 6.07062578201293950000e-001) (53, 2.28874564170837400000e-001) (54, 5.03488600254058840000e-001) (55, -1.68942034244537350000e-001) (56, -4.39962804317474370000e-001) (57, 3.51171165704727170000e-001) (58, 4.53207232058048250000e-002) (59, -4.68628615140914920000e-001) (60, -3.67004007101058960000e-001) (61, -5.38150906562805180000e-001) (62, 5.27935326099395750000e-001) (63, -1.60423144698143010000e-001) (64, -5.30531406402587890000e-001) (65, 4.80606615543365480000e-001) (66, 2.08806499838829040000e-001) (67, -2.69858747720718380000e-001) (68, 1.27752900123596190000e-001) (69, -2.22982868552207950000e-001) (70, 5.53967893123626710000e-001) (71, -1.25590473413467410000e-001) (72, 4.89294141530990600000e-001) (73, 1.08496114611625670000e-001) (74, -2.77267217636108400000e-001) (75, -1.50154963135719300000e-001) (76, 3.90596657991409300000e-001) (77, -9.42074358463287350000e-001) (78, 2.28055238723754880000e-001) (79, -1.28446459770202640000e-001) (80, 1.94049775600433350000e-001) (81, -1.60873770713806150000e-001) (82, -2.31182456016540530000e+000) (83, 6.65577426552772520000e-002) (84, 1.32898926734924320000e+000) (85, -1.35625541210174560000e-001) (86, -1.55333447456359860000e+000) (87, -2.65253990888595580000e-001) (88, -3.29698860645294190000e-001) (89, -1.17825317382812500000e+000) (90, -3.62365186214447020000e-001) (91, -1.70876652002334590000e-001) (92, 6.52726441621780400000e-002) (93, -3.85932296514511110000e-001) (94, -2.55979359149932860000e-001) (95, -2.60759413242340090000e-001) (96, -1.04267843067646030000e-001) (0, 